solver_type L2R_L2LOSS_SVC_DUAL
nr_class 2
label 1 3
nr_feature 1268
bias -1
w
-9.51588576681003e-21 
-6.617444900424221e-21 
-7.676236084492097e-22 
-1.383310681984679e-19 
6.935082255644584e-21 
-7.6497663048904e-21 
-4.49159072616294e-22 
-9.171778631987971e-21 
-4.711620769102046e-21 
-4.49159072616294e-22 
-2.056701875051848e-20 
5.585123495958043e-21 
-8.126222337720944e-21 
3.965172984334193e-20 
-8.708557488958275e-21 
-9.926167350636332e-22 
-1.582892820181474e-20 
2.744916144695967e-20 
5.667179812723303e-20 
-1.508777437296722e-20 
3.176373552203626e-22 
-6.617444900424221e-23 
0 
-4.102815838263017e-21 
0 
-1.588186776101813e-22 
3.970466940254533e-23 
3.970466940254533e-23 
3.176373552203626e-22 
7.689470974292945e-21 
1.601421665902662e-21 
7.946227836429405e-20 
-2.011703249728963e-21 
-7.702705864093794e-21 
3.987010552505593e-22 
-1.323488980084844e-23 
2.536962938700136e-21 
-3.970466940254533e-23 
-2.646977960169689e-23 
-8.057400910756532e-20 
5.241016361135983e-21 
0.01546728818267106 
-1.323488980084844e-23 
3.970466940254533e-23 
-1.588186776101813e-22 
3.970466940254533e-23 
-1.323488980084844e-23 
0.005155762727557019 
-2.117582368135751e-22 
0.004455654015639753 
2.066230995708459e-19 
-0.01171174287894857 
0.003755545303722491 
8.229454478167562e-20 
-0.0007001087119172638 
-3.427836458419747e-21 
0.005155762727557023 
-0.01241185159086583 
-4.748016716054379e-22 
-6.617444900424221e-23 
9.318189600409857e-21 
0.01031152545511404 
-0.0007001087119172637 
8.449153648861646e-20 
1.535247216898419e-21 
3.340486185734147e-20 
-1.351017550870609e-19 
3.067053362448618e-19 
-0.005855871439474283 
1.492895569535704e-20 
5.346895479542771e-21 
0.009611416743196774 
-0.0007001087119172659 
-8.652970951794712e-20 
-0.006555980151391548 
3.388131789017201e-21 
-4.762905967080333e-21 
1.588186776101813e-22 
-1.709947762269619e-20 
-6.617444900424221e-23 
9.661469554619363e-21 
-6.331571280725895e-20 
-2.117582368135751e-22 
0.01031152545511404 
0 
-9.185013521788819e-21 
-0.005855871439474285 
-2.646977960169689e-22 
1.011410278580838e-19 
-3.336019410426361e-20 
1.975704349470656e-19 
-1.323488980084844e-23 
1.307607112323826e-20 
-0.01896783174225738 
0.005155762727557021 
-6.932435277684414e-20 
3.176373552203626e-22 
4.515744400049489e-20 
1.850237594158612e-20 
-7.782115202898884e-21 
-1.016968932297194e-19 
0.005155762727557019 
-0.005855871439474286 
3.22931311140702e-21 
2.578950626593328e-19 
0 
-3.40136667881805e-20 
5.730707283767376e-21 
5.585123495958043e-21 
-6.617444900424221e-23 
3.970466940254533e-23 
-4.380748524080835e-21 
-0.01171174287894857 
-5.293955920339377e-23 
0 
-0.007256088863308815 
-1.306945367833784e-22 
1.087907941629742e-20 
4.274869405674047e-21 
-9.211483301390516e-21 
-8.433271781100628e-20 
8.576208590949791e-21 
2.064642808932357e-21 
-3.374896899216353e-21 
1.269490629697383e-19 
3.594596069910437e-20 
2.421984833555265e-21 
0 
2.779856253770207e-19 
-9.026194844178638e-21 
0.005155762727557018 
-0.01171174287894857 
-0.005855871439474284 
-2.117582368135751e-22 
-1.020410003645415e-19 
1.18584612615602e-20 
-5.913348763019084e-20 
-1.058791184067875e-22 
-1.01908651466533e-20 
-1.588186776101813e-22 
1.903177153362006e-20 
-4.632211430296955e-22 
-9.658822576659194e-20 
1.262608487000941e-20 
-1.074673051828894e-20 
0 
-0.001400217423834529 
0.01546728818267105 
-9.793818452627848e-22 
-3.99693671985623e-21 
9.277657750394758e-21 
-6.154223757394526e-21 
7.940933880509066e-23 
-1.810532924756067e-20 
-0.005855871439474286 
-5.849821291975012e-21 
5.288661964419038e-20 
-3.876499222668509e-19 
-1.823767814556915e-20 
9.879845236333363e-20 
-1.323488980084844e-23 
-5.684649867260423e-19 
-4.29207476241515e-20 
3.613124915631625e-21 
-1.69671287246877e-20 
2.646977960169689e-22 
8.850832554317396e-22 
-1.017481784276977e-19 
-5.293955920339377e-23 
-8.359156398215876e-20 
-3.114169570139639e-20 
3.186961464044305e-20 
3.987010552505593e-22 
-0.01171174287894857 
2.61627301583172e-19 
1.000557668944142e-20 
8.787966827763366e-21 
-2.293606402487035e-19 
-4.49159072616294e-22 
0 
2.011703249728963e-21 
3.943997160652836e-21 
-4.711620769102046e-21 
0.005155762727557018 
-7.887994321305672e-21 
-3.107552125239214e-20 
-2.514629062161204e-21 
0 
8.602678370551488e-21 
1.27319639884162e-19 
-3.732238923839261e-21 
-2.620508180567992e-21 
-3.308722450212111e-21 
-1.640067544121139e-19 
-3.454306238021444e-20 
1.339370847845862e-20 
-2.646977960169689e-23 
8.589443480750639e-21 
3.705769144237564e-22 
1.137141731688898e-19 
-4.49159072616294e-22 
-5.844527336054672e-20 
-5.550381910230816e-22 
-3.970466940254533e-23 
-7.940933880509066e-23 
-6.395098751769968e-20 
1.850237594158612e-20 
0.005155762727557021 
-2.091112588534054e-21 
-1.412162741750529e-20 
-6.617444900424221e-23 
1.254667553120432e-20 
5.241016361135983e-21 
1.627891445504358e-21 
-1.550864386863421e-19 
-1.058791184067875e-22 
5.302227726464907e-22 
0.00515576272755702 
-1.323488980084844e-23 
1.087907941629742e-20 
3.22931311140702e-21 
2.398162031913738e-20 
0.005155762727557019 
-9.247879248342849e-22 
-4.444275995124907e-20 
-1.624979769748172e-19 
-2.006409293808624e-20 
-2.553010242583665e-20 
3.970466940254533e-23 
-2.104347478334902e-21 
0 
-9.026194844178638e-21 
0.005155762727557018 
-1.237726894175346e-19 
-1.719212185130213e-19 
-1.139788709649068e-19 
0.005155762727557018 
-0.01756761431842285 
-0.005855871439474282 
-8.470329472543003e-22 
3.970466940254533e-23 
-5.293955920339377e-22 
1.546422426974011e-19 
-2.541098841762901e-21 
0.01031152545511404 
-6.850378960919154e-20 
-0.005855871439474282 
5.148372132530044e-21 
6.511565782017434e-21 
-1.819797347616661e-22 
2.411396921714586e-20 
-3.504598819264668e-20 
-3.335192229813808e-20 
1.043446983705017e-19 
-1.306945367833784e-22 
-8.883258034329475e-20 
6.807200132943886e-20 
4.182225177068108e-21 
1.861156378244312e-22 
0 
0.00515576272755702 
6.532741605698791e-20 
-5.293955920339377e-23 
0 
0 
-1.074673051828894e-20 
3.852411723230965e-19 
-3.308722450212111e-21 
2.595692762191401e-21 
-9.713085624842672e-20 
5.293955920339377e-23 
0 
-5.174841912131741e-21 
4.375454568160495e-20 
-2.605618929542037e-22 
1.588186776101813e-22 
-0.00655598015139155 
-2.117582368135751e-21 
-1.050519377942345e-22 
2.276401045745932e-21 
5.760618134717293e-19 
0 
8.205631676526035e-22 
-3.695181232396885e-20 
3.441071348220595e-22 
-2.646977960169689e-23 
-3.173726574243457e-20 
4.785736151986797e-20 
5.293955920339377e-23 
2.001115337888285e-20 
3.957232050453684e-20 
0 
-0.01171174287894856 
-1.058791184067875e-22 
0 
-2.32768624372422e-21 
7.940933880509066e-23 
-4.70996640787694e-21 
-2.646977960169689e-23 
-2.946086469668863e-20 
1.757593365552673e-20 
-3.364308987375674e-20 
0.005155762727557016 
1.371663978959933e-19 
9.861316390612175e-20 
-9.26442286059391e-23 
-0.005855871439474284 
-3.920174359011309e-20 
-4.465451818806265e-20 
-1.045556294267027e-21 
3.970466940254533e-23 
-7.146840492458159e-22 
7.583591855886158e-21 
6.935082255644584e-21 
-8.189088064274974e-22 
5.624828165360588e-23 
-5.293955920339377e-23 
-1.74303498677174e-20 
-9.529120656610879e-22 
8.263534319404746e-22 
-1.495542547495874e-21 
3.987010552505593e-22 
-2.646977960169689e-23 
0 
-5.550381910230816e-22 
-6.617444900424221e-23 
-2.374008358027189e-22 
-1.323488980084844e-23 
2.646977960169689e-23 
-2.646977960169689e-23 
-3.705769144237564e-22 
6.675347543302933e-22 
-2.170521927339145e-21 
3.176373552203626e-22 
1.747005453711994e-21 
-1.00006136057661e-21 
5.293955920339377e-23 
-2.646977960169689e-23 
-8.351215464335367e-21 
1.135553544912796e-20 
2.699917519373082e-21 
5.241016361135983e-21 
-1.091878408569997e-20 
-6.617444900424221e-23 
0.01031152545511404 
0 
1.707300784309449e-21 
-0.005855871439474289 
3.546950466627383e-21 
8.999725064576941e-22 
-8.983181452325881e-22 
7.940933880509066e-23 
2.013357610954069e-21 
-3.915873019826033e-21 
-0.006555980151391546 
-5.293955920339377e-23 
-0.0007001087119172647 
3.22931311140702e-21 
5.053080925963935e-20 
7.940933880509066e-23 
0.004455654015639752 
6.776263578034403e-21 
0 
1.130259588992457e-20 
0 
-3.639594695233322e-21 
1.979939514206927e-20 
-3.705769144237564e-22 
-2.173168905299314e-20 
1.044497503082959e-19 
3.22931311140702e-21 
3.721651011998582e-20 
1.704653806349279e-20 
-8.999725064576941e-22 
5.012317465377322e-19 
1.842031962482086e-19 
4.158402375426581e-20 
5.823351512373315e-22 
-0.01171174287894857 
5.966288322222478e-20 
-0.001400217423834529 
-5.293955920339377e-23 
-0.007256088863308817 
1.020145305849398e-19 
-1.323488980084844e-23 
-0.005855871439474284 
-0.01171174287894857 
-0.001400217423834529 
8.038872065035344e-20 
-5.407775972626674e-20 
-2.856089219023094e-20 
-1.323488980084844e-23 
-2.911675756186657e-22 
3.276958714690074e-20 
3.576067224189249e-20 
-3.385484811057032e-19 
-0.005855871439474285 
7.332128949670037e-21 
0 
-2.316105715148477e-21 
6.617444900424221e-23 
5.320425699941074e-21 
0.005155762727557018 
-2.490806260519677e-20 
-3.094317235438366e-20 
-1.940234844804382e-20 
-1.323488980084844e-23 
6.193928426797071e-21 
-1.084433783057019e-21 
3.745473813640109e-20 
-5.293955920339377e-23 
1.184257939379919e-19 
5.045801736573469e-22 
1.114377721231439e-20 
-2.646977960169689e-23 
-0.005855871439474287 
-4.49159072616294e-22 
-1.323488980084844e-23 
-1.976498442858706e-19 
3.017554874593445e-21 
1.1090837653111e-20 
-2.646977960169689e-23 
0.005155762727557023 
1.244906821892307e-21 
-6.617444900424221e-23 
1.244079641279754e-21 
0 
-2.223461486542538e-20 
2.699917519373082e-21 
2.38228016415272e-21 
-4.446922973085077e-20 
-0.02342348575789712 
-1.323488980084844e-23 
-0.005855871439474283 
2.663521572420749e-22 
4.738355246499759e-19 
1.715241718189958e-20 
-5.69100261436483e-22 
-5.293955920339377e-22 
0.005155762727557018 
3.714040950363094e-22 
0.005155762727557018 
0.005155762727557018 
6.818615225397118e-20 
5.61159327555974e-20 
-0.0007001087119172653 
5.413069928547013e-20 
-2.314517528372376e-19 
4.711620769102046e-21 
-4.25369358199269e-20 
-0.005855871439474285 
-8.735027268559972e-22 
3.176373552203626e-21 
0.005155762727557021 
2.898440866385809e-20 
6.818615225397118e-20 
-3.424527735969535e-22 
-3.096964213398536e-20 
-5.550381910230816e-22 
-0.0007001087119172636 
1.01908651466533e-21 
-2.646977960169689e-23 
2.38228016415272e-22 
2.278055406971038e-21 
-2.390221098033229e-19 
0 
-5.293955920339377e-23 
2.112288412215411e-19 
0.005155762727557018 
-4.49159072616294e-22 
-8.285041015331125e-20 
3.987010552505593e-22 
-0.005855871439474285 
3.118140037079893e-20 
3.22931311140702e-21 
7.655060260810739e-20 
0 
-8.008431818493393e-20 
6.935082255644584e-21 
-4.235164736271502e-22 
0.00515576272755702 
-5.426304818347862e-22 
3.457614960471656e-22 
-8.412426829664291e-22 
-9.126780006665086e-20 
5.413069928547013e-21 
-1.709947762269619e-20 
0.00515576272755702 
0.005155762727557018 
-8.999725064576941e-22 
-1.709947762269619e-20 
-1.837002704357764e-20 
0 
-9.237953080992213e-21 
1.65568471408614e-20 
6.262915289883994e-20 
3.612297735019072e-21 
2.119236729360857e-21 
2.022291161569642e-20 
9.330597309598152e-21 
2.180315745791772e-19 
3.282252670610414e-21 
3.196755282496933e-19 
5.730707283767376e-21 
8.106370003019671e-23 
7.850936629863296e-20 
4.182225177068108e-21 
0 
1.02189892874801e-20 
-4.49159072616294e-22 
0 
-0.006555980151391545 
-2.170521927339145e-20 
0 
3.987010552505593e-22 
-7.39830339867428e-21 
0 
-0.006555980151391546 
3.509892775185007e-20 
6.45862622281404e-21 
3.978738746380063e-22 
-3.651175223809064e-21 
4.183052357680661e-21 
-1.259167415652721e-19 
0 
-4.49159072616294e-22 
2.832266417381567e-21 
0 
5.346895479542771e-21 
1.283784310682299e-21 
-4.49159072616294e-22 
5.293955920339377e-23 
-0.005855871439474282 
1.916412043162855e-20 
-2.584939414228211e-26 
-0.005855871439474284 
2.236696376343387e-21 
1.970675091346333e-20 
0 
9.237953080992213e-21 
0 
3.970466940254533e-23 
3.943997160652836e-21 
1.069114398112537e-19 
1.283784310682299e-21 
3.987010552505593e-22 
4.658681209898652e-21 
-1.323488980084844e-23 
5.730707283767376e-21 
8.420698635789822e-21 
-5.550381910230816e-22 
1.998468359928115e-20 
2.117582368135751e-22 
5.293955920339377e-21 
-3.102258169318875e-20 
4.341043854678289e-21 
-1.535247216898419e-21 
0 
-0.000700108711917264 
-4.235164736271502e-22 
1.535247216898419e-21 
3.245194979168038e-20 
0.005155762727557019 
3.22931311140702e-21 
1.079553417442956e-20 
4.023406499457927e-21 
7.832407784142108e-20 
1.119406979355761e-19 
1.152758901653899e-20 
-6.842438027038645e-20 
1.685066169444024e-19 
0 
-0.000700108711917265 
3.22931311140702e-21 
3.462247171901953e-20 
8.907080835971002e-20 
-2.21287357470186e-20 
1.861156378244312e-22 
0.003755545303722493 
5.161607022330893e-22 
-1.160534399411898e-21 
6.723324018831009e-21 
-3.022848830513784e-20 
3.017554874593445e-21 
2.469630436838319e-20 
4.950675966129871e-21 
-0.01171174287894857 
6.590975120822525e-21 
-4.632211430296955e-22 
2.97520322723073e-20 
-2.766091968377325e-20 
-1.61465655570351e-21 
-6.609173094298691e-22 
-1.879271633659224e-20 
-1.588186776101813e-22 
2.646977960169689e-21 
-2.117582368135751e-22 
2.38228016415272e-21 
2.276401045745932e-21 
-3.838118042246048e-21 
1.057467695087791e-19 
-2.646977960169689e-23 
1.588186776101813e-22 
1.115701210211524e-19 
-6.617444900424221e-23 
2.117582368135751e-22 
-1.535247216898419e-21 
2.699917519373082e-21 
5.558653716356346e-22 
1.376428539288238e-20 
0 
1.405809994646122e-19 
0.005155762727557019 
6.45862622281404e-21 
3.017554874593445e-21 
3.302105005311686e-20 
0 
-1.323488980084844e-22 
-5.293955920339377e-23 
-3.891057601449442e-21 
5.211237859084074e-22 
0 
0.005155762727557018 
0.00515576272755702 
-7.186545161860704e-21 
0 
3.970466940254533e-23 
-6.617444900424221e-23 
-1.601421665902662e-21 
5.241016361135983e-21 
-1.574951886300965e-21 
6.385089866358076e-20 
-3.176373552203626e-22 
-0.0007001087119172646 
-1.579914969976283e-22 
4.685150989500349e-21 
2.9778502051909e-21 
-3.065200477876499e-20 
3.987010552505593e-22 
0.04640186454801318 
1.799945012915388e-21 
0.01031152545511404 
-6.617444900424221e-23 
6.352747104407253e-22 
0 
7.309795073131106e-21 
0.01031152545511404 
-7.702705864093794e-21 
-2.964615315390051e-21 
-6.617444900424221e-23 
3.970466940254533e-23 
4.10364301887557e-21 
0 
-1.323488980084844e-23 
-7.77549775799846e-23 
5.738648217647885e-20 
-1.588186776101813e-22 
4.764560328305439e-21 
6.876848740520851e-20 
-4.49159072616294e-22 
4.015465565577418e-20 
-1.720535674110298e-21 
-4.751325438504591e-20 
-0.01171174287894857 
5.113961419047838e-20 
-1.323488980084844e-23 
1.852884572118782e-22 
2.316105715148477e-20 
1.487336915819348e-19 
1.376428539288238e-21 
-5.577182562077534e-20 
1.19114008207636e-20 
3.970466940254533e-23 
-3.176373552203626e-22 
0.01031152545511404 
5.78364684297077e-21 
1.090554919589912e-20 
0 
2.355810384551023e-21 
-3.976918949032446e-20 
-2.260519177984914e-20 
-3.135014521575975e-22 
0 
-0.005855871439474285 
-2.652271916090028e-20 
1.78671012311454e-21 
3.22931311140702e-21 
5.241016361135983e-21 
0.005155762727557025 
-6.617444900424221e-23 
-8.258571235729428e-21 
-2.092436077514139e-19 
0 
0.01546728818267106 
6.233633096199617e-21 
2.699917519373082e-21 
1.694065894508601e-20 
-2.506688128280695e-20 
2.117582368135751e-22 
-2.316105715148477e-21 
7.90122921110652e-21 
4.565242887904662e-19 
-7.604767679567515e-20 
-1.514071393217062e-20 
3.091670257478196e-20 
-2.646977960169689e-23 
8.106370003019671e-23 
3.877822711648594e-21 
5.293955920339377e-23 
-1.162552720106527e-19 
-2.254166430880507e-19 
-1.323488980084844e-23 
-2.804142276554764e-21 
-1.795809109852623e-21 
3.22931311140702e-21 
0 
2.388070428440591e-21 
3.970466940254533e-23 
-0.005855871439474284 
-3.859293865927406e-20 
1.18849310411619e-20 
6.768322644153894e-20 
-7.451242957877673e-21 
3.714040950363094e-22 
-8.523269031746397e-21 
4.182225177068108e-21 
2.68833699079734e-22 
-1.336723869885693e-20 
0.005155762727557019 
1.535247216898419e-21 
4.367513634279986e-21 
8.023651941764368e-23 
-3.200196353845153e-20 
-1.699889246020974e-19 
7.914464100907369e-21 
2.56042178087214e-19 
0.005155762727557019 
4.791030107907136e-21 
-1.596127709982322e-20 
-7.067431153653068e-20 
0.005155762727557022 
5.839895124624375e-22 
-3.65282958503417e-21 
-1.671566581847158e-19 
1.19114008207636e-21 
0 
-7.464477847678522e-20 
3.22931311140702e-21 
1.183728543787885e-19 
2.170521927339145e-21 
2.567568621364598e-21 
2.706534964273507e-20 
3.970466940254533e-23 
2.514629062161204e-22 
-6.538035561619131e-21 
2.514629062161204e-22 
3.176373552203626e-22 
-1.323488980084844e-23 
3.970466940254533e-23 
4.460157862885925e-21 
6.823909181317457e-20 
-2.646977960169689e-23 
5.849821291975012e-21 
2.009320969564811e-19 
-0.01756761431842286 
-1.201198598325005e-19 
4.632211430296955e-21 
0.005155762727557019 
-9.9038334740974e-21 
-9.496033432108758e-22 
-5.668668737825899e-21 
-1.27584337680179e-19 
1.139027703485519e-21 
-2.117582368135751e-22 
5.426304818347862e-22 
5.191385524382802e-21 
3.546950466627383e-21 
5.307190810140226e-21 
3.520646123148196e-20 
1.100729241124314e-20 
3.987010552505593e-22 
7.940933880509066e-22 
0 
0.005155762727557018 
2.885205976584961e-21 
2.766091968377325e-21 
-8.152692117322641e-21 
0.00515576272755702 
-6.609173094298691e-22 
1.221845026414328e-19 
0 
-2.328513424336773e-21 
0.01546728818267105 
-1.045556294267027e-21 
5.730707283767376e-21 
1.135818242708813e-19 
1.371134583367899e-20 
0 
5.624828165360588e-23 
-1.740801599117847e-20 
1.561716996500116e-21 
-1.323488980084844e-23 
1.283784310682299e-21 
3.970466940254533e-23 
-0.01171174287894858 
3.22931311140702e-21 
5.346895479542771e-21 
0 
-1.336723869885693e-20 
4.795000574847391e-20 
2.9778502051909e-21 
1.598774687942492e-20 
0.005155762727557022 
-0.0007001087119172646 
0 
-2.527863951962053e-21 
-1.555926732212245e-21 
5.995405079784345e-21 
-6.617444900424221e-23 
0 
1.283784310682299e-21 
1.201727993917039e-20 
3.176373552203626e-22 
3.978738746380063e-22 
-1.405545296850105e-20 
-0.005855871439474282 
0 
-1.257314531080602e-21 
3.22931311140702e-21 
-6.617444900424221e-23 
-2.043466985251e-20 
-1.058791184067875e-22 
6.096321114515814e-22 
4.278839872614302e-20 
-2.316105715148477e-20 
1.389663429089086e-21 
-5.293955920339377e-23 
-1.531524904141931e-20 
-1.548482106699268e-21 
3.970466940254533e-23 
0 
-1.058791184067875e-22 
-3.465886766597186e-21 
3.546950466627383e-21 
-2.630434347918628e-22 
-4.235164736271502e-22 
-1.323488980084844e-23 
3.414601568618898e-21 
-6.220398206398768e-20 
0.005155762727557019 
1.111995441067286e-19 
7.848289651903127e-21 
1.649067269185716e-20 
-1.923029488063279e-20 
0 
1.034968382426348e-20 
3.030789764394293e-21 
2.78832658324275e-19 
2.562274665444259e-20 
5.219840537454626e-20 
2.514629062161204e-22 
-1.588186776101813e-22 
-2.646977960169689e-23 
0.005155762727557018 
-5.213719400921733e-21 
1.389663429089086e-21 
2.9778502051909e-21 
2.318752693108647e-20 
9.562207881113e-22 
-6.617444900424221e-23 
-5.293955920339377e-23 
1.861156378244312e-22 
1.389663429089086e-21 
3.970466940254533e-23 
3.176373552203626e-22 
-1.844612765993252e-22 
2.938145535788354e-21 
0 
2.654918894050198e-20 
3.978738746380063e-22 
1.061438162028045e-20 
0.004455654015639757 
-6.617444900424221e-23 
2.9778502051909e-21 
-7.667964278366567e-22 
1.287754777622553e-20 
-3.970466940254533e-23 
-4.49159072616294e-22 
-1.24355024568772e-19 
0 
-4.49159072616294e-22 
3.546950466627383e-21 
4.367513634279986e-22 
4.354278744479138e-21 
-3.65547656299434e-20 
5.405625303034036e-21 
-6.617444900424221e-23 
3.861940843887576e-20 
5.225134493374965e-20 
-3.705769144237564e-22 
0 
-1.503483481376383e-20 
5.730707283767376e-21 
-4.49159072616294e-22 
-4.49159072616294e-22 
5.730707283767376e-21 
0 
5.426304818347862e-22 
7.745222947579019e-20 
6.193928426797071e-21 
2.024938139529812e-21 
2.928219368437718e-22 
0 
-6.617444900424221e-23 
-2.646977960169689e-22 
-1.892589241521327e-21 
-2.067951531382569e-23 
8.789621188988472e-21 
-6.617444900424221e-23 
1.294372222522978e-19 
7.957477492760126e-22 
7.940933880509066e-23 
1.965910531018028e-19 
7.940933880509066e-23 
-1.323488980084844e-23 
-5.955700410381799e-22 
2.792561747979021e-20 
-1.847094307830911e-21 
3.22931311140702e-21 
0 
-3.970466940254533e-23 
-0.005855871439474284 
-3.067318060244635e-19 
-6.617444900424221e-23 
2.9778502051909e-21 
-1.262608487000941e-19 
1.135553544912796e-20 
-6.617444900424221e-23 
3.176373552203626e-22 
-1.588186776101813e-22 
1.653037736125971e-19 
-8.5841495248303e-20 
-8.983181452325881e-22 
3.033436742354463e-20 
7.213014941462401e-21 
0.005155762727557019 
2.9778502051909e-21 
-7.6497663048904e-21 
-6.8027333576361e-21 
-9.169131654027801e-20 
2.747563122656137e-20 
3.22931311140702e-21 
4.738090548703743e-21 
9.108251160943898e-20 
0.005155762727557017 
-3.245194979168038e-20 
7.946227836429405e-20 
0 
-2.697270541412913e-20 
1.762887321473013e-20 
-7.887994321305672e-21 
0.01031152545511403 
9.063252535621014e-20 
-2.959321359469712e-20 
9.055311601740505e-20 
-4.473392752686774e-20 
-0.005855871439474285 
5.243663339096153e-20 
-5.238369383175814e-20 
-1.368487605407729e-20 
-2.059348853012018e-20 
3.308722450212111e-20 
-8.470329472543003e-22 
-5.09543257332665e-21 
-4.311927097116423e-20 
2.763444990417155e-20 
1.283784310682299e-21 
-1.945528800724721e-21 
1.623920978564104e-19 
-2.484188815619253e-20 
1.416133208690783e-20 
0 
1.535247216898419e-21 
1.388339940109002e-20 
-6.609173094298691e-22 
0.005155762727557023 
-3.51882632580058e-21 
3.152550750562099e-20 
-2.646977960169689e-23 
1.556423040579777e-20 
1.641126335305207e-21 
1.826414792517085e-21 
6.45862622281404e-21 
9.926167350636332e-21 
-6.617444900424221e-23 
1.919059021123024e-20 
4.393983413881683e-21 
6.516859737937773e-20 
1.768975370781403e-19 
0 
-4.226892930145971e-22 
-2.29492989146712e-20 
5.730707283767376e-21 
5.730707283767376e-21 
1.52730628301791e-20 
-0.001400217423834529 
-1.042247571816815e-22 
1.283784310682299e-21 
1.138200522872966e-21 
7.419810094600658e-22 
3.978738746380063e-22 
-1.0654086289683e-19 
-0.005855871439474286 
8.880611056369305e-20 
3.930762270851988e-21 
-1.323488980084844e-23 
0 
3.295487560411262e-21 
-4.072375591721066e-19 
2.171349107951698e-21 
-1.078643518769148e-20 
0 
-1.481480477082473e-21 
-4.49159072616294e-22 
8.106370003019671e-23 
0.005155762727557021 
-6.617444900424221e-23 
-0.01756761431842285 
-2.864030152903603e-20 
-2.743758091838393e-21 
-0.005855871439474284 
-6.617444900424221e-23 
-3.705769144237564e-22 
1.608039110803086e-20 
-9.687112153608507e-21 
-1.032321404466179e-20 
-1.588186776101813e-22 
1.696448174672753e-19 
0 
2.38228016415272e-21 
-6.617444900424221e-23 
-6.617444900424221e-23 
-0.005855871439474285 
3.22931311140702e-21 
1.574157792912914e-19 
5.730707283767376e-21 
-1.389663429089086e-20 
-2.97520322723073e-20 
1.456665058705882e-21 
2.329340604949326e-21 
-1.196698735792716e-19 
1.861156378244312e-22 
-3.711063100157903e-20 
-2.646977960169689e-23 
1.347311781726371e-20 
-4.137226551745223e-20 
-7.940933880509066e-23 
-0.01171174287894857 
-0.005855871439474283 
2.514629062161204e-22 
-5.823351512373315e-22 
-1.533592855673313e-21 
9.661469554619363e-22 
1.282460821702214e-19 
3.192917164454687e-22 
1.614391857907493e-19 
2.001115337888285e-20 
1.590833754061983e-19 
-5.382629682005062e-20 
2.117582368135751e-22 
-7.618333441613385e-22 
2.514629062161204e-22 
3.348427119614656e-20 
0 
0 
3.970466940254533e-23 
-7.782115202898884e-21 
-1.700153943816991e-19 
1.487767049737876e-20 
3.176373552203626e-22 
3.970466940254533e-23 
7.940933880509066e-23 
5.029258124322408e-20 
3.970466940254533e-23 
-1.323488980084844e-23 
8.023651941764368e-23 
2.678741695691725e-20 
7.385068508873431e-21 
-9.51588576681003e-21 
-0.005855871439474285 
-0.005855871439474285 
3.679299364635867e-20 
2.514629062161204e-22 
3.970466940254533e-23 
2.268460111865423e-20 
0 
-1.222903817598396e-20 
2.646977960169689e-21 
1.535247216898419e-21 
1.093201897550081e-20 
3.176373552203626e-22 
0 
3.970466940254533e-23 
-4.49159072616294e-22 
-1.177905192275511e-21 
3.970466940254533e-22 
3.970466940254533e-23 
7.406244332554789e-20 
-2.189050773060332e-20 
3.546950466627383e-21 
0.005155762727557018 
-7.130958624697141e-20 
0 
6.379216884008949e-20 
9.317362419797304e-21 
6.283512087136564e-20 
-8.033578109115005e-20 
3.705769144237564e-22 
0.01546728818267106 
4.711620769102046e-21 
1.773475233313691e-21 
9.185013521788819e-21 
2.812414082680294e-23 
6.935082255644584e-21 
-5.426304818347862e-21 
2.635066559348925e-20 
-0.005855871439474284 
-6.749793798432706e-22 
8.443859692941307e-21 
-3.708416122197734e-20 
5.983493678963581e-20 
8.106370003019671e-23 
-6.617444900424221e-23 
2.9778502051909e-21 
-0.005855871439474286 
-2.678741695691725e-20 
-0.006555980151391549 
-4.327808964877441e-21 
2.700744699985635e-21 
0 
6.212457272518259e-20 
3.970466940254533e-23 
8.470329472543003e-21 
-2.646977960169689e-22 
2.9778502051909e-21 
-6.617444900424221e-23 
-4.49159072616294e-22 
-7.411538288475128e-22 
8.106370003019671e-23 
3.970466940254533e-23 
3.970466940254533e-23 
3.22931311140702e-21 
9.572795792953679e-20 
3.970466940254533e-23 
0 
-6.551270451419979e-21 
-0.0007001087119172647 
3.987010552505593e-22 
-3.705769144237564e-22 
4.183879538293214e-21 
3.987010552505593e-22 
2.448454613156962e-21 
-9.51588576681003e-21 
-1.78671012311454e-20 
-1.709947762269619e-20 
3.22931311140702e-21 
1.328782936005184e-20 
-0.01756761431842285 
-0.01171174287894857 
0 
-3.168101746078096e-22 
2.38228016415272e-21 
3.970466940254533e-23 
0 
3.377543877176523e-20 
-1.709947762269619e-20 
-5.177488890091911e-20 
7.146840492458159e-22 
2.812414082680294e-23 
5.855115247895351e-20 
-6.617444900424221e-23 
-1.852884572118782e-22 
-2.630434347918628e-22 
5.508361135113122e-20 
0 
2.821678505540888e-20 
-1.1090837653111e-20 
2.812414082680294e-23 
-4.49159072616294e-22 
3.970466940254533e-23 
0 
-4.48331892003741e-22 
-6.749793798432706e-22 
2.646977960169689e-22 
-3.705769144237564e-22 
0 
0 
0 
0 
-1.323488980084844e-22 
-1.323488980084844e-23 
6.617444900424221e-21 
6.352747104407253e-21 
1.596681920992733e-19 
8.735027268559972e-22 
-2.646977960169689e-23 
-1.709947762269619e-20 
1.283784310682299e-21 
-6.617444900424221e-23 
7.940933880509066e-23 
4.499862532288471e-22 
5.730707283767376e-21 
-2.924910645987506e-21 
8.023651941764368e-23 
-6.617444900424221e-23 
0 
-2.671793378546279e-21 
4.367513634279986e-21 
1.283784310682299e-21 
5.730707283767376e-21 
-1.031527311078128e-19 
-4.235164736271502e-21 
0 
0 
5.955700410381799e-22 
3.255782891008717e-21 
5.730707283767376e-21 
1.861156378244312e-22 
4.251708348522562e-22 
-7.279189390466644e-21 
-1.120995166131863e-20 
-8.321436962283458e-22 
3.970466940254533e-23 
-2.594038400966295e-21 
1.588186776101813e-22 
7.734138727370809e-22 
5.307190810140226e-21 
3.987010552505593e-22 
-4.49159072616294e-22 
-1.613002194478404e-21 
2.812414082680294e-23 
5.346481889236494e-20 
-8.983181452325881e-22 
0 
5.730707283767376e-21 
0.01031152545511404 
2.514629062161204e-22 
8.867376166568457e-21 
-2.387574120073059e-20 
-2.408749943754417e-21 
0 
-8.337980574534519e-22 
7.940933880509066e-23 
-4.226892930145971e-22 
-1.709947762269619e-20 
-5.293955920339377e-23 
-1.44524996625265e-19 
-2.482865326639168e-20 
2.066297170157463e-21 
-3.587482316642481e-21 
0.005155762727557019 
2.554333731563749e-21 
8.867376166568457e-22 
-2.015839152791728e-21 
-5.638063055161437e-21 
0 
3.987010552505593e-22 
3.335192229813808e-21 
