solver_type L2R_L2LOSS_SVC_DUAL
nr_class 2
label 1 2
nr_feature 1234
bias -1
w
1.158052857574239e-23 
2.240345721992343e-06 
4.85408239765008e-06 
1.045494670263094e-05 
4.480691443984687e-06 
7.467819073307812e-07 
0 
2.481541837659083e-23 
3.733909536653905e-07 
3.733909536653906e-07 
2.240345721992344e-06 
1.493563814661562e-06 
4.480691443984687e-06 
2.240345721992344e-06 
2.613736675657735e-06 
0 
-9.926167350636332e-24 
1.493563814661562e-06 
3.733909536653908e-06 
4.1073004903193e-06 
1.56824200539464e-05 
0 
3.733909536653907e-07 
0 
1.158052857574239e-23 
-1.010960819571981e-06 
3.715289592166246e-06 
-2.735972832678743e-07 
-1.19941188820189e-23 
-2.735972832678743e-07 
-5.471945665357486e-07 
0 
-1.268192745941855e-06 
-2.735972832678743e-07 
1.738578133733182e-06 
1.046162918523331e-06 
1.51607563281751e-05 
1.953497669358098e-05 
-5.471945665357487e-07 
2.491446011611746e-05 
2.690865585075868e-07 
9.463692481258141e-07 
2.993953491577688e-05 
-1.403706403060383e-06 
1.606657490843834e-05 
-8.260015787389414e-06 
0 
2.591980922499336e-06 
-2.735972832678743e-07 
0 
-1.636535689799955e-08 
7.893603319549349e-06 
1.436463027838754e-05 
-7.096647621443178e-06 
0 
-1.010960819571982e-06 
1.341195882695414e-05 
-4.051102417737865e-06 
-1.006597030283983e-05 
0 
2.073226234030928e-07 
1.212626954963574e-05 
-9.926167350636332e-24 
-2.181266291440484e-05 
-1.01208894408685e-05 
-1.056022839100281e-05 
-2.735972832678743e-07 
-2.735972832678744e-07 
2.253710687197071e-07 
3.506703452505516e-06 
1.25472725396776e-05 
-2.680165201467089e-05 
7.467819073307814e-06 
-4.103959249018114e-06 
1.550344018434619e-05 
-9.458957590343353e-06 
4.681352410636687e-05 
1.46358644733398e-07 
0.0001596765793758354 
-0.0001100527503450583 
-6.892740933329321e-05 
-4.956271106864004e-07 
2.143893292896005e-06 
9.706366920486782e-06 
-1.746066961282947e-05 
1.867064041829481e-05 
5.594495254965563e-05 
-4.235865462044464e-05 
-2.630403427946475e-05 
-9.945954626739814e-07 
4.731846240629068e-07 
-5.471945665357488e-07 
0 
-1.915180982875121e-06 
0 
1.866954768326954e-06 
0 
9.106902426136971e-05 
-9.351600416203978e-05 
0 
0 
9.474392165176403e-05 
-6.463482712920442e-05 
-7.400994247284193e-08 
-2.55066163405434e-06 
-1.654361225106055e-24 
-7.400994247284177e-08 
-3.24587608553577e-06 
-1.094389133071497e-06 
-8.207918498036228e-07 
3.733909536653906e-07 
1.158052857574239e-23 
6.17384259944128e-06 
7.584194898169023e-06 
-1.259822277238211e-05 
2.240345721992343e-06 
-1.367986416339373e-06 
4.854082397650083e-06 
-4.073208794901958e-06 
8.10887490895109e-06 
2.722948717081926e-06 
7.189587538339673e-06 
-1.561141050316683e-05 
8.465755777282971e-07 
-2.323823408782562e-07 
-3.022317858006516e-06 
1.96818784378453e-07 
2.667657475483514e-23 
3.308722450212111e-24 
2.369745662450366e-06 
-1.541790029209731e-06 
1.120172860996172e-06 
-5.471945665357485e-07 
7.695553167915177e-05 
-1.731698305621629e-05 
-4.266150614182326e-05 
3.733909536653906e-07 
1.323488980084844e-23 
-1.094389133071498e-06 
-5.526312357478419e-06 
0 
-1.713960373189514e-05 
3.530954848149835e-05 
-3.405576147552516e-05 
1.493563814661562e-06 
6.647027223504195e-06 
4.173695975499567e-06 
1.536370288872564e-05 
-3.549801599631243e-05 
1.88255540922699e-05 
-2.316946325280569e-05 
9.97936703975162e-08 
-5.021679702489663e-07 
3.991746815900646e-07 
-7.209981794061064e-07 
-2.735972832678744e-07 
1.288970350868846e-05 
-1.807607595181197e-05 
-8.207918498036227e-07 
0 
5.600864304980857e-06 
-5.414353752362086e-06 
9.979367039751617e-08 
8.465755777282968e-07 
-2.735972832678743e-07 
1.53899079293815e-06 
-5.093994111809377e-06 
3.733909536653907e-07 
2.343046921998274e-05 
4.269239300609658e-06 
-2.088984595745478e-06 
-2.243144958263923e-06 
-1.196759989234686e-05 
-1.815387312477603e-06 
-3.414554481181604e-06 
8.587991934303987e-06 
-5.471945665357488e-07 
2.613736675657735e-06 
-6.755712011295191e-07 
-1.202646319183109e-06 
9.979367039751609e-08 
4.11064173162048e-06 
-8.207918498036227e-07 
-5.560231750000957e-06 
1.241651888462555e-05 
-8.005053263787285e-06 
9.708164795300167e-06 
-2.735972832678743e-07 
-9.953035629254808e-06 
9.488603795423432e-06 
1.130152228035924e-05 
3.464876674777654e-05 
1.59335748505908e-06 
1.493563814661562e-06 
-5.388517351857972e-06 
1.304379446011185e-05 
-2.447623894631142e-05 
-1.73803612870358e-07 
-1.901689697683574e-07 
1.120172860996172e-06 
-2.301596052137328e-06 
3.114657262374785e-05 
-5.471945665357488e-07 
4.337316841792502e-06 
2.533970412686231e-05 
-3.283167399214491e-06 
-2.52400447545051e-05 
3.970466940254533e-23 
-3.009570115946619e-06 
-2.653904297192895e-05 
4.1073004903193e-06 
1.002815327768752e-05 
-4.244164044851385e-07 
4.099135162801016e-05 
1.221617539927039e-05 
1.659483045553586e-05 
5.305235522916581e-05 
6.187609336589874e-05 
-5.776650197828465e-05 
-1.702157093986494e-05 
-4.219093512293041e-05 
-5.175818502748007e-05 
-6.497355632157117e-05 
1.704742418371358e-07 
0.0001998271757989305 
-2.533107598429799e-06 
0 
-1.609227707018133e-05 
3.308722450212111e-23 
-0.0001894977315394785 
4.854082397650084e-06 
7.662230157372982e-06 
-5.471945665357487e-07 
-4.192245333661581e-06 
7.55124738680733e-06 
-7.950081218789485e-07 
-1.641583699607246e-06 
-1.369261190545361e-05 
-6.844919568876304e-23 
8.009081238553562e-06 
-4.736234647982739e-06 
-1.367986416339372e-06 
3.660274210547147e-23 
3.733909536653907e-07 
6.44226362597929e-06 
-5.357366515752017e-06 
-4.651153815553866e-06 
4.73184624062907e-07 
7.467819073307814e-07 
-8.675768453273951e-08 
2.011257921821396e-05 
9.97936703975162e-08 
1.323488980084844e-23 
-5.471945665357486e-07 
2.287664184398632e-05 
3.733909536653907e-07 
-3.018600141954266e-05 
2.866387497258823e-05 
3.733909536653906e-07 
-5.471945665357484e-07 
-1.242929268316546e-05 
4.1073004903193e-06 
5.005443523896946e-06 
-3.623929405577724e-05 
-2.735972832678743e-07 
3.64562345201044e-06 
1.88374188948499e-05 
-2.003467067518588e-06 
-8.262285190157155e-06 
-5.471945665357488e-07 
8.961382887969375e-06 
-2.455584347908563e-05 
-1.905780832849087e-05 
4.194401049425192e-05 
3.733909536653908e-06 
1.288044072576531e-06 
-3.122202342549145e-05 
2.768114431249423e-05 
-2.636179162281227e-06 
1.429360745650666e-06 
-6.127873616135096e-06 
-1.354950430474595e-06 
-2.735972832678743e-07 
-2.904689697719571e-05 
-8.207918498036228e-07 
-3.391251780231431e-05 
0 
-3.283167399214491e-06 
1.493563814661562e-06 
2.987127629323125e-06 
-8.207918498036228e-07 
0 
2.316105715148477e-23 
0 
0 
-4.390304274345887e-06 
-2.735972832678743e-07 
-2.735972832678743e-07 
-5.471945665357487e-07 
0 
0 
0 
-2.735972832678743e-07 
-2.735972832678743e-07 
-5.471945665357488e-07 
-5.471945665357487e-07 
4.029972237258982e-07 
-2.735972832678744e-07 
0 
-5.471945665357487e-07 
7.467819073307812e-07 
-5.43666921209287e-08 
5.729782944604237e-07 
3.220623942889126e-05 
-5.471945665357487e-07 
9.737771065360665e-06 
0 
6.617444900424221e-24 
0 
-7.209981794061064e-07 
-2.262788208615839e-06 
4.94280238845086e-05 
0 
2.334058669722988e-05 
2.596471821600131e-05 
0 
3.376827971246982e-05 
-2.462375549410871e-06 
0 
-9.601606838584126e-05 
-1.033975765691285e-23 
-5.689144380535624e-05 
-9.430243235204887e-06 
-1.121748861398285e-05 
-3.798481429202663e-05 
1.19485105172925e-05 
-2.735972832678743e-07 
6.132290160071452e-07 
4.552337017463624e-05 
-7.765375373041953e-06 
-2.241001222724022e-06 
-2.39882377640378e-23 
-5.42037820950814e-06 
-1.247837300134971e-05 
0 
-5.471945665357487e-07 
-3.315822173586036e-05 
2.212468367992568e-05 
7.445136742078977e-05 
1.577703746761405e-05 
5.362469120664332e-06 
1.616741374419983e-05 
5.053669738445105e-06 
9.323665183614914e-06 
-7.638269574609023e-06 
-1.354171332333027e-05 
-8.525125482921006e-05 
-1.253395905205219e-05 
-2.173950236812075e-06 
8.888449295237777e-06 
9.602438723612656e-06 
-1.22587154861697e-05 
-9.205282517126785e-06 
-4.37755653228599e-06 
3.733909536653907e-07 
2.937353932339069e-05 
2.669126673642916e-06 
-2.99010330755852e-05 
-1.072184963302849e-05 
3.733909536653906e-07 
5.227473351315468e-06 
0 
1.01761731626332e-05 
-2.722234017156107e-05 
-6.383112814531955e-06 
-7.132628967980465e-07 
2.71353034605525e-06 
2.58620585418895e-05 
-8.207918498036229e-06 
3.360518582988516e-06 
3.733909536653907e-07 
-2.735972832678744e-07 
1.329405444700839e-05 
-2.735972832678743e-07 
-3.00957011594662e-06 
-3.230129664207625e-05 
-9.926167350636332e-24 
-1.670696798565142e-06 
2.660250912019607e-05 
0 
5.555558672825165e-05 
8.961382887969373e-06 
-1.541790029209731e-06 
-1.367986416339372e-06 
7.094428119642421e-06 
3.733909536653908e-06 
-2.735972832678743e-07 
-2.769999146888358e-05 
-2.735972832678743e-07 
-5.476274586711222e-05 
-5.352909126597867e-06 
1.593357485059079e-06 
2.25713284315038e-05 
1.698317108216184e-06 
3.840538200932247e-06 
3.957139882808724e-05 
8.787579275099013e-06 
2.651075771024273e-05 
4.689619174186993e-05 
6.14212647022661e-06 
-3.00957011594662e-06 
4.119947831504253e-05 
-9.526751366213395e-06 
1.001980347355912e-05 
-5.825415191530175e-05 
-1.209925442039454e-05 
-2.029768814247954e-05 
-2.991823664050155e-05 
-2.554795262925902e-05 
-7.132628967980464e-07 
-6.042790271020082e-05 
1.047344431467159e-05 
-2.575328420344874e-05 
-3.354410960217704e-07 
7.311823695360683e-06 
1.204830418769003e-05 
-2.060808232973405e-05 
-2.735972832678742e-07 
0 
3.833703207051423e-06 
-1.115533490610459e-05 
8.382472192218955e-06 
7.467819073307812e-07 
-1.577042863682923e-05 
-3.183373728816978e-06 
3.706032182654131e-05 
-2.735972832678743e-07 
-2.735972832678743e-07 
-2.735972832678743e-07 
-6.605852663494679e-06 
-3.283167399214491e-06 
1.254468137968878e-05 
4.479854945309431e-05 
-8.207918498036228e-07 
4.854082397650081e-06 
-1.532754579045078e-05 
0 
4.731846240629069e-07 
0 
-8.207918498036229e-07 
0 
-6.230395244372743e-07 
-3.897620633371407e-05 
2.613736675657734e-06 
-4.999655832976463e-06 
1.71893488338127e-06 
1.120172860996172e-06 
-2.735972832678743e-07 
0 
-5.471945665357484e-07 
1.994130684109634e-05 
-3.556764682482368e-06 
9.979367039751622e-08 
-5.214713738987617e-06 
3.308722450212111e-24 
7.754148576061472e-05 
6.985556927826137e-07 
0 
1.158052857574239e-23 
-2.735972832678743e-07 
-2.631114754727296e-06 
1.593357485059079e-06 
-2.735972832678743e-07 
-1.367986416339373e-06 
0 
5.619807827100526e-05 
-2.735972832678743e-07 
-6.195180920521288e-05 
9.979367039751622e-08 
6.617444900424221e-24 
-5.471945665357484e-07 
0 
-2.005097886472134e-05 
-4.817222145816164e-06 
1.072261158460882e-05 
0 
3.733909536653905e-07 
2.9778502051909e-23 
-4.320531385985762e-05 
2.613736675657735e-06 
-5.471945665357485e-07 
6.721037165977032e-06 
1.709468781025109e-05 
3.733909536653906e-07 
0 
-7.75364871527035e-07 
9.926167350636332e-24 
-1.147065435016207e-05 
0 
-1.367986416339373e-06 
2.987127629323125e-06 
9.80795846569769e-06 
-3.884728657871171e-06 
-5.471945665357485e-07 
-5.198348382089617e-06 
9.156070359954303e-06 
3.733909536653907e-07 
1.120172860996172e-06 
9.160970228764413e-06 
3.733909536653907e-07 
-2.735972832678743e-07 
3.733909536653907e-07 
6.721037165977036e-06 
-2.78419904722691e-06 
9.97936703975162e-08 
8.503629478371422e-06 
-1.84522849124402e-06 
4.948211980603347e-05 
0 
0 
9.999443536970069e-06 
1.593357485059079e-06 
0 
3.308722450212111e-24 
5.294606386436954e-05 
-2.735972832678743e-07 
-2.735972832678743e-07 
-2.735972832678743e-07 
1.00704470909457e-05 
-1.154962527450744e-05 
-4.799173700499543e-06 
0 
-1.075858013209057e-05 
3.205730375399176e-07 
-5.221658745655153e-05 
6.617444900424221e-24 
3.186714970118159e-06 
-2.623760682362168e-05 
-2.47874090630887e-06 
0 
3.733909536653906e-07 
-6.377048560564545e-05 
-2.735972832678743e-07 
-2.735972832678743e-07 
0 
-1.659122048663284e-05 
0 
-4.103959249018114e-06 
-9.926167350636332e-24 
3.733909536653907e-07 
-8.086172416008703e-06 
0 
0 
-5.471945665357486e-07 
-2.488891817681449e-08 
-1.110754489969497e-06 
0 
-1.094389133071497e-06 
-2.735972832678743e-07 
2.240345721992344e-06 
7.124034389702927e-06 
-1.738036128703582e-07 
0 
-5.471945665357487e-07 
0 
-9.926167350636332e-24 
9.97936703975162e-08 
-4.377556532285989e-06 
-2.735972832678743e-07 
0 
-5.471945665357487e-07 
3.733909536653905e-07 
-5.43666921209287e-08 
1.486034108560628e-05 
2.613736675657735e-06 
0 
-2.926141802447099e-06 
-3.44923572947679e-06 
0 
-8.207918498036228e-07 
0 
3.733909536653907e-07 
9.979367039751614e-08 
-8.207918498036227e-07 
2.708373600470318e-05 
-2.735972832678743e-07 
0 
-2.735972832678743e-07 
-8.207918498036229e-07 
-2.735972832678743e-07 
0.0003186446626502404 
-2.735972832678743e-07 
2.987127629323125e-06 
-2.735972832678743e-07 
0 
0 
2.361824749458726e-05 
8.587991934303989e-06 
-2.735972832678743e-07 
7.467819073307814e-07 
-2.735972832678743e-07 
-3.661172945607595e-05 
4.480691443984689e-06 
1.120172860996172e-06 
0 
3.390124853049024e-06 
3.733909536653905e-07 
-3.219857972695435e-05 
2.613736675657735e-06 
-6.266953787236437e-06 
7.467819073307814e-07 
3.733909536653906e-07 
1.17991369177528e-05 
-2.156850023791039e-05 
1.319760201791205e-06 
3.674585523753922e-07 
-2.735972832678743e-07 
-2.735972832678743e-07 
2.408216933572704e-06 
4.731846240629071e-07 
7.59128661247584e-06 
4.480691443984686e-06 
-1.738036128703582e-07 
-5.635599234337481e-07 
2.539726733184892e-06 
-5.632713292363074e-06 
-4.667519172451867e-06 
5.153463408842628e-06 
2.240345721992343e-06 
-1.094389133071498e-06 
0 
1.14693934919396e-05 
1.516018171553015e-06 
1.282469236508132e-05 
-2.735972832678743e-07 
2.799627926446013e-05 
-8.3353959186352e-07 
-1.19941188820189e-23 
-1.367986416339372e-06 
3.086921299720641e-06 
-5.471945665357487e-07 
3.733909536653906e-07 
-4.474008961382325e-07 
3.512835591460724e-05 
6.762252108366646e-06 
0 
1.279508609502081e-05 
-8.207918498036228e-07 
-1.094389133071497e-06 
-3.312280498172388e-06 
-1.110754489969497e-06 
1.792944825854111e-06 
-1.506012461401754e-05 
0 
-2.735972832678743e-07 
-2.735972832678743e-07 
-8.207918498036229e-07 
-3.537521814120261e-06 
-1.094389133071497e-06 
0 
6.575178340837227e-05 
-3.134667198477152e-05 
-9.438819930299368e-06 
7.467819073307814e-07 
-1.57251920719301e-05 
3.308722450212111e-24 
9.926167350636332e-24 
0 
-4.474008961382324e-07 
6.099832656968444e-06 
-1.979160624604476e-05 
-1.367986416339373e-06 
-1.881661972342386e-06 
7.467819073307812e-07 
1.120172860996172e-06 
2.67347750643684e-05 
4.731846240629066e-07 
2.875110343223507e-05 
-7.607647477427455e-05 
7.467819073307814e-07 
-1.898322454874511e-06 
1.597451494925493e-05 
1.672340671573989e-05 
0 
4.029972237258979e-07 
6.068872672313899e-06 
-1.367986416339372e-06 
1.322598809245526e-07 
-1.915180982875121e-06 
9.502645053215129e-06 
-2.735972832678743e-07 
1.363955181359493e-05 
3.308722450212111e-24 
-3.220021780619789e-05 
-1.094389133071497e-06 
-2.976606410384955e-05 
4.930359506975832e-07 
-2.735972832678743e-07 
2.198048633711586e-05 
-1.045106345630016e-05 
-5.128560870839216e-05 
9.70816479530016e-06 
7.645845633587671e-05 
1.457029165741289e-05 
2.066542109121987e-06 
3.488663145967909e-05 
0 
-9.699905719224324e-06 
-2.735972832678743e-07 
-1.136734351435722e-05 
9.926167350636332e-24 
3.733909536653907e-07 
0 
0 
-4.92475109882174e-06 
9.979367039751614e-08 
-1.426741577128599e-05 
3.733909536653907e-07 
-5.471945665357487e-07 
-9.937788282286944e-06 
-6.649569289753795e-05 
-4.654355770979859e-05 
3.733909536653906e-07 
-3.370772498096499e-05 
2.51414175793093e-05 
7.467819073307817e-06 
3.733909536653906e-07 
-5.471945665357491e-06 
1.510350935819599e-05 
-2.735972832678743e-07 
8.412985733679922e-05 
-2.735972832678744e-07 
1.082833765629633e-05 
3.733909536653907e-07 
-1.695950391728175e-06 
2.987127629323125e-06 
1.323488980084844e-23 
0 
-5.471945665357487e-07 
-9.926167350636332e-24 
3.733909536653906e-07 
-4.37755653228599e-06 
-1.75407855502949e-05 
-1.708698133788072e-06 
-1.19941188820189e-23 
9.541045307338736e-07 
-1.513133037081192e-05 
-1.094389133071497e-06 
-0.0001249642942293799 
1.926167308447968e-06 
-1.356945769892403e-05 
3.733909536653909e-07 
0 
-1.915180982875122e-06 
4.129184600058878e-05 
2.987127629323125e-06 
9.926167350636332e-24 
4.953876068047595e-06 
-8.207918498036228e-07 
9.979367039751612e-08 
7.46781907330781e-07 
1.282129949457193e-23 
3.733909536653906e-07 
-1.657949056505246e-06 
0 
-2.735972832678743e-07 
3.733909536653907e-07 
1.693151155456594e-06 
-9.926167350636332e-24 
1.323488980084844e-23 
2.34013939238986e-06 
-8.207918498036228e-07 
-3.206767715098601e-05 
-5.471945665357489e-07 
-5.471945665357487e-07 
-2.151486952464275e-06 
-2.735972832678743e-07 
-2.735972832678743e-07 
-2.735972832678743e-07 
9.979367039751612e-08 
3.782368016654766e-07 
-5.43666921209287e-08 
-8.207918498036228e-07 
1.244648327950884e-23 
-5.471945665357488e-07 
1.866954768326954e-06 
-5.471945665357486e-07 
-1.815387312477604e-06 
6.617444900424221e-24 
-1.48892510259545e-23 
1.272245226313046e-05 
2.402124471831315e-05 
7.467819073307812e-07 
0 
3.733909536653907e-07 
-1.094389133071497e-06 
3.733909536653907e-07 
2.136985951215075e-05 
1.323488980084844e-23 
-1.094389133071498e-06 
-6.090383792896454e-07 
1.661435026241924e-06 
-4.963083675318166e-24 
1.645287583004772e-05 
-3.027103822257712e-07 
-3.063936808067548e-06 
1.349366471851712e-06 
3.970466940254533e-23 
0 
0 
-1.379277023277137e-05 
-2.655506506765625e-05 
-3.918648050393707e-06 
3.733909536653907e-07 
-5.471945665357487e-07 
3.308722450212111e-24 
-1.367986416339372e-06 
-7.88362361506484e-06 
-9.468375961370022e-06 
-1.660683302622978e-07 
-6.696285552558182e-23 
-3.398719431326556e-07 
-1.654361225106055e-24 
-1.361195214837068e-05 
7.619107490039802e-05 
3.308722450212111e-24 
-2.735972832678746e-06 
-2.735972832678743e-07 
0 
2.411586213198081e-05 
0 
-1.695950391728175e-06 
-2.735972832678743e-07 
-2.735972832678743e-07 
1.825175305719182e-05 
3.733909536653906e-07 
3.733909536653907e-07 
-7.918619920270715e-08 
0 
-2.735972832678743e-07 
-2.735972832678743e-07 
0 
3.211144983448803e-06 
-5.471945665357485e-07 
0 
-6.959631765454453e-05 
0 
-5.471945665357488e-07 
-1.915180982875121e-06 
0 
-3.081659038382475e-05 
0 
-2.735972832678742e-07 
-1.367986416339373e-06 
3.733909536653907e-07 
-1.944177246891709e-05 
-8.207918498036227e-07 
-1.208170701834762e-06 
-2.067951531382569e-24 
1.654361225106055e-24 
-9.926167350636332e-24 
0 
0 
-1.017746617303228e-05 
-4.351050136474494e-07 
3.308722450212111e-24 
0 
0 
-1.323488980084844e-23 
3.733909536653907e-07 
0 
-5.471945665357487e-07 
1.493563814661563e-06 
-2.735972832678743e-07 
0 
-1.641583699607245e-06 
0 
1.995873407950323e-07 
5.929210768873705e-05 
-1.738036128703582e-07 
2.240345721992343e-06 
0 
4.406681501511846e-06 
9.708164795300157e-06 
-1.367986416339373e-06 
-9.971738354664484e-06 
9.97936703975162e-08 
5.807135770684834e-07 
-2.735972832678743e-07 
3.733909536653907e-07 
-6.667368625132347e-06 
1.23219014709579e-05 
4.480691443984687e-06 
-5.471945665357487e-07 
-4.474008961382325e-07 
7.467819073307814e-06 
-4.135903062765138e-25 
0 
6.706239763625206e-06 
2.813324016452768e-06 
-3.479695627536317e-05 
0 
3.941622221382278e-07 
4.731846240629069e-07 
1.593357485059079e-06 
1.471900974651074e-05 
5.695481718648509e-06 
8.791145686983969e-06 
1.971360074263868e-05 
-5.471945665357484e-07 
4.480691443984687e-06 
2.055710992279129e-05 
-1.094389133071498e-06 
-1.220891832138784e-05 
3.61495127308681e-06 
2.71353034605525e-06 
4.001574418631781e-06 
8.659903887890625e-06 
0 
-2.735972832678743e-07 
1.413621470898722e-06 
-8.207918498036227e-07 
-5.658497020287746e-06 
7.09442811964242e-06 
-2.735972832678743e-07 
9.926167350636332e-24 
2.134619650304827e-06 
-1.19941188820189e-23 
-1.65380582257482e-05 
8.465755777282971e-07 
-8.207918498036228e-07 
-1.920617652087214e-05 
4.1073004903193e-06 
-2.735972832678743e-07 
-2.408161299433612e-05 
4.318395416868379e-06 
-6.518460080772169e-07 
-2.735972832678744e-07 
-1.881661972342386e-06 
1.414377615458855e-06 
-1.407447824510106e-05 
-8.207918498036229e-07 
1.693151155456594e-06 
0 
9.534361182429802e-06 
2.613736675657735e-06 
1.680259291494259e-05 
-6.212077758078175e-06 
6.617444900424221e-24 
-1.738036128703582e-07 
5.533785861165778e-05 
-3.308722450212111e-24 
-9.926167350636332e-24 
-8.371572067016223e-07 
3.733909536653906e-07 
3.733909536653908e-07 
-3.33753409133542e-06 
2.613736675657734e-06 
1.34491557422906e-05 
2.295254419142874e-06 
-2.735972832678743e-07 
0 
9.979367039751596e-08 
3.135078076328788e-05 
-1.660683302622978e-07 
0 
9.97936703975162e-08 
-2.205143623040995e-06 
6.617444900424221e-24 
-6.649814589507804e-06 
0 
2.252084498571364e-05 
0.0001377317848115235 
1.588181228329214e-06 
3.308722450212111e-24 
-2.735972832678743e-07 
9.979367039751609e-08 
-5.730728031705144e-05 
2.269951992052852e-06 
1.995759175584607e-05 
0 
-5.790427921872345e-06 
0 
2.141350704000295e-05 
-3.00957011594662e-06 
3.151713323944714e-05 
-1.498763812224855e-05 
1.593357485059079e-06 
0 
2.34013939238986e-06 
-4.312535067005202e-05 
5.421884435380637e-06 
5.227473351315471e-06 
6.920148332200468e-07 
-1.654361225106055e-24 
2.987127629323125e-06 
0 
2.240345721992344e-06 
-3.355558354600752e-05 
-0.0001241993430495089 
3.63183681184714e-05 
-2.735972832678743e-07 
3.606432116054933e-07 
-2.735972832678742e-07 
-2.735972832678744e-07 
-6.872662795492858e-06 
1.966748438724469e-06 
-2.371894197425672e-05 
2.87134549017304e-05 
-7.488160474935975e-06 
3.733909536653907e-07 
7.798340616636042e-06 
-2.735972832678743e-07 
9.979367039751614e-08 
-5.751855370719338e-05 
1.465686460661789e-05 
3.959280605373615e-06 
3.454120256455123e-05 
-1.367986416339372e-06 
1.398333649719981e-05 
-8.371572067016219e-07 
-2.735972832678745e-06 
-1.094389133071497e-06 
0 
3.637601835993065e-06 
0 
8.233373436404725e-06 
1.098510020985684e-05 
3.395720681939864e-06 
-7.435352862780774e-06 
-1.739813657625565e-05 
-4.560309704281717e-07 
-3.009570115946619e-06 
1.109600253827422e-05 
0 
-8.207918498036227e-07 
-3.331393613762658e-06 
-2.735972832678743e-07 
-1.202139509458331e-05 
2.240345721992345e-06 
-2.735972832678743e-07 
-9.352544785190744e-06 
2.194877020790119e-05 
6.34764621231164e-06 
7.497425343368318e-06 
-1.199562204192646e-05 
-8.94801792276465e-07 
-1.364362232970476e-05 
-5.471945665357487e-07 
7.123926485137418e-06 
3.733909536653906e-07 
1.219966531393688e-06 
-3.618833679113432e-07 
-2.735972832678743e-07 
-2.18829960896066e-06 
3.733909536653908e-07 
3.164480259195666e-05 
-2.735972832678743e-07 
-3.284429729758574e-06 
-4.158325941139043e-06 
1.231474117147736e-06 
-1.641583699607246e-06 
0 
0 
-1.436490521312922e-05 
1.129634602362937e-05 
9.146531189111414e-07 
0.0001150784041771028 
-2.99653413008184e-06 
-2.490811425986769e-05 
-3.627496731501297e-06 
0 
-3.917459371667167e-06 
-4.165209579163103e-06 
-5.02578492552511e-06 
-2.752338189576745e-06 
-5.471945665357487e-07 
-1.108186618059789e-06 
3.308722450212111e-24 
-1.738036128703582e-07 
-4.595705088185848e-05 
-1.48892510259545e-23 
-1.456272500982841e-06 
3.23010572364203e-05 
-5.471945665357485e-07 
-1.367986416339373e-06 
-3.009570115946619e-06 
-5.966483946548353e-05 
-5.471945665357488e-07 
-9.580762685519561e-06 
2.960627006050735e-08 
-1.182675217714967e-06 
9.97936703975162e-08 
-8.207918498036229e-07 
4.953876068047596e-06 
0.000120012295120712 
-2.372077548711141e-05 
-1.641583699607245e-06 
-0.0001532499380585498 
-1.927928724935019e-06 
-2.735972832678744e-07 
3.733909536653908e-06 
-1.094389133071497e-06 
3.360518582988516e-06 
-2.507854005266767e-06 
5.729782944604231e-07 
-1.660683302622978e-07 
0 
0 
-9.926167350636332e-24 
-2.735972832678743e-07 
8.208668579348595e-06 
-3.722312756488625e-23 
-2.735972832678744e-07 
2.713530346055252e-06 
-3.778665543813657e-07 
3.733909536653905e-07 
-2.735972832678743e-07 
0 
0 
-1.28918030273861e-05 
0 
-2.735972832678743e-07 
0 
-9.926167350636332e-24 
3.733909536653905e-07 
-1.367986416339373e-06 
0 
0 
-1.367986416339373e-06 
-5.43666921209287e-08 
-1.094389133071497e-06 
-0.0001240181568067627 
-3.859475064708138e-06 
-6.015612586566775e-07 
3.733909536653907e-07 
-1.636535689799958e-08 
0 
-1.915180982875122e-06 
6.617444900424221e-24 
-4.103959249018117e-06 
-2.735972832678743e-07 
-3.627496731501295e-06 
3.733909536653907e-07 
7.43017054280314e-06 
0 
1.323488980084844e-23 
6.851259847052719e-06 
-8.494263523363999e-06 
3.733909536653907e-07 
-2.735972832678743e-07 
-9.873360326605023e-06 
-1.367986416339373e-06 
-2.735972832678744e-07 
3.733909536653907e-07 
0 
2.987127629323125e-06 
4.73184624062907e-07 
-2.735972832678743e-07 
3.733909536653907e-07 
-3.782487248093429e-07 
0 
-1.256685160187808e-06 
-2.735972832678743e-07 
-2.735972832678743e-07 
-1.94791169667112e-06 
-1.094389133071497e-06 
-5.471945665357487e-07 
-2.735972832678743e-07 
3.733909536653907e-07 
0 
1.054956411629859e-05 
4.731846240629068e-07 
9.97936703975162e-08 
-2.735972832678743e-07 
2.240345721992344e-06 
1.219966531393688e-06 
-1.63653568979996e-08 
3.733909536653909e-07 
0 
-6.134692264005298e-07 
2.240345721992343e-06 
1.054956411629859e-05 
7.467819073307814e-07 
3.733909536653906e-07 
3.733909536653906e-07 
9.334773841634768e-06 
6.617444900424221e-24 
-1.24206111312962e-05 
7.467819073307812e-07 
7.940933880509066e-23 
0 
3.733909536653907e-07 
0 
0 
-5.471945665357488e-07 
-8.828608464346879e-08 
-2.626298444855863e-23 
-2.735972832678743e-07 
0 
-2.735972832678743e-07 
0 
0 
0 
0 
-8.207918498036227e-07 
0 
0 
-2.735972832678743e-07 
0 
0 
-9.926167350636332e-24 
-1.593992954885332e-05 
-1.149108589725072e-05 
-8.207918498036229e-07 
-9.926167350636332e-24 
-2.205143623040995e-06 
-8.335395918635204e-07 
0 
-2.735972832678743e-07 
-1.094389133071498e-05 
-5.471945665357486e-07 
-8.207918498036227e-07 
-8.005053263787287e-06 
-9.868601800659203e-07 
0 
1.323488980084844e-23 
-2.082788374368842e-05 
0 
-2.735972832678743e-07 
-1.19941188820189e-23 
-8.207918498036225e-07 
0 
-1.422353108460301e-06 
