solver_type L2R_L2LOSS_SVC_DUAL
nr_class 2
label 1 2
nr_feature 31069
bias -1
w
3.420352792606875e-07 
0 
1.167138907775202e-05 
8.787745336240084e-05 
-0.0001529692107780699 
5.835694538876008e-06 
-5.493659259615324e-06 
0 
3.044024654195142e-22 
0 
5.83569453887601e-06 
5.83569453887601e-06 
4.702759159026879e-05 
2.334277815550404e-05 
5.83569453887601e-06 
0 
0 
-5.493659259615324e-06 
0 
5.835694538876008e-06 
-5.493659259615324e-06 
0 
0 
0 
0 
0 
5.83569453887601e-06 
5.83569453887601e-06 
0 
0 
-5.493659259615323e-06 
0 
5.83569453887601e-06 
-1.098731851923064e-05 
0 
0 
0 
-5.493659259615323e-06 
0 
2.117582368135751e-22 
2.917847269438008e-05 
-5.493659259615324e-06 
-5.493659259615322e-06 
5.293955920339377e-23 
5.83569453887601e-06 
0 
-5.493659259615324e-06 
0 
0 
0 
3.420352792606875e-07 
0 
-5.493659259615324e-06 
0 
0 
5.835694538876012e-06 
-1.124965633072118e-22 
0 
0 
5.83569453887601e-06 
0 
8.204175882352479e-05 
0 
5.83569453887601e-06 
5.293955920339377e-23 
0 
-5.493659259615324e-06 
0 
0 
0 
0 
-5.151623980354636e-06 
0 
-1.058791184067875e-22 
1.167138907775202e-05 
0 
4.668555631100808e-05 
1.167138907775203e-05 
0 
-5.151623980354638e-06 
-2.746829629807662e-05 
2.334277815550404e-05 
3.420352792606875e-07 
1.750708361662805e-05 
5.904101594728148e-05 
-5.493659259615324e-06 
-4.944293333653791e-05 
0 
5.83569453887601e-06 
0 
3.268350947028987e-05 
-5.493659259615324e-06 
0 
-1.648097777884597e-05 
5.83569453887601e-06 
0 
0 
0 
1.167138907775202e-05 
0 
-3.176373552203626e-22 
-1.648097777884597e-05 
0 
0 
0 
0 
5.28632861291448e-05 
0 
5.83569453887601e-06 
3.501416723325609e-05 
-5.493659259615323e-06 
5.097535482145779e-07 
-2.163260175920058e-05 
2.117582368135751e-22 
5.293955920339377e-23 
-5.493659259615324e-06 
0 
0 
2.334277815550404e-05 
5.835694538876008e-06 
0 
5.293955920339377e-23 
0 
-2.197463703846129e-05 
0 
-1.648097777884597e-05 
-5.493659259615324e-06 
5.83569453887601e-06 
-5.493659259615324e-06 
0 
0 
0 
0 
0 
-5.493659259615324e-06 
-1.588186776101813e-22 
-1.588186776101813e-22 
-1.588186776101813e-22 
-5.493659259615322e-06 
-1.058791184067875e-22 
-1.058791184067875e-22 
5.293955920339377e-23 
0 
0 
-1.098731851923065e-05 
0 
-2.117582368135751e-22 
5.293955920339377e-23 
0.0002903905319584288 
5.835694538876008e-06 
5.835694538876016e-06 
0 
0 
5.293955920339377e-23 
5.097535482145779e-07 
8.998696035525119e-06 
-5.493659259615324e-06 
0 
0 
0 
3.501416723325611e-05 
0.0001167138907775203 
0 
5.83569453887601e-06 
0 
0 
-5.493659259615324e-06 
0 
0 
0 
5.83569453887601e-06 
0 
0 
0 
0 
0 
0 
-5.493659259615324e-06 
5.835694538876008e-06 
0 
-5.493659259615323e-06 
1.058791184067875e-22 
0 
0 
0 
-5.493659259615324e-06 
0 
4.441499553504523e-06 
0 
0 
5.83569453887601e-06 
0 
1.058791184067875e-22 
-1.648097777884597e-05 
5.83569453887601e-06 
4.367513634279986e-22 
0 
0 
-5.493659259615324e-06 
0 
0 
-8.315851354030963e-06 
5.83569453887601e-06 
0 
0 
-1.648097777884597e-05 
-1.098731851923065e-05 
5.83569453887601e-06 
0 
5.83569453887601e-06 
-1.648097777884597e-05 
-5.493659259615324e-06 
4.084986177213208e-05 
0 
1.167138907775202e-05 
-5.493659259615323e-06 
-5.493659259615324e-06 
-5.493659259615323e-06 
-5.493659259615322e-06 
-1.058791184067875e-22 
3.420352792606867e-07 
-3.845561481730725e-05 
-2.197463703846129e-05 
0 
5.835694538876008e-06 
0 
0 
0 
5.83569453887601e-06 
2.917847269438004e-05 
-5.493659259615323e-06 
0 
4.702759159026877e-05 
-5.493659259615323e-06 
0 
5.83569453887601e-06 
0 
1.167138907775202e-05 
-3.176373552203626e-22 
-1.098731851923065e-05 
5.83569453887601e-06 
5.83569453887601e-06 
0 
5.83569453887601e-06 
-5.493659259615324e-06 
0 
5.83569453887601e-06 
5.835694538876008e-06 
0 
5.83569453887601e-06 
0 
3.420352792606875e-07 
-5.493659259615324e-06 
5.83569453887601e-06 
-5.493659259615324e-06 
5.293955920339377e-23 
0 
-5.493659259615322e-06 
3.420352792606875e-07 
-5.493659259615323e-06 
-5.493659259615322e-06 
0 
6.177729818136696e-06 
0 
-5.493659259615324e-06 
0 
-5.493659259615324e-06 
-1.648097777884597e-05 
-1.098731851923065e-05 
0 
1.784911889588871e-05 
5.83569453887601e-06 
-1.588186776101813e-22 
0 
-5.151623980354638e-06 
5.835694538876008e-06 
0 
0 
0 
-5.493659259615323e-06 
0 
0 
-2.19746370384613e-05 
-5.493659259615323e-06 
0 
3.441071348220595e-22 
-1.098731851923064e-05 
0 
-5.493659259615323e-06 
-1.588186776101813e-22 
0 
5.83569453887601e-06 
-1.098731851923065e-05 
0 
-5.493659259615324e-06 
0 
-5.493659259615323e-06 
-5.493659259615324e-06 
0 
0 
0 
0 
0 
6.519765097397389e-06 
0 
0 
0 
0 
6.840705585213766e-07 
0 
5.83569453887601e-06 
0 
0 
5.83569453887601e-06 
5.83569453887601e-06 
1.784911889588871e-05 
0 
0 
5.83569453887601e-06 
5.293955920339377e-23 
5.293955920339377e-23 
1.167138907775202e-05 
0 
-1.098731851923065e-05 
1.167138907775202e-05 
-5.493659259615322e-06 
1.058791184067875e-22 
0 
3.420352792606875e-07 
3.420352792606875e-07 
0 
3.420352792606879e-07 
0 
3.420352792606875e-07 
0 
0 
-1.098731851923065e-05 
0 
1.750708361662805e-05 
-1.098731851923065e-05 
4.235164736271502e-22 
0 
0 
5.293955920339377e-23 
5.835694538876008e-06 
-1.588186776101813e-22 
-5.493659259615324e-06 
-1.098731851923065e-05 
-5.493659259615324e-06 
-3.176373552203626e-22 
0 
0 
0 
-1.588186776101813e-22 
5.83569453887601e-06 
0 
1.058791184067875e-22 
0 
0 
0 
5.83569453887601e-06 
-1.588186776101813e-22 
5.293955920339377e-23 
5.293955920339377e-23 
5.293955920339377e-23 
5.293955920339377e-23 
0 
1.167138907775202e-05 
0 
0 
0 
0 
5.293955920339377e-23 
1.167138907775202e-05 
0 
5.83569453887601e-06 
-5.493659259615324e-06 
5.293955920339377e-23 
0 
0 
0 
0 
5.83569453887601e-06 
-1.098731851923065e-05 
5.83569453887601e-06 
0 
0 
0 
0 
-5.493659259615324e-06 
0 
-5.493659259615324e-06 
2.117582368135751e-22 
-5.493659259615324e-06 
5.83569453887601e-06 
-5.493659259615324e-06 
4.235164736271502e-22 
1.167138907775202e-05 
2.385253170371861e-05 
8.169972354426414e-05 
-5.493659259615324e-06 
0 
1.167138907775202e-05 
5.83569453887601e-06 
0 
1.058791184067875e-22 
5.83569453887601e-06 
-1.058791184067875e-22 
-5.151623980354634e-06 
5.83569453887601e-06 
1.750708361662805e-05 
0 
-2.197463703846129e-05 
5.83569453887601e-06 
-4.944293333653791e-05 
-6.043025185576856e-05 
0 
5.83569453887601e-06 
-1.648097777884597e-05 
0 
1.167138907775202e-05 
-5.493659259615324e-06 
-3.845561481730725e-05 
0 
-2.71262610188159e-05 
-3.862912555689233e-05 
5.293955920339377e-23 
0 
-1.098731851923065e-05 
-1.098731851923065e-05 
0 
-5.493659259615323e-06 
5.83569453887601e-06 
-5.493659259615324e-06 
-5.493659259615324e-06 
0 
1.167138907775202e-05 
-6.352747104407253e-22 
-1.735107395850679e-07 
1.985233470127266e-22 
0 
3.420352792606875e-07 
5.83569453887601e-06 
0 
-1.098731851923064e-05 
0 
0 
-1.058791184067875e-22 
0 
5.097535482145788e-07 
5.293955920339377e-23 
0 
0 
-1.098731851923065e-05 
-1.098731851923065e-05 
3.420352792606875e-07 
5.293955920339377e-23 
0 
0 
-5.493659259615324e-06 
0 
5.83569453887601e-06 
2.117582368135751e-22 
5.293955920339377e-23 
0 
0 
-1.588186776101813e-22 
5.83569453887601e-06 
5.83569453887601e-06 
0 
5.83569453887601e-06 
4.367513634279986e-22 
0 
-5.493659259615324e-06 
0 
-1.058791184067875e-22 
-5.493659259615324e-06 
-5.493659259615323e-06 
-5.151623980354634e-06 
1.201342435701271e-05 
6.177729818136695e-06 
6.519765097397384e-06 
-5.493659259615324e-06 
0 
0 
0 
5.293955920339377e-23 
0 
-5.493659259615324e-06 
0 
5.83569453887601e-06 
-1.030324796070927e-05 
0 
1.058791184067875e-22 
3.420352792606875e-07 
0 
1.750708361662805e-05 
0 
5.293955920339377e-23 
-5.493659259615324e-06 
-2.19746370384613e-05 
0 
-5.493659259615323e-06 
-4.394927407692258e-05 
1.058791184067875e-22 
0 
-5.493659259615324e-06 
-5.493659259615324e-06 
0 
5.293955920339377e-23 
1.750708361662805e-05 
1.167138907775203e-05 
0 
-1.757629737978957e-07 
0 
0 
1.750708361662804e-05 
0 
-5.493659259615324e-06 
6.362552221977132e-06 
0 
-1.058791184067875e-22 
5.83569453887601e-06 
0 
-1.588186776101813e-22 
0 
0 
2.249931266144235e-22 
5.835694538876011e-06 
0 
5.83569453887601e-06 
-5.493659259615323e-06 
0 
0 
0 
1.302023360150179e-06 
-2.71262610188159e-05 
0 
3.110199103199384e-22 
0 
0 
0 
5.293955920339377e-23 
5.83569453887601e-06 
5.83569453887601e-06 
0 
0 
-5.493659259615323e-06 
-3.296195555769194e-05 
0 
-5.151623980354636e-06 
0 
-5.493659259615324e-06 
-5.493659259615324e-06 
5.293955920339377e-23 
-5.493659259615323e-06 
5.83569453887601e-06 
5.293955920339377e-23 
3.42035279260687e-07 
0 
0 
0 
0 
-1.665448851843103e-05 
0 
3.705769144237564e-22 
0 
5.83569453887601e-06 
-5.493659259615324e-06 
3.420352792606875e-07 
-1.072026073868724e-21 
-5.493659259615324e-06 
1.058791184067875e-22 
2.334277815550403e-05 
0 
3.420352792606875e-07 
0 
-5.493659259615323e-06 
5.83569453887601e-06 
3.420352792606877e-07 
0 
-5.493659259615323e-06 
-5.151623980354636e-06 
1.201342435701271e-05 
0 
-1.098731851923065e-05 
0 
8.000304677406057e-07 
5.83569453887601e-06 
5.293955920339377e-23 
1.167138907775203e-05 
0 
-5.493659259615324e-06 
0 
-5.493659259615324e-06 
5.293955920339377e-23 
0 
5.83569453887601e-06 
-4.467553421833253e-06 
0 
-5.493659259615322e-06 
0 
5.835694538876008e-06 
5.83569453887601e-06 
5.835694538876012e-06 
0 
0 
3.420352792606875e-07 
-2.249931266144235e-22 
5.835694538876008e-06 
-1.588186776101813e-22 
0 
1.167138907775202e-05 
-5.493659259615324e-06 
0 
0 
-5.493659259615324e-06 
0 
-1.098731851923065e-05 
4.235164736271502e-22 
0 
0 
1.201342435701271e-05 
-5.493659259615324e-06 
5.83569453887601e-06 
0 
-1.098731851923065e-05 
-5.493659259615324e-06 
-5.493659259615324e-06 
-1.098731851923065e-05 
-2.163260175920059e-05 
0 
3.569823779177743e-05 
-1.648097777884597e-05 
-5.493659259615324e-06 
0 
4.235164736271502e-22 
0 
2.334277815550405e-05 
1.058791184067875e-22 
0 
0 
0 
0 
0 
5.83569453887601e-06 
0 
-5.493659259615324e-06 
0 
-5.493659259615323e-06 
0 
1.058791184067875e-22 
0 
1.167138907775202e-05 
-2.646977960169689e-22 
-1.19114008207636e-22 
-5.493659259615324e-06 
3.420352792606875e-07 
3.420352792606875e-07 
-2.746829629807662e-05 
-5.493659259615324e-06 
2.334277815550404e-05 
1.750708361662805e-05 
1.30202336015018e-06 
5.293955920339377e-23 
3.020457853216211e-05 
0 
0 
2.671467165199681e-06 
0 
0 
0 
0 
-1.081879397955502e-05 
0 
0 
0 
2.334277815550404e-05 
0 
0 
1.058791184067875e-22 
0 
0 
0 
0 
-5.493659259615324e-06 
-4.102815838263017e-22 
0 
0 
0 
-1.588186776101813e-22 
-1.098731851923064e-05 
0 
-1.588186776101813e-22 
1.167138907775202e-05 
5.83569453887601e-06 
-1.588186776101813e-22 
0 
0 
0 
1.750708361662805e-05 
3.420352792606875e-07 
5.83569453887601e-06 
0 
-5.493659259615324e-06 
1.750708361662805e-05 
0 
0 
0 
0 
0 
-1.124965633072118e-22 
3.42035279260687e-07 
5.83569453887601e-06 
0 
2.414280862324465e-05 
1.167138907775202e-05 
5.83569453887601e-06 
0 
0 
0 
0 
-5.151623980354636e-06 
-4.966801576514201e-06 
0 
1.167138907775202e-05 
5.83569453887601e-06 
0 
-4.944293333653792e-05 
-5.493659259615324e-06 
0 
0 
0 
-1.648097777884597e-05 
5.293955920339377e-23 
0 
5.293955920339377e-23 
5.293955920339377e-23 
-2.117582368135751e-22 
0 
3.420352792606875e-07 
-5.493659259615324e-06 
0 
5.835694538876008e-06 
3.420352792606867e-07 
-1.058791184067875e-22 
5.097535482145788e-07 
0 
-1.648097777884597e-05 
0 
3.420352792606875e-07 
-1.098731851923065e-05 
5.83569453887601e-06 
6.177729818136696e-06 
-5.493659259615323e-06 
-5.493659259615323e-06 
-2.117582368135751e-22 
0 
-5.493659259615323e-06 
-1.588186776101813e-22 
0 
0 
5.835694538876008e-06 
5.835694538876012e-06 
-1.648097777884597e-05 
0 
0 
0 
5.83569453887601e-06 
6.177729818136695e-06 
0 
0 
0 
-1.064528323996995e-05 
3.420352792606877e-07 
-1.098731851923065e-05 
5.83569453887601e-06 
3.420352792606875e-07 
3.110199103199384e-22 
5.835694538876007e-06 
-5.493659259615323e-06 
-5.493659259615322e-06 
-1.098731851923065e-05 
1.167138907775202e-05 
0 
5.83569453887601e-06 
5.835694538876012e-06 
-5.493659259615323e-06 
0 
5.835694538876008e-06 
-5.493659259615323e-06 
1.201342435701271e-05 
-5.493659259615323e-06 
8.253872432857169e-06 
3.110199103199384e-22 
1.167138907775202e-05 
0 
0 
5.83569453887601e-06 
0 
5.835694538876008e-06 
0 
4.668555631100808e-05 
-5.493659259615324e-06 
0 
0 
3.420352792606873e-07 
0 
5.83569453887601e-06 
1.058791184067875e-22 
0 
-5.493659259615324e-06 
5.293955920339377e-23 
-5.493659259615324e-06 
0 
-5.493659259615324e-06 
0 
1.058791184067875e-22 
1.058791184067875e-22 
-1.648097777884597e-05 
0 
5.83569453887601e-06 
5.835694538876008e-06 
0 
-5.493659259615324e-06 
0 
-5.493659259615323e-06 
2.334277815550403e-05 
-5.493659259615324e-06 
-4.764560328305439e-22 
-5.493659259615324e-06 
0 
0 
0 
0 
-5.493659259615324e-06 
0 
0 
3.420352792606875e-07 
8.51788827475265e-07 
5.293955920339377e-23 
1.167138907775202e-05 
5.83569453887601e-06 
5.83569453887601e-06 
-1.588186776101813e-22 
1.750708361662805e-05 
5.835694538876008e-06 
-5.493659259615323e-06 
5.293955920339377e-23 
0 
3.42035279260687e-07 
-3.176373552203626e-22 
0 
0 
1.058791184067875e-22 
5.83569453887601e-06 
5.83569453887601e-06 
-1.098731851923065e-05 
1.167138907775202e-05 
-1.588186776101813e-22 
5.83569453887601e-06 
0 
0 
0 
0 
-1.257314531080602e-21 
-1.098731851923065e-05 
0 
-5.493659259615324e-06 
-5.493659259615324e-06 
-1.588186776101813e-22 
0 
-5.493659259615324e-06 
-5.493659259615324e-06 
1.167138907775202e-05 
-5.493659259615324e-06 
5.835694538876012e-06 
5.9657742871883e-05 
0 
0 
1.167138907775202e-05 
5.293955920339377e-23 
1.167138907775202e-05 
1.167138907775202e-05 
-5.493659259615323e-06 
0 
5.293955920339377e-23 
-3.811357953804661e-05 
0 
-1.098731851923065e-05 
0 
-1.098731851923065e-05 
0 
-1.19114008207636e-22 
5.835694538876012e-06 
0 
-5.493659259615324e-06 
-5.493659259615324e-06 
1.167138907775202e-05 
5.83569453887601e-06 
0 
1.058791184067875e-22 
-1.064528323996995e-05 
0 
3.691368235303541e-05 
1.784911889588871e-05 
-3.176373552203626e-22 
-2.197463703846129e-05 
-1.064528323996995e-05 
1.750708361662805e-05 
-1.588186776101813e-22 
-3.845561481730725e-05 
1.167138907775202e-05 
-1.098731851923065e-05 
1.058791184067875e-22 
0 
0 
-2.19746370384613e-05 
0 
-5.493659259615324e-06 
5.293955920339377e-23 
5.835694538876012e-06 
1.167138907775202e-05 
0 
5.293955920339377e-23 
-5.493659259615324e-06 
1.235545963627339e-05 
1.167138907775202e-05 
2.917847269438008e-05 
-1.098731851923065e-05 
-1.735107395850679e-07 
1.254028204011383e-05 
2.334277815550404e-05 
1.058791184067875e-22 
-5.493659259615324e-06 
5.835694538876007e-06 
-5.493659259615323e-06 
-5.493659259615323e-06 
5.835694538876012e-06 
0 
-5.493659259615322e-06 
0 
-7.824317022581536e-06 
3.110199103199384e-22 
-5.493659259615322e-06 
0 
5.293955920339377e-23 
-4.347661299578713e-21 
0 
-5.493659259615323e-06 
0 
1.750708361662805e-05 
0 
0 
-2.746829629807662e-05 
0 
-1.098731851923065e-05 
-5.493659259615322e-06 
0 
6.840705585213749e-07 
0 
-7.424264178226497e-05 
0 
0 
5.835694538876008e-06 
5.83569453887601e-06 
2.117582368135751e-22 
2.601424532070373e-05 
5.83569453887601e-06 
5.83569453887601e-06 
3.420352792606875e-07 
5.83569453887601e-06 
0 
0 
0 
0 
0 
-5.493659259615324e-06 
5.835694538876008e-06 
0 
0 
5.83569453887601e-06 
1.195283770419839e-06 
-1.648097777884597e-05 
0 
0 
0 
1.058791184067875e-22 
0 
-5.493659259615324e-06 
0 
-1.098731851923065e-05 
0 
0 
5.83569453887601e-06 
5.83569453887601e-06 
5.83569453887601e-06 
5.83569453887601e-06 
0 
-5.493659259615323e-06 
3.420352792606875e-07 
-5.493659259615324e-06 
0 
1.167138907775202e-05 
5.83569453887601e-06 
1.750708361662805e-05 
5.835694538876012e-06 
0 
0 
0 
0 
5.83569453887601e-06 
2.334277815550403e-05 
1.167138907775202e-05 
1.058791184067875e-22 
0 
0 
5.293955920339377e-23 
-5.493659259615323e-06 
1.750708361662805e-05 
0 
0 
0 
5.83569453887601e-06 
0 
1.058791184067875e-22 
0 
1.201342435701271e-05 
3.501416723325611e-05 
-1.588186776101813e-22 
6.177729818136695e-06 
0 
-4.235164736271502e-22 
5.293955920339377e-23 
3.705769144237564e-22 
0 
-1.648097777884597e-05 
6.177729818136696e-06 
-4.394927407692259e-05 
-3.783482863311881e-06 
5.293955920339377e-23 
-5.493659259615322e-06 
1.167138907775202e-05 
-1.098731851923065e-05 
-2.746829629807662e-05 
-7.159108111458427e-05 
0 
0 
-1.098731851923065e-05 
0 
4.668555631100808e-05 
-3.614304930674105e-06 
-5.151623980354636e-06 
-5.493659259615324e-06 
-2.197463703846129e-05 
5.293955920339377e-23 
-3.296195555769194e-05 
0 
0 
-5.493659259615324e-06 
0 
-5.493659259615323e-06 
-5.493659259615324e-06 
5.293955920339377e-23 
-3.075481365634166e-06 
0 
0 
-7.141757037499921e-05 
0 
-5.493659259615323e-06 
5.83569453887601e-06 
-1.648097777884597e-05 
5.835694538876008e-06 
-7.141757037499921e-05 
0 
0 
-5.151623980354636e-06 
0 
0 
0 
-5.493659259615324e-06 
5.83569453887601e-06 
-2.752857078576476e-21 
-1.588186776101813e-22 
5.293955920339377e-23 
0 
-5.493659259615322e-06 
0 
0 
0 
-1.588186776101813e-22 
3.420352792606867e-07 
0 
-1.648097777884597e-05 
0 
5.835694538876008e-06 
1.784911889588871e-05 
0 
0 
1.167138907775202e-05 
0 
-1.098731851923065e-05 
0 
0 
-5.493659259615324e-06 
0 
0 
0 
5.835694538876008e-06 
0 
-5.493659259615322e-06 
-1.058791184067875e-22 
5.83569453887601e-06 
0 
0 
-5.493659259615324e-06 
1.167138907775202e-05 
2.418177893981156e-06 
0 
0 
-1.058791184067875e-22 
1.167138907775202e-05 
0 
1.058791184067875e-22 
-2.249931266144235e-22 
-5.493659259615324e-06 
0 
5.83569453887601e-06 
-5.493659259615324e-06 
1.235545963627339e-05 
1.750708361662805e-05 
0 
0 
-5.493659259615322e-06 
0 
-5.493659259615323e-06 
5.293955920339377e-23 
5.83569453887601e-06 
0 
0 
0 
1.167138907775202e-05 
0 
0 
5.063742493455688e-06 
0 
5.83569453887601e-06 
1.167138907775202e-05 
5.293955920339377e-23 
3.420352792606878e-07 
-0.000115092503554397 
5.293955920339377e-23 
0 
0 
0 
0 
0 
-5.493659259615324e-06 
0 
0 
5.83569453887601e-06 
-5.493659259615324e-06 
5.83569453887601e-06 
5.293955920339377e-23 
-1.098731851923065e-05 
-1.098731851923065e-05 
0 
0 
2.402684871402542e-05 
0 
5.83569453887601e-06 
-1.648097777884597e-05 
5.835694538876008e-06 
-5.493659259615323e-06 
0 
-5.493659259615324e-06 
-1.124965633072118e-22 
5.835694538876009e-06 
-5.493659259615324e-06 
6.345448087090596e-06 
1.167138907775202e-05 
-1.579690722032459e-05 
-1.098731851923065e-05 
-5.493659259615323e-06 
0 
0 
0 
0 
-6.52229366243136e-06 
0 
-1.19114008207636e-22 
0 
0 
-1.098731851923065e-05 
5.83569453887601e-06 
-1.058791184067875e-22 
-5.493659259615322e-06 
0 
0 
-1.648097777884597e-05 
0 
-1.73510739585068e-07 
5.097535482145788e-07 
5.83569453887601e-06 
0.00012067692274191 
0 
-5.493659259615324e-06 
-5.493659259615324e-06 
0 
5.293955920339377e-23 
1.167138907775202e-05 
0 
3.970466940254533e-22 
0 
-1.588186776101813e-22 
5.83569453887601e-06 
5.83569453887601e-06 
3.110199103199384e-22 
1.167138907775202e-05 
5.293955920339377e-23 
-2.117582368135751e-22 
-2.19746370384613e-05 
-5.493659259615324e-06 
7.08283649342528e-05 
-3.176373552203626e-22 
0 
2.334277815550404e-05 
5.293955920339377e-23 
0 
0 
0 
0 
0 
-1.588186776101813e-22 
0 
5.83569453887601e-06 
5.83569453887601e-06 
0 
0 
-0.0001639565292973005 
5.83569453887601e-06 
0 
0 
0 
0 
-2.610015518103386e-05 
5.83569453887601e-06 
0 
5.83569453887601e-06 
0 
-2.746829629807661e-05 
-5.493659259615324e-06 
0 
1.058791184067875e-22 
1.750708361662805e-05 
-4.944293333653792e-05 
-1.19114008207636e-22 
3.50141672332561e-05 
-2.746829629807661e-05 
4.367513634279986e-22 
-5.493659259615323e-06 
-2.19746370384613e-05 
0 
0 
0 
0 
0 
0 
0 
-5.493659259615324e-06 
5.83569453887601e-06 
-5.493659259615324e-06 
1.167138907775202e-05 
0 
-5.151623980354636e-06 
1.167138907775202e-05 
3.420352792606875e-07 
0 
0 
0 
0 
5.83569453887601e-06 
-1.098731851923065e-05 
5.293955920339377e-23 
3.420352792606875e-07 
0 
0 
5.83569453887601e-06 
0 
7.586402900538814e-05 
-5.151623980354636e-06 
0 
5.83569453887601e-06 
-1.098731851923065e-05 
0 
0 
0 
1.167138907775202e-05 
0 
0 
0 
0 
5.83569453887601e-06 
5.835694538876014e-06 
5.83569453887601e-06 
0 
0 
-1.588186776101813e-22 
-2.746829629807662e-05 
5.83569453887601e-06 
-5.493659259615324e-06 
7.136492021998969e-06 
-1.588186776101813e-22 
5.835694538876008e-06 
-1.058791184067875e-22 
-1.588186776101813e-22 
5.83569453887601e-06 
-5.493659259615323e-06 
-5.493659259615323e-06 
5.83569453887601e-06 
-1.098731851923065e-05 
-1.588186776101813e-22 
-5.493659259615325e-06 
0 
5.83569453887601e-06 
4.367513634279986e-22 
5.293955920339377e-23 
0 
-1.588186776101813e-22 
0 
0 
0 
0 
1.167138907775202e-05 
0 
0 
0 
-5.493659259615323e-06 
0 
0 
0 
0 
0 
0 
0 
1.167138907775202e-05 
0 
-1.098731851923065e-05 
0 
-5.493659259615324e-06 
5.83569453887601e-06 
0 
5.83569453887601e-06 
5.83569453887601e-06 
-1.098731851923065e-05 
-5.493659259615324e-06 
3.420352792606867e-07 
-1.098731851923065e-05 
0 
0 
0 
3.044024654195142e-22 
-5.493659259615323e-06 
0 
0 
0 
3.420352792606873e-07 
1.058791184067875e-22 
0 
0 
-5.493659259615323e-06 
-5.493659259615323e-06 
0 
0 
1.750708361662805e-05 
0 
0 
1.750708361662805e-05 
5.835694538876008e-06 
-5.493659259615324e-06 
0 
0 
-4.315938716055212e-05 
-5.493659259615322e-06 
-5.493659259615322e-06 
8.000304677406057e-07 
1.167138907775202e-05 
-1.588186776101813e-22 
-5.493659259615324e-06 
-2.330657762966215e-06 
-5.493659259615324e-06 
5.293955920339377e-23 
0 
5.293955920339377e-23 
-5.493659259615322e-06 
5.83569453887601e-06 
0 
0 
5.835694538876008e-06 
0 
-5.151623980354636e-06 
0 
0 
0 
0 
0 
5.835694538876012e-06 
5.293955920339377e-23 
-5.493659259615324e-06 
0 
4.084986177213208e-05 
1.167138907775202e-05 
1.985233470127266e-22 
-1.648097777884597e-05 
5.83569453887601e-06 
0 
0 
-5.493659259615324e-06 
0 
0 
5.293955920339377e-23 
2.952050797364075e-05 
2.117582368135751e-22 
5.293955920339377e-23 
0 
0 
0 
5.83569453887601e-06 
0 
0 
1.058791184067875e-22 
0 
0 
0 
1.235545963627339e-05 
5.83569453887601e-06 
2.646977960169689e-22 
-1.098731851923065e-05 
0 
-5.493659259615324e-06 
-1.058791184067875e-22 
0 
-5.493659259615324e-06 
-1.588186776101813e-22 
2.418177893981156e-06 
0 
5.293955920339377e-23 
0 
-3.176373552203626e-22 
0 
-5.493659259615322e-06 
0 
0 
0 
-5.493659259615324e-06 
0 
0 
1.167138907775202e-05 
-5.493659259615322e-06 
-1.124965633072118e-22 
-1.124965633072118e-22 
3.044024654195142e-22 
-3.845561481730725e-05 
0 
0 
5.293955920339377e-23 
-5.493659259615322e-06 
-1.588186776101813e-22 
1.750708361662805e-05 
-5.493659259615324e-06 
1.058791184067875e-22 
8.753541808314012e-05 
-1.098731851923065e-05 
0 
0 
0 
1.750708361662805e-05 
-5.493659259615324e-06 
0 
0 
5.293955920339377e-23 
-5.151623980354638e-06 
5.83569453887601e-06 
5.83569453887601e-06 
0 
0 
3.110199103199384e-22 
4.668555631100808e-05 
2.334277815550404e-05 
1.058791184067875e-22 
0 
0 
5.835694538876006e-06 
1.167138907775202e-05 
0 
0 
1.750708361662805e-05 
5.83569453887601e-06 
2.67146716519968e-06 
1.201342435701271e-05 
0 
0 
0 
0.0001400566689330244 
0 
5.83569453887601e-06 
-5.493659259615323e-06 
5.83569453887601e-06 
-2.163260175920059e-05 
0 
6.861800376658074e-06 
1.167138907775202e-05 
-5.493659259615324e-06 
6.177729818136701e-06 
-8.240488889422982e-05 
5.83569453887601e-06 
3.00473656567419e-05 
0 
0 
5.293955920339377e-23 
0 
5.83569453887601e-06 
0 
0 
5.83569453887601e-06 
-1.098731851923065e-05 
2.368481343476476e-05 
-1.058791184067875e-22 
0 
5.293955920339377e-23 
0 
5.835694538876008e-06 
5.83569453887601e-06 
0 
0 
0 
5.83569453887601e-06 
0 
0 
1.167138907775202e-05 
-5.151623980354636e-06 
0 
0 
6.177729818136696e-06 
5.83569453887601e-06 
-5.493659259615324e-06 
5.835694538876008e-06 
0 
1.750708361662804e-05 
-2.746829629807662e-05 
4.235164736271502e-22 
-5.493659259615323e-06 
0 
-2.19746370384613e-05 
-1.098731851923064e-05 
5.83569453887601e-06 
-5.493659259615324e-06 
0 
6.861800376658076e-06 
0 
1.201342435701271e-05 
-1.588186776101813e-22 
-5.493659259615323e-06 
0 
5.293955920339377e-23 
0 
0 
0 
4.309141217117214e-05 
5.293955920339377e-23 
0 
5.83569453887601e-06 
-5.493659259615324e-06 
5.83569453887601e-06 
0 
0 
-5.493659259615324e-06 
3.420352792606875e-07 
5.835694538876012e-06 
0 
0 
-5.493659259615324e-06 
5.835694538876008e-06 
5.83569453887601e-06 
-1.046046083612952e-05 
-5.493659259615324e-06 
-5.493659259615324e-06 
1.434285624295171e-05 
-5.151623980354636e-06 
3.420352792606875e-07 
5.83569453887601e-06 
0 
-3.176373552203626e-22 
5.83569453887601e-06 
-1.098731851923065e-05 
1.167138907775202e-05 
5.293955920339377e-23 
0 
0 
5.293955920339377e-23 
1.985233470127266e-22 
0 
-5.493659259615322e-06 
0 
5.83569453887601e-06 
0 
0 
1.167138907775202e-05 
3.501416723325611e-05 
5.83569453887601e-06 
0 
0 
0 
0 
0 
5.83569453887601e-06 
-5.493659259615324e-06 
0 
-1.588186776101813e-22 
1.058791184067875e-22 
-3.176373552203626e-22 
5.83569453887601e-06 
-5.493659259615324e-06 
5.83569453887601e-06 
5.83569453887601e-06 
1.167138907775202e-05 
-2.19746370384613e-05 
0 
-5.493659259615324e-06 
-4.809588701093949e-06 
-1.648097777884597e-05 
0 
0 
3.110199103199384e-22 
6.177729818136708e-06 
2.917847269438005e-05 
2.402684871402542e-05 
0 
0 
0 
0 
1.750708361662805e-05 
0 
0 
3.420352792606873e-07 
0 
0 
0 
0 
0 
-5.493659259615322e-06 
0 
5.293955920339377e-23 
-6.043025185576856e-05 
-5.493659259615324e-06 
-1.098731851923065e-05 
0 
5.83569453887601e-06 
0 
5.83569453887601e-06 
5.293955920339377e-23 
-1.098731851923065e-05 
0 
-2.197463703846129e-05 
6.177729818136696e-06 
0 
0 
-5.493659259615324e-06 
-1.648097777884597e-05 
3.420352792606875e-07 
-1.098731851923064e-05 
-1.098731851923065e-05 
0 
-1.613894249958526e-05 
0 
5.904101594728147e-05 
5.83569453887601e-06 
0 
5.835694538876008e-06 
5.835694538876008e-06 
-1.058791184067875e-22 
0 
-5.493659259615324e-06 
0 
-1.064528323996995e-05 
0 
-5.493659259615324e-06 
5.835694538876008e-06 
-1.648097777884597e-05 
-5.493659259615323e-06 
-1.932293910923873e-21 
5.83569453887601e-06 
0 
0 
4.084986177213208e-05 
0 
0 
5.835694538876012e-06 
5.835694538876008e-06 
-1.648097777884597e-05 
-1.098731851923065e-05 
1.167138907775202e-05 
-5.493659259615323e-06 
-1.064528323996995e-05 
-1.73510739585068e-07 
-1.098731851923065e-05 
0 
3.163001496649109e-06 
0 
0 
0 
-1.098731851923065e-05 
-5.493659259615324e-06 
5.83569453887601e-06 
0 
0 
0 
-5.493659259615324e-06 
-5.493659259615324e-06 
5.83569453887601e-06 
4.984855780765718e-05 
0 
5.835694538876008e-06 
0 
0 
0 
0 
-5.493659259615324e-06 
-5.493659259615324e-06 
5.83569453887601e-06 
0 
0 
0 
-5.493659259615323e-06 
-5.493659259615324e-06 
0 
0 
0 
0 
-4.102815838263017e-22 
5.662183799290942e-06 
5.835694538876008e-06 
0 
3.420352792606875e-07 
1.167138907775202e-05 
-7.69112296346145e-05 
5.293955920339377e-23 
0 
0 
-5.493659259615324e-06 
5.293955920339377e-23 
0 
5.835694538876008e-06 
0 
0 
5.293955920339377e-23 
0 
0 
4.367513634279986e-22 
0 
-1.588186776101813e-22 
1.750708361662805e-05 
5.293955920339377e-23 
-5.493659259615323e-06 
5.83569453887601e-06 
0 
-3.176373552203626e-22 
0 
5.83569453887601e-06 
0 
-5.493659259615324e-06 
-5.493659259615324e-06 
-0.0001098731851923065 
2.117582368135751e-22 
1.167138907775202e-05 
0 
5.293955920339377e-23 
5.293955920339377e-23 
0 
5.293955920339377e-23 
0 
-5.493659259615322e-06 
-5.493659259615322e-06 
5.293955920339377e-23 
-5.493659259615323e-06 
0 
0 
-5.493659259615324e-06 
0 
-1.735107395850679e-07 
0 
1.252317790522729e-05 
-2.197463703846129e-05 
-5.493659259615324e-06 
-1.098731851923065e-05 
0 
-1.098731851923065e-05 
0 
-5.493659259615323e-06 
-1.098731851923065e-05 
0 
-5.493659259615324e-06 
0 
0 
0 
3.420352792606875e-07 
2.249931266144235e-22 
0 
0 
-1.588186776101813e-22 
5.83569453887601e-06 
1.167138907775202e-05 
0 
0 
0 
0 
-1.098731851923065e-05 
6.177729818136696e-06 
-5.493659259615324e-06 
5.835694538876008e-06 
-1.098731851923065e-05 
1.058791184067875e-22 
3.420352792606875e-07 
5.83569453887601e-06 
-1.588186776101813e-22 
0 
0 
5.83569453887601e-06 
-3.176373552203626e-22 
-7.411538288475128e-22 
5.293955920339377e-23 
1.167138907775202e-05 
0 
-1.588186776101813e-22 
0 
0 
1.750708361662806e-05 
1.750708361662805e-05 
5.835694538876009e-06 
1.058791184067875e-22 
0 
5.83569453887601e-06 
0 
0 
0 
-1.613894249958527e-05 
1.167138907775202e-05 
8.49696902657205e-05 
3.420352792606873e-07 
0 
5.83569453887601e-06 
0 
0 
5.83569453887601e-06 
-1.735107395850681e-07 
5.83569453887601e-06 
5.83569453887601e-06 
0 
0 
-1.098731851923064e-05 
0 
-5.151623980354636e-06 
0 
5.83569453887601e-06 
0 
1.167138907775202e-05 
0 
5.83569453887601e-06 
0 
-1.588186776101813e-22 
1.750708361662805e-05 
-1.648097777884597e-05 
0 
-1.098731851923065e-05 
0 
0 
1.750708361662805e-05 
0 
-1.124965633072118e-22 
-1.648097777884597e-05 
0 
0 
-1.098731851923065e-05 
5.293955920339377e-23 
-5.151623980354634e-06 
-4.394927407692258e-05 
-5.493659259615324e-06 
0 
0 
0 
3.42035279260687e-07 
-2.197463703846129e-05 
-3.217206864132145e-05 
-1.54548719410639e-05 
-1.648097777884597e-05 
0 
-1.588186776101813e-22 
0 
-3.176373552203626e-22 
-1.588186776101813e-22 
0 
-1.648097777884597e-05 
-6.043025185576855e-05 
-5.493659259615323e-06 
3.705769144237564e-22 
-5.493659259615324e-06 
0 
6.177729818136696e-06 
5.835694538876007e-06 
0 
-2.163260175920059e-05 
-5.493659259615322e-06 
-5.493659259615323e-06 
0 
1.784911889588871e-05 
0 
5.83569453887601e-06 
0 
0 
6.840705585213743e-07 
2.334277815550404e-05 
1.058791184067875e-22 
-5.493659259615324e-06 
0 
-1.098731851923064e-05 
-1.098731851923065e-05 
0 
0 
-5.493659259615322e-06 
-1.588186776101813e-22 
-5.493659259615324e-06 
0 
5.268576831011211e-07 
-5.493659259615321e-06 
0 
0 
1.483439057440112e-05 
-1.588186776101813e-22 
0 
5.83569453887601e-06 
5.835694538876008e-06 
5.83569453887601e-06 
1.167138907775202e-05 
5.83569453887601e-06 
0 
0 
-1.588186776101813e-22 
0 
0 
-5.493659259615324e-06 
-2.117582368135751e-22 
0 
-1.648097777884597e-05 
0 
-5.493659259615323e-06 
1.167138907775202e-05 
-0.0001039316742955813 
0 
0 
1.167138907775202e-05 
0 
3.420352792606867e-07 
6.579270086311727e-05 
1.269749491553408e-05 
7.586402900538814e-05 
0 
0 
1.750708361662805e-05 
-5.493659259615323e-06 
2.334277815550404e-05 
0 
0 
-2.702044466096679e-05 
0 
-1.613894249958526e-05 
0 
-5.493659259615323e-06 
0 
3.420352792606877e-07 
0 
5.83569453887601e-06 
5.83569453887601e-06 
0 
5.83569453887601e-06 
0 
0 
0 
0 
5.83569453887601e-06 
-1.098731851923065e-05 
0 
5.83569453887601e-06 
6.177729818136696e-06 
0 
0 
-1.098731851923065e-05 
1.058791184067875e-22 
3.420352792606875e-07 
-1.098731851923065e-05 
5.835694538876012e-06 
-5.493659259615324e-06 
-5.151623980354636e-06 
6.177729818136696e-06 
-4.350142243981275e-05 
5.835694538876012e-06 
5.835694538876008e-06 
-1.098731851923065e-05 
0 
3.420352792606869e-07 
0 
0 
5.293955920339377e-23 
0 
5.83569453887601e-06 
0 
-5.493659259615323e-06 
0 
0 
5.835694538876008e-06 
3.420352792606867e-07 
-1.648097777884597e-05 
5.835694538876008e-06 
-0.0001809487202880451 
-5.493659259615325e-06 
-2.197463703846129e-05 
0 
0 
0 
-3.176373552203626e-22 
5.83569453887601e-06 
5.83569453887601e-06 
-1.098731851923064e-05 
0 
0 
-1.597041795990966e-05 
5.293955920339377e-23 
0 
0 
0 
-5.493659259615324e-06 
3.42035279260687e-07 
1.201342435701271e-05 
-5.51101033357383e-05 
0 
6.177729818136696e-06 
0 
5.83569453887601e-06 
0 
5.835694538876012e-06 
-5.493659259615324e-06 
-5.493659259615324e-06 
0 
5.83569453887601e-06 
2.368481343476475e-05 
5.835694538876008e-06 
0 
0 
-1.098731851923065e-05 
0 
0 
-1.588186776101813e-22 
0 
-5.493659259615324e-06 
-1.588186776101813e-22 
1.058791184067875e-22 
0 
-1.098731851923065e-05 
-5.840680738785458e-06 
-5.493659259615324e-06 
-5.493659259615322e-06 
0 
5.835694538876008e-06 
1.167138907775202e-05 
-5.493659259615324e-06 
-1.098731851923065e-05 
0 
5.063742493455686e-06 
-5.493659259615322e-06 
3.210640413657582e-05 
0 
2.334277815550403e-05 
5.293955920339377e-23 
-5.493659259615323e-06 
-5.493659259615324e-06 
-3.261992027843127e-05 
-5.493659259615323e-06 
0 
-5.493659259615323e-06 
-3.176373552203626e-22 
7.808584982500581e-22 
-5.493659259615324e-06 
3.420352792606875e-07 
0 
-5.493659259615324e-06 
0 
2.117582368135751e-22 
-3.845561481730725e-05 
1.058791184067875e-22 
-1.116082925881571e-05 
0 
0 
5.83569453887601e-06 
-5.493659259615324e-06 
0 
0 
0 
-1.098731851923065e-05 
0 
5.293955920339377e-23 
5.293955920339377e-23 
0 
5.293955920339377e-23 
0 
0 
5.83569453887601e-06 
-5.493659259615324e-06 
6.177729818136695e-06 
5.293955920339377e-23 
0 
5.293955920339377e-23 
0 
1.058791184067875e-22 
5.293955920339377e-23 
5.83569453887601e-06 
0 
0 
5.293955920339377e-23 
5.83569453887601e-06 
4.084986177213208e-05 
5.293955920339377e-23 
5.835694538876008e-06 
3.420352792606872e-07 
5.83569453887601e-06 
0 
0 
-5.493659259615324e-06 
0 
0 
0 
-2.117582368135751e-22 
0 
0 
0 
5.83569453887601e-06 
-5.493659259615323e-06 
0 
0 
5.83569453887601e-06 
-5.493659259615323e-06 
5.83569453887601e-06 
0 
5.83569453887601e-06 
0 
1.167138907775202e-05 
0 
-5.493659259615324e-06 
-1.588186776101813e-22 
-5.493659259615323e-06 
1.058791184067875e-22 
0 
0 
5.83569453887601e-06 
-3.176373552203626e-22 
-5.493659259615323e-06 
2.917847269438008e-05 
-5.493659259615324e-06 
5.293955920339377e-23 
0 
0 
5.83569453887601e-06 
0 
0 
0 
5.835694538876007e-06 
1.058791184067875e-22 
5.83569453887601e-06 
1.058791184067875e-22 
5.293955920339377e-23 
-5.493659259615324e-06 
0 
-5.493659259615324e-06 
-1.19114008207636e-22 
0 
3.110199103199384e-22 
0 
0 
3.176373552203626e-22 
-5.493659259615324e-06 
-1.588186776101813e-22 
2.917847269438007e-05 
3.420352792606875e-07 
1.058791184067875e-22 
-0.0001430086514895835 
5.83569453887601e-06 
2.334277815550405e-05 
-1.124965633072118e-22 
0 
-5.493659259615323e-06 
1.167138907775202e-05 
0 
1.167138907775202e-05 
1.201342435701271e-05 
2.334277815550405e-05 
5.293955920339377e-23 
0 
4.367513634279986e-22 
-2.249931266144235e-22 
-5.493659259615324e-06 
5.293955920339377e-23 
5.835694538876008e-06 
0 
0 
0 
1.985233470127266e-22 
-5.493659259615324e-06 
-1.588186776101813e-22 
5.097535482145767e-07 
-1.970403266940386e-06 
5.835694538876016e-06 
0 
4.235164736271502e-22 
-4.360723879766193e-05 
1.058791184067875e-22 
5.835694538876008e-06 
-1.648097777884597e-05 
0 
3.420352792606879e-07 
0 
3.420352792606872e-07 
-0.0001858260033708749 
-3.176373552203626e-22 
0 
-5.493659259615324e-06 
0 
-1.648097777884597e-05 
0 
0 
-5.493659259615324e-06 
0 
-1.735107395850679e-07 
0 
0 
-5.493659259615323e-06 
-5.493659259615324e-06 
-5.493659259615324e-06 
3.501416723325611e-05 
5.83569453887601e-06 
0 
0 
-5.493659259615323e-06 
0 
0 
5.293955920339377e-23 
-5.493659259615324e-06 
0 
0 
0 
5.293955920339377e-23 
-1.058791184067875e-22 
0 
0 
0 
-2.197463703846129e-05 
-5.493659259615324e-06 
6.977760285877308e-06 
0 
4.367513634279986e-22 
1.167138907775202e-05 
1.750708361662805e-05 
-4.640410768456173e-06 
0 
0 
-4.640410768456173e-06 
1.483439057440113e-05 
-5.493659259615324e-06 
-5.493659259615323e-06 
0 
-2.197463703846129e-05 
0 
0 
0 
5.83569453887601e-06 
1.167138907775202e-05 
-5.493659259615324e-06 
0 
0 
0 
0 
5.293955920339377e-23 
3.505036775909791e-06 
0 
5.83569453887601e-06 
-2.746829629807662e-05 
-2.746829629807662e-05 
0 
-1.058791184067875e-22 
-5.493659259615324e-06 
0 
4.235164736271502e-22 
6.419263992763607e-05 
0 
-5.493659259615324e-06 
-4.412278481650766e-05 
1.167138907775202e-05 
0 
0 
-1.098731851923065e-05 
0 
1.167138907775203e-05 
1.058791184067875e-22 
5.293955920339377e-23 
-1.588186776101813e-22 
-2.822192094415643e-06 
1.058791184067875e-22 
5.293955920339377e-23 
1.750708361662805e-05 
2.917847269438008e-05 
5.83569453887601e-06 
0 
0 
-5.493659259615322e-06 
2.117582368135751e-22 
-3.845561481730725e-05 
3.420352792606862e-07 
2.334277815550404e-05 
5.83569453887601e-06 
5.835694538876008e-06 
-1.058791184067875e-22 
5.835694538876012e-06 
0 
-5.493659259615324e-06 
0 
0 
5.83569453887601e-06 
8.253872432857166e-06 
5.83569453887601e-06 
5.83569453887601e-06 
5.293955920339377e-23 
5.83569453887601e-06 
0 
0 
0 
0 
5.83569453887601e-06 
1.167138907775202e-05 
0 
-1.064528323996995e-05 
5.293955920339377e-23 
1.167138907775202e-05 
-1.588186776101813e-22 
5.83569453887601e-06 
0 
5.835694538876008e-06 
5.83569453887601e-06 
4.235164736271502e-22 
-1.588186776101813e-22 
-5.493659259615323e-06 
0 
-6.523984055686253e-05 
-1.588186776101813e-22 
0 
5.83569453887601e-06 
0 
0 
1.167138907775202e-05 
0 
1.167138907775202e-05 
-2.163260175920059e-05 
0 
-5.493659259615323e-06 
0 
-5.493659259615324e-06 
5.83569453887601e-06 
0 
1.167138907775202e-05 
0 
0 
0 
-6.043025185576856e-05 
1.750708361662805e-05 
5.83569453887601e-06 
0 
-5.151623980354636e-06 
-5.493659259615323e-06 
1.167138907775202e-05 
0 
1.167138907775202e-05 
-1.588186776101813e-22 
5.83569453887601e-06 
0 
0 
-1.098731851923065e-05 
6.177729818136696e-06 
5.835694538876008e-06 
-4.80958870109395e-06 
-1.080148516414959e-05 
-5.493659259615324e-06 
0 
1.167138907775202e-05 
0 
5.83569453887601e-06 
5.293955920339377e-23 
1.167138907775202e-05 
3.42035279260687e-07 
-5.493659259615324e-06 
5.293955920339377e-23 
0 
0 
-5.151623980354636e-06 
0 
5.83569453887601e-06 
0 
0 
-5.493659259615324e-06 
0 
-5.493659259615324e-06 
0 
-5.493659259615324e-06 
0 
5.83569453887601e-06 
-5.493659259615324e-06 
5.83569453887601e-06 
0 
-5.493659259615323e-06 
-2.163260175920059e-05 
1.167138907775202e-05 
5.252125084988409e-05 
6.177729818136696e-06 
0 
3.501416723325611e-05 
-1.058791184067875e-22 
1.750708361662805e-05 
-1.588186776101813e-22 
-5.493659259615324e-06 
5.293955920339377e-23 
5.293955920339377e-23 
1.167138907775202e-05 
5.83569453887601e-06 
-1.098731851923065e-05 
0 
0 
5.83569453887601e-06 
0 
0 
-1.648097777884597e-05 
5.835694538876016e-06 
1.193824106735954e-06 
5.83569453887601e-06 
5.293955920339377e-23 
0 
-3.296195555769194e-05 
0 
3.420352792606875e-07 
1.167138907775202e-05 
-5.151623980354638e-06 
1.167138907775202e-05 
0 
-1.058791184067875e-22 
0 
-5.493659259615324e-06 
6.177729818136696e-06 
5.293955920339377e-23 
3.420352792606875e-07 
0 
-1.098731851923065e-05 
2.117582368135751e-22 
0 
5.83569453887601e-06 
-5.493659259615324e-06 
2.117582368135751e-22 
1.167138907775202e-05 
0 
8.253872432857166e-06 
-5.493659259615324e-06 
0 
1.750708361662805e-05 
1.058791184067875e-22 
4.084986177213207e-05 
0 
0 
-5.493659259615324e-06 
-3.296195555769194e-05 
-5.493659259615324e-06 
0 
1.058791184067875e-22 
0 
0 
0 
0 
-5.493659259615324e-06 
-2.249931266144235e-22 
-5.493659259615324e-06 
5.835694538876008e-06 
5.83569453887601e-06 
5.83569453887601e-06 
5.83569453887601e-06 
5.83569453887601e-06 
0 
0 
0 
6.177729818136695e-06 
8.998696035525117e-06 
5.83569453887601e-06 
1.167138907775202e-05 
1.167138907775202e-05 
3.420352792606875e-07 
-1.098731851923065e-05 
5.83569453887601e-06 
-1.098731851923065e-05 
0 
5.83569453887601e-06 
0 
-4.809588701093951e-06 
0 
5.293955920339377e-23 
0 
5.83569453887601e-06 
0 
-5.493659259615324e-06 
-5.493659259615324e-06 
5.83569453887601e-06 
0 
-5.493659259615324e-06 
5.835694538876006e-06 
2.334277815550404e-05 
1.201342435701271e-05 
-1.064528323996995e-05 
3.420352792606877e-07 
0 
0 
0 
0 
-1.124965633072118e-22 
1.167138907775202e-05 
-4.360723879766193e-05 
-1.648097777884597e-05 
-1.588186776101813e-22 
0 
6.004219078551628e-06 
-5.493659259615323e-06 
0 
-1.098731851923065e-05 
0 
1.167138907775202e-05 
5.835694538876008e-06 
5.83569453887601e-06 
4.235164736271502e-22 
5.83569453887601e-06 
-5.493659259615323e-06 
0 
5.293955920339377e-23 
0 
0 
0 
-5.493659259615322e-06 
0 
-3.296195555769194e-05 
-5.493659259615323e-06 
5.293955920339377e-23 
0 
-1.098731851923065e-05 
3.420352792606875e-07 
5.83569453887601e-06 
1.167138907775202e-05 
-3.845561481730724e-05 
-2.746829629807662e-05 
1.750708361662805e-05 
5.83569453887601e-06 
3.184993985957977e-05 
0 
-4.235164736271502e-22 
-4.703772343244815e-06 
-5.493659259615322e-06 
-5.493659259615324e-06 
3.420352792606875e-07 
5.83569453887601e-06 
-5.493659259615324e-06 
-5.493659259615324e-06 
0 
-1.588186776101813e-22 
5.83569453887601e-06 
-1.098731851923065e-05 
6.177729818136698e-06 
-2.746829629807662e-05 
0 
5.83569453887601e-06 
-5.493659259615324e-06 
6.345448087090591e-06 
-5.493659259615324e-06 
5.83569453887601e-06 
2.917847269438008e-05 
0 
0 
0 
3.420352792606875e-07 
0 
0 
-5.493659259615324e-06 
2.917847269438008e-05 
1.167138907775202e-05 
0 
0 
0 
-4.299028882157641e-06 
0 
-5.493659259615323e-06 
0 
-1.588186776101813e-22 
-5.493659259615324e-06 
0 
0 
0 
0 
0 
5.83569453887601e-06 
5.83569453887601e-06 
5.83569453887601e-06 
0 
1.167138907775202e-05 
-1.098731851923065e-05 
-1.058791184067875e-22 
0 
0 
-5.151623980354636e-06 
0 
-1.735107395850679e-07 
0 
-2.197463703846129e-05 
-1.588186776101813e-22 
-1.098731851923065e-05 
5.83569453887601e-06 
1.167138907775202e-05 
6.177729818136696e-06 
8.507161704075682e-06 
0 
0 
0 
5.835694538876012e-06 
-1.058791184067875e-22 
5.83569453887601e-06 
0 
0 
-5.493659259615322e-06 
5.293955920339377e-23 
6.177729818136696e-06 
6.177729818136695e-06 
1.167138907775202e-05 
0 
0 
3.420352792606875e-07 
3.420352792606869e-07 
0 
0 
1.750708361662805e-05 
-5.493659259615324e-06 
0 
-5.493659259615324e-06 
-5.493659259615324e-06 
0 
0 
0 
0 
-5.493659259615324e-06 
-5.493659259615322e-06 
5.835694538876008e-06 
-2.214814777804636e-05 
-5.493659259615324e-06 
5.83569453887601e-06 
4.084986177213206e-05 
3.420352792606875e-07 
0 
-5.493659259615323e-06 
0 
0 
-1.098731851923065e-05 
0 
0 
0 
0 
5.293955920339377e-23 
5.835694538876012e-06 
5.293955920339377e-23 
-5.151623980354636e-06 
-1.098731851923064e-05 
8.000304677406049e-07 
5.83569453887601e-06 
0 
0 
0 
0 
0 
5.83569453887601e-06 
-5.493659259615324e-06 
-2.249931266144235e-22 
0 
2.334277815550403e-05 
-5.493659259615324e-06 
0 
-1.588186776101813e-22 
-2.746829629807662e-05 
0 
-1.098731851923064e-05 
1.167138907775202e-05 
-2.197463703846129e-05 
-5.493659259615322e-06 
3.163001496649109e-06 
0 
-3.176373552203626e-22 
-1.053946688212082e-05 
0 
-2.117582368135751e-22 
0 
0 
0 
5.293955920339377e-23 
6.1777298181367e-06 
-1.124965633072118e-22 
5.83569453887601e-06 
3.044024654195142e-22 
0 
0 
0 
-5.493659259615324e-06 
1.167138907775202e-05 
0 
0 
5.83569453887601e-06 
0 
-5.493659259615324e-06 
1.235545963627339e-05 
0 
0 
-1.098731851923065e-05 
-1.098731851923065e-05 
1.750708361662805e-05 
-5.493659259615324e-06 
-1.098731851923065e-05 
0 
0 
5.293955920339377e-23 
0 
0.0001473112026149677 
0 
-3.176373552203626e-22 
4.084986177213208e-05 
0 
0 
0 
0 
0 
-5.493659259615324e-06 
0 
0 
-5.493659259615324e-06 
-5.493659259615324e-06 
-5.493659259615324e-06 
0 
1.167138907775202e-05 
5.83569453887601e-06 
1.784911889588871e-05 
-5.493659259615324e-06 
3.420352792606875e-07 
-5.493659259615323e-06 
0 
5.83569453887601e-06 
0 
3.420352792606873e-07 
3.420352792606873e-07 
1.247141954549262e-05 
5.83569453887601e-06 
1.750708361662805e-05 
-5.493659259615322e-06 
0 
-1.648097777884597e-05 
-5.493659259615324e-06 
-5.493659259615324e-06 
-5.493659259615324e-06 
5.83569453887601e-06 
-5.493659259615324e-06 
0 
5.83569453887601e-06 
3.420352792606875e-07 
-1.058791184067875e-22 
4.721118811708194e-05 
0 
-2.746829629807662e-05 
1.167138907775202e-05 
5.83569453887601e-06 
-1.098731851923065e-05 
5.293955920339377e-23 
1.750708361662805e-05 
-5.493659259615324e-06 
1.167138907775202e-05 
5.835694538876012e-06 
4.668555631100808e-05 
0 
5.293955920339377e-23 
-3.176373552203626e-22 
5.83569453887601e-06 
0 
0 
0 
-4.235164736271502e-22 
0 
0 
2.334277815550404e-05 
5.83569453887601e-06 
0 
1.167138907775202e-05 
0 
0 
5.835694538876008e-06 
0 
-1.098731851923065e-05 
0 
-3.845561481730724e-05 
5.83569453887601e-06 
5.83569453887601e-06 
-5.493659259615324e-06 
6.861800376658074e-06 
1.058791184067875e-22 
0 
0 
0 
-1.098731851923065e-05 
5.293955920339377e-23 
0 
0 
6.177729818136696e-06 
-5.493659259615324e-06 
-5.493659259615322e-06 
1.058791184067875e-22 
0 
-0.0001150248091726611 
1.750708361662805e-05 
0 
-1.648097777884597e-05 
3.420352792606871e-07 
5.83569453887601e-06 
0 
5.293955920339377e-23 
-5.493659259615323e-06 
0 
-5.493659259615324e-06 
-1.098731851923065e-05 
0 
4.441499553504523e-06 
-5.493659259615323e-06 
0 
-1.562772928768681e-05 
1.750708361662805e-05 
5.83569453887601e-06 
-5.493659259615324e-06 
-5.493659259615323e-06 
-5.459455731689259e-05 
5.293955920339377e-23 
0 
5.83569453887601e-06 
-5.493659259615323e-06 
0 
-1.098731851923065e-05 
0 
0 
-1.648097777884597e-05 
0 
-5.667169999200393e-06 
0 
-5.493659259615324e-06 
0 
0 
5.83569453887601e-06 
0 
0 
0 
0 
0 
3.420352792606875e-07 
0 
6.519765097397387e-06 
-1.098731851923065e-05 
-5.493659259615322e-06 
0 
3.420352792606875e-07 
0 
1.026105837782066e-06 
0 
0 
0 
5.83569453887601e-06 
0 
-1.648097777884597e-05 
0 
-5.493659259615323e-06 
1.167138907775202e-05 
0 
-5.493659259615324e-06 
0 
0 
5.83569453887601e-06 
-5.493659259615322e-06 
5.83569453887601e-06 
3.501416723325609e-05 
5.83569453887601e-06 
-5.493659259615324e-06 
-1.648097777884597e-05 
-1.098731851923065e-05 
-3.176373552203626e-22 
-1.098731851923065e-05 
-5.493659259615324e-06 
0 
1.167138907775203e-05 
0 
0 
0 
6.177729818136696e-06 
0 
0 
-5.151623980354636e-06 
5.83569453887601e-06 
0 
-3.176373552203626e-22 
0 
1.058791184067875e-22 
0.0002742776433271725 
0 
-5.493659259615322e-06 
0 
0 
-5.493659259615322e-06 
0 
0 
-1.648097777884597e-05 
0 
0 
0 
2.334277815550404e-05 
0 
0 
0 
0.0001287273151345328 
-5.493659259615324e-06 
5.83569453887601e-06 
-5.493659259615324e-06 
5.835694538876008e-06 
0 
5.293955920339377e-23 
0 
0 
0 
-3.845561481730724e-05 
-5.493659259615322e-06 
0 
0 
-5.493659259615324e-06 
0 
-1.064528323996995e-05 
-5.493659259615323e-06 
0 
0 
-5.493659259615323e-06 
4.668555631100809e-05 
1.058791184067875e-22 
-5.493659259615323e-06 
0 
5.293955920339377e-23 
-5.493659259615324e-06 
-9.529120656610879e-22 
1.167138907775202e-05 
3.420352792606875e-07 
1.750708361662805e-05 
-1.588186776101813e-22 
1.985233470127266e-22 
5.835694538876011e-06 
1.167138907775203e-05 
0 
0 
-5.493659259615324e-06 
-1.588186776101813e-22 
-5.493659259615322e-06 
3.441071348220595e-22 
1.269749491553408e-05 
0 
0 
0 
-5.493659259615324e-06 
0 
0 
0 
0 
0 
-5.493659259615324e-06 
-1.588186776101813e-22 
0 
0 
1.058791184067875e-22 
-4.394927407692258e-05 
0 
5.83569453887601e-06 
0 
0 
0 
0 
-5.493659259615322e-06 
-5.493659259615324e-06 
0 
0 
0 
0 
0 
0 
0 
0 
6.177729818136698e-06 
5.83569453887601e-06 
0 
5.293955920339377e-23 
1.167138907775202e-05 
0 
5.293955920339377e-23 
5.293955920339377e-23 
0 
5.83569453887601e-06 
0 
5.293955920339377e-23 
-5.493659259615323e-06 
0 
-0.0002582019852019202 
5.835694538876012e-06 
5.293955920339377e-23 
4.235164736271502e-22 
0 
0 
0 
5.83569453887601e-06 
-5.493659259615322e-06 
5.835694538876008e-06 
-5.493659259615323e-06 
0 
-1.588186776101813e-22 
0 
0 
-1.098731851923065e-05 
-0.0003069651807868839 
1.058791184067875e-22 
-5.493659259615322e-06 
5.83569453887601e-06 
-5.493659259615324e-06 
0 
0 
5.83569453887601e-06 
0 
0 
0 
0 
5.83569453887601e-06 
3.044024654195142e-22 
0 
1.167138907775202e-05 
-1.052159706110801e-06 
0 
0 
-5.493659259615323e-06 
2.646977960169689e-22 
-1.098731851923065e-05 
-1.588186776101813e-22 
-1.588186776101813e-22 
0 
0 
0 
0 
5.835694538876007e-06 
-2.746829629807662e-05 
-4.944293333653791e-05 
0 
0 
-5.493659259615323e-06 
-5.493659259615324e-06 
-1.098731851923065e-05 
0 
-4.640410768456174e-06 
5.252125084988411e-05 
3.420352792606875e-07 
5.83569453887601e-06 
-5.493659259615324e-06 
5.83569453887601e-06 
-5.493659259615322e-06 
0 
-5.493659259615324e-06 
-1.648097777884597e-05 
6.840705585213749e-07 
5.83569453887601e-06 
0 
0 
0 
0 
0 
0 
0 
-5.493659259615324e-06 
-5.823351512373315e-22 
0 
-5.493659259615324e-06 
-5.493659259615323e-06 
5.293955920339377e-23 
0 
5.83569453887601e-06 
-1.588186776101813e-22 
-1.588186776101813e-22 
5.83569453887601e-06 
0 
0 
0 
5.83569453887601e-06 
-1.588186776101813e-22 
5.83569453887601e-06 
3.420352792606867e-07 
0 
-5.493659259615324e-06 
-1.058791184067875e-22 
-5.493659259615324e-06 
0 
-4.944293333653791e-05 
0 
1.058791184067875e-22 
0 
-5.493659259615324e-06 
4.702759159026879e-05 
1.201342435701271e-05 
0 
-1.588186776101813e-22 
0 
0 
0 
0 
3.42035279260687e-07 
0 
0 
0 
5.83569453887601e-06 
0 
-1.124965633072118e-22 
-1.098731851923065e-05 
1.167138907775202e-05 
0 
5.293955920339377e-23 
-5.493659259615324e-06 
0 
0 
0 
4.084986177213206e-05 
5.835694538876008e-06 
0 
-4.809588701093951e-06 
0 
-5.493659259615323e-06 
2.334277815550404e-05 
0 
0 
-5.493659259615323e-06 
0 
5.293955920339377e-23 
0 
0 
-5.493659259615324e-06 
0 
1.058791184067875e-22 
-6.592391111538386e-05 
-2.646977960169689e-22 
1.167138907775202e-05 
0 
0 
5.83569453887601e-06 
-5.293955920339377e-23 
-5.493659259615323e-06 
0 
0 
-3.176373552203626e-22 
0 
5.83569453887601e-06 
0 
-5.493659259615324e-06 
0 
3.420352792606875e-07 
5.293955920339377e-23 
5.83569453887601e-06 
0 
0 
7.002833446651219e-05 
0 
6.177729818136696e-06 
-5.493659259615324e-06 
0 
3.42035279260688e-07 
-5.493659259615324e-06 
0 
0 
-1.588186776101813e-22 
0 
-5.493659259615323e-06 
-5.493659259615323e-06 
-5.151623980354636e-06 
-5.493659259615323e-06 
5.835694538876016e-06 
0.0001055522552479828 
0 
0 
1.750708361662805e-05 
0 
-5.493659259615323e-06 
5.293955920339377e-23 
5.83569453887601e-06 
5.835694538876018e-06 
5.83569453887601e-06 
5.293955920339377e-23 
1.167138907775202e-05 
-5.493659259615324e-06 
6.419263992763605e-05 
5.83569453887601e-06 
0 
6.177729818136698e-06 
-1.735107395850679e-07 
2.334277815550404e-05 
3.163001496649109e-06 
5.835694538876008e-06 
5.83569453887601e-06 
-5.493659259615324e-06 
0 
0 
5.293955920339377e-23 
2.368481343476475e-05 
-5.493659259615324e-06 
1.750708361662805e-05 
0 
6.345448087090593e-06 
5.83569453887601e-06 
0 
0 
0 
-1.648097777884597e-05 
5.293955920339377e-23 
-1.613894249958526e-05 
0 
4.084986177213208e-05 
0 
1.750708361662805e-05 
0 
-1.588186776101813e-22 
6.177729818136696e-06 
-4.235164736271502e-22 
-5.493659259615324e-06 
5.83569453887601e-06 
-1.064528323996995e-05 
3.42035279260687e-07 
0 
-5.493659259615323e-06 
-5.493659259615324e-06 
0 
0 
0 
0 
0 
0 
6.352747104407253e-22 
-3.296195555769194e-05 
8.998696035525122e-06 
0 
1.201342435701271e-05 
1.167138907775202e-05 
5.83569453887601e-06 
0 
3.420352792606871e-07 
1.167138907775202e-05 
-1.588186776101813e-22 
-1.064528323996995e-05 
5.83569453887601e-06 
5.063742493455686e-06 
-1.648097777884597e-05 
1.167138907775202e-05 
5.83569453887601e-06 
1.750708361662804e-05 
1.058791184067875e-22 
5.83569453887601e-06 
1.750708361662805e-05 
1.167138907775202e-05 
0 
6.177729818136701e-06 
1.750708361662805e-05 
-5.493659259615322e-06 
0 
0 
0 
4.668555631100808e-05 
1.167138907775202e-05 
-5.493659259615324e-06 
0 
3.163001496649109e-06 
3.163001496649109e-06 
3.705769144237564e-22 
5.293955920339377e-23 
1.302023360150181e-06 
-1.806562457815812e-21 
0 
-0.0001474755515184546 
5.293955920339377e-23 
0 
-5.493659259615323e-06 
5.83569453887601e-06 
-5.493659259615324e-06 
5.83569453887601e-06 
5.83569453887601e-06 
-5.151623980354636e-06 
-1.648097777884597e-05 
5.293955920339377e-23 
-3.176373552203626e-22 
0 
-5.493659259615322e-06 
1.167138907775202e-05 
0 
-1.098731851923065e-05 
-5.493659259615323e-05 
3.420352792606883e-07 
0 
3.501416723325609e-05 
-3.176373552203626e-22 
5.097535482145786e-07 
5.835694538876008e-06 
0 
-1.588186776101813e-22 
-5.493659259615323e-06 
0 
0 
-1.098731851923065e-05 
0 
-5.493659259615322e-06 
0 
0 
6.519765097397389e-06 
0 
-2.19746370384613e-05 
0 
-1.098731851923065e-05 
5.293955920339377e-23 
-1.058791184067875e-22 
0 
5.83569453887601e-06 
0 
-5.493659259615324e-06 
3.420352792606879e-07 
5.293955920339377e-23 
0 
0 
5.83569453887601e-06 
-5.493659259615324e-06 
5.293955920339377e-23 
5.83569453887601e-06 
0 
-1.648097777884597e-05 
0 
0 
-5.493659259615323e-06 
-1.648097777884597e-05 
0 
-2.197463703846129e-05 
5.83569453887601e-06 
5.83569453887601e-06 
5.293955920339377e-23 
5.293955920339377e-23 
5.83569453887601e-06 
-5.493659259615324e-06 
0 
-5.493659259615324e-06 
-9.529120656610879e-22 
1.167138907775202e-05 
0 
0 
3.420352792606852e-07 
-1.588186776101813e-22 
1.167138907775202e-05 
0 
1.167138907775202e-05 
1.167138907775202e-05 
0 
1.167138907775202e-05 
0 
5.83569453887601e-06 
5.83569453887601e-06 
5.83569453887601e-06 
0 
4.235164736271502e-22 
-3.845561481730725e-05 
5.83569453887601e-06 
7.105444030429421e-05 
5.83569453887601e-06 
0 
3.535620251251674e-05 
1.710176396303439e-06 
5.293955920339377e-23 
-2.19746370384613e-05 
0.0003042561464892933 
5.83569453887601e-06 
-1.648097777884597e-05 
4.235164736271502e-22 
-1.064528323996995e-05 
-5.493659259615323e-06 
-4.944293333653791e-05 
0 
2.334277815550404e-05 
0 
6.419263992763613e-05 
-1.098731851923065e-05 
7.037036974577282e-05 
1.167138907775202e-05 
0 
-5.151623980354634e-06 
0 
0 
-2.197463703846129e-05 
0 
-5.493659259615324e-06 
0 
0 
5.83569453887601e-06 
0 
0 
6.177729818136695e-06 
-5.493659259615324e-06 
0 
6.177729818136696e-06 
-5.493659259615323e-06 
3.420352792606868e-07 
0 
-4.80958870109395e-06 
0 
-5.493659259615323e-06 
-5.493659259615323e-06 
0 
-1.098731851923064e-05 
5.83569453887601e-06 
0 
2.917847269438009e-05 
-5.493659259615324e-06 
0 
-5.493659259615324e-06 
-3.777154425878585e-05 
-2.197463703846129e-05 
3.420352792606875e-07 
0 
0 
-5.493659259615324e-06 
0 
-5.493659259615323e-06 
5.293955920339377e-23 
0 
0 
-5.493659259615324e-06 
5.293955920339377e-23 
0 
0 
-1.064528323996995e-05 
5.83569453887601e-06 
8.00030467740607e-07 
-5.493659259615323e-06 
0 
-5.493659259615324e-06 
3.420352792606875e-07 
0 
-5.045807622505501e-06 
0 
0 
7.082836493425276e-05 
0 
1.167138907775202e-05 
0 
5.83569453887601e-06 
5.83569453887601e-06 
3.42035279260687e-07 
-5.493659259615324e-06 
0 
0 
0 
0 
5.293955920339377e-23 
0 
-5.493659259615324e-06 
0 
0 
0 
-1.058791184067875e-22 
-5.493659259615324e-06 
3.420352792606875e-07 
0 
-5.493659259615324e-06 
0 
5.293955920339377e-23 
1.167138907775202e-05 
-4.235164736271502e-22 
-1.098731851923065e-05 
-5.493659259615323e-06 
0 
1.167138907775202e-05 
-1.648097777884597e-05 
5.83569453887601e-06 
-5.493659259615322e-06 
0 
0 
5.83569453887601e-06 
-1.098731851923065e-05 
0 
-5.493659259615322e-06 
0 
9.19123226259706e-06 
5.83569453887601e-06 
-5.493659259615324e-06 
-5.493659259615323e-06 
1.750708361662805e-05 
0 
0 
-5.493659259615324e-06 
-5.493659259615324e-06 
0 
-4.944293333653791e-05 
0 
5.293955920339377e-23 
0 
-0.000406530785211534 
3.420352792606875e-07 
2.334277815550403e-05 
5.83569453887601e-06 
0 
0 
-1.648097777884597e-05 
3.420352792606873e-07 
-5.493659259615322e-06 
1.058791184067875e-22 
0 
0 
0 
5.83569453887601e-06 
0 
0 
-5.493659259615324e-06 
5.83569453887601e-06 
0 
5.83569453887601e-06 
5.293955920339377e-23 
-5.493659259615324e-06 
1.235545963627339e-05 
0 
5.293955920339377e-23 
0 
-2.764180703766168e-05 
-5.493659259615323e-06 
0 
0 
0 
-1.588186776101813e-22 
3.705769144237564e-22 
-1.030324796070927e-05 
0 
0 
0 
0 
1.167138907775202e-05 
-5.493659259615324e-06 
-5.493659259615323e-06 
-1.588186776101813e-22 
0 
0 
5.83569453887601e-06 
0 
2.646977960169689e-22 
-1.648097777884597e-05 
1.864914936362933e-05 
-2.197463703846129e-05 
5.293955920339377e-23 
0 
0 
0 
5.83569453887601e-06 
0 
0 
0 
0 
0 
0 
0 
-5.493659259615323e-06 
5.293955920339377e-23 
5.83569453887601e-06 
-5.493659259615324e-06 
0 
3.420352792606875e-07 
1.058791184067875e-22 
5.83569453887601e-06 
5.835694538876008e-06 
-1.648097777884597e-05 
-0.0001260121276918919 
0 
-5.493659259615323e-06 
0 
5.83569453887601e-06 
-5.493659259615324e-06 
-1.098731851923064e-05 
5.83569453887601e-06 
-5.493659259615324e-06 
0 
5.097535482145786e-07 
5.83569453887601e-06 
-1.19114008207636e-22 
0 
0 
3.420352792606867e-07 
2.968822624259464e-05 
-5.493659259615323e-06 
0 
-5.493659259615324e-06 
0 
1.201342435701271e-05 
0 
-5.493659259615324e-06 
5.83569453887601e-06 
0 
0 
0 
0 
2.840652064895975e-05 
0 
-5.493659259615323e-06 
4.367513634279986e-22 
0 
0 
-5.493659259615324e-06 
0 
-5.493659259615323e-06 
0 
0 
0 
-5.493659259615323e-06 
5.293955920339377e-23 
0 
0 
0 
-4.394927407692258e-05 
-5.493659259615324e-06 
-5.493659259615323e-06 
0 
-5.493659259615324e-06 
-3.845561481730725e-05 
0 
5.293955920339377e-23 
0 
-5.493659259615323e-06 
0 
5.83569453887601e-06 
0 
0 
0 
1.058791184067875e-22 
0 
0 
5.83569453887601e-06 
-1.648097777884597e-05 
1.167138907775202e-05 
5.25212508498841e-05 
5.293955920339377e-23 
5.293955920339377e-23 
5.83569453887601e-06 
1.058791184067875e-22 
0 
0 
5.293955920339377e-23 
5.835694538876008e-06 
0 
5.83569453887601e-06 
-5.493659259615323e-06 
2.117582368135751e-22 
-5.493659259615323e-06 
5.83569453887601e-06 
0 
5.097535482145786e-07 
-1.588186776101813e-22 
0 
0 
5.83569453887601e-06 
0 
1.167138907775202e-05 
0 
0 
0 
0 
-1.098731851923065e-05 
-1.588186776101813e-22 
1.167138907775202e-05 
-5.493659259615323e-06 
5.83569453887601e-06 
5.83569453887601e-06 
-1.098731851923065e-05 
0 
5.83569453887601e-06 
0 
-5.493659259615323e-06 
-1.058791184067875e-22 
-4.944293333653792e-05 
2.418177893981156e-06 
0 
-5.493659259615323e-06 
0 
3.631619059340627e-05 
-5.493659259615323e-06 
0 
0 
5.83569453887601e-06 
-5.493659259615324e-06 
4.235164736271502e-22 
0 
0 
-5.151623980354634e-06 
1.167138907775202e-05 
7.620606428464881e-05 
1.167138907775202e-05 
-2.746829629807662e-05 
8.735027268559972e-22 
-5.493659259615322e-06 
-1.098731851923065e-05 
0 
-5.493659259615322e-06 
0 
-2.746829629807662e-05 
5.83569453887601e-06 
0 
0 
0 
0 
5.063742493455686e-06 
0 
-5.493659259615323e-06 
0 
5.835694538876008e-06 
0 
0 
5.83569453887601e-06 
0 
0 
-4.102815838263017e-22 
-1.098731851923065e-05 
-5.493659259615323e-06 
-2.107893376424164e-05 
5.83569453887601e-06 
0 
0 
0 
0 
1.750708361662805e-05 
5.83569453887601e-06 
0 
-1.098731851923065e-05 
-5.493659259615324e-06 
0 
5.835694538876008e-06 
1.167138907775202e-05 
0 
0 
0 
-2.197463703846129e-05 
5.835694538876012e-06 
0 
5.83569453887601e-06 
5.83569453887601e-06 
0 
0 
0 
-5.151623980354634e-06 
5.83569453887601e-06 
5.83569453887601e-06 
0 
0 
0 
0 
0 
5.293955920339377e-23 
0 
0 
0 
-1.058791184067875e-22 
0 
-5.493659259615323e-06 
0 
-5.493659259615324e-06 
6.551270451419979e-22 
0 
0 
0 
0 
-2.117582368135751e-22 
-5.493659259615324e-06 
0 
-1.098731851923065e-05 
1.750708361662805e-05 
-1.648097777884597e-05 
0 
-5.493659259615324e-06 
0 
0 
0 
1.167138907775202e-05 
-1.098731851923065e-05 
0 
5.835694538876013e-06 
-1.588186776101813e-22 
-5.493659259615324e-06 
0 
-3.210870706653278e-05 
0 
-5.293955920339377e-23 
0 
5.83569453887601e-06 
0 
-5.493659259615322e-06 
0 
-1.098731851923065e-05 
0 
4.441499553504523e-06 
0 
5.83569453887601e-06 
0 
0 
-1.098731851923065e-05 
3.705769144237564e-22 
-2.746829629807662e-05 
0 
-5.493659259615323e-06 
0 
5.83569453887601e-06 
1.784911889588871e-05 
0 
0 
0 
1.167138907775202e-05 
5.293955920339377e-23 
5.83569453887601e-06 
0 
5.835694538876008e-06 
1.167138907775202e-05 
0 
1.750708361662805e-05 
1.201342435701271e-05 
0 
-5.493659259615324e-06 
0 
6.419263992763609e-05 
0 
0 
-5.493659259615324e-06 
-5.151623980354636e-06 
-2.117582368135751e-22 
0 
5.83569453887601e-06 
5.293955920339377e-23 
5.83569453887601e-06 
-5.493659259615324e-06 
1.588186776101813e-22 
1.167138907775202e-05 
5.293955920339377e-23 
-1.588186776101813e-22 
3.501416723325611e-05 
-5.493659259615324e-06 
-3.296195555769194e-05 
-4.326520351840117e-05 
6.177729818136696e-06 
0 
1.784911889588872e-05 
0 
5.293955920339377e-23 
5.83569453887601e-06 
0 
-5.493659259615324e-06 
0 
5.835694538876007e-06 
0 
0 
0 
5.835694538876008e-06 
0 
0 
-5.493659259615324e-06 
5.83569453887601e-06 
0 
5.83569453887601e-06 
5.83569453887601e-06 
-1.098731851923065e-05 
-1.648097777884597e-05 
-1.058791184067875e-22 
3.420352792606875e-07 
0 
0 
-1.058791184067875e-22 
5.835694538876013e-06 
-1.098731851923065e-05 
-5.493659259615324e-06 
0 
-3.176373552203626e-22 
0 
0 
0 
5.835694538876009e-06 
1.201342435701271e-05 
0 
0 
0 
5.83569453887601e-06 
2.334277815550404e-05 
0 
-1.064528323996995e-05 
-5.493659259615324e-06 
5.835694538876008e-06 
0 
1.058791184067875e-22 
0 
-1.648097777884597e-05 
0 
0 
1.058791184067875e-22 
0 
0 
5.83569453887601e-06 
0 
0 
0 
0 
0 
0 
1.167138907775202e-05 
0 
1.167138907775202e-05 
1.058791184067875e-22 
5.83569453887601e-06 
-4.416883757589087e-05 
3.420352792606875e-07 
-1.588186776101813e-22 
0 
-1.613894249958526e-05 
1.167138907775202e-05 
5.83569453887601e-06 
1.750708361662805e-05 
5.293955920339377e-23 
-5.493659259615324e-06 
0 
-1.064528323996995e-05 
-5.493659259615324e-06 
-5.493659259615324e-06 
-5.493659259615324e-06 
1.750708361662805e-05 
0 
-3.296195555769194e-05 
0 
0 
0 
-5.493659259615324e-06 
0 
5.83569453887601e-06 
6.177729818136707e-06 
5.293955920339377e-23 
0 
5.83569453887601e-06 
0 
1.720535674110298e-21 
-1.098731851923065e-05 
5.83569453887601e-06 
3.420352792606884e-07 
5.83569453887601e-06 
-5.493659259615324e-06 
0 
0 
0 
0 
-5.493659259615324e-06 
5.293955920339377e-23 
5.293955920339377e-23 
-1.098731851923065e-05 
0 
5.835694538876007e-06 
1.750708361662805e-05 
1.750708361662805e-05 
-1.588186776101813e-22 
-3.176373552203626e-22 
0 
5.83569453887601e-06 
-3.176373552203626e-22 
-5.459455731689259e-05 
5.83569453887601e-06 
1.750708361662805e-05 
5.83569453887601e-06 
0 
-1.098731851923065e-05 
-2.71262610188159e-05 
-3.845561481730725e-05 
6.177729818136695e-06 
-5.493659259615324e-06 
5.835694538876008e-06 
0 
3.42035279260687e-07 
2.334277815550404e-05 
5.835694538876008e-06 
5.835694538876008e-06 
0 
-5.493659259615321e-06 
0 
8.000304677406057e-07 
1.201342435701271e-05 
-2.370590822620902e-05 
0 
0 
5.83569453887601e-06 
4.427021456473892e-05 
0 
-5.493659259615324e-06 
0 
0 
5.83569453887601e-06 
3.420352792606875e-07 
0 
0 
2.249931266144235e-22 
5.83569453887601e-06 
0 
0 
-5.493659259615324e-06 
1.201342435701271e-05 
-1.588186776101813e-22 
0 
0 
0 
1.784911889588871e-05 
0 
-5.493659259615324e-06 
1.167138907775202e-05 
5.293955920339377e-23 
-5.493659259615322e-06 
1.058791184067875e-22 
0 
0 
0 
0 
5.83569453887601e-06 
0 
1.058791184067875e-22 
0 
0 
0 
0 
0 
0 
0 
-5.493659259615323e-06 
3.420352792606886e-07 
0 
0 
0 
0 
0 
-5.493659259615323e-06 
0 
-5.151623980354636e-06 
0 
0 
0 
0 
0 
-5.493659259615323e-06 
0 
-5.493659259615324e-06 
0 
-1.098731851923065e-05 
0 
3.420352792606875e-07 
1.167138907775202e-05 
-5.493659259615323e-06 
0 
5.268576831011211e-07 
-1.588186776101813e-22 
0 
-2.746829629807662e-05 
0 
-1.098731851923065e-05 
0 
-5.493659259615324e-06 
-1.588186776101813e-22 
0 
-5.493659259615323e-06 
0 
-4.764560328305439e-22 
-5.493659259615324e-06 
1.167138907775202e-05 
0 
-1.648097777884597e-05 
4.084986177213206e-05 
0 
0 
-5.493659259615322e-06 
0 
5.83569453887601e-06 
0 
5.063742493455687e-06 
0 
-5.493659259615324e-06 
0 
0 
1.058791184067875e-22 
0 
0 
1.167138907775202e-05 
-5.151623980354636e-06 
-4.944293333653792e-05 
0 
0 
3.420352792606875e-07 
-5.493659259615323e-06 
-1.098731851923065e-05 
0 
-5.493659259615324e-06 
1.058791184067875e-22 
1.201342435701271e-05 
-1.588186776101813e-22 
5.83569453887601e-06 
0 
0 
-5.493659259615323e-06 
5.83569453887601e-06 
-6.592391111538388e-05 
-4.394927407692258e-05 
-2.19746370384613e-05 
4.235164736271502e-22 
-1.098731851923065e-05 
-1.613894249958526e-05 
-2.678422573955523e-05 
5.83569453887601e-06 
5.835694538876008e-06 
0 
3.420352792606871e-07 
1.645492391051723e-05 
-2.163260175920059e-05 
-1.064528323996995e-05 
-2.746829629807662e-05 
-4.809588701093951e-06 
5.835694538876008e-06 
0 
-1.568094731110535e-05 
0 
-5.151623980354636e-06 
1.269749491553409e-05 
2.795280224868418e-05 
5.835694538876008e-06 
-3.777154425878585e-05 
-6.043025185576856e-05 
5.83569453887601e-06 
3.847072055170484e-06 
5.83569453887601e-06 
-1.648097777884597e-05 
1.750708361662805e-05 
0 
-1.648097777884597e-05 
-3.811357953804661e-05 
-5.493659259615324e-06 
0 
-5.493659259615324e-06 
-5.493659259615323e-06 
3.420352792606868e-07 
-8.755651287458444e-05 
-5.493659259615322e-06 
0 
-5.493659259615323e-06 
1.219824676085314e-05 
-5.493659259615323e-06 
0 
1.167138907775202e-05 
0 
1.167138907775202e-05 
-5.493659259615324e-06 
5.835694538876012e-06 
0 
-5.293955920339377e-23 
-1.648097777884597e-05 
1.058791184067875e-22 
5.83569453887601e-06 
0 
5.293955920339377e-23 
0 
0 
0 
5.835694538876016e-05 
-1.648097777884597e-05 
8.000304677406057e-07 
1.026105837782064e-06 
0 
0 
0 
0 
0 
0.0001575637525496521 
5.293955920339377e-23 
-1.124965633072118e-22 
0 
0 
0 
0 
1.750708361662805e-05 
0 
5.83569453887601e-06 
-4.467553421833251e-06 
1.058791184067875e-22 
3.420352792606875e-07 
0 
2.917847269438007e-05 
0 
5.293955920339377e-23 
0 
-5.66716999920039e-06 
4.367513634279986e-22 
0 
0 
0 
0 
-1.735107395850679e-07 
-5.493659259615324e-06 
-5.493659259615323e-06 
0 
0 
0 
-5.493659259615324e-06 
0 
0 
0 
5.293955920339377e-23 
0 
0 
1.167138907775202e-05 
-5.493659259615324e-06 
-5.493659259615323e-06 
0 
5.293955920339377e-23 
1.750708361662805e-05 
-1.19114008207636e-22 
0 
0 
0 
1.750708361662805e-05 
3.42035279260687e-07 
-5.493659259615324e-06 
-1.098731851923065e-05 
0 
-1.648097777884597e-05 
0 
-6.161074395693422e-06 
0 
-5.493659259615323e-06 
-5.493659259615322e-06 
0 
0 
5.097535482145786e-07 
5.293955920339377e-23 
5.83569453887601e-06 
-1.124965633072118e-22 
3.420352792606875e-07 
0 
0 
0 
-1.648097777884597e-05 
0 
5.293955920339377e-23 
5.83569453887601e-06 
0 
0 
0 
5.293955920339377e-23 
0 
-5.493659259615323e-06 
-5.493659259615324e-06 
-5.493659259615323e-06 
0 
-5.493659259615324e-06 
0 
0 
5.293955920339377e-23 
0 
0 
5.835694538876017e-06 
-2.197463703846129e-05 
-5.493659259615323e-06 
-1.098731851923065e-05 
-0.0001031842421622713 
5.835694538876008e-06 
-5.493659259615324e-06 
-1.648097777884597e-05 
-2.661504780691746e-05 
-1.648097777884597e-05 
-5.493659259615324e-06 
0 
6.861800376658077e-06 
4.367513634279986e-22 
-2.163260175920059e-05 
-2.163260175920059e-05 
0 
5.293955920339377e-23 
0 
-5.493659259615323e-05 
-2.746829629807662e-05 
-2.746829629807661e-05 
-1.098731851923065e-05 
-1.648097777884597e-05 
2.952050797364073e-05 
0 
2.117582368135751e-22 
0 
-5.493659259615324e-06 
0 
0 
0 
3.110199103199384e-22 
-5.493659259615324e-06 
0 
0 
5.83569453887601e-06 
0 
1.750708361662805e-05 
0 
0 
0 
-3.176373552203626e-22 
-1.648097777884597e-05 
5.097535482145788e-07 
5.83569453887601e-06 
-1.098731851923065e-05 
-1.588186776101813e-22 
0 
5.293955920339377e-23 
5.293955920339377e-23 
0 
5.83569453887601e-06 
3.420352792606875e-07 
1.750708361662805e-05 
0 
5.835694538876008e-06 
0 
0 
-5.493659259615323e-06 
0 
-2.746829629807662e-05 
5.835694538876008e-06 
-5.493659259615324e-06 
-1.648097777884597e-05 
-3.176373552203626e-22 
0 
0 
3.705769144237564e-22 
-5.493659259615323e-06 
-5.493659259615324e-06 
1.247141954549262e-05 
5.293955920339377e-23 
5.83569453887601e-06 
0 
0 
0 
-1.098731851923065e-05 
0 
-5.493659259615324e-06 
-2.746829629807662e-05 
5.83569453887601e-06 
-5.493659259615324e-06 
0 
-1.098731851923064e-05 
1.167138907775202e-05 
5.83569453887601e-06 
0 
0 
-1.648097777884597e-05 
0 
5.293955920339377e-23 
3.420352792606875e-07 
1.058791184067875e-22 
0 
0 
4.367513634279986e-22 
0 
5.83569453887601e-06 
0 
-5.493659259615322e-06 
0 
-1.588186776101813e-22 
5.83569453887601e-06 
5.83569453887601e-06 
5.83569453887601e-06 
0 
1.750708361662805e-05 
-1.098731851923064e-05 
-5.493659259615324e-06 
0 
5.83569453887601e-06 
1.167138907775202e-05 
5.83569453887601e-06 
-1.098731851923065e-05 
0 
0 
0 
0 
-1.648097777884597e-05 
-5.493659259615323e-06 
1.167138907775202e-05 
0 
0 
0 
0 
5.293955920339377e-23 
0 
0 
0 
0 
2.917847269438008e-05 
0 
5.293955920339377e-23 
-5.493659259615324e-06 
5.83569453887601e-06 
0.0001117470892010061 
0 
0 
0 
5.83569453887601e-06 
-1.588186776101813e-22 
5.293955920339377e-23 
1.201342435701271e-05 
0 
4.66855563110081e-05 
0 
0 
5.83569453887601e-06 
8.507161704075692e-06 
0 
-5.493659259615324e-06 
0 
5.293955920339377e-23 
0 
-3.176373552203626e-22 
-5.493659259615324e-06 
4.084986177213206e-05 
0 
0 
0 
0 
0 
3.420352792606875e-07 
0 
-5.493659259615324e-06 
3.420352792606875e-07 
5.268576831011211e-07 
0 
-1.124965633072118e-22 
0 
-5.493659259615321e-06 
-4.809588701093951e-06 
5.293955920339377e-23 
0 
0 
-5.493659259615324e-06 
-5.493659259615324e-06 
-1.19114008207636e-22 
0 
4.441499553504522e-06 
0 
0 
1.167138907775202e-05 
0 
-1.588186776101813e-22 
0 
-1.124965633072118e-22 
4.235164736271502e-22 
0 
5.83569453887601e-06 
5.83569453887601e-06 
5.83569453887601e-06 
1.167138907775202e-05 
0 
0 
0 
0 
-5.493659259615324e-06 
2.334277815550404e-05 
-1.098731851923065e-05 
0 
-5.493659259615324e-06 
-1.588186776101813e-22 
0 
0 
0 
0 
8.470329472543003e-22 
0 
1.167138907775203e-05 
0 
0 
0 
5.293955920339377e-23 
1.167138907775202e-05 
6.177729818136696e-06 
2.334277815550404e-05 
0 
3.420352792606875e-07 
-5.493659259615323e-06 
1.750708361662805e-05 
6.840705585213749e-07 
1.750708361662806e-05 
0 
0 
0 
-5.493659259615322e-06 
-1.098731851923065e-05 
5.83569453887601e-06 
0 
0 
0 
0 
0 
4.367513634279986e-22 
0 
0 
5.293955920339377e-23 
-5.493659259615324e-06 
3.110199103199384e-22 
5.835694538876008e-06 
5.835694538876007e-06 
0 
5.83569453887601e-06 
5.83569453887601e-06 
5.83569453887601e-06 
0 
3.163001496649107e-06 
0 
5.293955920339377e-23 
0 
-5.493659259615324e-06 
0 
0 
0 
5.83569453887601e-06 
0 
1.167138907775202e-05 
-5.493659259615324e-06 
-1.098731851923065e-05 
1.167138907775202e-05 
0 
1.750708361662805e-05 
-2.118475012209076e-05 
3.420352792606875e-07 
0 
0 
0 
1.985233470127266e-22 
-5.493659259615323e-06 
-5.493659259615324e-06 
-1.028634402816035e-06 
0 
1.784911889588871e-05 
5.293955920339377e-23 
0 
0 
-5.493659259615324e-06 
-3.296195555769194e-05 
0 
0 
0 
0 
0 
1.167138907775203e-05 
5.293955920339377e-23 
0 
0 
0 
0 
5.293955920339377e-23 
0 
0 
1.750708361662805e-05 
0 
0 
5.83569453887601e-06 
3.420352792606875e-07 
-1.648097777884597e-05 
3.420352792606878e-07 
0 
0 
-5.493659259615324e-06 
-0.0002024121441146078 
5.293955920339377e-23 
0 
0 
3.420352792606875e-07 
-5.151623980354636e-06 
5.83569453887601e-06 
-3.845561481730725e-05 
0 
-1.613894249958526e-05 
0 
0 
5.83569453887601e-06 
0 
0 
-1.19114008207636e-22 
-2.71262610188159e-05 
5.83569453887601e-06 
5.83569453887601e-06 
6.177729818136696e-06 
5.83569453887601e-06 
0 
2.334277815550404e-05 
0 
0 
5.83569453887601e-06 
2.917847269438008e-05 
0 
-5.493659259615324e-06 
-1.098731851923065e-05 
-5.151623980354636e-06 
0 
-1.064528323996995e-05 
-4.394927407692258e-05 
-5.493659259615323e-06 
1.058791184067875e-22 
5.83569453887601e-06 
0 
5.097535482145786e-07 
0 
0 
0 
0 
2.334277815550403e-05 
0 
5.293955920339377e-23 
0 
5.83569453887601e-06 
0 
-1.098731851923065e-05 
-5.493659259615324e-06 
5.835694538876008e-06 
-5.493659259615323e-06 
-1.098731851923065e-05 
5.83569453887601e-06 
0 
-4.640410768456173e-06 
-1.648097777884597e-05 
5.83569453887601e-06 
-5.493659259615323e-06 
0 
0 
-9.109423853973316e-06 
0 
3.420352792606875e-07 
-1.064528323996995e-05 
-1.613894249958526e-05 
0 
3.176373552203626e-22 
0 
-1.648097777884597e-05 
0 
0 
-1.098731851923065e-05 
5.293955920339377e-23 
1.058791184067875e-22 
-1.098731851923065e-05 
-5.151623980354632e-06 
0 
-1.588186776101813e-22 
-1.098731851923065e-05 
4.235164736271502e-22 
1.484101026261984e-06 
-1.098731851923065e-05 
0 
0 
3.420352792606875e-07 
5.293955920339377e-23 
-1.648097777884597e-05 
-1.098731851923065e-05 
-2.197463703846129e-05 
-1.064528323996995e-05 
-1.058791184067875e-22 
5.83569453887601e-06 
0 
0 
-1.648097777884597e-05 
0 
3.420352792606875e-07 
0 
0 
0 
0 
0 
5.83569453887601e-06 
5.83569453887601e-06 
8.300052102738706e-05 
3.420352792606873e-07 
-0.0001094253335551966 
-5.493659259615323e-06 
1.201342435701271e-05 
5.83569453887601e-06 
0 
0 
-5.493659259615324e-06 
5.835694538876008e-06 
2.917847269438005e-05 
1.750708361662805e-05 
5.83569453887601e-06 
0 
6.840705585213753e-07 
0 
0 
-5.493659259615324e-06 
-1.588186776101813e-22 
-5.493659259615323e-06 
0 
0 
0 
5.293955920339377e-23 
-5.493659259615324e-06 
0 
-5.493659259615324e-06 
0 
-5.493659259615324e-06 
-5.493659259615324e-06 
0 
0 
0 
5.83569453887601e-06 
0 
3.420352792606875e-07 
0 
1.985233470127266e-22 
0 
-2.19746370384613e-05 
-1.058791184067875e-22 
0 
-1.588186776101813e-22 
-1.588186776101813e-22 
0 
0 
0 
5.83569453887601e-06 
-5.493659259615324e-06 
0 
5.293955920339377e-23 
0 
3.420352792606875e-07 
-1.588186776101813e-22 
0 
5.293955920339377e-23 
5.293955920339377e-23 
0 
4.084986177213207e-05 
0 
-1.064528323996995e-05 
0 
0 
-5.493659259615324e-06 
1.058791184067875e-22 
0 
0 
5.83569453887601e-06 
0 
5.293955920339377e-23 
0 
0 
0 
0 
-5.493659259615322e-06 
-5.493659259615324e-06 
4.367513634279986e-22 
0 
0 
5.83569453887601e-06 
5.293955920339377e-23 
0 
-5.493659259615322e-06 
3.420352792606875e-07 
4.235164736271502e-22 
-1.098731851923065e-05 
0 
0 
1.167138907775202e-05 
3.420352792606891e-07 
5.293955920339377e-23 
4.702759159026879e-05 
5.83569453887601e-06 
-5.493659259615324e-06 
0 
0 
0 
0 
-2.746829629807662e-05 
0 
0 
0 
3.420352792606875e-07 
5.293955920339377e-23 
0 
0 
5.835694538876008e-06 
-5.493659259615324e-06 
-5.493659259615324e-06 
0 
0 
3.420352792606875e-07 
-5.493659259615323e-06 
-5.493659259615323e-06 
0 
0 
-2.746829629807662e-05 
5.83569453887601e-06 
-1.098731851923065e-05 
-5.493659259615324e-06 
-2.71262610188159e-05 
-5.493659259615323e-06 
-5.493659259615324e-06 
5.83569453887601e-06 
5.293955920339377e-23 
0 
0 
3.420352792606875e-07 
1.750708361662805e-05 
0 
-2.746829629807661e-05 
0 
5.83569453887601e-06 
-1.098731851923065e-05 
0 
-2.746829629807663e-05 
1.167138907775202e-05 
5.83569453887601e-06 
-3.296195555769194e-05 
-5.493659259615324e-06 
-5.493659259615324e-06 
-1.098731851923065e-05 
-9.85539632359945e-06 
5.83569453887601e-06 
2.67146716519968e-06 
2.418177893981156e-06 
0 
1.167138907775202e-05 
5.293955920339377e-23 
5.83569453887601e-06 
0.0003137333101139329 
5.293955920339377e-23 
0 
0.000448821951593416 
5.293955920339377e-23 
1.167138907775202e-05 
0 
0 
-1.648097777884597e-05 
5.83569453887601e-06 
0 
0 
-5.493659259615323e-06 
0 
-1.058791184067875e-22 
5.293955920339377e-23 
5.83569453887601e-06 
-1.098731851923065e-05 
-1.098731851923065e-05 
-5.493659259615324e-06 
0 
0 
0 
-2.117582368135751e-22 
-5.493659259615322e-06 
5.83569453887601e-06 
4.961348775320381e-05 
-5.823351512373315e-22 
-5.493659259615323e-06 
0 
-5.493659259615324e-06 
5.293955920339377e-23 
3.420352792606875e-07 
-4.910089805727726e-05 
0 
5.83569453887601e-06 
5.83569453887601e-06 
0 
-5.493659259615323e-06 
0 
0 
0 
-1.098731851923065e-05 
-4.394927407692258e-05 
-1.648097777884597e-05 
1.167138907775202e-05 
0 
-3.296195555769194e-05 
0 
0 
3.42035279260687e-07 
0 
0 
0 
0 
0 
0 
0 
0 
0 
0 
0 
0 
-1.058791184067875e-22 
-1.098731851923065e-05 
0 
0 
1.167138907775202e-05 
3.044024654195142e-22 
-1.052159706110801e-06 
0 
5.83569453887601e-06 
5.83569453887601e-06 
0 
0 
0 
0 
0 
0 
-5.293955920339377e-23 
-5.493659259615324e-06 
5.293955920339377e-23 
-1.098731851923065e-05 
0 
0 
0 
-3.296195555769194e-05 
1.819115417514943e-05 
-1.058791184067875e-22 
-1.648097777884597e-05 
5.83569453887601e-06 
3.420352792606875e-07 
-5.493659259615324e-06 
5.293955920339377e-23 
0 
0 
-5.493659259615324e-06 
0 
-1.588186776101813e-22 
0 
0 
0 
-1.588186776101813e-22 
0 
0 
0 
0 
0 
0 
0 
0 
5.83569453887601e-06 
5.293955920339377e-23 
5.83569453887601e-06 
0 
-5.493659259615324e-06 
0 
0 
-1.588186776101813e-22 
3.42035279260687e-07 
0 
5.83569453887601e-06 
5.83569453887601e-06 
0 
-5.493659259615324e-06 
0 
0 
1.058791184067875e-22 
0 
0 
0 
0 
0 
2.67146716519968e-06 
-1.648097777884597e-05 
5.83569453887601e-06 
0 
-5.493659259615323e-06 
0 
3.420352792606875e-07 
1.058791184067875e-22 
3.420352792606875e-07 
0 
0 
0 
-5.493659259615324e-06 
0 
5.293955920339377e-23 
0 
0 
-5.493659259615322e-06 
0 
0 
0 
5.83569453887601e-06 
1.195283770419839e-06 
5.293955920339377e-23 
5.83569453887601e-06 
0 
3.420352792606875e-07 
-5.493659259615324e-06 
0 
-5.493659259615324e-06 
0 
-5.493659259615324e-06 
0 
1.167138907775202e-05 
-5.493659259615324e-06 
0 
3.420352792606875e-07 
5.83569453887601e-06 
5.83569453887601e-06 
-5.493659259615324e-06 
-5.493659259615324e-06 
-1.588186776101813e-22 
0 
3.420352792606875e-07 
0 
-5.151623980354638e-06 
5.83569453887601e-06 
0 
-5.493659259615322e-06 
0 
0 
0 
-5.493659259615324e-06 
0 
5.83569453887601e-06 
5.293955920339377e-23 
-1.098731851923064e-05 
5.83569453887601e-06 
0 
5.83569453887601e-06 
5.83569453887601e-06 
0 
5.83569453887601e-06 
2.418177893981156e-06 
1.201342435701271e-05 
0 
0 
5.83569453887601e-06 
1.750708361662805e-05 
1.167138907775202e-05 
0 
-5.493659259615324e-06 
-5.493659259615324e-06 
3.441071348220595e-22 
1.750708361662805e-05 
-1.588186776101813e-22 
-5.493659259615323e-06 
1.201342435701271e-05 
8.998696035525119e-06 
5.293955920339377e-23 
5.83569453887601e-06 
5.83569453887601e-06 
1.167138907775202e-05 
0 
5.293955920339377e-23 
-1.588186776101813e-22 
-1.648097777884597e-05 
0 
1.167138907775202e-05 
3.420352792606872e-07 
5.83569453887601e-06 
5.83569453887601e-06 
5.293955920339377e-23 
6.177729818136696e-06 
5.293955920339377e-23 
-1.098731851923065e-05 
-5.493659259615324e-06 
0 
5.835694538876008e-06 
3.420352792606875e-07 
1.750708361662805e-05 
5.83569453887601e-06 
0 
0 
0 
-5.493659259615323e-06 
0 
1.750708361662805e-05 
-5.493659259615324e-06 
0 
1.167138907775202e-05 
0 
2.917847269438005e-05 
0 
5.83569453887601e-06 
-5.493659259615323e-06 
-1.588186776101813e-22 
-0.0002029910517082421 
1.058791184067875e-22 
-5.493659259615323e-06 
3.420352792606867e-07 
-1.588186776101813e-22 
0 
5.835694538876008e-06 
0 
0 
0 
0 
0 
3.42035279260688e-07 
0 
5.83569453887601e-06 
0 
-5.493659259615323e-06 
5.293955920339377e-23 
-3.176373552203626e-22 
-2.249931266144235e-22 
0 
1.167138907775202e-05 
0 
0 
0 
0 
0 
0 
5.293955920339377e-23 
0 
-5.493659259615323e-06 
0 
0 
-5.493659259615323e-06 
-5.493659259615322e-06 
5.293955920339377e-23 
0 
0 
5.83569453887601e-06 
5.83569453887601e-06 
6.177729818136695e-06 
0 
0 
-2.646977960169689e-22 
2.334277815550404e-05 
0 
5.293955920339377e-23 
0 
0 
0 
0 
0 
0 
5.83569453887601e-06 
0 
-5.493659259615324e-06 
0 
2.334277815550404e-05 
3.705769144237564e-22 
0 
0 
0 
5.83569453887601e-06 
5.293955920339377e-23 
0 
0 
6.177729818136695e-06 
0 
1.167138907775202e-05 
0 
-4.764560328305439e-22 
0 
-1.124965633072118e-22 
-5.493659259615324e-06 
0 
0 
4.235164736271502e-22 
-5.493659259615322e-06 
-1.588186776101813e-22 
5.83569453887601e-06 
5.83569453887601e-06 
5.83569453887601e-06 
0 
0.0002742776433271725 
0 
-5.493659259615324e-06 
0 
5.063742493455686e-06 
5.83569453887601e-06 
5.83569453887601e-06 
6.151994688540924e-05 
0 
0 
0 
0 
3.163001496649109e-06 
5.293955920339377e-23 
5.83569453887601e-06 
0 
0 
0 
-1.058791184067875e-22 
5.293955920339377e-23 
0 
0 
5.835694538876008e-06 
1.167138907775202e-05 
5.293955920339377e-23 
-5.151623980354636e-06 
-5.493659259615324e-06 
5.83569453887601e-06 
0 
0 
0 
0 
0 
3.420352792606875e-07 
0 
3.420352792606875e-07 
0 
-5.493659259615322e-06 
0 
0 
1.29964046458509e-06 
5.83569453887601e-06 
5.83569453887601e-06 
0 
5.83569453887601e-06 
5.83569453887601e-06 
0 
0 
0 
5.83569453887601e-06 
0 
4.783534832765208e-06 
-5.493659259615323e-06 
0 
-5.493659259615323e-06 
-5.493659259615324e-06 
0 
3.420352792606875e-07 
0 
-5.493659259615324e-06 
-5.493659259615322e-06 
0 
-1.648097777884597e-05 
5.293955920339377e-23 
0 
0 
0 
0 
5.293955920339377e-23 
0 
0 
0 
5.83569453887601e-06 
0 
0 
5.83569453887601e-06 
0 
0 
0 
-5.493659259615324e-06 
0 
5.83569453887601e-06 
-1.098731851923065e-05 
0 
0 
0 
-5.493659259615324e-06 
0 
5.83569453887601e-06 
-5.493659259615324e-06 
5.83569453887601e-06 
1.058791184067875e-22 
0 
5.83569453887601e-06 
0 
5.293955920339377e-23 
-5.493659259615324e-06 
0 
-1.648097777884597e-05 
3.420352792606875e-07 
0 
0 
5.83569453887601e-06 
3.420352792606875e-07 
0 
-1.648097777884597e-05 
5.83569453887601e-06 
1.750708361662805e-05 
-1.098731851923065e-05 
0 
-2.117582368135751e-22 
5.83569453887601e-06 
-5.493659259615324e-06 
-5.493659259615324e-06 
0 
0 
2.646977960169689e-22 
5.293955920339377e-23 
0 
-5.493659259615324e-06 
2.117582368135751e-22 
0 
-5.493659259615324e-06 
5.83569453887601e-06 
0 
0 
2.249931266144235e-22 
8.169972354426415e-05 
-5.493659259615323e-06 
0 
1.167138907775202e-05 
0 
1.058791184067875e-22 
5.83569453887601e-06 
0 
5.293955920339377e-23 
-5.493659259615323e-06 
5.83569453887601e-06 
-1.098731851923065e-05 
-5.493659259615322e-06 
0 
5.252125084988411e-05 
5.83569453887601e-06 
0 
0 
1.750708361662805e-05 
0 
0 
1.167138907775202e-05 
0 
0 
5.835694538876008e-06 
0 
5.83569453887601e-06 
4.367513634279986e-22 
0 
-5.493659259615324e-06 
0 
5.293955920339377e-23 
-1.588186776101813e-22 
5.83569453887601e-06 
5.83569453887601e-06 
-5.493659259615324e-06 
0 
-1.058791184067875e-22 
0 
4.367513634279986e-22 
3.420352792606875e-07 
5.293955920339377e-23 
-1.648097777884597e-05 
0 
0 
5.83569453887601e-06 
1.750708361662805e-05 
0 
5.83569453887601e-06 
1.167138907775202e-05 
5.83569453887601e-06 
-1.098731851923065e-05 
5.293955920339377e-23 
-5.493659259615324e-06 
0 
0 
0 
0 
-5.493659259615322e-06 
-1.588186776101813e-22 
-1.588186776101813e-22 
1.058791184067875e-22 
-5.493659259615323e-06 
5.293955920339377e-23 
5.83569453887601e-06 
5.83569453887601e-06 
0 
5.835694538876008e-06 
1.819115417514942e-05 
1.058791184067875e-22 
0 
0 
-5.493659259615324e-06 
0 
-0.0002557838073079386 
0 
0 
5.293955920339377e-23 
5.835694538876012e-06 
0 
-5.493659259615323e-06 
-5.493659259615324e-06 
-3.296195555769193e-05 
5.83569453887601e-06 
5.83569453887601e-06 
0 
2.334277815550404e-05 
6.177729818136695e-06 
5.83569453887601e-06 
3.42035279260687e-07 
-5.493659259615322e-06 
5.293955920339377e-23 
1.167138907775202e-05 
2.334277815550405e-05 
0 
-1.058791184067875e-22 
0 
0 
5.293955920339377e-23 
0 
0 
5.097535482145786e-07 
1.167138907775202e-05 
0 
1.167138907775202e-05 
0 
0 
0 
1.20134243570127e-05 
2.952050797364074e-05 
5.83569453887601e-06 
-5.493659259615323e-06 
0 
-5.493659259615324e-06 
5.83569453887601e-06 
5.83569453887601e-06 
1.167138907775202e-05 
3.501416723325611e-05 
-5.493659259615324e-06 
5.83569453887601e-06 
5.83569453887601e-06 
1.201342435701271e-05 
-1.098731851923065e-05 
-1.588186776101813e-22 
3.163001496649109e-06 
0 
-5.493659259615324e-06 
-5.493659259615324e-06 
1.167138907775202e-05 
3.420352792606871e-07 
0 
5.83569453887601e-06 
6.362552221977136e-06 
-4.235164736271502e-22 
9.048926073850623e-05 
0 
-6.352747104407253e-22 
0 
-5.493659259615321e-06 
0 
3.420352792606875e-07 
0 
0 
0 
0 
3.501416723325611e-05 
5.293955920339377e-23 
0 
-5.493659259615324e-06 
-5.493659259615324e-06 
0 
0.000105384536979029 
-5.151623980354636e-06 
-1.098731851923065e-05 
5.83569453887601e-06 
5.293955920339377e-23 
3.420352792606875e-07 
0 
5.83569453887601e-06 
-5.493659259615323e-06 
-2.117582368135751e-22 
-5.493659259615322e-06 
0 
-1.116082925881571e-05 
0 
-2.197463703846129e-05 
0 
3.420352792606871e-07 
-1.028634402816035e-06 
-5.493659259615323e-06 
-5.151623980354636e-06 
0 
1.058791184067875e-22 
8.735027268559972e-22 
-5.493659259615324e-06 
5.835694538876008e-06 
0 
0 
-5.493659259615324e-06 
-1.058791184067875e-22 
0 
-5.493659259615324e-06 
0 
-5.493659259615324e-06 
-5.493659259615324e-06 
-1.648097777884597e-05 
1.673513157120773e-05 
-1.098731851923065e-05 
2.194858317013256e-05 
-5.151623980354638e-06 
5.83569453887601e-06 
0 
5.293955920339377e-23 
3.420352792606875e-07 
-5.493659259615324e-06 
6.635725006616621e-06 
5.83569453887601e-06 
0 
-1.124965633072118e-22 
0 
5.835694538876014e-05 
0 
0 
0 
-8.470329472543003e-22 
0 
0 
1.058791184067875e-22 
5.83569453887601e-06 
-2.746829629807662e-05 
5.293955920339377e-23 
4.764560328305439e-22 
-1.588186776101813e-22 
0 
0 
0 
0 
-5.493659259615324e-06 
5.83569453887601e-06 
-5.493659259615323e-06 
0 
0 
0 
0 
1.058791184067875e-22 
-1.588186776101813e-22 
1.167138907775202e-05 
6.362552221977136e-06 
5.83569453887601e-06 
-5.667169999200392e-06 
-1.098731851923065e-05 
1.058791184067875e-22 
0 
5.835694538876008e-06 
5.293955920339377e-23 
0 
-5.493659259615324e-06 
0 
0 
-5.493659259615322e-06 
5.835694538876008e-06 
0 
-5.493659259615324e-06 
-5.493659259615324e-06 
0 
5.293955920339377e-23 
-5.493659259615324e-06 
0 
5.83569453887601e-06 
5.835694538876008e-06 
0 
0 
0 
2.117582368135751e-22 
3.420352792606875e-07 
-1.098731851923064e-05 
5.835694538876008e-06 
-5.493659259615323e-06 
0 
3.420352792606875e-07 
-5.493659259615324e-06 
0 
0 
2.117582368135751e-22 
0 
5.293955920339377e-23 
0 
0 
0 
1.058791184067875e-22 
0 
0 
-1.098731851923065e-05 
5.83569453887601e-06 
8.595907712117855e-06 
-5.493659259615324e-06 
0 
-5.493659259615324e-06 
1.167138907775202e-05 
0 
5.835694538876013e-06 
-1.588186776101813e-22 
2.257082611008372e-05 
0 
5.83569453887601e-06 
0 
0 
1.058791184067875e-22 
0 
5.83569453887601e-06 
0 
0 
5.293955920339377e-23 
5.83569453887601e-06 
1.058791184067875e-22 
-5.493659259615324e-06 
0 
0 
0 
-1.098731851923065e-05 
-6.558187583612316e-05 
5.293955920339377e-23 
0 
6.519765097397387e-06 
-3.296195555769194e-05 
1.750708361662805e-05 
0 
0 
0 
5.83569453887601e-06 
0 
0 
5.83569453887601e-06 
-2.197463703846129e-05 
0.0001216810221370986 
3.42035279260687e-07 
0 
5.83569453887601e-06 
0 
2.117582368135751e-22 
0 
-5.493659259615324e-06 
5.83569453887601e-06 
5.83569453887601e-06 
-1.588186776101813e-22 
-5.493659259615323e-06 
-5.493659259615324e-06 
1.167138907775202e-05 
-0.0001085050440752636 
0 
-5.493659259615324e-06 
3.420352792606871e-07 
1.026105837782064e-06 
3.420352792606875e-07 
3.420352792606883e-07 
-5.493659259615323e-06 
0 
-5.029258124322408e-22 
5.293955920339377e-23 
-1.098731851923065e-05 
0 
-5.493659259615323e-06 
-5.493659259615324e-06 
-5.151623980354636e-06 
-5.493659259615324e-06 
0 
-5.493659259615324e-06 
0 
0 
2.646977960169689e-22 
0 
-5.493659259615323e-06 
-5.493659259615323e-06 
0 
-5.151623980354634e-06 
0 
1.195283770419839e-06 
0 
5.293955920339377e-23 
0 
1.750708361662805e-05 
2.117582368135751e-22 
0 
-0.0001419818922588393 
5.835694538876009e-06 
2.249931266144235e-22 
-2.813571143415472e-05 
5.293955920339377e-23 
-5.493659259615322e-06 
0 
-5.493659259615323e-06 
1.750708361662805e-05 
1.750708361662805e-05 
0 
0 
-5.493659259615322e-06 
2.917847269438008e-05 
1.750708361662805e-05 
-5.151623980354637e-06 
5.835694538876008e-06 
-5.493659259615324e-06 
5.293955920339377e-23 
0 
-5.493659259615324e-06 
5.293955920339377e-23 
3.705769144237564e-22 
5.835694538876008e-06 
0 
5.293955920339377e-23 
6.177729818136696e-06 
-5.493659259615324e-06 
0 
-4.394927407692258e-05 
1.30202336015018e-06 
0 
0 
-1.098731851923064e-05 
0 
0 
5.293955920339377e-23 
0 
3.420352792606869e-07 
1.167138907775202e-05 
-5.493659259615324e-06 
3.420352792606875e-07 
5.835694538876008e-06 
-5.493659259615324e-06 
-5.493659259615323e-06 
5.293955920339377e-23 
-2.197463703846129e-05 
-5.493659259615325e-06 
5.83569453887601e-06 
-4.944293333653792e-05 
7.751025485394899e-05 
0 
0 
0 
2.257082611008372e-05 
5.293955920339377e-23 
5.83569453887601e-06 
0 
0 
-5.493659259615323e-06 
5.83569453887601e-06 
0 
8.470329472543003e-22 
5.83569453887601e-06 
0 
0 
0 
0 
5.83569453887601e-06 
-5.493659259615324e-06 
-1.588186776101813e-22 
5.83569453887601e-06 
1.750708361662805e-05 
0 
0 
3.420352792606875e-07 
-5.493659259615324e-06 
5.83569453887601e-06 
1.167138907775202e-05 
0 
-1.588186776101813e-22 
5.83569453887601e-06 
1.058791184067875e-22 
0 
5.835694538876008e-06 
-1.098731851923065e-05 
-5.493659259615323e-06 
0 
0 
1.784911889588871e-05 
5.835694538876009e-06 
5.83569453887601e-06 
0 
0 
5.097535482145786e-07 
0 
-5.493659259615324e-06 
5.83569453887601e-06 
3.420352792606875e-07 
0 
5.293955920339377e-23 
0 
5.83569453887601e-06 
5.83569453887601e-06 
-5.493659259615323e-06 
3.420352792606875e-07 
5.83569453887601e-06 
-5.493659259615323e-06 
0 
5.293955920339377e-23 
-5.493659259615324e-06 
1.750708361662805e-05 
-2.330657762966215e-06 
0 
-5.493659259615324e-06 
-5.493659259615324e-06 
5.293955920339377e-23 
-5.493659259615324e-06 
0 
-5.493659259615324e-06 
5.83569453887601e-06 
0 
3.420352792606875e-07 
0 
0 
0 
-5.493659259615323e-06 
0 
0 
0 
0 
0 
-1.588186776101813e-22 
3.420352792606875e-07 
0 
2.117582368135751e-22 
0 
0 
-1.098731851923065e-05 
0 
-1.648097777884597e-05 
-5.493659259615324e-06 
1.058791184067875e-22 
0 
0 
-5.493659259615322e-06 
5.83569453887601e-06 
0 
5.83569453887601e-06 
-1.124965633072118e-22 
-5.493659259615324e-06 
-0.0001205861628140124 
5.83569453887601e-06 
-1.648097777884597e-05 
-5.493659259615322e-06 
5.743522913654702e-06 
1.750708361662805e-05 
0 
-1.058791184067875e-22 
3.163001496649109e-06 
0 
1.302023360150179e-06 
0 
5.83569453887601e-06 
-1.648097777884597e-05 
1.167138907775202e-05 
0 
0 
1.027719409238053e-05 
5.293955920339377e-23 
0 
-1.588186776101813e-22 
3.420352792606875e-07 
0 
-5.493659259615323e-06 
1.058791184067875e-22 
-5.493659259615323e-06 
-5.493659259615322e-06 
-5.151623980354636e-06 
5.83569453887601e-06 
0 
0 
5.293955920339377e-23 
0 
-5.493659259615324e-06 
5.83569453887601e-06 
5.293955920339377e-23 
0 
0 
-2.19746370384613e-05 
1.167138907775202e-05 
0 
-5.493659259615324e-06 
0 
-5.493659259615324e-06 
0 
0 
-5.493659259615323e-06 
0 
5.174929880446378e-05 
5.83569453887601e-06 
-2.746829629807662e-05 
0 
1.750708361662805e-05 
-5.493659259615323e-06 
5.293955920339377e-23 
0 
5.293955920339377e-23 
0 
-5.493659259615324e-06 
0 
-5.493659259615324e-06 
1.167138907775202e-05 
1.058791184067875e-22 
0 
3.581419770099669e-05 
5.83569453887601e-06 
-5.493659259615324e-06 
-5.493659259615323e-06 
0 
3.420352792606866e-07 
2.334277815550404e-05 
0 
0 
-5.151623980354634e-06 
5.83569453887601e-06 
5.83569453887601e-06 
5.293955920339377e-23 
8.998696035525119e-06 
3.501416723325609e-05 
0 
0 
0 
-5.493659259615324e-06 
0 
-5.493659259615324e-06 
5.83569453887601e-06 
-1.648097777884597e-05 
0 
0 
5.83569453887601e-06 
5.252125084988411e-05 
0 
5.293955920339377e-23 
1.058791184067875e-22 
0 
4.702636571324156e-05 
0 
-1.648097777884597e-05 
-5.493659259615324e-06 
5.83569453887601e-06 
-1.116082925881571e-05 
3.420352792606875e-07 
0 
0 
-1.098731851923065e-05 
2.334277815550404e-05 
5.835694538876006e-06 
0 
0 
0 
5.83569453887601e-06 
4.367513634279986e-22 
5.83569453887601e-06 
5.293955920339377e-23 
0 
0 
3.501416723325611e-05 
-5.493659259615324e-06 
-1.098731851923065e-05 
-5.493659259615324e-06 
-2.268476146531138e-05 
2.05221167556413e-06 
5.293955920339377e-23 
-1.098731851923064e-05 
0 
0 
0 
-1.098731851923065e-05 
0 
-1.098731851923065e-05 
6.419263992763612e-05 
-5.493659259615324e-06 
-5.493659259615324e-06 
3.420352792606872e-07 
-3.176373552203626e-22 
-5.493659259615324e-06 
-5.493659259615323e-06 
-5.493659259615324e-06 
5.293955920339377e-23 
-1.098731851923065e-05 
0 
-9.595295105615121e-22 
0 
1.167138907775202e-05 
3.501416723325609e-05 
0 
-1.588186776101813e-22 
0 
0 
1.058791184067875e-22 
0 
-1.648097777884597e-05 
1.058791184067875e-22 
-8.536503921547246e-22 
-1.588186776101813e-22 
-5.493659259615324e-06 
0 
3.420352792606875e-07 
0 
0 
5.83569453887601e-06 
-5.493659259615324e-06 
-2.197463703846129e-05 
0 
3.420352792606875e-07 
-1.098731851923065e-05 
0 
0 
0 
0 
0 
5.83569453887601e-06 
5.293955920339377e-23 
0 
7.898869163705099e-07 
0 
0 
0 
-5.493659259615322e-06 
5.097535482145777e-07 
0 
-1.098731851923065e-05 
-5.493659259615323e-06 
5.83569453887601e-06 
-1.098731851923065e-05 
-1.588186776101813e-22 
1.167138907775202e-05 
5.83569453887601e-06 
0 
0 
0 
5.83569453887601e-06 
0 
0 
0 
0 
0 
-1.19114008207636e-22 
-5.293955920339377e-22 
5.83569453887601e-06 
-5.493659259615324e-06 
0 
0 
3.163001496649109e-06 
0 
0 
5.83569453887601e-06 
5.835694538876013e-06 
0 
-5.493659259615324e-06 
5.83569453887601e-06 
0 
5.293955920339377e-23 
0 
0 
0 
0 
5.83569453887601e-06 
0 
5.293955920339377e-23 
0 
0 
3.110199103199384e-22 
0 
-1.588186776101813e-22 
-5.493659259615324e-06 
-5.493659259615323e-06 
0 
-5.493659259615324e-06 
0 
3.420352792606875e-07 
0 
0 
4.367513634279986e-22 
-2.646977960169689e-22 
3.420352792606875e-07 
0 
-2.19746370384613e-05 
0 
0 
0 
5.83569453887601e-06 
0 
0 
1.167138907775202e-05 
-5.493659259615324e-06 
5.83569453887601e-06 
-1.098731851923065e-05 
1.058791184067875e-22 
5.83569453887601e-06 
5.293955920339377e-23 
-5.493659259615324e-06 
0 
3.705769144237564e-22 
1.167138907775202e-05 
6.362552221977137e-06 
1.167138907775202e-05 
5.83569453887601e-06 
5.835694538876009e-06 
0 
5.293955920339377e-23 
6.177729818136696e-06 
5.835694538876012e-06 
5.83569453887601e-06 
0 
3.501416723325611e-05 
-5.151623980354636e-06 
5.83569453887601e-06 
1.750708361662804e-05 
5.83569453887601e-06 
5.83569453887601e-06 
0 
-5.493659259615324e-06 
0 
1.247141954549264e-05 
-5.493659259615323e-06 
3.420352792606877e-07 
-1.648097777884597e-05 
-1.098731851923065e-05 
5.83569453887601e-06 
5.83569453887601e-06 
1.167138907775202e-05 
-1.588186776101813e-22 
-5.493659259615324e-06 
0 
5.063742493455686e-06 
0 
5.835694538876012e-06 
0 
0 
0 
0 
3.705769144237564e-22 
0 
0 
0 
0 
0 
-8.206285361496913e-05 
-5.493659259615324e-06 
0 
0 
0 
3.501416723325611e-05 
-1.098731851923065e-05 
5.83569453887601e-06 
0 
0 
-5.493659259615323e-06 
-5.493659259615324e-06 
0 
-1.098731851923065e-05 
1.19528377041984e-06 
-1.098731851923065e-05 
0 
1.750708361662805e-05 
4.367513634279986e-22 
0 
0 
5.835694538876018e-06 
0 
1.750708361662805e-05 
0 
0 
-5.493659259615324e-06 
-3.296195555769194e-05 
0 
5.835694538876008e-06 
5.83569453887601e-06 
0 
-9.888586667307582e-05 
5.835694538876012e-06 
0 
5.83569453887601e-06 
0 
6.177729818136695e-06 
-5.493659259615324e-06 
-5.493659259615323e-06 
3.420352792606875e-07 
1.167138907775202e-05 
-2.746829629807662e-05 
0 
0 
0 
-4.641870432140061e-06 
-1.098731851923065e-05 
-5.493659259615323e-06 
0 
1.750708361662805e-05 
-5.493659259615323e-06 
0 
0 
1.058791184067875e-22 
0 
0 
0 
5.286328612914484e-05 
6.352747104407253e-22 
0 
-4.80958870109395e-06 
5.83569453887601e-06 
5.83569453887601e-06 
0 
5.835694538876008e-06 
0 
-2.180611249878565e-05 
-5.493659259615324e-06 
1.058791184067875e-22 
0.0001283852798552721 
2.917847269438008e-05 
0 
5.83569453887601e-06 
1.588186776101813e-22 
2.334277815550404e-05 
5.83569453887601e-06 
5.83569453887601e-06 
0 
3.420352792606875e-07 
5.83569453887601e-06 
0 
5.293955920339377e-23 
5.83569453887601e-06 
3.420352792606875e-07 
0 
5.83569453887601e-06 
0 
0 
-3.705769144237564e-22 
2.334277815550403e-05 
5.835694538876008e-06 
1.167138907775203e-05 
-1.098731851923065e-05 
0 
0 
0 
0 
0 
-5.493659259615324e-06 
0 
0 
0 
5.293955920339377e-23 
0 
-1.098731851923065e-05 
-5.493659259615324e-06 
0 
8.253872432857166e-06 
0 
5.83569453887601e-06 
0 
0 
4.367513634279986e-22 
5.293955920339377e-23 
0 
0 
5.83569453887601e-06 
0 
-5.493659259615324e-06 
0 
0 
0 
0 
0 
-5.493659259615324e-06 
0 
5.83569453887601e-06 
5.83569453887601e-06 
2.917847269438008e-05 
-5.493659259615324e-06 
0 
0 
0 
-1.098731851923065e-05 
3.420352792606871e-07 
0 
1.167138907775202e-05 
1.058791184067875e-22 
0 
6.861800376658072e-06 
5.83569453887601e-06 
1.167138907775202e-05 
0 
6.177729818136696e-06 
0 
0 
-4.394927407692258e-05 
-1.648097777884597e-05 
0 
-5.493659259615324e-06 
5.83569453887601e-06 
1.167138907775203e-05 
-5.493659259615322e-06 
0 
0 
2.418177893981156e-06 
-1.098731851923065e-05 
5.268576831011211e-07 
0 
-5.493659259615324e-06 
-5.493659259615322e-06 
1.058791184067875e-22 
-5.151623980354636e-06 
5.83569453887601e-06 
0 
-5.493659259615323e-06 
-1.064528323996995e-05 
-1.648097777884597e-05 
5.835694538876008e-06 
0 
0 
1.853318945441009e-05 
-6.161074395693423e-06 
-1.588186776101813e-22 
0 
0 
0 
0 
5.293955920339377e-23 
0 
1.167138907775202e-05 
5.83569453887601e-06 
0 
0 
0 
5.835694538876012e-06 
2.117582368135751e-22 
-1.098731851923065e-05 
6.177729818136696e-06 
-5.493659259615324e-06 
0 
0 
-1.648097777884597e-05 
0 
1.167138907775202e-05 
0 
-1.098731851923065e-05 
1.167138907775202e-05 
-3.845561481730725e-05 
-5.493659259615324e-06 
-4.102815838263017e-22 
3.420352792606875e-07 
-5.151623980354636e-06 
-5.823351512373315e-22 
2.334277815550404e-05 
7.203835655918763e-06 
1.784911889588872e-05 
-2.197463703846129e-05 
-5.493659259615324e-06 
-1.013407002807149e-05 
-5.493659259615324e-06 
1.750708361662805e-05 
0 
0 
-5.493659259615324e-06 
1.167138907775202e-05 
0 
2.334277815550404e-05 
-1.648097777884597e-05 
4.119189705139276e-05 
1.058791184067875e-22 
0 
-1.613894249958526e-05 
5.293955920339377e-22 
-5.493659259615323e-06 
1.058791184067875e-22 
8.204175882352482e-05 
6.419263992763608e-05 
0 
0 
2.917847269438008e-05 
-4.394927407692258e-05 
3.044024654195142e-22 
0 
1.167138907775202e-05 
0 
0 
4.984855780765719e-05 
5.835694538876012e-06 
0 
5.293955920339377e-23 
0 
-5.493659259615322e-06 
0 
0 
5.83569453887601e-06 
0 
2.970533037748117e-05 
0 
-5.493659259615323e-06 
0 
0 
0 
5.83569453887601e-06 
0 
5.835694538876008e-06 
3.420352792606873e-07 
-5.151623980354636e-06 
1.784911889588871e-05 
0.0001074606795937494 
6.861800376658074e-06 
0 
-5.493659259615322e-06 
-1.588186776101813e-22 
-1.648097777884597e-05 
5.83569453887601e-06 
0 
-5.493659259615324e-06 
0 
0 
4.235164736271502e-22 
2.67146716519968e-06 
0 
0 
-1.588186776101813e-22 
-5.493659259615324e-06 
-1.648097777884597e-05 
0 
-5.493659259615323e-06 
-5.493659259615324e-06 
0 
-3.176373552203626e-22 
-5.493659259615324e-06 
-1.648097777884597e-05 
0 
0 
0 
-1.098731851923065e-05 
0 
0 
3.501416723325609e-05 
2.117582368135751e-22 
1.058791184067875e-22 
0 
0 
-1.098731851923065e-05 
0 
5.293955920339377e-23 
0 
0 
5.83569453887601e-06 
0 
0 
0 
-5.493659259615324e-05 
5.83569453887601e-06 
5.83569453887601e-06 
-1.098731851923065e-05 
0 
-5.493659259615324e-06 
-5.493659259615324e-06 
-5.493659259615324e-06 
3.420352792606875e-07 
5.83569453887601e-06 
3.420352792606875e-07 
0 
0 
0 
-2.746829629807662e-05 
0 
-5.493659259615324e-06 
0 
-1.648097777884597e-05 
3.420352792606875e-07 
-5.493659259615325e-06 
-5.493659259615324e-06 
4.084986177213207e-05 
-5.493659259615324e-06 
-5.493659259615324e-06 
3.420352792606867e-07 
1.30202336015018e-06 
-1.098731851923065e-05 
-5.493659259615324e-06 
0 
5.83569453887601e-06 
0 
0 
0 
0 
5.83569453887601e-06 
2.917847269438008e-05 
0 
-2.746829629807662e-05 
5.83569453887601e-06 
0 
-1.124965633072118e-22 
1.167138907775202e-05 
-1.098731851923065e-05 
0 
0 
0 
1.058791184067875e-22 
0 
5.83569453887601e-06 
5.83569453887601e-06 
1.167138907775202e-05 
-3.176373552203626e-22 
0 
0 
-1.098731851923065e-05 
-6.609742185496894e-05 
-1.588186776101813e-22 
5.293955920339377e-23 
0 
0 
5.293955920339377e-23 
3.420352792606875e-07 
0 
5.83569453887601e-06 
0 
-1.648097777884597e-05 
0 
5.83569453887601e-06 
-1.124965633072118e-22 
