solver_type L2R_L2LOSS_SVC_DUAL
nr_class 2
label 1 2
nr_feature 31069
bias -1
w
3.420359256427695e-07 
0 
1.167138857467173e-05 
8.787745023568073e-05 
-0.00015296913578025 
5.835694287335864e-06 
-5.4936583616931e-06 
0 
-4.499862532288471e-22 
0 
5.835694287335864e-06 
5.835694287335864e-06 
4.70275902243297e-05 
2.334277714934346e-05 
5.835694287335866e-06 
0 
0 
-5.493658361693101e-06 
0 
5.835694287335866e-06 
-5.4936583616931e-06 
0 
0 
0 
0 
0 
5.835694287335866e-06 
5.835694287335864e-06 
0 
0 
-5.4936583616931e-06 
0 
5.835694287335864e-06 
-1.09873167233862e-05 
0 
0 
0 
-5.4936583616931e-06 
0 
-1.058791184067875e-22 
2.917847143667933e-05 
-5.4936583616931e-06 
-5.493658361693102e-06 
-5.293955920339377e-23 
5.835694287335864e-06 
0 
-5.4936583616931e-06 
0 
0 
0 
3.420359256427695e-07 
0 
-5.4936583616931e-06 
0 
0 
5.835694287335866e-06 
-8.867376166568457e-22 
0 
0 
5.835694287335864e-06 
0 
8.204175594834489e-05 
0 
5.835694287335864e-06 
0 
0 
-5.4936583616931e-06 
0 
0 
0 
0 
-5.151622436050334e-06 
0 
0 
1.167138857467173e-05 
0 
4.66855542986869e-05 
1.167138857467172e-05 
0 
-5.151622436050335e-06 
-2.746829180846549e-05 
2.334277714934346e-05 
3.420359256427695e-07 
1.75070828620076e-05 
5.904101472464426e-05 
-5.4936583616931e-06 
-4.944292525523789e-05 
0 
5.835694287335866e-06 
0 
3.268350974819388e-05 
-5.4936583616931e-06 
0 
-1.648097508507931e-05 
5.835694287335866e-06 
0 
0 
0 
1.167138857467173e-05 
0 
-5.293955920339377e-23 
-1.64809750850793e-05 
0 
0 
0 
0 
5.286328451166556e-05 
0 
5.835694287335864e-06 
3.501416572401523e-05 
-5.493658361693099e-06 
5.097592682453363e-07 
-2.163259752112963e-05 
-1.058791184067875e-22 
0 
-5.4936583616931e-06 
-4.235164736271502e-22 
0 
2.334277714934346e-05 
5.835694287335864e-06 
0 
0 
0 
-2.19746334467724e-05 
0 
-1.64809750850793e-05 
-5.4936583616931e-06 
5.835694287335864e-06 
-5.493658361693101e-06 
0 
0 
0 
-2.117582368135751e-22 
0 
-5.4936583616931e-06 
5.293955920339377e-23 
1.058791184067875e-22 
5.293955920339377e-23 
-5.4936583616931e-06 
1.058791184067875e-22 
0 
0 
0 
0 
-1.09873167233862e-05 
0 
-1.058791184067875e-21 
-5.293955920339377e-23 
0.0002903905082255358 
5.835694287335864e-06 
5.835694287335868e-06 
0 
0 
-5.293955920339377e-23 
5.097592682453363e-07 
8.998696673207637e-06 
-5.4936583616931e-06 
-2.117582368135751e-22 
0 
0 
3.501416572401521e-05 
0.0001167138857467173 
0 
5.835694287335864e-06 
0 
0 
-5.4936583616931e-06 
0 
-2.117582368135751e-22 
0 
5.835694287335864e-06 
0 
0 
0 
0 
0 
0 
-5.4936583616931e-06 
5.835694287335864e-06 
0 
-5.4936583616931e-06 
-1.058791184067875e-22 
0 
0 
0 
-5.4936583616931e-06 
0 
4.441488146077862e-06 
0 
0 
5.835694287335864e-06 
0 
-1.058791184067875e-22 
-1.648097508507931e-05 
5.835694287335864e-06 
-2.911675756186657e-22 
0 
0 
-5.4936583616931e-06 
0 
0 
-8.31584770420208e-06 
5.835694287335864e-06 
0 
0 
-1.648097508507931e-05 
-1.09873167233862e-05 
5.835694287335866e-06 
0 
5.835694287335864e-06 
-1.648097508507931e-05 
-5.4936583616931e-06 
4.084986001135106e-05 
0 
1.167138857467173e-05 
-5.4936583616931e-06 
-5.4936583616931e-06 
-5.4936583616931e-06 
-5.4936583616931e-06 
0 
3.42035925642769e-07 
-3.84556085318517e-05 
-2.19746334467724e-05 
0 
5.835694287335864e-06 
0 
0 
0 
5.835694287335864e-06 
2.917847143667932e-05 
-5.4936583616931e-06 
0 
4.702759022432969e-05 
-5.4936583616931e-06 
0 
5.835694287335864e-06 
0 
1.167138857467173e-05 
1.058791184067875e-22 
-1.09873167233862e-05 
5.835694287335866e-06 
5.835694287335864e-06 
0 
5.835694287335864e-06 
-5.4936583616931e-06 
0 
5.835694287335864e-06 
5.835694287335864e-06 
0 
5.835694287335866e-06 
0 
3.420359256427695e-07 
-5.4936583616931e-06 
5.835694287335864e-06 
-5.4936583616931e-06 
0 
0 
-5.4936583616931e-06 
3.420359256427695e-07 
-5.4936583616931e-06 
-5.4936583616931e-06 
0 
6.17773021297864e-06 
0 
-5.4936583616931e-06 
0 
-5.4936583616931e-06 
-1.648097508507931e-05 
-1.09873167233862e-05 
-6.617444900424221e-24 
1.784911878765036e-05 
5.835694287335866e-06 
5.293955920339377e-23 
1.058791184067875e-22 
-5.15162243605033e-06 
5.835694287335864e-06 
0 
0 
0 
-5.4936583616931e-06 
0 
0 
-2.19746334467724e-05 
-5.4936583616931e-06 
0 
-1.270549420881451e-21 
-1.09873167233862e-05 
0 
-5.4936583616931e-06 
1.058791184067875e-22 
0 
5.835694287335864e-06 
-1.09873167233862e-05 
0 
-5.4936583616931e-06 
0 
-5.4936583616931e-06 
-5.4936583616931e-06 
0 
0 
0 
0 
0 
6.519766138621405e-06 
0 
0 
0 
0 
6.840718512855381e-07 
0 
5.835694287335864e-06 
0 
0 
5.835694287335864e-06 
5.835694287335864e-06 
1.784911878765037e-05 
-2.117582368135751e-22 
0 
5.835694287335864e-06 
-5.293955920339377e-23 
-5.293955920339377e-23 
1.167138857467173e-05 
0 
-1.09873167233862e-05 
1.167138857467173e-05 
-5.4936583616931e-06 
-1.058791184067875e-22 
0 
3.420359256427695e-07 
3.420359256427695e-07 
0 
3.42035925642769e-07 
0 
3.420359256427695e-07 
0 
0 
-1.09873167233862e-05 
0 
1.75070828620076e-05 
-1.09873167233862e-05 
0 
-4.235164736271502e-22 
0 
0 
5.835694287335866e-06 
1.058791184067875e-22 
-5.4936583616931e-06 
-1.09873167233862e-05 
-5.4936583616931e-06 
1.058791184067875e-22 
0 
0 
0 
1.058791184067875e-22 
5.835694287335864e-06 
0 
-1.058791184067875e-22 
0 
0 
0 
5.835694287335864e-06 
5.293955920339377e-23 
0 
-5.293955920339377e-23 
-5.293955920339377e-23 
0 
0 
1.167138857467173e-05 
0 
0 
0 
0 
-5.293955920339377e-23 
1.167138857467173e-05 
0 
5.835694287335864e-06 
-5.4936583616931e-06 
-5.293955920339377e-23 
0 
0 
0 
0 
5.835694287335864e-06 
-1.09873167233862e-05 
5.835694287335864e-06 
0 
0 
0 
0 
-5.4936583616931e-06 
0 
-5.4936583616931e-06 
-2.117582368135751e-22 
-5.4936583616931e-06 
5.835694287335864e-06 
-5.4936583616931e-06 
0 
1.167138857467173e-05 
2.38525364175888e-05 
8.169972002270218e-05 
-5.4936583616931e-06 
0 
1.167138857467173e-05 
5.835694287335864e-06 
0 
-1.058791184067875e-22 
5.835694287335866e-06 
0 
-5.151622436050335e-06 
5.835694287335866e-06 
1.75070828620076e-05 
0 
-2.19746334467724e-05 
5.835694287335864e-06 
-4.944292525523788e-05 
-6.043024197862409e-05 
0 
5.835694287335864e-06 
-1.648097508507931e-05 
0 
1.167138857467173e-05 
-5.493658361693101e-06 
-3.845560853185171e-05 
0 
-2.712625588282272e-05 
-3.862912084828385e-05 
-5.293955920339377e-23 
0 
-1.09873167233862e-05 
-1.09873167233862e-05 
0 
-5.4936583616931e-06 
5.835694287335864e-06 
-5.4936583616931e-06 
-5.4936583616931e-06 
0 
1.167138857467173e-05 
2.117582368135751e-22 
-1.735123164321365e-07 
-2.38228016415272e-22 
0 
3.420359256427695e-07 
5.835694287335864e-06 
0 
-1.09873167233862e-05 
0 
0 
1.058791184067875e-22 
0 
5.097592682453363e-07 
-5.293955920339377e-23 
0 
0 
-1.09873167233862e-05 
-1.09873167233862e-05 
3.420359256427695e-07 
-5.293955920339377e-23 
0 
0 
-5.4936583616931e-06 
-3.176373552203626e-22 
5.835694287335864e-06 
-1.058791184067875e-22 
-5.293955920339377e-23 
0 
0 
5.293955920339377e-23 
5.835694287335864e-06 
5.835694287335864e-06 
0 
5.835694287335864e-06 
1.402898318889935e-21 
0 
-5.4936583616931e-06 
0 
1.058791184067875e-22 
-5.4936583616931e-06 
-5.4936583616931e-06 
-5.151622436050335e-06 
1.201342450031451e-05 
6.177730212978642e-06 
6.519766138621409e-06 
-5.4936583616931e-06 
0 
0 
0 
-5.293955920339377e-23 
0 
-5.4936583616931e-06 
0 
5.835694287335864e-06 
-1.030324487210067e-05 
0 
-5.293955920339377e-23 
3.420359256427695e-07 
0 
1.75070828620076e-05 
0 
0 
-5.4936583616931e-06 
-2.19746334467724e-05 
0 
-5.4936583616931e-06 
-4.394926689354481e-05 
-1.058791184067875e-22 
0 
-5.4936583616931e-06 
-5.4936583616931e-06 
0 
-5.293955920339377e-23 
1.75070828620076e-05 
1.167138857467173e-05 
0 
-1.757711945891258e-07 
0 
0 
1.75070828620076e-05 
0 
-5.4936583616931e-06 
6.362566786188096e-06 
0 
2.117582368135751e-22 
5.835694287335864e-06 
0 
5.293955920339377e-23 
0 
0 
-1.349958759686541e-21 
5.835694287335868e-06 
0 
5.835694287335864e-06 
-5.4936583616931e-06 
0 
0 
0 
1.30203948543216e-06 
-2.712625588282272e-05 
0 
-4.632211430296955e-22 
0 
0 
-2.117582368135751e-22 
0 
5.835694287335864e-06 
5.835694287335864e-06 
0 
0 
-5.4936583616931e-06 
-3.296195017015862e-05 
0 
-5.151622436050334e-06 
-6.617444900424221e-24 
-5.4936583616931e-06 
-5.4936583616931e-06 
-5.293955920339377e-23 
-5.4936583616931e-06 
5.835694287335864e-06 
-5.293955920339377e-23 
3.420359256427688e-07 
0 
0 
0 
0 
-1.665448740151144e-05 
0 
-3.705769144237564e-22 
0 
5.835694287335864e-06 
-5.493658361693101e-06 
3.420359256427697e-07 
7.676236084492097e-22 
-5.4936583616931e-06 
-1.058791184067875e-22 
2.334277714934346e-05 
0 
3.420359256427695e-07 
0 
-5.4936583616931e-06 
5.835694287335864e-06 
3.42035925642769e-07 
0 
-5.4936583616931e-06 
-5.151622436050334e-06 
1.201342450031451e-05 
0 
-1.09873167233862e-05 
0 
8.000488261974331e-07 
5.835694287335866e-06 
-5.293955920339377e-23 
1.167138857467174e-05 
0 
-5.4936583616931e-06 
0 
-5.4936583616931e-06 
-5.293955920339377e-23 
0 
5.835694287335864e-06 
-4.467550584764787e-06 
0 
-5.4936583616931e-06 
0 
5.835694287335864e-06 
5.835694287335864e-06 
5.835694287335864e-06 
0 
0 
3.420359256427695e-07 
1.852884572118782e-22 
5.835694287335866e-06 
5.293955920339377e-23 
0 
1.167138857467172e-05 
-5.4936583616931e-06 
0 
0 
-5.4936583616931e-06 
0 
-1.09873167233862e-05 
0 
0 
0 
1.201342450031451e-05 
-5.4936583616931e-06 
5.835694287335866e-06 
0 
-1.09873167233862e-05 
-5.4936583616931e-06 
-5.4936583616931e-06 
-1.09873167233862e-05 
-2.163259752112962e-05 
0 
3.569823757530071e-05 
-1.648097508507931e-05 
-5.4936583616931e-06 
0 
0 
0 
2.334277714934345e-05 
-1.058791184067875e-22 
-8.735027268559972e-22 
0 
-2.117582368135751e-22 
0 
0 
5.835694287335864e-06 
0 
-5.4936583616931e-06 
0 
-5.4936583616931e-06 
0 
-1.058791184067875e-22 
0 
1.167138857467173e-05 
-2.117582368135751e-22 
-2.646977960169689e-23 
-5.4936583616931e-06 
3.420359256427695e-07 
3.420359256427697e-07 
-2.746829180846549e-05 
-5.4936583616931e-06 
2.334277714934346e-05 
1.75070828620076e-05 
1.302039485432153e-06 
-5.293955920339377e-23 
3.020457921360765e-05 
0 
0 
2.671469019184118e-06 
0 
0 
0 
0 
-1.081879311417557e-05 
0 
0 
0 
2.334277714934346e-05 
0 
0 
0 
0 
0 
0 
0 
-5.4936583616931e-06 
5.558653716356346e-22 
0 
0 
0 
1.588186776101813e-22 
-1.09873167233862e-05 
0 
1.588186776101813e-22 
1.167138857467173e-05 
5.835694287335864e-06 
1.058791184067875e-22 
0 
0 
0 
1.75070828620076e-05 
3.420359256427695e-07 
5.835694287335864e-06 
0 
-5.4936583616931e-06 
1.75070828620076e-05 
0 
-4.235164736271502e-22 
0 
0 
0 
-3.970466940254533e-23 
3.420359256427688e-07 
5.835694287335866e-06 
0 
2.414282597554089e-05 
1.167138857467173e-05 
5.835694287335864e-06 
0 
0 
0 
0 
-5.151622436050334e-06 
-4.966785862840867e-06 
0 
1.167138857467173e-05 
5.835694287335864e-06 
-4.235164736271502e-22 
-4.944292525523789e-05 
-5.4936583616931e-06 
0 
0 
0 
-1.648097508507931e-05 
0 
0 
0 
0 
1.058791184067875e-22 
0 
3.420359256427695e-07 
-5.4936583616931e-06 
0 
5.835694287335864e-06 
3.420359256427707e-07 
-4.499862532288471e-22 
5.097592682453355e-07 
0 
-1.648097508507931e-05 
0 
3.420359256427695e-07 
-1.09873167233862e-05 
5.835694287335864e-06 
6.177730212978642e-06 
-5.4936583616931e-06 
-5.4936583616931e-06 
-2.117582368135751e-22 
0 
-5.493658361693101e-06 
5.293955920339377e-23 
0 
0 
5.835694287335866e-06 
5.835694287335866e-06 
-1.64809750850793e-05 
0 
0 
0 
5.835694287335866e-06 
6.177730212978643e-06 
0 
0 
0 
-1.064528079774343e-05 
3.420359256427713e-07 
-1.09873167233862e-05 
5.835694287335864e-06 
3.420359256427697e-07 
-4.632211430296955e-22 
5.835694287335866e-06 
-5.4936583616931e-06 
-5.4936583616931e-06 
-1.09873167233862e-05 
1.167138857467173e-05 
-2.117582368135751e-22 
5.835694287335864e-06 
5.835694287335866e-06 
-5.4936583616931e-06 
0 
5.835694287335864e-06 
-5.4936583616931e-06 
1.201342450031451e-05 
-5.4936583616931e-06 
8.253871552242852e-06 
-3.970466940254533e-23 
1.167138857467173e-05 
-4.235164736271502e-22 
0 
5.835694287335864e-06 
0 
5.835694287335864e-06 
0 
4.668555429868691e-05 
-5.4936583616931e-06 
0 
0 
3.420359256427695e-07 
0 
5.835694287335864e-06 
0 
0 
-5.4936583616931e-06 
0 
-5.493658361693101e-06 
0 
-5.4936583616931e-06 
0 
-5.293955920339377e-23 
-5.293955920339377e-23 
-1.64809750850793e-05 
0 
5.835694287335864e-06 
5.835694287335864e-06 
0 
-5.493658361693101e-06 
0 
-5.4936583616931e-06 
2.334277714934346e-05 
-5.4936583616931e-06 
5.293955920339377e-23 
-5.4936583616931e-06 
0 
0 
0 
0 
-5.4936583616931e-06 
0 
0 
3.420359256427695e-07 
8.517951938881069e-07 
-5.293955920339377e-23 
1.167138857467173e-05 
5.835694287335864e-06 
5.835694287335866e-06 
2.117582368135751e-22 
1.75070828620076e-05 
5.835694287335866e-06 
-5.4936583616931e-06 
-5.293955920339377e-23 
0 
3.420359256427697e-07 
1.058791184067875e-22 
0 
0 
-1.058791184067875e-22 
5.835694287335864e-06 
5.835694287335864e-06 
-1.09873167233862e-05 
1.167138857467173e-05 
1.588186776101813e-22 
5.835694287335864e-06 
0 
0 
0 
0 
-2.911675756186657e-22 
-1.09873167233862e-05 
0 
-5.4936583616931e-06 
-5.4936583616931e-06 
1.058791184067875e-22 
0 
-5.4936583616931e-06 
-5.4936583616931e-06 
1.167138857467173e-05 
-5.4936583616931e-06 
5.835694287335864e-06 
5.965775947651085e-05 
0 
0 
1.167138857467173e-05 
-5.293955920339377e-23 
1.167138857467173e-05 
1.167138857467173e-05 
-5.4936583616931e-06 
0 
-5.293955920339377e-23 
-3.811357260620893e-05 
0 
-1.09873167233862e-05 
0 
-1.09873167233862e-05 
0 
3.970466940254533e-22 
5.835694287335866e-06 
0 
-5.4936583616931e-06 
-5.4936583616931e-06 
1.167138857467173e-05 
5.835694287335864e-06 
0 
-1.058791184067875e-22 
-1.064528079774342e-05 
0 
3.691367729461924e-05 
1.784911878765036e-05 
-5.293955920339377e-23 
-2.19746334467724e-05 
-1.064528079774342e-05 
1.75070828620076e-05 
1.058791184067875e-22 
-3.845560853185171e-05 
1.167138857467173e-05 
-1.09873167233862e-05 
-1.058791184067875e-22 
0 
0 
-2.19746334467724e-05 
0 
-5.4936583616931e-06 
0 
5.835694287335866e-06 
1.167138857467173e-05 
0 
0 
-5.4936583616931e-06 
1.235546042595728e-05 
1.167138857467173e-05 
2.917847143667933e-05 
-1.09873167233862e-05 
-1.735123164321367e-07 
1.254029699916675e-05 
2.334277714934346e-05 
-1.058791184067875e-22 
-5.4936583616931e-06 
5.835694287335867e-06 
-5.4936583616931e-06 
-5.4936583616931e-06 
5.835694287335866e-06 
0 
-5.4936583616931e-06 
0 
-7.824314337514424e-06 
-4.632211430296955e-22 
-5.4936583616931e-06 
-2.117582368135751e-22 
0 
-8.867376166568457e-22 
0 
-5.4936583616931e-06 
-2.117582368135751e-22 
1.75070828620076e-05 
0 
0 
-2.746829180846549e-05 
0 
-1.09873167233862e-05 
-5.4936583616931e-06 
0 
6.840718512855394e-07 
0 
-7.424261675790217e-05 
0 
0 
5.835694287335866e-06 
5.835694287335864e-06 
-1.058791184067875e-22 
2.60142461685276e-05 
5.835694287335864e-06 
5.835694287335866e-06 
3.420359256427695e-07 
5.835694287335864e-06 
0 
0 
0 
0 
0 
-5.4936583616931e-06 
5.835694287335864e-06 
0 
0 
5.835694287335864e-06 
1.195334272799606e-06 
-1.648097508507931e-05 
0 
0 
0 
-1.058791184067875e-22 
0 
-5.4936583616931e-06 
0 
-1.09873167233862e-05 
0 
0 
5.835694287335866e-06 
5.835694287335864e-06 
5.835694287335864e-06 
5.835694287335864e-06 
0 
-5.493658361693101e-06 
3.420359256427695e-07 
-5.4936583616931e-06 
0 
1.167138857467173e-05 
5.835694287335866e-06 
1.750708286200761e-05 
5.835694287335864e-06 
0 
0 
0 
0 
5.835694287335864e-06 
2.334277714934346e-05 
1.167138857467173e-05 
-1.058791184067875e-22 
0 
0 
-5.293955920339377e-23 
-5.4936583616931e-06 
1.75070828620076e-05 
0 
0 
0 
5.835694287335864e-06 
0 
-1.058791184067875e-22 
0 
1.201342450031451e-05 
3.501416572401521e-05 
-5.293955920339377e-23 
6.177730212978642e-06 
0 
0 
0 
1.058791184067875e-22 
0 
-1.648097508507931e-05 
6.17773021297864e-06 
-4.394926689354482e-05 
-3.78347873347925e-06 
0 
-5.4936583616931e-06 
1.167138857467173e-05 
-1.09873167233862e-05 
-2.746829180846549e-05 
-7.159107101844246e-05 
0 
0 
-1.09873167233862e-05 
0 
4.668555429868691e-05 
-3.614252237607952e-06 
-5.151622436050337e-06 
-5.4936583616931e-06 
-2.19746334467724e-05 
0 
-3.296195017015862e-05 
0 
0 
-5.4936583616931e-06 
0 
-5.4936583616931e-06 
-5.493658361693099e-06 
0 
-3.07548109678611e-06 
0 
0 
-7.141755870201033e-05 
-4.235164736271502e-22 
-5.4936583616931e-06 
5.835694287335864e-06 
-1.648097508507931e-05 
5.835694287335864e-06 
-7.141755870201031e-05 
0 
0 
-5.151622436050334e-06 
0 
0 
0 
-5.4936583616931e-06 
5.835694287335864e-06 
5.293955920339377e-22 
5.293955920339377e-23 
0 
0 
-5.4936583616931e-06 
0 
-4.235164736271502e-22 
0 
2.117582368135751e-22 
3.42035925642769e-07 
0 
-1.648097508507931e-05 
0 
5.835694287335866e-06 
1.784911878765036e-05 
0 
0 
1.167138857467173e-05 
0 
-1.09873167233862e-05 
0 
0 
-5.4936583616931e-06 
0 
0 
0 
5.835694287335863e-06 
-2.117582368135751e-22 
-5.4936583616931e-06 
1.058791184067875e-22 
5.835694287335864e-06 
0 
0 
-5.4936583616931e-06 
1.167138857467173e-05 
2.418177264906987e-06 
0 
0 
0 
1.167138857467173e-05 
0 
-1.058791184067875e-22 
1.852884572118782e-22 
-5.4936583616931e-06 
0 
5.835694287335864e-06 
-5.493658361693101e-06 
1.235546042595728e-05 
1.75070828620076e-05 
0 
0 
-5.4936583616931e-06 
0 
-5.493658361693101e-06 
-5.293955920339377e-23 
5.835694287335864e-06 
0 
0 
0 
1.167138857467173e-05 
0 
0 
5.063736838755764e-06 
-2.117582368135751e-22 
5.835694287335866e-06 
1.167138857467173e-05 
0 
3.420359256427693e-07 
-0.0001150924767692533 
-5.293955920339377e-23 
0 
0 
0 
0 
0 
-5.4936583616931e-06 
0 
0 
5.835694287335866e-06 
-5.4936583616931e-06 
5.835694287335866e-06 
-5.293955920339377e-23 
-1.09873167233862e-05 
-1.09873167233862e-05 
0 
0 
2.402684900062903e-05 
0 
5.835694287335866e-06 
-1.648097508507931e-05 
5.835694287335864e-06 
-5.4936583616931e-06 
0 
-5.4936583616931e-06 
-3.970466940254533e-23 
5.835694287335866e-06 
-5.493658361693099e-06 
6.345453555581204e-06 
1.167138857467173e-05 
-1.579690323379375e-05 
-1.09873167233862e-05 
-5.4936583616931e-06 
0 
0 
0 
0 
-6.522274852082266e-06 
0 
-2.646977960169689e-23 
0 
0 
-1.09873167233862e-05 
5.835694287335864e-06 
0 
-5.4936583616931e-06 
0 
0 
-1.648097508507931e-05 
0 
-1.735123164321361e-07 
5.097592682453355e-07 
5.835694287335864e-06 
0.0001206769369587866 
0 
-5.4936583616931e-06 
-5.493658361693101e-06 
0 
-5.293955920339377e-23 
1.167138857467173e-05 
0 
-1.270549420881451e-21 
0 
5.293955920339377e-23 
5.835694287335864e-06 
5.835694287335864e-06 
-4.632211430296955e-22 
1.167138857467173e-05 
-5.293955920339377e-23 
7.411538288475128e-22 
-2.19746334467724e-05 
-5.4936583616931e-06 
7.082838027422784e-05 
1.058791184067875e-22 
0 
2.334277714934346e-05 
0 
0 
0 
0 
0 
0 
1.588186776101813e-22 
0 
5.835694287335866e-06 
5.835694287335866e-06 
0 
0 
-0.0001639564525036361 
5.835694287335866e-06 
0 
0 
0 
0 
-2.610014810589444e-05 
5.835694287335864e-06 
0 
5.835694287335864e-06 
0 
-2.746829180846549e-05 
-5.4936583616931e-06 
0 
0 
1.75070828620076e-05 
-4.944292525523789e-05 
-2.646977960169689e-23 
3.501416572401522e-05 
-2.746829180846549e-05 
-2.911675756186657e-22 
-5.4936583616931e-06 
-2.19746334467724e-05 
0 
0 
0 
0 
0 
-3.176373552203626e-22 
0 
-5.4936583616931e-06 
5.835694287335864e-06 
-5.4936583616931e-06 
1.167138857467173e-05 
0 
-5.151622436050334e-06 
1.167138857467173e-05 
3.420359256427697e-07 
0 
0 
0 
0 
5.835694287335864e-06 
-1.09873167233862e-05 
-5.293955920339377e-23 
3.420359256427695e-07 
0 
0 
5.835694287335866e-06 
0 
7.586402573536628e-05 
-5.151622436050334e-06 
0 
5.835694287335864e-06 
-1.09873167233862e-05 
0 
0 
0 
1.167138857467173e-05 
0 
0 
0 
0 
5.835694287335866e-06 
5.835694287335868e-06 
5.835694287335864e-06 
0 
0 
0 
-2.746829180846549e-05 
5.835694287335864e-06 
-5.4936583616931e-06 
7.13651089048805e-06 
5.293955920339377e-23 
5.835694287335864e-06 
0 
5.293955920339377e-23 
5.835694287335866e-06 
-5.4936583616931e-06 
-5.4936583616931e-06 
5.835694287335864e-06 
-1.09873167233862e-05 
5.293955920339377e-23 
-5.4936583616931e-06 
0 
5.835694287335864e-06 
-2.911675756186657e-22 
0 
0 
5.293955920339377e-23 
0 
0 
0 
0 
1.167138857467173e-05 
0 
0 
0 
-5.4936583616931e-06 
-4.235164736271502e-22 
0 
0 
0 
0 
0 
0 
1.167138857467173e-05 
0 
-1.09873167233862e-05 
0 
-5.4936583616931e-06 
5.835694287335866e-06 
0 
5.835694287335864e-06 
5.835694287335864e-06 
-1.09873167233862e-05 
-5.4936583616931e-06 
3.42035925642769e-07 
-1.09873167233862e-05 
0 
0 
0 
-4.499862532288471e-22 
-5.493658361693101e-06 
0 
0 
0 
3.420359256427695e-07 
-1.058791184067875e-22 
0 
-2.117582368135751e-22 
-5.493658361693099e-06 
-5.4936583616931e-06 
0 
0 
1.75070828620076e-05 
0 
0 
1.75070828620076e-05 
5.835694287335863e-06 
-5.4936583616931e-06 
0 
0 
-4.315936982516807e-05 
-5.4936583616931e-06 
-5.493658361693102e-06 
8.000488261974331e-07 
1.167138857467173e-05 
1.058791184067875e-22 
-5.4936583616931e-06 
-2.330655975821323e-06 
-5.4936583616931e-06 
0 
0 
-5.293955920339377e-23 
-5.4936583616931e-06 
5.835694287335864e-06 
0 
0 
5.835694287335866e-06 
-2.117582368135751e-22 
-5.151622436050335e-06 
0 
0 
0 
0 
0 
5.835694287335866e-06 
0 
-5.4936583616931e-06 
0 
4.084986001135108e-05 
1.167138857467173e-05 
-2.38228016415272e-22 
-1.648097508507931e-05 
5.835694287335864e-06 
0 
0 
-5.4936583616931e-06 
0 
0 
-5.293955920339377e-23 
2.952050736232212e-05 
0 
-5.293955920339377e-23 
0 
0 
0 
5.835694287335864e-06 
0 
0 
-1.058791184067875e-22 
0 
0 
0 
1.235546042595728e-05 
5.835694287335866e-06 
1.588186776101813e-22 
-1.09873167233862e-05 
0 
-5.4936583616931e-06 
0 
0 
-5.4936583616931e-06 
5.293955920339377e-23 
2.418177264906987e-06 
-2.117582368135751e-22 
-5.293955920339377e-23 
0 
1.058791184067875e-22 
0 
-5.4936583616931e-06 
0 
0 
0 
-5.4936583616931e-06 
0 
0 
1.167138857467173e-05 
-5.4936583616931e-06 
-3.970466940254533e-23 
-8.867376166568457e-22 
-4.499862532288471e-22 
-3.845560853185171e-05 
0 
0 
0 
-5.4936583616931e-06 
1.058791184067875e-22 
1.75070828620076e-05 
-5.4936583616931e-06 
-1.058791184067875e-22 
8.753541431003799e-05 
-1.09873167233862e-05 
0 
0 
0 
1.75070828620076e-05 
-5.4936583616931e-06 
0 
0 
-5.293955920339377e-23 
-5.151622436050332e-06 
5.835694287335866e-06 
5.835694287335864e-06 
0 
0 
-4.632211430296955e-22 
4.668555429868691e-05 
2.334277714934346e-05 
0 
0 
0 
5.835694287335864e-06 
1.167138857467173e-05 
0 
0 
1.75070828620076e-05 
5.835694287335864e-06 
2.671469019184119e-06 
1.201342450031451e-05 
0 
0 
0 
0.0001400566628960609 
0 
5.835694287335864e-06 
-5.4936583616931e-06 
5.835694287335862e-06 
-2.163259752112962e-05 
0 
6.86180206426418e-06 
1.167138857467173e-05 
-5.4936583616931e-06 
6.177730212978631e-06 
-8.24048754253965e-05 
5.835694287335864e-06 
3.004737986117432e-05 
0 
0 
-5.293955920339377e-23 
0 
5.835694287335864e-06 
0 
0 
5.835694287335864e-06 
-1.09873167233862e-05 
2.368481307498624e-05 
-1.058791184067875e-22 
0 
0 
0 
5.835694287335864e-06 
5.835694287335864e-06 
0 
0 
0 
5.835694287335864e-06 
0 
0 
1.167138857467173e-05 
-5.151622436050334e-06 
0 
0 
6.17773021297864e-06 
5.835694287335864e-06 
-5.4936583616931e-06 
5.835694287335866e-06 
0 
1.750708286200761e-05 
-2.746829180846549e-05 
0 
-5.4936583616931e-06 
0 
-2.19746334467724e-05 
-1.09873167233862e-05 
5.835694287335864e-06 
-5.4936583616931e-06 
0 
6.861802064264177e-06 
0 
1.201342450031451e-05 
1.058791184067875e-22 
-5.4936583616931e-06 
0 
0 
0 
0 
0 
4.309140750759782e-05 
0 
0 
5.835694287335864e-06 
-5.4936583616931e-06 
5.835694287335864e-06 
0 
0 
-5.4936583616931e-06 
3.420359256427695e-07 
5.835694287335866e-06 
0 
0 
-5.4936583616931e-06 
5.835694287335864e-06 
5.835694287335864e-06 
-1.046044422453397e-05 
-5.4936583616931e-06 
-5.4936583616931e-06 
1.434285759385585e-05 
-5.151622436050334e-06 
3.420359256427695e-07 
5.835694287335864e-06 
0 
1.058791184067875e-22 
5.835694287335864e-06 
-1.09873167233862e-05 
1.167138857467173e-05 
0 
0 
0 
-5.293955920339377e-23 
-2.38228016415272e-22 
0 
-5.4936583616931e-06 
0 
5.835694287335864e-06 
0 
0 
1.167138857467173e-05 
3.501416572401521e-05 
5.835694287335864e-06 
0 
0 
0 
0 
0 
5.835694287335866e-06 
-5.4936583616931e-06 
0 
5.293955920339377e-23 
-9.529120656610879e-22 
1.058791184067875e-22 
5.835694287335864e-06 
-5.4936583616931e-06 
5.835694287335866e-06 
5.835694287335864e-06 
1.167138857467173e-05 
-2.19746334467724e-05 
0 
-5.4936583616931e-06 
-4.809586510407556e-06 
-1.648097508507931e-05 
0 
0 
3.838118042246048e-22 
6.177730212978629e-06 
2.917847143667935e-05 
2.402684900062903e-05 
0 
0 
0 
0 
1.75070828620076e-05 
0 
0 
3.420359256427697e-07 
0 
0 
0 
0 
0 
-5.4936583616931e-06 
0 
0 
-6.043024197862408e-05 
-5.493658361693101e-06 
-1.09873167233862e-05 
0 
5.835694287335866e-06 
0 
5.835694287335866e-06 
0 
-1.09873167233862e-05 
0 
-2.19746334467724e-05 
6.177730212978642e-06 
0 
0 
-5.4936583616931e-06 
-1.648097508507931e-05 
3.420359256427695e-07 
-1.09873167233862e-05 
-1.09873167233862e-05 
0 
-1.613893915943654e-05 
0 
5.904101472464426e-05 
5.835694287335864e-06 
0 
5.835694287335864e-06 
5.835694287335864e-06 
-1.058791184067875e-22 
0 
-5.4936583616931e-06 
0 
-1.064528079774342e-05 
0 
-5.4936583616931e-06 
5.835694287335864e-06 
-1.648097508507931e-05 
-5.4936583616931e-06 
7.940933880509066e-22 
5.835694287335864e-06 
0 
0 
4.084986001135109e-05 
0 
0 
5.835694287335866e-06 
5.835694287335864e-06 
-1.64809750850793e-05 
-1.09873167233862e-05 
1.167138857467173e-05 
-5.4936583616931e-06 
-1.064528079774342e-05 
-1.735123164321361e-07 
-1.09873167233862e-05 
-2.117582368135751e-22 
3.163002385871774e-06 
0 
0 
0 
-1.09873167233862e-05 
-5.4936583616931e-06 
5.835694287335864e-06 
0 
-2.117582368135751e-22 
0 
-5.4936583616931e-06 
-5.4936583616931e-06 
5.835694287335864e-06 
4.984855668455872e-05 
0 
5.835694287335866e-06 
0 
0 
0 
0 
-5.4936583616931e-06 
-5.4936583616931e-06 
5.835694287335864e-06 
0 
0 
0 
-5.4936583616931e-06 
-5.4936583616931e-06 
0 
0 
0 
0 
-2.911675756186657e-22 
5.662181970903728e-06 
5.835694287335864e-06 
0 
3.420359256427695e-07 
1.167138857467173e-05 
-7.691121706370342e-05 
-5.293955920339377e-23 
0 
-2.117582368135751e-22 
-5.4936583616931e-06 
0 
0 
5.835694287335864e-06 
0 
0 
0 
0 
0 
-2.911675756186657e-22 
0 
1.588186776101813e-22 
1.75070828620076e-05 
0 
-5.4936583616931e-06 
5.835694287335866e-06 
0 
1.058791184067875e-22 
0 
5.835694287335864e-06 
0 
-5.4936583616931e-06 
-5.4936583616931e-06 
-0.000109873167233862 
-1.058791184067875e-22 
1.167138857467173e-05 
0 
-5.293955920339377e-23 
-5.293955920339377e-23 
0 
-5.293955920339377e-23 
0 
-5.4936583616931e-06 
-5.4936583616931e-06 
-5.293955920339377e-23 
-5.4936583616931e-06 
0 
0 
-5.4936583616931e-06 
0 
-1.735123164321363e-07 
0 
1.252318376855984e-05 
-2.19746334467724e-05 
-5.4936583616931e-06 
-1.09873167233862e-05 
0 
-1.09873167233862e-05 
0 
-5.4936583616931e-06 
-1.09873167233862e-05 
0 
-5.4936583616931e-06 
0 
0 
0 
3.420359256427695e-07 
-1.349958759686541e-21 
0 
0 
1.058791184067875e-22 
5.835694287335864e-06 
1.167138857467173e-05 
0 
0 
0 
0 
-1.09873167233862e-05 
6.17773021297864e-06 
-5.4936583616931e-06 
5.835694287335864e-06 
-1.09873167233862e-05 
-1.058791184067875e-22 
3.420359256427697e-07 
5.835694287335864e-06 
5.293955920339377e-23 
0 
0 
5.835694287335864e-06 
-1.058791184067875e-22 
1.588186776101813e-22 
0 
1.167138857467173e-05 
-2.117582368135751e-22 
1.058791184067875e-22 
0 
0 
1.75070828620076e-05 
1.75070828620076e-05 
5.835694287335868e-06 
-1.058791184067875e-22 
0 
5.835694287335866e-06 
0 
0 
0 
-1.613893915943653e-05 
1.167138857467173e-05 
8.496969248149727e-05 
3.420359256427697e-07 
0 
5.835694287335864e-06 
0 
0 
5.835694287335864e-06 
-1.735123164321365e-07 
5.835694287335864e-06 
5.835694287335864e-06 
0 
0 
-1.09873167233862e-05 
0 
-5.151622436050334e-06 
0 
5.835694287335866e-06 
0 
1.167138857467173e-05 
0 
5.835694287335866e-06 
0 
0 
1.75070828620076e-05 
-1.648097508507931e-05 
0 
-1.09873167233862e-05 
0 
0 
1.75070828620076e-05 
0 
-3.970466940254533e-23 
-1.648097508507931e-05 
0 
0 
-1.09873167233862e-05 
-5.293955920339377e-23 
-5.151622436050334e-06 
-4.39492668935448e-05 
-5.4936583616931e-06 
0 
0 
0 
3.420359256427695e-07 
-2.19746334467724e-05 
-3.217205310178189e-05 
-1.545486730815098e-05 
-1.648097508507931e-05 
0 
1.058791184067875e-22 
0 
1.058791184067875e-22 
-5.293955920339377e-23 
0 
-1.648097508507931e-05 
-6.04302419786241e-05 
-5.4936583616931e-06 
1.058791184067875e-22 
-5.4936583616931e-06 
0 
6.177730212978642e-06 
5.835694287335866e-06 
-4.235164736271502e-22 
-2.163259752112962e-05 
-5.4936583616931e-06 
-5.493658361693101e-06 
0 
1.784911878765038e-05 
0 
5.835694287335864e-06 
0 
0 
6.840718512855385e-07 
2.334277714934345e-05 
-5.293955920339377e-23 
-5.4936583616931e-06 
0 
-1.09873167233862e-05 
-1.09873167233862e-05 
0 
0 
-5.4936583616931e-06 
5.293955920339377e-23 
-5.4936583616931e-06 
0 
5.268724988522315e-07 
-5.4936583616931e-06 
0 
0 
1.483439096054351e-05 
1.588186776101813e-22 
0 
5.835694287335866e-06 
5.835694287335864e-06 
5.835694287335864e-06 
1.167138857467173e-05 
5.835694287335864e-06 
0 
-2.117582368135751e-22 
0 
0 
0 
-5.4936583616931e-06 
2.051407919131509e-22 
0 
-1.648097508507931e-05 
0 
-5.4936583616931e-06 
1.167138857467173e-05 
-0.0001039316477294349 
0 
0 
1.167138857467173e-05 
0 
3.42035925642769e-07 
6.579273481308948e-05 
1.269749635160004e-05 
7.586402573536633e-05 
0 
0 
1.75070828620076e-05 
-5.4936583616931e-06 
2.334277714934346e-05 
0 
0 
-2.702043066573153e-05 
0 
-1.613893915943653e-05 
0 
-5.4936583616931e-06 
0 
3.42035925642769e-07 
0 
5.835694287335864e-06 
5.835694287335866e-06 
0 
5.835694287335864e-06 
0 
0 
0 
0 
5.835694287335866e-06 
-1.09873167233862e-05 
0 
5.835694287335864e-06 
6.177730212978642e-06 
0 
0 
-1.09873167233862e-05 
-1.058791184067875e-22 
3.420359256427695e-07 
-1.09873167233862e-05 
5.835694287335864e-06 
-5.4936583616931e-06 
-5.151622436050334e-06 
6.17773021297864e-06 
-4.350140575081084e-05 
5.835694287335864e-06 
5.835694287335864e-06 
-1.09873167233862e-05 
0 
3.420359256427676e-07 
0 
0 
-5.293955920339377e-23 
0 
5.835694287335864e-06 
0 
-5.4936583616931e-06 
0 
0 
5.835694287335864e-06 
3.42035925642769e-07 
-1.648097508507931e-05 
5.835694287335864e-06 
-0.0001809486900102293 
-5.493658361693098e-06 
-2.19746334467724e-05 
0 
0 
-2.117582368135751e-22 
-9.529120656610879e-22 
5.835694287335864e-06 
5.835694287335864e-06 
-1.09873167233862e-05 
0 
0 
-1.597041555022589e-05 
0 
0 
0 
0 
-5.4936583616931e-06 
3.420359256427697e-07 
1.201342450031451e-05 
-5.511009593336311e-05 
0 
6.177730212978642e-06 
0 
5.835694287335866e-06 
0 
5.835694287335864e-06 
-5.4936583616931e-06 
-5.4936583616931e-06 
0 
5.835694287335866e-06 
2.368481307498625e-05 
5.835694287335866e-06 
0 
-1.058791184067875e-22 
-1.09873167233862e-05 
0 
0 
1.058791184067875e-22 
0 
-5.4936583616931e-06 
1.058791184067875e-22 
-1.058791184067875e-22 
0 
-1.09873167233862e-05 
-5.840682994557373e-06 
-5.4936583616931e-06 
-5.4936583616931e-06 
0 
5.835694287335864e-06 
1.167138857467173e-05 
-5.4936583616931e-06 
-1.09873167233862e-05 
0 
5.063736838755762e-06 
-5.4936583616931e-06 
3.210640796983168e-05 
0 
2.334277714934346e-05 
0 
-5.4936583616931e-06 
-5.4936583616931e-06 
-3.261991424451582e-05 
-5.4936583616931e-06 
0 
-5.4936583616931e-06 
1.058791184067875e-22 
1.151435412673815e-21 
-5.4936583616931e-06 
3.420359256427695e-07 
0 
-5.4936583616931e-06 
0 
0 
-3.84556085318517e-05 
-1.058791184067875e-22 
-1.116082903981834e-05 
0 
0 
5.835694287335866e-06 
-5.4936583616931e-06 
0 
0 
0 
-1.09873167233862e-05 
0 
-5.293955920339377e-23 
-5.293955920339377e-23 
0 
0 
0 
0 
5.835694287335864e-06 
-5.4936583616931e-06 
6.17773021297864e-06 
-5.293955920339377e-23 
0 
0 
0 
-1.058791184067875e-22 
0 
5.835694287335864e-06 
0 
0 
0 
5.835694287335864e-06 
4.084986001135108e-05 
-5.293955920339377e-23 
5.835694287335864e-06 
3.42035925642769e-07 
5.835694287335864e-06 
0 
0 
-5.4936583616931e-06 
0 
0 
0 
0 
0 
0 
0 
5.835694287335866e-06 
-5.4936583616931e-06 
0 
0 
5.835694287335864e-06 
-5.4936583616931e-06 
5.835694287335864e-06 
0 
5.835694287335864e-06 
0 
1.167138857467173e-05 
0 
-5.4936583616931e-06 
5.293955920339377e-23 
-5.4936583616931e-06 
-1.058791184067875e-22 
0 
0 
5.835694287335866e-06 
1.058791184067875e-22 
-5.4936583616931e-06 
2.917847143667933e-05 
-5.4936583616931e-06 
-5.293955920339377e-23 
-2.117582368135751e-22 
0 
5.835694287335866e-06 
0 
0 
0 
5.835694287335868e-06 
-1.058791184067875e-22 
5.835694287335864e-06 
-1.058791184067875e-22 
-5.293955920339377e-23 
-5.4936583616931e-06 
0 
-5.4936583616931e-06 
3.970466940254533e-22 
0 
-4.632211430296955e-22 
0 
0 
-5.293955920339377e-23 
-5.4936583616931e-06 
-5.293955920339377e-23 
2.917847143667932e-05 
3.420359256427695e-07 
0 
-0.0001430086297204528 
5.835694287335864e-06 
2.334277714934346e-05 
-4.632211430296955e-22 
0 
-5.4936583616931e-06 
1.167138857467173e-05 
0 
1.167138857467173e-05 
1.201342450031451e-05 
2.334277714934346e-05 
0 
0 
-2.911675756186657e-22 
1.852884572118782e-22 
-5.493658361693099e-06 
0 
5.835694287335864e-06 
0 
0 
0 
-2.38228016415272e-22 
-5.4936583616931e-06 
1.058791184067875e-22 
5.097592682453402e-07 
-1.970394148620876e-06 
5.835694287335868e-06 
0 
0 
-4.360723096790201e-05 
-1.058791184067875e-22 
5.835694287335864e-06 
-1.64809750850793e-05 
0 
3.42035925642769e-07 
0 
3.420359256427674e-07 
-0.0001858259636199782 
1.058791184067875e-22 
0 
-5.4936583616931e-06 
0 
-1.648097508507931e-05 
0 
0 
-5.4936583616931e-06 
0 
-1.735123164321363e-07 
0 
0 
-5.4936583616931e-06 
-5.4936583616931e-06 
-5.4936583616931e-06 
3.501416572401521e-05 
5.835694287335866e-06 
0 
0 
-5.4936583616931e-06 
0 
0 
0 
-5.4936583616931e-06 
0 
0 
0 
0 
0 
0 
0 
0 
-2.19746334467724e-05 
-5.4936583616931e-06 
6.977779039176071e-06 
0 
-1.138200522872966e-21 
1.167138857467173e-05 
1.75070828620076e-05 
-4.640360014536263e-06 
0 
0 
-4.640360014536264e-06 
1.483439096054351e-05 
-5.4936583616931e-06 
-5.4936583616931e-06 
0 
-2.19746334467724e-05 
0 
0 
0 
5.835694287335864e-06 
1.167138857467173e-05 
-5.4936583616931e-06 
0 
0 
0 
0 
0 
3.505038311514547e-06 
0 
5.835694287335864e-06 
-2.746829180846549e-05 
-2.746829180846549e-05 
0 
-1.058791184067875e-22 
-5.4936583616931e-06 
0 
0 
6.419263716069461e-05 
0 
-5.4936583616931e-06 
-4.412277920997694e-05 
1.167138857467173e-05 
0 
0 
-1.09873167233862e-05 
0 
1.167138857467173e-05 
0 
0 
1.058791184067875e-22 
-2.822189342508979e-06 
-1.058791184067875e-22 
0 
1.75070828620076e-05 
2.917847143667933e-05 
5.835694287335866e-06 
0 
4.235164736271502e-22 
-5.4936583616931e-06 
0 
-3.84556085318517e-05 
3.420359256427676e-07 
2.334277714934346e-05 
5.835694287335864e-06 
5.835694287335864e-06 
-1.058791184067875e-22 
5.835694287335866e-06 
0 
-5.4936583616931e-06 
0 
0 
5.835694287335864e-06 
8.253871552242855e-06 
5.835694287335864e-06 
5.835694287335864e-06 
0 
5.835694287335864e-06 
0 
0 
0 
0 
5.835694287335864e-06 
1.167138857467173e-05 
0 
-1.064528079774343e-05 
-5.293955920339377e-23 
1.167138857467173e-05 
1.588186776101813e-22 
5.835694287335864e-06 
0 
5.835694287335862e-06 
5.835694287335864e-06 
1.058791184067875e-22 
2.117582368135751e-22 
-5.4936583616931e-06 
0 
-6.523982848903167e-05 
2.117582368135751e-22 
0 
5.835694287335864e-06 
0 
0 
1.167138857467173e-05 
0 
1.167138857467173e-05 
-2.163259752112962e-05 
0 
-5.4936583616931e-06 
0 
-5.4936583616931e-06 
5.835694287335864e-06 
0 
1.167138857467173e-05 
0 
0 
0 
-6.043024197862408e-05 
1.750708286200761e-05 
5.835694287335864e-06 
0 
-5.151622436050335e-06 
-5.4936583616931e-06 
1.167138857467173e-05 
0 
1.167138857467173e-05 
-2.646977960169689e-22 
5.835694287335864e-06 
0 
0 
-1.09873167233862e-05 
6.17773021297864e-06 
5.835694287335864e-06 
-4.809586510407553e-06 
-1.080146006006032e-05 
-5.4936583616931e-06 
0 
1.167138857467173e-05 
0 
5.835694287335864e-06 
0 
1.167138857467174e-05 
3.420359256427688e-07 
-5.4936583616931e-06 
-5.293955920339377e-23 
0 
0 
-5.151622436050334e-06 
0 
5.835694287335864e-06 
0 
0 
-5.4936583616931e-06 
0 
-5.4936583616931e-06 
0 
-5.4936583616931e-06 
0 
5.835694287335864e-06 
-5.4936583616931e-06 
5.835694287335864e-06 
0 
-5.4936583616931e-06 
-2.163259752112962e-05 
1.167138857467173e-05 
5.252124858602281e-05 
6.177730212978642e-06 
0 
3.501416572401521e-05 
0 
1.75070828620076e-05 
1.058791184067875e-22 
-5.4936583616931e-06 
-5.293955920339377e-23 
-5.293955920339377e-23 
1.167138857467173e-05 
5.835694287335866e-06 
-1.09873167233862e-05 
0 
0 
5.835694287335864e-06 
0 
0 
-1.648097508507931e-05 
5.835694287335868e-06 
1.193831119530875e-06 
5.835694287335864e-06 
-5.293955920339377e-23 
0 
-3.296195017015862e-05 
0 
3.420359256427695e-07 
1.167138857467173e-05 
-5.151622436050334e-06 
1.167138857467173e-05 
0 
1.058791184067875e-22 
0 
-5.4936583616931e-06 
6.17773021297864e-06 
0 
3.420359256427695e-07 
0 
-1.09873167233862e-05 
0 
-4.235164736271502e-22 
5.835694287335864e-06 
-5.4936583616931e-06 
0 
1.167138857467173e-05 
0 
8.253871552242855e-06 
-5.4936583616931e-06 
0 
1.750708286200761e-05 
0 
4.084986001135105e-05 
0 
0 
-5.4936583616931e-06 
-3.296195017015862e-05 
-5.4936583616931e-06 
0 
-5.293955920339377e-23 
0 
0 
0 
0 
-5.4936583616931e-06 
1.852884572118782e-22 
-5.4936583616931e-06 
5.835694287335866e-06 
5.835694287335866e-06 
5.835694287335864e-06 
5.835694287335864e-06 
5.835694287335866e-06 
0 
0 
0 
6.17773021297864e-06 
8.998696673207648e-06 
5.835694287335864e-06 
1.167138857467173e-05 
1.167138857467173e-05 
3.420359256427695e-07 
-1.09873167233862e-05 
5.835694287335864e-06 
-1.09873167233862e-05 
0 
5.835694287335864e-06 
0 
-4.809586510407553e-06 
0 
-5.293955920339377e-23 
0 
5.835694287335864e-06 
0 
-5.4936583616931e-06 
-5.4936583616931e-06 
5.835694287335864e-06 
0 
-5.4936583616931e-06 
5.835694287335864e-06 
2.334277714934346e-05 
1.201342450031452e-05 
-1.064528079774342e-05 
3.42035925642769e-07 
0 
0 
0 
0 
-8.867376166568457e-22 
1.167138857467173e-05 
-4.360723096790201e-05 
-1.648097508507931e-05 
0 
0 
6.004217896546506e-06 
-5.4936583616931e-06 
0 
-1.09873167233862e-05 
0 
1.167138857467173e-05 
5.835694287335864e-06 
5.835694287335864e-06 
-4.235164736271502e-22 
5.835694287335864e-06 
-5.4936583616931e-06 
0 
-5.293955920339377e-23 
0 
0 
0 
-5.4936583616931e-06 
0 
-3.296195017015862e-05 
-5.4936583616931e-06 
0 
0 
-1.09873167233862e-05 
3.420359256427697e-07 
5.835694287335864e-06 
1.167138857467173e-05 
-3.845560853185171e-05 
-2.746829180846549e-05 
1.75070828620076e-05 
5.835694287335866e-06 
3.184994045586346e-05 
0 
-3.176373552203626e-22 
-4.703761293316376e-06 
-5.4936583616931e-06 
-5.4936583616931e-06 
3.420359256427697e-07 
5.835694287335864e-06 
-5.4936583616931e-06 
-5.4936583616931e-06 
0 
1.588186776101813e-22 
5.835694287335864e-06 
-1.09873167233862e-05 
6.177730212978642e-06 
-2.746829180846549e-05 
0 
5.835694287335866e-06 
-5.4936583616931e-06 
6.345453555581204e-06 
-5.4936583616931e-06 
5.835694287335864e-06 
2.917847143667935e-05 
0 
0 
-2.117582368135751e-22 
3.420359256427695e-07 
0 
0 
-5.4936583616931e-06 
2.917847143667933e-05 
1.167138857467173e-05 
0 
0 
0 
-4.299026975554159e-06 
-2.117582368135751e-22 
-5.4936583616931e-06 
0 
5.293955920339377e-23 
-5.4936583616931e-06 
0 
0 
0 
0 
0 
5.835694287335864e-06 
5.835694287335864e-06 
5.835694287335864e-06 
0 
1.167138857467173e-05 
-1.09873167233862e-05 
0 
0 
0 
-5.151622436050334e-06 
0 
-1.735123164321363e-07 
0 
-2.19746334467724e-05 
1.058791184067875e-22 
-1.09873167233862e-05 
5.835694287335866e-06 
1.167138857467173e-05 
6.177730212978642e-06 
8.507163306519993e-06 
0 
0 
0 
5.835694287335866e-06 
0 
5.835694287335864e-06 
0 
-6.617444900424221e-24 
-5.4936583616931e-06 
0 
6.177730212978642e-06 
6.177730212978642e-06 
1.167138857467173e-05 
0 
0 
3.420359256427695e-07 
3.42035925642769e-07 
0 
0 
1.75070828620076e-05 
-5.4936583616931e-06 
0 
-5.4936583616931e-06 
-5.4936583616931e-06 
0 
0 
0 
0 
-5.4936583616931e-06 
-5.4936583616931e-06 
5.835694287335864e-06 
-2.214814576320453e-05 
-5.4936583616931e-06 
5.835694287335864e-06 
4.08498600113511e-05 
3.420359256427695e-07 
0 
-5.4936583616931e-06 
0 
0 
-1.09873167233862e-05 
0 
0 
0 
0 
-5.293955920339377e-23 
5.835694287335866e-06 
-5.293955920339377e-23 
-5.151622436050334e-06 
-1.09873167233862e-05 
8.000488261974339e-07 
5.835694287335864e-06 
0 
0 
0 
0 
0 
5.835694287335864e-06 
-5.4936583616931e-06 
1.852884572118782e-22 
0 
2.334277714934346e-05 
-5.4936583616931e-06 
0 
-2.646977960169689e-22 
-2.746829180846549e-05 
0 
-1.09873167233862e-05 
1.167138857467173e-05 
-2.19746334467724e-05 
-5.493658361693101e-06 
3.163002385871774e-06 
0 
1.058791184067875e-22 
-1.053945558065224e-05 
0 
1.058791184067875e-22 
0 
0 
0 
-5.293955920339377e-23 
6.177730212978639e-06 
-3.970466940254533e-23 
5.835694287335864e-06 
-4.499862532288471e-22 
0 
0 
0 
-5.4936583616931e-06 
1.167138857467173e-05 
0 
0 
5.835694287335864e-06 
0 
-5.4936583616931e-06 
1.235546042595728e-05 
-2.183756817139993e-22 
0 
-1.09873167233862e-05 
-1.09873167233862e-05 
1.750708286200761e-05 
-5.4936583616931e-06 
-1.09873167233862e-05 
0 
0 
0 
0 
0.0001473111946907818 
0 
1.058791184067875e-22 
4.084986001135108e-05 
0 
0 
0 
0 
0 
-5.4936583616931e-06 
0 
0 
-5.4936583616931e-06 
-5.4936583616931e-06 
-5.4936583616931e-06 
0 
1.167138857467173e-05 
5.835694287335864e-06 
1.784911878765036e-05 
-5.4936583616931e-06 
3.420359256427695e-07 
-5.4936583616931e-06 
-4.235164736271502e-22 
5.835694287335866e-06 
0 
3.420359256427695e-07 
3.420359256427697e-07 
1.247143740086917e-05 
5.835694287335864e-06 
1.75070828620076e-05 
-5.4936583616931e-06 
0 
-1.648097508507931e-05 
-5.4936583616931e-06 
-5.4936583616931e-06 
-5.4936583616931e-06 
5.835694287335867e-06 
-5.4936583616931e-06 
0 
5.835694287335864e-06 
3.420359256427695e-07 
0 
4.72112039152592e-05 
0 
-2.746829180846549e-05 
1.167138857467173e-05 
5.835694287335864e-06 
-1.09873167233862e-05 
0 
1.75070828620076e-05 
-5.4936583616931e-06 
1.167138857467173e-05 
5.835694287335867e-06 
4.668555429868691e-05 
0 
-5.293955920339377e-23 
1.058791184067875e-22 
5.835694287335864e-06 
0 
0 
-4.235164736271502e-22 
-1.111730743271269e-21 
0 
0 
2.334277714934346e-05 
5.835694287335864e-06 
0 
1.167138857467173e-05 
0 
0 
5.835694287335864e-06 
0 
-1.09873167233862e-05 
0 
-3.845560853185171e-05 
5.835694287335862e-06 
5.835694287335864e-06 
-5.493658361693101e-06 
6.86180206426418e-06 
-1.058791184067875e-22 
0 
-2.117582368135751e-22 
0 
-1.09873167233862e-05 
0 
0 
0 
6.17773021297864e-06 
-5.4936583616931e-06 
-5.4936583616931e-06 
-1.058791184067875e-22 
0 
-0.0001150247896699124 
1.75070828620076e-05 
0 
-1.64809750850793e-05 
3.420359256427695e-07 
5.835694287335864e-06 
0 
-5.293955920339377e-23 
-5.4936583616931e-06 
0 
-5.493658361693099e-06 
-1.09873167233862e-05 
0 
4.441488146077862e-06 
-5.4936583616931e-06 
0 
-1.562767673792247e-05 
1.75070828620076e-05 
5.835694287335866e-06 
-5.4936583616931e-06 
-5.4936583616931e-06 
-5.459454769128825e-05 
0 
0 
5.835694287335864e-06 
-5.4936583616931e-06 
0 
-1.09873167233862e-05 
0 
0 
-1.648097508507931e-05 
0 
-5.667170678125237e-06 
0 
-5.4936583616931e-06 
0 
0 
5.835694287335864e-06 
0 
0 
0 
0 
0 
3.420359256427695e-07 
0 
6.519766138621407e-06 
-1.09873167233862e-05 
-5.493658361693102e-06 
0 
3.420359256427697e-07 
0 
1.026107776928308e-06 
-4.235164736271502e-22 
0 
-2.117582368135751e-22 
5.835694287335864e-06 
0 
-1.648097508507931e-05 
0 
-5.4936583616931e-06 
1.167138857467173e-05 
0 
-5.4936583616931e-06 
0 
0 
5.835694287335864e-06 
-5.493658361693102e-06 
5.835694287335866e-06 
3.501416572401521e-05 
5.835694287335864e-06 
-5.4936583616931e-06 
-1.64809750850793e-05 
-1.09873167233862e-05 
1.058791184067875e-22 
-1.09873167233862e-05 
-5.4936583616931e-06 
0 
1.167138857467173e-05 
0 
0 
0 
6.17773021297864e-06 
0 
0 
-5.151622436050334e-06 
5.835694287335864e-06 
-4.235164736271502e-22 
-2.646977960169689e-22 
0 
-1.058791184067875e-22 
0.0002742776315047857 
0 
-5.4936583616931e-06 
0 
0 
-5.4936583616931e-06 
0 
0 
-1.648097508507931e-05 
-2.117582368135751e-22 
0 
0 
2.334277714934346e-05 
0 
0 
0 
0.0001287273102470318 
-5.4936583616931e-06 
5.835694287335864e-06 
-5.493658361693101e-06 
5.835694287335864e-06 
0 
0 
0 
0 
0 
-3.845560853185171e-05 
-5.4936583616931e-06 
0 
0 
-5.4936583616931e-06 
0 
-1.064528079774342e-05 
-5.4936583616931e-06 
0 
0 
-5.4936583616931e-06 
4.668555429868692e-05 
-5.293955920339377e-23 
-5.4936583616931e-06 
0 
-5.293955920339377e-23 
-5.4936583616931e-06 
-2.646977960169689e-23 
1.167138857467173e-05 
3.420359256427701e-07 
1.75070828620076e-05 
1.058791184067875e-22 
-2.38228016415272e-22 
5.835694287335866e-06 
1.167138857467173e-05 
0 
0 
-5.4936583616931e-06 
1.058791184067875e-22 
-5.4936583616931e-06 
-4.235164736271502e-22 
1.269749635160004e-05 
0 
0 
0 
-5.4936583616931e-06 
0 
0 
0 
0 
0 
-5.4936583616931e-06 
1.058791184067875e-22 
0 
0 
-1.058791184067875e-22 
-4.39492668935448e-05 
0 
5.835694287335864e-06 
0 
0 
0 
0 
-5.4936583616931e-06 
-5.4936583616931e-06 
0 
0 
-2.117582368135751e-22 
0 
0 
0 
0 
0 
6.177730212978639e-06 
5.835694287335864e-06 
0 
-5.293955920339377e-23 
1.167138857467173e-05 
0 
0 
-5.293955920339377e-23 
0 
5.835694287335865e-06 
0 
-5.293955920339377e-23 
-5.4936583616931e-06 
0 
-0.0002582019429995758 
5.835694287335866e-06 
-5.293955920339377e-23 
0 
0 
0 
0 
5.835694287335867e-06 
-5.4936583616931e-06 
5.835694287335867e-06 
-5.4936583616931e-06 
0 
5.293955920339377e-23 
0 
0 
-1.09873167233862e-05 
-0.000306965082224089 
-1.058791184067875e-22 
-5.4936583616931e-06 
5.835694287335864e-06 
-5.4936583616931e-06 
0 
0 
5.835694287335866e-06 
0 
0 
0 
0 
5.835694287335864e-06 
-4.499862532288471e-22 
0 
1.167138857467173e-05 
-1.052170215615231e-06 
0 
0 
-5.4936583616931e-06 
-6.88214269644119e-22 
-1.09873167233862e-05 
5.293955920339377e-23 
5.293955920339377e-23 
0 
-4.235164736271502e-22 
0 
0 
5.835694287335867e-06 
-2.746829180846549e-05 
-4.944292525523789e-05 
0 
0 
-5.4936583616931e-06 
-5.4936583616931e-06 
-1.09873167233862e-05 
0 
-4.640360014536263e-06 
5.252124858602282e-05 
3.420359256427695e-07 
5.835694287335866e-06 
-5.4936583616931e-06 
5.835694287335864e-06 
-5.493658361693099e-06 
0 
-5.4936583616931e-06 
-1.648097508507931e-05 
6.840718512855394e-07 
5.835694287335864e-06 
0 
0 
0 
0 
0 
0 
0 
-5.4936583616931e-06 
2.481541837659083e-22 
0 
-5.4936583616931e-06 
-5.4936583616931e-06 
0 
0 
5.835694287335864e-06 
1.058791184067875e-22 
5.293955920339377e-23 
5.835694287335864e-06 
0 
0 
0 
5.835694287335864e-06 
1.058791184067875e-22 
5.835694287335864e-06 
3.42035925642769e-07 
0 
-5.4936583616931e-06 
0 
-5.4936583616931e-06 
0 
-4.944292525523789e-05 
0 
-1.058791184067875e-22 
0 
-5.4936583616931e-06 
4.702759022432971e-05 
1.201342450031451e-05 
0 
5.293955920339377e-23 
0 
0 
0 
0 
3.420359256427699e-07 
0 
0 
0 
5.835694287335864e-06 
0 
-3.970466940254533e-23 
-1.09873167233862e-05 
1.167138857467173e-05 
0 
-5.293955920339377e-23 
-5.4936583616931e-06 
0 
0 
0 
4.084986001135106e-05 
5.835694287335864e-06 
0 
-4.809586510407553e-06 
0 
-5.4936583616931e-06 
2.334277714934346e-05 
0 
0 
-5.4936583616931e-06 
0 
-5.293955920339377e-23 
0 
0 
-5.4936583616931e-06 
0 
-1.058791184067875e-22 
-6.592390034031725e-05 
-2.117582368135751e-22 
1.167138857467173e-05 
0 
0 
5.835694287335864e-06 
-3.176373552203626e-22 
-5.4936583616931e-06 
0 
0 
1.058791184067875e-22 
0 
5.835694287335866e-06 
0 
-5.4936583616931e-06 
0 
3.420359256427697e-07 
0 
5.835694287335864e-06 
0 
0 
7.002833144803044e-05 
0 
6.17773021297864e-06 
-5.4936583616931e-06 
0 
3.42035925642769e-07 
-5.4936583616931e-06 
0 
0 
-5.293955920339377e-23 
0 
-5.4936583616931e-06 
-5.4936583616931e-06 
-5.151622436050334e-06 
-5.4936583616931e-06 
5.835694287335868e-06 
0.000105552256440291 
0 
0 
1.75070828620076e-05 
0 
-5.4936583616931e-06 
-5.293955920339377e-23 
5.835694287335866e-06 
5.835694287335868e-06 
5.835694287335866e-06 
0 
1.167138857467173e-05 
-5.4936583616931e-06 
6.419263716069459e-05 
5.835694287335864e-06 
0 
6.177730212978637e-06 
-1.735123164321363e-07 
2.334277714934346e-05 
3.163002385871774e-06 
5.835694287335866e-06 
5.835694287335864e-06 
-5.4936583616931e-06 
-2.117582368135751e-22 
0 
-5.293955920339377e-23 
2.368481307498623e-05 
-5.4936583616931e-06 
1.75070828620076e-05 
0 
6.345453555581204e-06 
5.835694287335864e-06 
0 
0 
0 
-1.648097508507931e-05 
-5.293955920339377e-23 
-1.613893915943653e-05 
0 
4.084986001135109e-05 
0 
1.75070828620076e-05 
-4.235164736271502e-22 
0 
6.177730212978642e-06 
-8.470329472543003e-22 
-5.4936583616931e-06 
5.835694287335866e-06 
-1.064528079774342e-05 
3.420359256427688e-07 
0 
-5.4936583616931e-06 
-5.4936583616931e-06 
0 
0 
0 
0 
0 
0 
-2.117582368135751e-22 
-3.296195017015862e-05 
8.998696673207637e-06 
0 
1.201342450031451e-05 
1.167138857467173e-05 
5.835694287335864e-06 
0 
3.420359256427695e-07 
1.167138857467173e-05 
1.058791184067875e-22 
-1.064528079774342e-05 
5.835694287335864e-06 
5.06373683875576e-06 
-1.648097508507931e-05 
1.167138857467173e-05 
5.835694287335864e-06 
1.75070828620076e-05 
-1.058791184067875e-22 
5.835694287335864e-06 
1.75070828620076e-05 
1.167138857467173e-05 
0 
6.177730212978644e-06 
1.75070828620076e-05 
-5.493658361693102e-06 
0 
0 
0 
4.668555429868692e-05 
1.167138857467173e-05 
-5.493658361693101e-06 
0 
3.163002385871774e-06 
3.163002385871774e-06 
1.058791184067875e-22 
0 
1.302039485432153e-06 
8.07328277851755e-22 
0 
-0.0001474754774185568 
0 
-4.235164736271502e-22 
-5.4936583616931e-06 
5.835694287335864e-06 
-5.4936583616931e-06 
5.835694287335866e-06 
5.835694287335864e-06 
-5.151622436050334e-06 
-1.648097508507931e-05 
-5.293955920339377e-23 
1.058791184067875e-22 
0 
-5.4936583616931e-06 
1.167138857467173e-05 
0 
-1.09873167233862e-05 
-5.493658361693097e-05 
3.420359256427686e-07 
0 
3.501416572401521e-05 
-1.588186776101813e-22 
5.097592682453355e-07 
5.835694287335864e-06 
0 
1.588186776101813e-22 
-5.4936583616931e-06 
0 
0 
-1.09873167233862e-05 
0 
-5.4936583616931e-06 
0 
0 
6.519766138621405e-06 
0 
-2.19746334467724e-05 
0 
-1.09873167233862e-05 
-5.293955920339377e-23 
0 
0 
5.835694287335866e-06 
0 
-5.4936583616931e-06 
3.420359256427694e-07 
-5.293955920339377e-23 
0 
0 
5.835694287335864e-06 
-5.4936583616931e-06 
-5.293955920339377e-23 
5.835694287335864e-06 
0 
-1.648097508507931e-05 
0 
0 
-5.4936583616931e-06 
-1.648097508507931e-05 
0 
-2.19746334467724e-05 
5.835694287335864e-06 
5.835694287335864e-06 
-5.293955920339377e-23 
-5.293955920339377e-23 
5.835694287335864e-06 
-5.4936583616931e-06 
-2.117582368135751e-22 
-5.4936583616931e-06 
1.058791184067875e-22 
1.167138857467173e-05 
0 
0 
3.42035925642765e-07 
5.293955920339377e-23 
1.167138857467174e-05 
0 
1.167138857467173e-05 
1.167138857467173e-05 
0 
1.167138857467172e-05 
0 
5.835694287335866e-06 
5.835694287335864e-06 
5.835694287335866e-06 
0 
0 
-3.845560853185171e-05 
5.835694287335864e-06 
7.105443922495869e-05 
5.835694287335864e-06 
0 
3.535620164965797e-05 
1.710179628213848e-06 
-5.293955920339377e-23 
-2.19746334467724e-05 
0.0003042561517676628 
5.835694287335866e-06 
-1.648097508507931e-05 
0 
-1.064528079774342e-05 
-5.4936583616931e-06 
-4.944292525523789e-05 
0 
2.334277714934346e-05 
-4.235164736271502e-22 
6.419263716069467e-05 
-1.09873167233862e-05 
7.037036737367315e-05 
1.167138857467173e-05 
0 
-5.151622436050335e-06 
0 
0 
-2.197463344677241e-05 
0 
-5.4936583616931e-06 
0 
0 
5.835694287335864e-06 
0 
0 
6.177730212978642e-06 
-5.4936583616931e-06 
0 
6.17773021297864e-06 
-5.4936583616931e-06 
3.420359256427692e-07 
0 
-4.809586510407552e-06 
0 
-5.4936583616931e-06 
-5.4936583616931e-06 
0 
-1.09873167233862e-05 
5.835694287335864e-06 
0 
2.917847143667933e-05 
-5.4936583616931e-06 
0 
-5.4936583616931e-06 
-3.777153668056615e-05 
-2.19746334467724e-05 
3.420359256427695e-07 
0 
0 
-5.493658361693101e-06 
-2.117582368135751e-22 
-5.4936583616931e-06 
0 
0 
0 
-5.4936583616931e-06 
0 
0 
0 
-1.064528079774342e-05 
5.835694287335866e-06 
8.00048826197436e-07 
-5.4936583616931e-06 
0 
-5.4936583616931e-06 
3.420359256427695e-07 
0 
-5.045797218959142e-06 
0 
0 
7.082838027422784e-05 
0 
1.167138857467173e-05 
0 
5.835694287335864e-06 
5.835694287335864e-06 
3.420359256427693e-07 
-5.4936583616931e-06 
0 
0 
0 
0 
0 
0 
-5.4936583616931e-06 
0 
0 
0 
-4.499862532288471e-22 
-5.4936583616931e-06 
3.420359256427695e-07 
0 
-5.4936583616931e-06 
0 
-5.293955920339377e-23 
1.167138857467173e-05 
1.058791184067875e-22 
-1.09873167233862e-05 
-5.4936583616931e-06 
0 
1.167138857467173e-05 
-1.648097508507931e-05 
5.835694287335864e-06 
-5.4936583616931e-06 
0 
0 
5.835694287335864e-06 
-1.09873167233862e-05 
0 
-5.4936583616931e-06 
0 
9.19123515780553e-06 
5.835694287335866e-06 
-5.493658361693101e-06 
-5.4936583616931e-06 
1.75070828620076e-05 
0 
0 
-5.4936583616931e-06 
-5.4936583616931e-06 
-2.117582368135751e-22 
-4.944292525523788e-05 
0 
-5.293955920339377e-23 
-4.235164736271502e-22 
-0.0004065307187652894 
3.420359256427697e-07 
2.334277714934346e-05 
5.835694287335866e-06 
0 
0 
-1.648097508507931e-05 
3.420359256427695e-07 
-5.4936583616931e-06 
-1.058791184067875e-22 
0 
0 
0 
5.835694287335864e-06 
0 
0 
-5.4936583616931e-06 
5.835694287335864e-06 
0 
5.835694287335866e-06 
0 
-5.493658361693101e-06 
1.235546042595728e-05 
0 
-5.293955920339377e-23 
0 
-2.764180412489763e-05 
-5.493658361693101e-06 
0 
0 
0 
5.293955920339377e-23 
-5.98878763488392e-22 
-1.030324487210067e-05 
0 
0 
0 
0 
1.167138857467173e-05 
-5.4936583616931e-06 
-5.4936583616931e-06 
-6.88214269644119e-22 
0 
0 
5.835694287335866e-06 
0 
-6.88214269644119e-22 
-1.648097508507931e-05 
1.864916761384781e-05 
-2.19746334467724e-05 
0 
0 
0 
0 
5.835694287335864e-06 
0 
0 
0 
0 
0 
0 
0 
-5.4936583616931e-06 
0 
5.835694287335866e-06 
-5.4936583616931e-06 
0 
3.420359256427695e-07 
-1.058791184067875e-22 
5.835694287335866e-06 
5.835694287335864e-06 
-1.648097508507931e-05 
-0.0001260121063932985 
0 
-5.493658361693099e-06 
0 
5.835694287335862e-06 
-5.4936583616931e-06 
-1.09873167233862e-05 
5.835694287335864e-06 
-5.4936583616931e-06 
0 
5.097592682453372e-07 
5.835694287335864e-06 
-2.646977960169689e-23 
0 
0 
3.42035925642769e-07 
2.968823070492469e-05 
-5.4936583616931e-06 
0 
-5.4936583616931e-06 
0 
1.201342450031451e-05 
0 
-5.4936583616931e-06 
5.835694287335864e-06 
0 
0 
0 
0 
2.840651398809923e-05 
0 
-5.4936583616931e-06 
-1.138200522872966e-21 
0 
0 
-5.4936583616931e-06 
0 
-5.4936583616931e-06 
0 
0 
0 
-5.4936583616931e-06 
-5.293955920339377e-23 
0 
0 
0 
-4.394926689354481e-05 
-5.4936583616931e-06 
-5.4936583616931e-06 
0 
-5.4936583616931e-06 
-3.845560853185171e-05 
0 
0 
0 
-5.4936583616931e-06 
0 
5.835694287335864e-06 
0 
0 
0 
-1.058791184067875e-22 
0 
0 
5.835694287335866e-06 
-1.648097508507931e-05 
1.167138857467173e-05 
5.252124858602283e-05 
-5.293955920339377e-23 
-5.293955920339377e-23 
5.835694287335864e-06 
0 
0 
0 
-5.293955920339377e-23 
5.835694287335866e-06 
0 
5.835694287335864e-06 
-5.4936583616931e-06 
-1.058791184067875e-22 
-5.4936583616931e-06 
5.835694287335864e-06 
0 
5.097592682453355e-07 
0 
0 
0 
5.835694287335866e-06 
0 
1.167138857467173e-05 
0 
0 
0 
-8.470329472543003e-22 
-1.09873167233862e-05 
1.058791184067875e-22 
1.167138857467173e-05 
-5.4936583616931e-06 
5.835694287335864e-06 
5.835694287335864e-06 
-1.09873167233862e-05 
0 
5.835694287335864e-06 
0 
-5.4936583616931e-06 
0 
-4.944292525523788e-05 
2.418177264906987e-06 
0 
-5.4936583616931e-06 
0 
3.631620520944737e-05 
-5.4936583616931e-06 
0 
0 
5.835694287335864e-06 
-5.4936583616931e-06 
0 
0 
0 
-5.151622436050333e-06 
1.167138857467173e-05 
7.620606166100911e-05 
1.167138857467173e-05 
-2.746829180846549e-05 
-1.429368098491632e-21 
-5.4936583616931e-06 
-1.09873167233862e-05 
0 
-5.4936583616931e-06 
-2.117582368135751e-22 
-2.746829180846549e-05 
5.835694287335864e-06 
0 
0 
0 
0 
5.063736838755762e-06 
0 
-5.4936583616931e-06 
0 
5.835694287335864e-06 
0 
0 
5.835694287335866e-06 
0 
0 
5.558653716356346e-22 
-1.09873167233862e-05 
-5.4936583616931e-06 
-2.107891116130448e-05 
5.835694287335866e-06 
0 
0 
0 
0 
1.75070828620076e-05 
5.835694287335864e-06 
0 
-1.09873167233862e-05 
-5.4936583616931e-06 
-2.117582368135751e-22 
5.835694287335862e-06 
1.167138857467173e-05 
0 
0 
0 
-2.19746334467724e-05 
5.835694287335864e-06 
0 
5.835694287335866e-06 
5.835694287335866e-06 
0 
0 
0 
-5.151622436050335e-06 
5.835694287335864e-06 
5.835694287335864e-06 
0 
0 
0 
0 
0 
-5.293955920339377e-23 
0 
0 
0 
-1.058791184067875e-22 
0 
-5.4936583616931e-06 
0 
-5.4936583616931e-06 
7.808584982500581e-22 
0 
0 
0 
0 
6.352747104407253e-22 
-5.4936583616931e-06 
0 
-1.09873167233862e-05 
1.75070828620076e-05 
-1.648097508507931e-05 
0 
-5.4936583616931e-06 
0 
0 
0 
1.167138857467173e-05 
-1.09873167233862e-05 
0 
5.83569428733587e-06 
-5.293955920339377e-23 
-5.4936583616931e-06 
0 
-3.210865182300176e-05 
0 
-3.705769144237564e-22 
0 
5.835694287335864e-06 
0 
-5.4936583616931e-06 
0 
-1.09873167233862e-05 
0 
4.441488146077862e-06 
0 
5.835694287335864e-06 
0 
0 
-1.09873167233862e-05 
5.293955920339377e-23 
-2.746829180846549e-05 
0 
-5.4936583616931e-06 
-4.235164736271502e-22 
5.835694287335864e-06 
1.784911878765036e-05 
0 
0 
0 
1.167138857467173e-05 
0 
5.835694287335864e-06 
0 
5.835694287335864e-06 
1.167138857467173e-05 
0 
1.750708286200761e-05 
1.201342450031451e-05 
0 
-5.4936583616931e-06 
0 
6.419263716069462e-05 
0 
0 
-5.493658361693099e-06 
-5.151622436050334e-06 
0 
0 
5.835694287335864e-06 
-5.293955920339377e-23 
5.835694287335864e-06 
-5.4936583616931e-06 
-2.117582368135751e-21 
1.167138857467173e-05 
0 
1.058791184067875e-22 
3.501416572401521e-05 
-5.4936583616931e-06 
-3.296195017015862e-05 
-4.326519504225924e-05 
6.177730212978642e-06 
0 
1.784911878765035e-05 
0 
0 
5.835694287335864e-06 
0 
-5.4936583616931e-06 
0 
5.835694287335866e-06 
0 
0 
0 
5.835694287335864e-06 
0 
0 
-5.4936583616931e-06 
5.835694287335867e-06 
0 
5.835694287335866e-06 
5.835694287335864e-06 
-1.09873167233862e-05 
-1.648097508507931e-05 
0 
3.420359256427695e-07 
0 
0 
0 
5.835694287335868e-06 
-1.09873167233862e-05 
-5.4936583616931e-06 
0 
7.411538288475128e-22 
0 
0 
0 
5.835694287335869e-06 
1.201342450031451e-05 
0 
0 
0 
5.835694287335864e-06 
2.334277714934346e-05 
0 
-1.064528079774342e-05 
-5.4936583616931e-06 
5.835694287335864e-06 
0 
-1.058791184067875e-22 
0 
-1.648097508507931e-05 
0 
0 
-5.293955920339377e-23 
0 
0 
5.835694287335866e-06 
0 
0 
0 
0 
0 
0 
1.167138857467173e-05 
0 
1.167138857467173e-05 
-1.058791184067875e-22 
5.835694287335864e-06 
-4.41688474346418e-05 
3.420359256427695e-07 
-2.646977960169689e-22 
0 
-1.613893915943653e-05 
1.167138857467173e-05 
5.835694287335864e-06 
1.75070828620076e-05 
0 
-5.4936583616931e-06 
0 
-1.064528079774343e-05 
-5.4936583616931e-06 
-5.4936583616931e-06 
-5.4936583616931e-06 
1.75070828620076e-05 
0 
-3.296195017015862e-05 
0 
0 
0 
-5.4936583616931e-06 
0 
5.835694287335864e-06 
6.177730212978637e-06 
0 
0 
5.835694287335866e-06 
0 
-5.823351512373315e-22 
-1.09873167233862e-05 
5.835694287335864e-06 
3.420359256427688e-07 
5.835694287335864e-06 
-5.4936583616931e-06 
0 
0 
0 
0 
-5.4936583616931e-06 
0 
0 
-1.09873167233862e-05 
0 
5.835694287335866e-06 
1.75070828620076e-05 
1.75070828620076e-05 
1.058791184067875e-22 
7.411538288475128e-22 
0 
5.835694287335864e-06 
8.470329472543003e-22 
-5.459454769128824e-05 
5.835694287335866e-06 
1.75070828620076e-05 
5.835694287335864e-06 
0 
-1.09873167233862e-05 
-2.712625588282272e-05 
-3.845560853185172e-05 
6.177730212978642e-06 
-5.4936583616931e-06 
5.835694287335866e-06 
0 
3.420359256427697e-07 
2.334277714934345e-05 
5.835694287335864e-06 
5.835694287335864e-06 
0 
-5.4936583616931e-06 
0 
8.000488261974331e-07 
1.201342450031451e-05 
-2.370589662639499e-05 
0 
0 
5.835694287335864e-06 
4.427021926777875e-05 
0 
-5.4936583616931e-06 
0 
0 
5.835694287335864e-06 
3.420359256427697e-07 
0 
0 
-1.349958759686541e-21 
5.835694287335864e-06 
0 
0 
-5.4936583616931e-06 
1.201342450031451e-05 
-5.293955920339377e-23 
0 
0 
-2.117582368135751e-22 
1.784911878765036e-05 
0 
-5.4936583616931e-06 
1.167138857467173e-05 
-5.293955920339377e-23 
-5.4936583616931e-06 
-5.293955920339377e-23 
0 
0 
0 
0 
5.835694287335864e-06 
0 
-1.058791184067875e-22 
0 
0 
0 
0 
0 
0 
0 
-5.4936583616931e-06 
3.420359256427683e-07 
0 
0 
0 
-2.117582368135751e-22 
0 
-5.4936583616931e-06 
0 
-5.151622436050333e-06 
0 
0 
0 
0 
0 
-5.4936583616931e-06 
0 
-5.4936583616931e-06 
0 
-1.09873167233862e-05 
0 
3.420359256427695e-07 
1.167138857467173e-05 
-5.4936583616931e-06 
0 
5.268724988522315e-07 
1.058791184067875e-22 
0 
-2.746829180846549e-05 
0 
-1.09873167233862e-05 
0 
-5.4936583616931e-06 
-5.293955920339377e-23 
0 
-5.4936583616931e-06 
0 
1.058791184067875e-22 
-5.4936583616931e-06 
1.167138857467173e-05 
0 
-1.648097508507931e-05 
4.08498600113511e-05 
0 
0 
-5.4936583616931e-06 
0 
5.835694287335864e-06 
0 
5.063736838755763e-06 
0 
-5.4936583616931e-06 
0 
0 
-1.058791184067875e-22 
0 
0 
1.167138857467173e-05 
-5.151622436050334e-06 
-4.944292525523789e-05 
0 
0 
3.420359256427695e-07 
-5.4936583616931e-06 
-1.09873167233862e-05 
0 
-5.4936583616931e-06 
-5.293955920339377e-23 
1.201342450031451e-05 
5.293955920339377e-23 
5.835694287335864e-06 
0 
0 
-5.4936583616931e-06 
5.835694287335864e-06 
-6.592390034031723e-05 
-4.39492668935448e-05 
-2.19746334467724e-05 
-4.235164736271502e-22 
-1.09873167233862e-05 
-1.613893915943654e-05 
-2.678421995717994e-05 
5.835694287335866e-06 
5.835694287335864e-06 
0 
3.420359256427686e-07 
1.645491264639236e-05 
-2.163259752112962e-05 
-1.064528079774343e-05 
-2.746829180846549e-05 
-4.809586510407553e-06 
5.835694287335864e-06 
0 
-1.568092625888186e-05 
0 
-5.151622436050334e-06 
1.269749635160004e-05 
2.7952788904632e-05 
5.835694287335864e-06 
-3.777153668056615e-05 
-6.043024197862408e-05 
5.835694287335864e-06 
3.847074237157311e-06 
5.835694287335864e-06 
-1.648097508507931e-05 
1.75070828620076e-05 
0 
-1.648097508507931e-05 
-3.811357260620893e-05 
-5.4936583616931e-06 
0 
-5.4936583616931e-06 
-5.4936583616931e-06 
3.420359256427678e-07 
-8.755649786144685e-05 
-5.4936583616931e-06 
0 
-5.4936583616931e-06 
1.219826107352396e-05 
-5.4936583616931e-06 
0 
1.167138857467173e-05 
0 
1.167138857467173e-05 
-5.4936583616931e-06 
5.835694287335866e-06 
0 
5.293955920339377e-23 
-1.648097508507931e-05 
-5.293955920339377e-23 
5.835694287335864e-06 
0 
0 
0 
0 
0 
5.835694287335866e-05 
-1.648097508507931e-05 
8.000488261974339e-07 
1.026107776928306e-06 
0 
0 
0 
0 
0 
0.0001575637457580686 
0 
-3.970466940254533e-23 
0 
0 
0 
0 
1.75070828620076e-05 
0 
5.835694287335864e-06 
-4.467550584764788e-06 
-1.058791184067875e-22 
3.420359256427695e-07 
0 
2.917847143667932e-05 
0 
0 
0 
-5.667170678125237e-06 
-1.138200522872966e-21 
0 
0 
0 
0 
-1.735123164321363e-07 
-5.493658361693099e-06 
-5.4936583616931e-06 
0 
0 
0 
-5.4936583616931e-06 
0 
0 
0 
-5.293955920339377e-23 
0 
-2.117582368135751e-22 
1.167138857467173e-05 
-5.4936583616931e-06 
-5.4936583616931e-06 
0 
0 
1.75070828620076e-05 
-4.499862532288471e-22 
0 
0 
0 
1.75070828620076e-05 
3.420359256427688e-07 
-5.4936583616931e-06 
-1.09873167233862e-05 
0 
-1.648097508507931e-05 
0 
-6.161100045524061e-06 
0 
-5.4936583616931e-06 
-5.4936583616931e-06 
0 
0 
5.097592682453355e-07 
-5.293955920339377e-23 
5.835694287335866e-06 
-3.970466940254533e-23 
3.420359256427695e-07 
0 
0 
0 
-1.648097508507931e-05 
0 
-5.293955920339377e-23 
5.835694287335864e-06 
0 
0 
0 
0 
0 
-5.4936583616931e-06 
-5.493658361693099e-06 
-5.4936583616931e-06 
0 
-5.4936583616931e-06 
0 
0 
-5.293955920339377e-23 
-4.235164736271502e-22 
0 
5.835694287335871e-06 
-2.197463344677241e-05 
-5.4936583616931e-06 
-1.09873167233862e-05 
-0.0001031841745993693 
5.835694287335863e-06 
-5.4936583616931e-06 
-1.648097508507931e-05 
-2.661499346130865e-05 
-1.648097508507931e-05 
-5.493658361693101e-06 
0 
6.86180206426417e-06 
-2.911675756186657e-22 
-2.163259752112962e-05 
-2.163259752112962e-05 
0 
-5.293955920339377e-23 
0 
-5.493658361693098e-05 
-2.746829180846549e-05 
-2.746829180846549e-05 
-1.09873167233862e-05 
-1.648097508507931e-05 
2.952050736232213e-05 
0 
0 
0 
-5.4936583616931e-06 
0 
0 
-4.235164736271502e-22 
-4.632211430296955e-22 
-5.4936583616931e-06 
0 
0 
5.835694287335864e-06 
0 
1.75070828620076e-05 
0 
0 
0 
1.058791184067875e-22 
-1.648097508507931e-05 
5.097592682453355e-07 
5.835694287335864e-06 
-1.09873167233862e-05 
1.058791184067875e-22 
-2.117582368135751e-22 
-5.293955920339377e-23 
0 
0 
5.835694287335864e-06 
3.420359256427697e-07 
1.75070828620076e-05 
0 
5.835694287335864e-06 
0 
-4.235164736271502e-22 
-5.493658361693101e-06 
0 
-2.746829180846549e-05 
5.835694287335864e-06 
-5.4936583616931e-06 
-1.648097508507931e-05 
3.176373552203626e-22 
0 
0 
-3.176373552203626e-22 
-5.4936583616931e-06 
-5.4936583616931e-06 
1.247143740086917e-05 
-5.293955920339377e-23 
5.835694287335866e-06 
0 
0 
0 
-1.09873167233862e-05 
0 
-5.4936583616931e-06 
-2.746829180846549e-05 
5.835694287335864e-06 
-5.4936583616931e-06 
0 
-1.09873167233862e-05 
1.167138857467173e-05 
5.835694287335866e-06 
-6.617444900424221e-24 
0 
-1.648097508507931e-05 
0 
0 
3.420359256427697e-07 
-4.764560328305439e-22 
-2.117582368135751e-22 
0 
-2.911675756186657e-22 
0 
5.835694287335864e-06 
0 
-5.4936583616931e-06 
0 
1.058791184067875e-22 
5.835694287335864e-06 
5.835694287335864e-06 
5.835694287335864e-06 
0 
1.75070828620076e-05 
-1.09873167233862e-05 
-5.4936583616931e-06 
0 
5.835694287335864e-06 
1.167138857467173e-05 
5.835694287335864e-06 
-1.09873167233862e-05 
0 
0 
0 
0 
-1.648097508507931e-05 
-5.4936583616931e-06 
1.167138857467173e-05 
0 
0 
0 
0 
0 
0 
0 
0 
0 
2.917847143667933e-05 
0 
0 
-5.4936583616931e-06 
5.835694287335864e-06 
0.0001117470998838765 
0 
0 
0 
5.835694287335864e-06 
5.293955920339377e-23 
0 
1.201342450031451e-05 
0 
4.668555429868692e-05 
0 
0 
5.835694287335864e-06 
8.507163306519986e-06 
0 
-5.4936583616931e-06 
0 
0 
0 
1.058791184067875e-22 
-5.4936583616931e-06 
4.08498600113511e-05 
0 
0 
0 
0 
0 
3.420359256427695e-07 
0 
-5.4936583616931e-06 
3.420359256427695e-07 
5.268724988522315e-07 
0 
-3.970466940254533e-23 
0 
-5.4936583616931e-06 
-4.809586510407553e-06 
-5.293955920339377e-23 
0 
0 
-5.4936583616931e-06 
-5.4936583616931e-06 
-2.646977960169689e-23 
0 
4.441488146077866e-06 
-2.117582368135751e-22 
0 
1.167138857467173e-05 
0 
1.058791184067875e-22 
0 
-3.970466940254533e-23 
-8.470329472543003e-22 
0 
5.835694287335866e-06 
5.835694287335864e-06 
5.835694287335866e-06 
1.167138857467173e-05 
0 
0 
0 
0 
-5.4936583616931e-06 
2.334277714934346e-05 
-1.09873167233862e-05 
0 
-5.4936583616931e-06 
5.293955920339377e-23 
0 
0 
0 
0 
0 
0 
1.167138857467173e-05 
0 
0 
0 
0 
1.167138857467173e-05 
6.177730212978642e-06 
2.334277714934346e-05 
0 
3.420359256427695e-07 
-5.4936583616931e-06 
1.75070828620076e-05 
6.840718512855389e-07 
1.75070828620076e-05 
0 
0 
0 
-5.4936583616931e-06 
-1.09873167233862e-05 
5.835694287335866e-06 
0 
0 
0 
0 
0 
1.826414792517085e-21 
0 
0 
-5.293955920339377e-23 
-5.4936583616931e-06 
-3.970466940254533e-23 
5.835694287335864e-06 
5.835694287335864e-06 
0 
5.835694287335864e-06 
5.835694287335864e-06 
5.835694287335864e-06 
-2.117582368135751e-22 
3.163002385871771e-06 
0 
0 
0 
-5.4936583616931e-06 
0 
0 
0 
5.835694287335866e-06 
0 
1.167138857467173e-05 
-5.4936583616931e-06 
-1.09873167233862e-05 
1.167138857467173e-05 
0 
1.75070828620076e-05 
-2.118473637839566e-05 
3.420359256427695e-07 
0 
0 
0 
-2.38228016415272e-22 
-5.4936583616931e-06 
-5.4936583616931e-06 
-1.028616490389165e-06 
0 
1.784911878765036e-05 
-5.293955920339377e-23 
0 
0 
-5.4936583616931e-06 
-3.296195017015862e-05 
0 
0 
0 
0 
0 
1.167138857467173e-05 
0 
0 
0 
0 
0 
0 
0 
0 
1.75070828620076e-05 
0 
0 
5.835694287335864e-06 
3.420359256427695e-07 
-1.648097508507931e-05 
3.420359256427713e-07 
0 
0 
-5.4936583616931e-06 
-0.0002024120610354878 
0 
-4.235164736271502e-22 
0 
3.420359256427695e-07 
-5.151622436050334e-06 
5.835694287335864e-06 
-3.845560853185171e-05 
0 
-1.613893915943653e-05 
1.058791184067875e-22 
0 
5.835694287335864e-06 
0 
0 
-2.646977960169689e-23 
-2.712625588282272e-05 
5.835694287335864e-06 
5.835694287335864e-06 
6.17773021297864e-06 
5.835694287335864e-06 
0 
2.334277714934346e-05 
0 
0 
5.835694287335864e-06 
2.917847143667933e-05 
0 
-5.4936583616931e-06 
-1.09873167233862e-05 
-5.151622436050334e-06 
0 
-1.064528079774342e-05 
-4.39492668935448e-05 
-5.4936583616931e-06 
-2.646977960169689e-22 
5.835694287335864e-06 
0 
5.097592682453355e-07 
0 
0 
0 
0 
2.334277714934346e-05 
0 
-5.293955920339377e-23 
0 
5.835694287335864e-06 
0 
-1.09873167233862e-05 
-5.4936583616931e-06 
5.835694287335864e-06 
-5.4936583616931e-06 
-1.09873167233862e-05 
5.835694287335864e-06 
0 
-4.640360014536263e-06 
-1.648097508507931e-05 
5.835694287335864e-06 
-5.4936583616931e-06 
0 
0 
-9.109413752569777e-06 
0 
3.420359256427695e-07 
-1.064528079774342e-05 
-1.613893915943653e-05 
0 
9.529120656610879e-22 
0 
-1.64809750850793e-05 
0 
0 
-1.09873167233862e-05 
-5.293955920339377e-23 
-1.058791184067875e-22 
-1.09873167233862e-05 
-5.151622436050339e-06 
0 
-5.293955920339377e-23 
-1.09873167233862e-05 
-8.470329472543003e-22 
1.484120677482973e-06 
-1.09873167233862e-05 
0 
-6.617444900424221e-24 
3.420359256427695e-07 
-5.293955920339377e-23 
-1.648097508507931e-05 
-1.09873167233862e-05 
-2.19746334467724e-05 
-1.064528079774342e-05 
-1.058791184067875e-22 
5.835694287335864e-06 
0 
0 
-1.648097508507931e-05 
0 
3.420359256427695e-07 
0 
0 
0 
0 
-2.117582368135751e-22 
5.835694287335864e-06 
5.835694287335864e-06 
8.300053662585432e-05 
3.420359256427682e-07 
-0.000109425306091128 
-5.4936583616931e-06 
1.201342450031452e-05 
5.835694287335864e-06 
-2.117582368135751e-22 
0 
-5.4936583616931e-06 
5.835694287335864e-06 
2.917847143667934e-05 
1.75070828620076e-05 
5.835694287335864e-06 
0 
6.840718512855389e-07 
0 
0 
-5.4936583616931e-06 
1.058791184067875e-22 
-5.4936583616931e-06 
0 
0 
0 
-5.293955920339377e-23 
-5.493658361693099e-06 
0 
-5.4936583616931e-06 
0 
-5.4936583616931e-06 
-5.4936583616931e-06 
0 
0 
0 
5.835694287335864e-06 
0 
3.420359256427695e-07 
0 
-2.38228016415272e-22 
-4.235164736271502e-22 
-2.19746334467724e-05 
-1.058791184067875e-22 
0 
-5.293955920339377e-23 
5.293955920339377e-23 
0 
0 
0 
5.835694287335864e-06 
-5.4936583616931e-06 
0 
-5.293955920339377e-23 
6.352747104407253e-22 
3.420359256427695e-07 
2.117582368135751e-22 
0 
0 
0 
0 
4.08498600113511e-05 
0 
-1.064528079774342e-05 
0 
0 
-5.4936583616931e-06 
-1.058791184067875e-22 
0 
4.235164736271502e-22 
5.835694287335864e-06 
0 
-5.293955920339377e-23 
0 
0 
0 
0 
-5.4936583616931e-06 
-5.4936583616931e-06 
-2.911675756186657e-22 
0 
0 
5.835694287335866e-06 
0 
0 
-5.4936583616931e-06 
3.420359256427695e-07 
0 
-1.09873167233862e-05 
0 
0 
1.167138857467174e-05 
3.420359256427737e-07 
-5.293955920339377e-23 
4.702759022432971e-05 
5.835694287335864e-06 
-5.4936583616931e-06 
0 
0 
0 
0 
-2.746829180846549e-05 
0 
-2.117582368135751e-22 
0 
3.420359256427695e-07 
0 
0 
0 
5.835694287335864e-06 
-5.493658361693102e-06 
-5.4936583616931e-06 
0 
0 
3.420359256427695e-07 
-5.4936583616931e-06 
-5.4936583616931e-06 
0 
0 
-2.746829180846549e-05 
5.835694287335864e-06 
-1.09873167233862e-05 
-5.4936583616931e-06 
-2.712625588282272e-05 
-5.4936583616931e-06 
-5.4936583616931e-06 
5.835694287335864e-06 
-5.293955920339377e-23 
0 
0 
3.420359256427695e-07 
1.75070828620076e-05 
-2.117582368135751e-22 
-2.746829180846549e-05 
0 
5.835694287335864e-06 
-1.09873167233862e-05 
0 
-2.746829180846549e-05 
1.167138857467173e-05 
5.835694287335864e-06 
-3.296195017015862e-05 
-5.493658361693101e-06 
-5.4936583616931e-06 
-1.09873167233862e-05 
-9.855383729366707e-06 
5.835694287335864e-06 
2.671469019184118e-06 
2.418177264906987e-06 
0 
1.167138857467173e-05 
-5.293955920339377e-23 
5.835694287335864e-06 
0.0003137332853748789 
-5.293955920339377e-23 
0 
0.0004488219395258192 
-5.293955920339377e-23 
1.167138857467173e-05 
0 
0 
-1.648097508507931e-05 
5.835694287335864e-06 
0 
0 
-5.4936583616931e-06 
0 
0 
-5.293955920339377e-23 
5.835694287335864e-06 
-1.09873167233862e-05 
-1.09873167233862e-05 
-5.4936583616931e-06 
0 
0 
0 
0 
-5.4936583616931e-06 
5.835694287335864e-06 
4.961349083183924e-05 
2.481541837659083e-22 
-5.4936583616931e-06 
0 
-5.4936583616931e-06 
-5.293955920339377e-23 
3.420359256427695e-07 
-4.91008893295951e-05 
-4.235164736271502e-22 
5.835694287335864e-06 
5.835694287335864e-06 
0 
-5.4936583616931e-06 
0 
0 
0 
-1.09873167233862e-05 
-4.394926689354481e-05 
-1.64809750850793e-05 
1.167138857467173e-05 
0 
-3.296195017015862e-05 
0 
0 
3.420359256427699e-07 
0 
0 
0 
0 
0 
0 
0 
0 
0 
0 
0 
0 
0 
-1.09873167233862e-05 
0 
0 
1.167138857467173e-05 
-4.499862532288471e-22 
-1.052170215615233e-06 
0 
5.835694287335864e-06 
5.835694287335864e-06 
0 
0 
-2.117582368135751e-22 
0 
0 
0 
-3.176373552203626e-22 
-5.4936583616931e-06 
-5.293955920339377e-23 
-1.09873167233862e-05 
0 
0 
0 
-3.296195017015862e-05 
1.819115471329315e-05 
0 
-1.648097508507931e-05 
5.835694287335866e-06 
3.420359256427695e-07 
-5.4936583616931e-06 
-5.293955920339377e-23 
0 
0 
-5.4936583616931e-06 
0 
5.293955920339377e-23 
0 
0 
0 
1.588186776101813e-22 
0 
0 
0 
0 
0 
0 
0 
0 
5.835694287335864e-06 
-5.293955920339377e-23 
5.835694287335864e-06 
0 
-5.4936583616931e-06 
0 
0 
1.588186776101813e-22 
3.420359256427697e-07 
0 
5.835694287335864e-06 
5.835694287335864e-06 
0 
-5.4936583616931e-06 
0 
0 
-1.058791184067875e-22 
0 
0 
0 
0 
0 
2.671469019184118e-06 
-1.64809750850793e-05 
5.835694287335864e-06 
0 
-5.4936583616931e-06 
0 
3.420359256427695e-07 
-1.058791184067875e-22 
3.420359256427695e-07 
0 
0 
0 
-5.4936583616931e-06 
0 
-5.293955920339377e-23 
0 
0 
-5.4936583616931e-06 
0 
0 
0 
5.835694287335864e-06 
1.195334272799606e-06 
0 
5.835694287335864e-06 
0 
3.420359256427695e-07 
-5.4936583616931e-06 
0 
-5.4936583616931e-06 
0 
-5.4936583616931e-06 
0 
1.167138857467173e-05 
-5.4936583616931e-06 
0 
3.420359256427695e-07 
5.835694287335866e-06 
5.835694287335864e-06 
-5.4936583616931e-06 
-5.4936583616931e-06 
0 
0 
3.420359256427695e-07 
0 
-5.151622436050338e-06 
5.835694287335864e-06 
0 
-5.4936583616931e-06 
0 
0 
0 
-5.4936583616931e-06 
0 
5.835694287335864e-06 
-5.293955920339377e-23 
-1.09873167233862e-05 
5.835694287335864e-06 
0 
5.835694287335864e-06 
5.835694287335867e-06 
0 
5.835694287335864e-06 
2.41817726490699e-06 
1.201342450031451e-05 
0 
0 
5.835694287335864e-06 
1.75070828620076e-05 
1.167138857467173e-05 
-4.235164736271502e-22 
-5.4936583616931e-06 
-5.4936583616931e-06 
-1.270549420881451e-21 
1.75070828620076e-05 
5.293955920339377e-23 
-5.4936583616931e-06 
1.201342450031451e-05 
8.998696673207637e-06 
0 
5.835694287335864e-06 
5.835694287335864e-06 
1.167138857467173e-05 
0 
-5.293955920339377e-23 
-5.293955920339377e-23 
-1.648097508507931e-05 
0 
1.167138857467173e-05 
3.42035925642769e-07 
5.835694287335864e-06 
5.835694287335864e-06 
0 
6.17773021297864e-06 
-5.293955920339377e-23 
-1.09873167233862e-05 
-5.4936583616931e-06 
0 
5.835694287335864e-06 
3.420359256427695e-07 
1.75070828620076e-05 
5.835694287335864e-06 
0 
0 
0 
-5.4936583616931e-06 
0 
1.75070828620076e-05 
-5.4936583616931e-06 
0 
1.167138857467173e-05 
-8.470329472543003e-22 
2.917847143667932e-05 
0 
5.835694287335864e-06 
-5.4936583616931e-06 
5.293955920339377e-23 
-0.0002029910105563428 
0 
-5.4936583616931e-06 
3.42035925642769e-07 
1.588186776101813e-22 
0 
5.835694287335864e-06 
0 
0 
0 
0 
0 
3.420359256427693e-07 
0 
5.835694287335864e-06 
-4.235164736271502e-22 
-5.4936583616931e-06 
0 
1.058791184067875e-22 
1.852884572118782e-22 
0 
1.167138857467173e-05 
0 
0 
0 
0 
0 
0 
-5.293955920339377e-23 
0 
-5.4936583616931e-06 
0 
0 
-5.4936583616931e-06 
-5.4936583616931e-06 
0 
0 
0 
5.835694287335864e-06 
5.835694287335864e-06 
6.177730212978642e-06 
0 
0 
-2.117582368135751e-22 
2.334277714934346e-05 
0 
-5.293955920339377e-23 
0 
0 
-2.117582368135751e-22 
0 
0 
0 
5.835694287335864e-06 
0 
-5.4936583616931e-06 
0 
2.334277714934346e-05 
1.058791184067875e-22 
0 
0 
0 
5.835694287335864e-06 
-5.293955920339377e-23 
0 
0 
6.177730212978642e-06 
0 
1.167138857467173e-05 
0 
2.481541837659083e-22 
0 
-8.867376166568457e-22 
-5.4936583616931e-06 
0 
0 
1.058791184067875e-22 
-5.4936583616931e-06 
5.823351512373315e-22 
5.835694287335864e-06 
5.835694287335864e-06 
5.835694287335864e-06 
0 
0.0002742776315047857 
0 
-5.4936583616931e-06 
0 
5.06373683875576e-06 
5.835694287335864e-06 
5.835694287335864e-06 
6.151994525923049e-05 
0 
0 
0 
0 
3.163002385871774e-06 
0 
5.835694287335864e-06 
0 
0 
0 
0 
0 
-8.735027268559972e-22 
0 
5.835694287335864e-06 
1.167138857467173e-05 
0 
-5.151622436050334e-06 
-5.4936583616931e-06 
5.835694287335864e-06 
0 
0 
-2.117582368135751e-22 
0 
0 
3.420359256427695e-07 
0 
3.420359256427695e-07 
0 
-5.4936583616931e-06 
0 
0 
1.299656336622066e-06 
5.835694287335866e-06 
5.835694287335863e-06 
0 
5.835694287335866e-06 
5.835694287335864e-06 
0 
0 
4.235164736271502e-22 
5.835694287335866e-06 
0 
4.78352407172064e-06 
-5.4936583616931e-06 
0 
-5.4936583616931e-06 
-5.4936583616931e-06 
0 
3.420359256427695e-07 
0 
-5.4936583616931e-06 
-5.4936583616931e-06 
0 
-1.648097508507931e-05 
-5.293955920339377e-23 
0 
0 
0 
0 
-5.293955920339377e-23 
0 
0 
0 
5.835694287335864e-06 
0 
0 
5.835694287335864e-06 
0 
0 
0 
-5.4936583616931e-06 
0 
5.835694287335864e-06 
-1.09873167233862e-05 
0 
0 
0 
-5.4936583616931e-06 
0 
5.835694287335864e-06 
-5.4936583616931e-06 
5.835694287335866e-06 
-1.058791184067875e-22 
0 
5.835694287335864e-06 
0 
-5.293955920339377e-23 
-5.4936583616931e-06 
0 
-1.648097508507931e-05 
3.420359256427695e-07 
0 
0 
5.835694287335864e-06 
3.420359256427697e-07 
0 
-1.64809750850793e-05 
5.835694287335864e-06 
1.75070828620076e-05 
-1.09873167233862e-05 
0 
-1.0654086289683e-21 
5.835694287335866e-06 
-5.4936583616931e-06 
-5.4936583616931e-06 
0 
0 
-5.98878763488392e-22 
-5.293955920339377e-23 
0 
-5.4936583616931e-06 
0 
0 
-5.4936583616931e-06 
5.835694287335864e-06 
0 
0 
-1.349958759686541e-21 
8.169972002270218e-05 
-5.4936583616931e-06 
0 
1.167138857467173e-05 
0 
-1.058791184067875e-22 
5.835694287335864e-06 
0 
-5.293955920339377e-23 
-5.4936583616931e-06 
5.835694287335864e-06 
-1.09873167233862e-05 
-5.4936583616931e-06 
0 
5.252124858602282e-05 
5.835694287335862e-06 
0 
0 
1.75070828620076e-05 
0 
0 
1.167138857467173e-05 
0 
0 
5.835694287335864e-06 
0 
5.835694287335864e-06 
-1.138200522872966e-21 
0 
-5.4936583616931e-06 
0 
-5.293955920339377e-23 
1.058791184067875e-22 
5.835694287335864e-06 
5.835694287335864e-06 
-5.4936583616931e-06 
0 
-3.176373552203626e-22 
0 
-2.911675756186657e-22 
3.420359256427697e-07 
-5.293955920339377e-23 
-1.648097508507931e-05 
0 
0 
5.835694287335864e-06 
1.75070828620076e-05 
0 
5.835694287335864e-06 
1.167138857467173e-05 
5.835694287335864e-06 
-1.09873167233862e-05 
-5.293955920339377e-23 
-5.4936583616931e-06 
0 
0 
0 
0 
-5.4936583616931e-06 
5.293955920339377e-23 
5.293955920339377e-23 
-1.058791184067875e-22 
-5.4936583616931e-06 
-5.293955920339377e-23 
5.835694287335864e-06 
5.835694287335864e-06 
0 
5.835694287335864e-06 
1.819115471329314e-05 
-1.058791184067875e-22 
0 
0 
-5.4936583616931e-06 
0 
-0.0002557837657346688 
0 
0 
0 
5.835694287335866e-06 
0 
-5.4936583616931e-06 
-5.4936583616931e-06 
-3.29619501701586e-05 
5.835694287335864e-06 
5.835694287335864e-06 
0 
2.334277714934345e-05 
6.17773021297864e-06 
5.835694287335864e-06 
3.420359256427697e-07 
-5.4936583616931e-06 
-5.293955920339377e-23 
1.167138857467173e-05 
2.334277714934345e-05 
0 
0 
0 
0 
-5.293955920339377e-23 
0 
0 
5.097592682453355e-07 
1.167138857467173e-05 
0 
1.167138857467173e-05 
0 
0 
0 
1.201342450031451e-05 
2.952050736232213e-05 
5.835694287335864e-06 
-5.4936583616931e-06 
0 
-5.4936583616931e-06 
5.835694287335864e-06 
5.835694287335864e-06 
1.167138857467173e-05 
3.501416572401524e-05 
-5.4936583616931e-06 
5.835694287335864e-06 
5.835694287335866e-06 
1.201342450031451e-05 
-1.09873167233862e-05 
1.588186776101813e-22 
3.163002385871775e-06 
0 
-5.4936583616931e-06 
-5.4936583616931e-06 
1.167138857467173e-05 
3.420359256427695e-07 
0 
5.835694287335864e-06 
6.362566786188099e-06 
0 
9.048929781555567e-05 
0 
-3.176373552203626e-22 
0 
-5.493658361693098e-06 
0 
3.420359256427695e-07 
0 
0 
0 
0 
3.501416572401524e-05 
0 
0 
-5.4936583616931e-06 
-5.4936583616931e-06 
0 
0.0001053845330976884 
-5.151622436050334e-06 
-1.09873167233862e-05 
5.835694287335864e-06 
-5.293955920339377e-23 
3.420359256427695e-07 
0 
5.835694287335864e-06 
-5.4936583616931e-06 
-6.352747104407253e-22 
-5.4936583616931e-06 
-2.117582368135751e-22 
-1.116082903981834e-05 
0 
-2.19746334467724e-05 
0 
3.420359256427695e-07 
-1.028616490389165e-06 
-5.4936583616931e-06 
-5.151622436050334e-06 
0 
-1.058791184067875e-22 
-1.429368098491632e-21 
-5.4936583616931e-06 
5.835694287335862e-06 
0 
0 
-5.4936583616931e-06 
-3.176373552203626e-22 
0 
-5.4936583616931e-06 
0 
-5.4936583616931e-06 
-5.4936583616931e-06 
-1.648097508507931e-05 
1.673512541342749e-05 
-1.09873167233862e-05 
2.194857100808545e-05 
-5.151622436050337e-06 
5.835694287335864e-06 
0 
0 
3.420359256427695e-07 
-5.4936583616931e-06 
6.635743113533305e-06 
5.835694287335864e-06 
0 
-4.632211430296955e-22 
0 
5.835694287335866e-05 
0 
0 
0 
4.235164736271502e-22 
0 
0 
-1.058791184067875e-22 
5.835694287335864e-06 
-2.746829180846549e-05 
-5.293955920339377e-23 
-1.058791184067875e-22 
0 
0 
0 
0 
0 
-5.4936583616931e-06 
5.835694287335864e-06 
-5.4936583616931e-06 
0 
0 
0 
0 
-1.058791184067875e-22 
5.293955920339377e-23 
1.167138857467173e-05 
6.362566786188103e-06 
5.835694287335864e-06 
-5.667170678125239e-06 
-1.09873167233862e-05 
-1.058791184067875e-22 
0 
5.835694287335864e-06 
0 
0 
-5.4936583616931e-06 
0 
0 
-5.4936583616931e-06 
5.835694287335866e-06 
0 
-5.4936583616931e-06 
-5.4936583616931e-06 
0 
0 
-5.4936583616931e-06 
0 
5.835694287335864e-06 
5.835694287335864e-06 
0 
0 
0 
-2.117582368135751e-22 
3.420359256427695e-07 
-1.09873167233862e-05 
5.835694287335864e-06 
-5.4936583616931e-06 
0 
3.420359256427697e-07 
-5.4936583616931e-06 
0 
0 
0 
0 
-5.293955920339377e-23 
0 
0 
0 
0 
0 
0 
-1.09873167233862e-05 
5.835694287335864e-06 
8.595907477885627e-06 
-5.4936583616931e-06 
0 
-5.4936583616931e-06 
1.167138857467173e-05 
0 
5.835694287335868e-06 
5.293955920339377e-23 
2.257081970076336e-05 
0 
5.835694287335864e-06 
0 
0 
-1.058791184067875e-22 
0 
5.835694287335864e-06 
0 
0 
-5.293955920339377e-23 
5.835694287335864e-06 
-1.058791184067875e-22 
-5.4936583616931e-06 
0 
0 
0 
-1.09873167233862e-05 
-6.558186441467455e-05 
0 
0 
6.519766138621405e-06 
-3.296195017015862e-05 
1.75070828620076e-05 
0 
0 
0 
5.835694287335864e-06 
0 
0 
5.835694287335864e-06 
-2.19746334467724e-05 
0.0001216810235093675 
3.420359256427688e-07 
0 
5.835694287335864e-06 
0 
-2.117582368135751e-22 
0 
-5.4936583616931e-06 
5.835694287335864e-06 
5.835694287335864e-06 
1.058791184067875e-22 
-5.4936583616931e-06 
-5.4936583616931e-06 
1.167138857467173e-05 
-0.0001085050235312909 
0 
-5.4936583616931e-06 
3.420359256427688e-07 
1.02610777692831e-06 
3.420359256427695e-07 
3.420359256427686e-07 
-5.4936583616931e-06 
0 
-4.235164736271502e-22 
0 
-1.09873167233862e-05 
0 
-5.4936583616931e-06 
-5.4936583616931e-06 
-5.151622436050334e-06 
-5.4936583616931e-06 
0 
-5.4936583616931e-06 
-4.235164736271502e-22 
0 
-2.355810384551023e-21 
0 
-5.4936583616931e-06 
-5.4936583616931e-06 
-4.235164736271502e-22 
-5.151622436050334e-06 
0 
1.195334272799606e-06 
-2.117582368135751e-22 
-5.293955920339377e-23 
0 
1.750708286200761e-05 
0 
0 
-0.0001419818190568638 
5.835694287335862e-06 
-1.349958759686541e-21 
-2.813573349229646e-05 
0 
-5.4936583616931e-06 
0 
-5.4936583616931e-06 
1.750708286200761e-05 
1.75070828620076e-05 
0 
0 
-5.4936583616931e-06 
2.917847143667933e-05 
1.75070828620076e-05 
-5.151622436050331e-06 
5.835694287335864e-06 
-5.4936583616931e-06 
-5.293955920339377e-23 
0 
-5.4936583616931e-06 
-5.293955920339377e-23 
5.293955920339377e-23 
5.835694287335863e-06 
0 
0 
6.177730212978642e-06 
-5.4936583616931e-06 
0 
-4.39492668935448e-05 
1.302039485432153e-06 
0 
0 
-1.09873167233862e-05 
0 
0 
-5.293955920339377e-23 
0 
3.420359256427695e-07 
1.167138857467173e-05 
-5.4936583616931e-06 
3.420359256427697e-07 
5.835694287335867e-06 
-5.4936583616931e-06 
-5.4936583616931e-06 
-5.293955920339377e-23 
-2.19746334467724e-05 
-5.493658361693098e-06 
5.835694287335864e-06 
-4.944292525523789e-05 
7.751024555169318e-05 
0 
0 
0 
2.257081970076335e-05 
-5.293955920339377e-23 
5.835694287335864e-06 
0 
0 
-5.4936583616931e-06 
5.835694287335864e-06 
0 
0 
5.835694287335864e-06 
0 
0 
0 
0 
5.835694287335864e-06 
-5.4936583616931e-06 
1.588186776101813e-22 
5.835694287335866e-06 
1.75070828620076e-05 
0 
0 
3.420359256427695e-07 
-5.4936583616931e-06 
5.835694287335864e-06 
1.167138857467173e-05 
-2.117582368135751e-22 
5.293955920339377e-23 
5.835694287335864e-06 
-5.293955920339377e-23 
0 
5.835694287335864e-06 
-1.09873167233862e-05 
-5.4936583616931e-06 
0 
0 
1.784911878765035e-05 
5.835694287335868e-06 
5.835694287335866e-06 
0 
0 
5.097592682453355e-07 
0 
-5.4936583616931e-06 
5.835694287335864e-06 
3.420359256427695e-07 
0 
0 
0 
5.835694287335864e-06 
5.835694287335864e-06 
-5.493658361693099e-06 
3.420359256427695e-07 
5.835694287335864e-06 
-5.4936583616931e-06 
0 
-5.293955920339377e-23 
-5.4936583616931e-06 
1.75070828620076e-05 
-2.330655975821323e-06 
0 
-5.4936583616931e-06 
-5.4936583616931e-06 
-5.293955920339377e-23 
-5.4936583616931e-06 
0 
-5.4936583616931e-06 
5.835694287335864e-06 
0 
3.420359256427695e-07 
0 
0 
0 
-5.4936583616931e-06 
-4.235164736271502e-22 
0 
0 
0 
0 
1.058791184067875e-22 
3.420359256427695e-07 
0 
-2.117582368135751e-22 
0 
0 
-1.09873167233862e-05 
-2.117582368135751e-22 
-1.648097508507931e-05 
-5.4936583616931e-06 
-1.058791184067875e-22 
0 
0 
-5.493658361693099e-06 
5.835694287335864e-06 
0 
5.835694287335864e-06 
-8.867376166568457e-22 
-5.4936583616931e-06 
-0.0001205861351309464 
5.835694287335864e-06 
-1.648097508507931e-05 
-5.4936583616931e-06 
5.743527631510022e-06 
1.75070828620076e-05 
0 
0 
3.163002385871774e-06 
0 
1.302039485432156e-06 
0 
5.835694287335864e-06 
-1.648097508507931e-05 
1.167138857467173e-05 
0 
0 
1.027718243341373e-05 
0 
0 
1.058791184067875e-22 
3.420359256427695e-07 
0 
-5.4936583616931e-06 
-1.058791184067875e-22 
-5.4936583616931e-06 
-5.4936583616931e-06 
-5.151622436050334e-06 
5.835694287335864e-06 
0 
0 
0 
0 
-5.4936583616931e-06 
5.835694287335864e-06 
0 
0 
0 
-2.19746334467724e-05 
1.167138857467173e-05 
0 
-5.4936583616931e-06 
0 
-5.4936583616931e-06 
0 
0 
-5.4936583616931e-06 
0 
5.174929113744272e-05 
5.835694287335864e-06 
-2.746829180846549e-05 
0 
1.75070828620076e-05 
-5.4936583616931e-06 
-5.293955920339377e-23 
0 
-5.293955920339377e-23 
0 
-5.4936583616931e-06 
0 
-5.4936583616931e-06 
1.167138857467173e-05 
-1.058791184067875e-22 
0 
3.581421455021264e-05 
5.835694287335864e-06 
-5.4936583616931e-06 
-5.4936583616931e-06 
0 
3.420359256427681e-07 
2.334277714934346e-05 
0 
0 
-5.151622436050335e-06 
5.835694287335866e-06 
5.835694287335864e-06 
-5.293955920339377e-23 
8.998696673207637e-06 
3.501416572401521e-05 
0 
0 
0 
-5.4936583616931e-06 
0 
-5.4936583616931e-06 
5.835694287335864e-06 
-1.648097508507931e-05 
0 
0 
5.835694287335864e-06 
5.252124858602282e-05 
0 
-5.293955920339377e-23 
-1.058791184067875e-22 
0 
4.702636734204968e-05 
0 
-1.648097508507931e-05 
-5.4936583616931e-06 
5.835694287335864e-06 
-1.116082903981834e-05 
3.420359256427695e-07 
0 
0 
-1.09873167233862e-05 
2.334277714934346e-05 
5.835694287335864e-06 
0 
-4.235164736271502e-22 
0 
5.835694287335864e-06 
-2.911675756186657e-22 
5.835694287335864e-06 
0 
0 
0 
3.501416572401521e-05 
-5.4936583616931e-06 
-1.09873167233862e-05 
-5.4936583616931e-06 
-2.268476773674485e-05 
2.052215553856617e-06 
-5.293955920339377e-23 
-1.09873167233862e-05 
0 
0 
0 
-1.09873167233862e-05 
0 
-1.09873167233862e-05 
6.419263716069465e-05 
-5.4936583616931e-06 
-5.4936583616931e-06 
3.420359256427695e-07 
-5.293955920339377e-23 
-5.4936583616931e-06 
-5.4936583616931e-06 
-5.4936583616931e-06 
-5.293955920339377e-23 
-1.09873167233862e-05 
0 
-4.632211430296955e-22 
0 
1.167138857467173e-05 
3.501416572401521e-05 
0 
1.058791184067875e-22 
0 
0 
-1.058791184067875e-22 
0 
-1.648097508507931e-05 
-5.293955920339377e-23 
-8.867376166568457e-22 
1.588186776101813e-22 
-5.4936583616931e-06 
0 
3.420359256427695e-07 
0 
0 
5.835694287335864e-06 
-5.4936583616931e-06 
-2.19746334467724e-05 
0 
3.420359256427695e-07 
-1.09873167233862e-05 
0 
0 
0 
-4.235164736271502e-22 
0 
5.835694287335864e-06 
-5.293955920339377e-23 
0 
7.898970683767272e-07 
0 
0 
0 
-5.4936583616931e-06 
5.097592682453355e-07 
0 
-1.09873167233862e-05 
-5.4936583616931e-06 
5.835694287335864e-06 
-1.09873167233862e-05 
5.293955920339377e-23 
1.167138857467173e-05 
5.835694287335864e-06 
0 
0 
0 
5.835694287335866e-06 
0 
0 
0 
0 
0 
-2.646977960169689e-23 
-4.235164736271502e-22 
5.835694287335865e-06 
-5.4936583616931e-06 
0 
0 
3.163002385871774e-06 
0 
0 
5.835694287335864e-06 
5.83569428733587e-06 
0 
-5.4936583616931e-06 
5.835694287335864e-06 
0 
-5.293955920339377e-23 
0 
0 
0 
0 
5.835694287335864e-06 
0 
0 
0 
0 
-4.632211430296955e-22 
0 
1.588186776101813e-22 
-5.4936583616931e-06 
-5.4936583616931e-06 
0 
-5.4936583616931e-06 
0 
3.420359256427695e-07 
0 
0 
-2.911675756186657e-22 
-2.117582368135751e-22 
3.420359256427695e-07 
0 
-2.19746334467724e-05 
0 
0 
0 
5.835694287335866e-06 
0 
0 
1.167138857467173e-05 
-5.4936583616931e-06 
5.835694287335864e-06 
-1.09873167233862e-05 
-5.293955920339377e-23 
5.835694287335864e-06 
-5.293955920339377e-23 
-5.493658361693101e-06 
0 
5.293955920339377e-23 
1.167138857467173e-05 
6.362566786188099e-06 
1.167138857467173e-05 
5.835694287335866e-06 
5.835694287335864e-06 
0 
-5.293955920339377e-23 
6.177730212978642e-06 
5.835694287335866e-06 
5.835694287335864e-06 
0 
3.501416572401521e-05 
-5.151622436050334e-06 
5.835694287335864e-06 
1.750708286200761e-05 
5.835694287335866e-06 
5.835694287335864e-06 
0 
-5.4936583616931e-06 
0 
1.247143740086917e-05 
-5.4936583616931e-06 
3.420359256427674e-07 
-1.648097508507931e-05 
-1.09873167233862e-05 
5.835694287335864e-06 
5.835694287335864e-06 
1.167138857467173e-05 
-2.646977960169689e-22 
-5.4936583616931e-06 
0 
5.063736838755762e-06 
-2.117582368135751e-22 
5.835694287335866e-06 
0 
0 
0 
0 
5.293955920339377e-23 
0 
0 
0 
0 
-2.117582368135751e-22 
-8.206283949975384e-05 
-5.4936583616931e-06 
0 
0 
0 
3.501416572401521e-05 
-1.09873167233862e-05 
5.835694287335864e-06 
0 
0 
-5.4936583616931e-06 
-5.4936583616931e-06 
0 
-1.09873167233862e-05 
1.195334272799605e-06 
-1.09873167233862e-05 
0 
1.75070828620076e-05 
-2.911675756186657e-22 
0 
0 
5.835694287335866e-06 
0 
1.75070828620076e-05 
0 
0 
-5.4936583616931e-06 
-3.296195017015862e-05 
0 
5.835694287335866e-06 
5.835694287335866e-06 
0 
-9.888585051047578e-05 
5.835694287335864e-06 
0 
5.835694287335866e-06 
0 
6.177730212978642e-06 
-5.4936583616931e-06 
-5.4936583616931e-06 
3.420359256427695e-07 
1.167138857467173e-05 
-2.746829180846549e-05 
0 
0 
0 
-4.641863167804993e-06 
-1.09873167233862e-05 
-5.4936583616931e-06 
0 
1.75070828620076e-05 
-5.4936583616931e-06 
0 
0 
-1.058791184067875e-22 
0 
0 
0 
5.286328451166555e-05 
1.588186776101813e-22 
0 
-4.809586510407552e-06 
5.835694287335864e-06 
5.835694287335864e-06 
0 
5.835694287335863e-06 
0 
-2.180610983756176e-05 
-5.4936583616931e-06 
-5.293955920339377e-23 
0.0001283852743213892 
2.917847143667933e-05 
0 
5.835694287335864e-06 
-8.470329472543003e-22 
2.334277714934346e-05 
5.835694287335866e-06 
5.835694287335864e-06 
0 
3.420359256427695e-07 
5.835694287335864e-06 
0 
-5.293955920339377e-23 
5.835694287335864e-06 
3.420359256427695e-07 
-2.117582368135751e-22 
5.835694287335864e-06 
0 
0 
3.705769144237564e-22 
2.334277714934346e-05 
5.835694287335864e-06 
1.167138857467173e-05 
-1.09873167233862e-05 
0 
0 
0 
0 
0 
-5.4936583616931e-06 
0 
4.235164736271502e-22 
0 
-5.293955920339377e-23 
0 
-1.09873167233862e-05 
-5.4936583616931e-06 
0 
8.253871552242852e-06 
0 
5.835694287335864e-06 
0 
0 
-2.911675756186657e-22 
-5.293955920339377e-23 
0 
0 
5.835694287335864e-06 
0 
-5.4936583616931e-06 
0 
0 
0 
0 
0 
-5.4936583616931e-06 
0 
5.835694287335864e-06 
5.835694287335864e-06 
2.917847143667933e-05 
-5.4936583616931e-06 
0 
0 
0 
-1.09873167233862e-05 
3.420359256427697e-07 
0 
1.167138857467173e-05 
-1.058791184067875e-22 
0 
6.861802064264179e-06 
5.835694287335864e-06 
1.167138857467173e-05 
0 
6.17773021297864e-06 
0 
0 
-4.39492668935448e-05 
-1.648097508507931e-05 
0 
-5.4936583616931e-06 
5.835694287335864e-06 
1.167138857467174e-05 
-5.4936583616931e-06 
0 
0 
2.418177264906987e-06 
-1.09873167233862e-05 
5.268724988522315e-07 
0 
-5.4936583616931e-06 
-5.4936583616931e-06 
-1.058791184067875e-22 
-5.151622436050334e-06 
5.835694287335864e-06 
0 
-5.4936583616931e-06 
-1.064528079774342e-05 
-1.648097508507931e-05 
5.835694287335869e-06 
0 
0 
1.853319063893592e-05 
-6.161100045524062e-06 
-6.88214269644119e-22 
0 
-2.117582368135751e-22 
-2.117582368135751e-22 
0 
0 
0 
1.167138857467173e-05 
5.835694287335864e-06 
0 
0 
0 
5.835694287335866e-06 
-2.117582368135751e-22 
-1.09873167233862e-05 
6.177730212978642e-06 
-5.4936583616931e-06 
-2.117582368135751e-22 
0 
-1.648097508507931e-05 
0 
1.167138857467173e-05 
0 
-1.09873167233862e-05 
1.167138857467173e-05 
-3.84556085318517e-05 
-5.4936583616931e-06 
-1.138200522872966e-21 
3.420359256427695e-07 
-5.151622436050335e-06 
1.588186776101813e-22 
2.334277714934346e-05 
7.203837989906949e-06 
1.784911878765037e-05 
-2.19746334467724e-05 
-5.493658361693101e-06 
-1.013401837622936e-05 
-5.4936583616931e-06 
1.75070828620076e-05 
0 
-4.235164736271502e-22 
-5.4936583616931e-06 
1.167138857467173e-05 
0 
2.334277714934346e-05 
-1.64809750850793e-05 
4.119189593699379e-05 
-1.058791184067875e-22 
0 
-1.613893915943653e-05 
-1.058791184067875e-22 
-5.4936583616931e-06 
3.705769144237564e-22 
8.204175594834489e-05 
6.419263716069461e-05 
0 
0 
2.917847143667933e-05 
-4.39492668935448e-05 
-4.499862532288471e-22 
0 
1.167138857467173e-05 
0 
0 
4.984855668455872e-05 
5.835694287335866e-06 
0 
-5.293955920339377e-23 
0 
-5.4936583616931e-06 
0 
0 
5.835694287335864e-06 
0 
2.970534393553159e-05 
0 
-5.4936583616931e-06 
0 
0 
0 
5.835694287335864e-06 
0 
5.835694287335864e-06 
3.420359256427695e-07 
-5.151622436050334e-06 
1.784911878765036e-05 
0.0001074606744369527 
6.86180206426418e-06 
0 
-5.4936583616931e-06 
1.058791184067875e-22 
-1.648097508507931e-05 
5.835694287335864e-06 
0 
-5.4936583616931e-06 
0 
0 
-3.176373552203626e-22 
2.671469019184118e-06 
0 
0 
0 
-5.4936583616931e-06 
-1.648097508507931e-05 
0 
-5.4936583616931e-06 
-5.4936583616931e-06 
0 
1.588186776101813e-22 
-5.4936583616931e-06 
-1.648097508507931e-05 
0 
0 
0 
-1.09873167233862e-05 
0 
0 
3.501416572401521e-05 
-1.058791184067875e-22 
-1.058791184067875e-22 
0 
0 
-1.09873167233862e-05 
0 
0 
0 
0 
5.835694287335866e-06 
-4.235164736271502e-22 
0 
0 
-5.493658361693098e-05 
5.835694287335864e-06 
5.835694287335864e-06 
-1.09873167233862e-05 
0 
-5.4936583616931e-06 
-5.4936583616931e-06 
-5.493658361693101e-06 
3.420359256427695e-07 
5.835694287335866e-06 
3.420359256427695e-07 
0 
0 
0 
-2.746829180846549e-05 
0 
-5.4936583616931e-06 
0 
-1.648097508507931e-05 
3.420359256427697e-07 
-5.4936583616931e-06 
-5.4936583616931e-06 
4.08498600113511e-05 
-5.4936583616931e-06 
-5.493658361693101e-06 
3.42035925642769e-07 
1.302039485432154e-06 
-1.09873167233862e-05 
-5.4936583616931e-06 
0 
5.835694287335864e-06 
0 
0 
0 
0 
5.835694287335863e-06 
2.917847143667933e-05 
0 
-2.746829180846549e-05 
5.835694287335864e-06 
0 
-3.970466940254533e-23 
1.167138857467173e-05 
-1.09873167233862e-05 
0 
0 
-2.117582368135751e-22 
-1.058791184067875e-22 
0 
5.835694287335864e-06 
5.835694287335864e-06 
1.167138857467173e-05 
1.058791184067875e-22 
0 
0 
-1.09873167233862e-05 
-6.609741265674938e-05 
1.588186776101813e-22 
-5.293955920339377e-23 
0 
0 
-5.293955920339377e-23 
3.420359256427697e-07 
0 
5.835694287335866e-06 
-4.235164736271502e-22 
-1.648097508507931e-05 
0 
5.835694287335864e-06 
-3.970466940254533e-23 
-5.493658361693099e-06 
5.835694287335864e-06 
-5.4936583616931e-06 
5.835694287335864e-06 
0 
0.0007625552249006975 
0 
0 
-2.232165807963667e-05 
-1.648097508507931e-05 
0 
-3.296195017015862e-05 
0 
0 
0 
3.420359256427695e-07 
0 
-5.151622436050335e-06 
0 
-8.470329472543003e-22 
-5.293955920339377e-23 
-1.09873167233862e-05 
0 
-1.09873167233862e-05 
0 
0 
0 
-5.293955920339377e-23 
6.177730212978643e-06 
0 
1.167138857467173e-05 
-5.293955920339377e-23 
-5.4936583616931e-06 
-6.060375429505624e-05 
-5.4936583616931e-06 
-5.4936583616931e-06 
-1.09873167233862e-05 
5.835694287335864e-06 
0 
0 
-1.09873167233862e-05 
-5.4936583616931e-06 
-5.4936583616931e-06 
-5.4936583616931e-06 
0 
5.835694287335862e-06 
1.167138857467173e-05 
1.75070828620076e-05 
-5.293955920339377e-23 
-8.137876764846829e-05 
0 
0 
0 
1.75070828620076e-05 
5.835694287335864e-06 
0 
0 
5.835694287335864e-06 
-6.522274852082266e-06 
3.420359256427695e-07 
0 
2.334277714934346e-05 
-2.117582368135751e-22 
5.835694287335866e-06 
0 
5.835694287335864e-06 
1.167138857467173e-05 
1.167138857467173e-05 
0 
3.163002385871774e-06 
2.117582368135751e-22 
-2.117582368135751e-22 
0 
0 
2.952050736232212e-05 
1.750708286200761e-05 
-5.293955920339377e-23 
1.167138857467173e-05 
0 
-5.4936583616931e-06 
-5.4936583616931e-06 
0 
-8.161497835701981e-05 
-2.746829180846549e-05 
-1.09873167233862e-05 
0 
5.835694287335866e-06 
0 
0 
-5.4936583616931e-06 
4.668555429868691e-05 
0 
0 
-1.09873167233862e-05 
0 
0 
2.334277714934346e-05 
-1.648097508507931e-05 
0 
0 
-8.470329472543003e-22 
-2.19746334467724e-05 
0 
-1.09873167233862e-05 
-5.4936583616931e-06 
0 
-5.4936583616931e-06 
-3.296195017015862e-05 
0 
3.139841033313849e-05 
0 
0 
0 
-1.09873167233862e-05 
-1.648097508507931e-05 
-5.4936583616931e-06 
-2.746829180846549e-05 
-1.648097508507931e-05 
-1.735123164321365e-07 
5.835694287335864e-06 
0 
-5.293955920339377e-23 
-4.235164736271502e-22 
0 
-5.4936583616931e-06 
0 
0 
0 
1.201342450031451e-05 
0 
3.420359256427695e-07 
-5.4936583616931e-06 
-2.19746334467724e-05 
5.835694287335866e-06 
3.420359256427695e-07 
-5.4936583616931e-06 
-5.4936583616931e-06 
3.420359256427695e-07 
-2.19746334467724e-05 
-4.394926689354481e-05 
-1.648097508507931e-05 
-2.746829180846549e-05 
0 
-5.4936583616931e-06 
0 
0 
0 
0 
-5.4936583616931e-06 
5.835694287335864e-06 
-8.470329472543003e-22 
-5.293955920339377e-23 
0 
0 
0 
5.835694287335866e-05 
-2.117582368135751e-22 
-1.09873167233862e-05 
1.167138857467173e-05 
0 
0 
5.835694287335864e-06 
5.835694287335864e-06 
5.835694287335865e-06 
-5.293955920339377e-23 
-5.4936583616931e-06 
0 
2.334277714934346e-05 
3.420359256427697e-07 
5.835694287335864e-06 
0 
