solver_type L2R_L2LOSS_SVC_DUAL
nr_class 5
label 1 2 3 4 5
nr_feature 2612
bias -1
w
-3.093955269102317e-07 -3.899972132453012e-07 -4.997295209654099e-07 9.358223846253463e-07 -2.717940584728552e-07 
-8.495333399323644e-06 -1.143960413357153e-05 -1.276201060138273e-05 2.470157810989412e-05 -8.029365177638209e-06 
0 0 0 0 0 
9.926167350636332e-24 0 0 2.481541837659083e-24 -3.308722450212111e-24 
9.926167350636332e-24 0 0 2.481541837659083e-24 -3.308722450212111e-24 
-6.362574694554408e-07 5.079770561140135e-07 2.257416478578927e-07 -5.42478707265146e-07 -4.592761287366197e-07 
-2.095214596567936e-05 -5.705916214525778e-05 -4.804996146801011e-05 -5.53524322784232e-05 -3.275591045303442e-05 
-2.636382250923104e-05 -7.38258398895928e-05 -5.658433554814917e-05 -8.051064930490533e-05 -7.874692613206289e-05 
-3.462020651934409e-05 -3.22906727075662e-05 -3.73364131188703e-05 -4.481390075172366e-05 -3.022581999869894e-05 
-6.850167342852898e-05 -6.217589601456238e-05 -7.321666704549062e-05 -8.425753901873172e-05 -5.951990735867096e-05 
-3.074863841542246e-05 -5.705567878144125e-05 -7.257635174393544e-05 -7.746094606870781e-05 -5.616439251246258e-05 
-0.0001063176224343189 -8.187095845554938e-05 -8.153601075182639e-05 -0.0001319068064068864 -6.883040292897033e-05 
-1.042764828597088e-05 -1.344163633531513e-05 -6.573877112167822e-06 -1.327978354621574e-05 -5.286571355927537e-06 
-1.198998069392764e-06 -1.116999711527034e-06 2.292953370067661e-06 -1.103497781065367e-06 -8.928653908843513e-07 
-4.456130396474966e-06 -1.894363289374726e-05 -9.502188409739943e-06 -1.855667894046272e-05 -1.919543383361738e-05 
-2.820014285032273e-05 -5.528693244832335e-05 -4.045674895314608e-05 -5.320310351659973e-05 -3.606487091662208e-05 
-3.784175672523843e-05 -2.165650055608179e-05 -1.280251170027998e-05 -2.80289947286727e-05 -1.989655103274436e-05 
0 0 0 0 0 
-1.974754052324358e-05 -4.638511615408982e-05 -2.270859001847436e-05 -2.594994210710021e-05 -0.0001066301915704351 
-4.713794903581428e-05 -2.608929192433048e-05 -4.771310334291748e-05 -5.503525404195837e-05 -1.599319010455906e-05 
-2.094738649687402e-05 -1.915912666334227e-05 -1.925666486736943e-05 -1.787158752736583e-05 3.249272709770168e-05 
-4.114212215741647e-05 -6.327385338189202e-05 -4.008488953684535e-05 -0.0001228146984004697 -0.0002524500265090847 
-0.0001237191148507128 -6.762610894149335e-05 -0.0001130231101260735 -0.0001285253060941786 2.501261898869638e-05 
-8.755188368356755e-05 -6.077767635489034e-05 -4.092065782644848e-05 -5.003870390792456e-05 -4.943887471015187e-05 
-2.812992424971571e-05 -2.497653652494264e-05 -2.560027245066781e-05 -2.339753977112151e-05 4.262518691929746e-05 
-1.453195071880602e-06 -1.347519415167938e-06 2.06240190360025e-06 -1.31334802218735e-06 -5.044565066707035e-07 
-5.711353357052267e-07 -1.56355069656395e-08 2.329134881989339e-07 -9.723578139062872e-08 -4.318442577198054e-07 
6.617444900424221e-24 0 0 -1.075334796318936e-23 2.067951531382569e-24 
0 0 0 0 0 
-2.940475653084915e-05 -6.907926803697845e-06 -2.600310533107461e-05 1.547194664615257e-05 -4.575357950387498e-05 
-3.657471373239319e-05 -3.278310088625874e-05 -3.276460298612629e-05 -3.082766449263682e-05 5.541261996769313e-05 
-2.997495173481911e-07 -2.792499278817585e-07 5.732383425169154e-07 -2.758744452663419e-07 -2.232163477210878e-07 
0 0 0 0 0 
-1.96382308098883e-06 -2.224178735737872e-06 -1.453761892678072e-06 -3.02893388564405e-06 1.866526850156944e-06 
3.248627749432198e-05 -4.335529783484297e-05 -2.146069915411078e-05 -2.673167196298389e-05 -5.246838753480316e-05 
-0.0001010678886729353 -7.431750613814195e-05 -0.0001066750192418923 -0.0001040738987174714 -0.0003282819625646417 
-0.0001559919558455103 -0.0001435380402255593 -0.0001312840223351012 -0.0001404275949202344 2.788192399167075e-05 
-4.403075357521546e-05 -2.916326725019382e-05 -5.141392349515183e-05 -4.569521211781831e-05 5.981061204169144e-05 
-9.509903542619886e-06 -1.908235266898869e-05 -9.937196991953421e-06 1.980862264738506e-05 -1.621022805128692e-05 
-4.878680562713973e-06 4.025675445904603e-05 -4.213484274130422e-05 -3.437959938461456e-05 -2.384613184744572e-05 
2.837412192494366e-05 -1.122466784100564e-05 -7.734314318685179e-05 -7.715096813298654e-05 -0.000126838080615252 
-7.41524619082765e-05 -8.453868714154916e-05 2.50722184038457e-05 -4.031457135038169e-05 -6.686974636525398e-05 
-8.69605907000086e-05 -8.327293795830359e-05 -1.176846235506262e-05 -3.734659090334292e-05 5.021466713204405e-05 
-1.6692968276257e-05 -1.522733537145561e-05 -1.53346267178857e-05 -1.354756359689737e-05 2.540807021286935e-05 
-2.062636846068213e-07 -2.599981421635341e-07 -3.3315301397694e-07 6.238815897502302e-07 -1.811960389819035e-07 
-4.880365614062863e-23 6.534726839168919e-23 -2.245371898702396e-08 8.033163486108893e-08 6.617444900424221e-24 
0 0 0 0 0 
-3.093955269102318e-07 -3.899972132453012e-07 -4.997295209654099e-07 9.35822384625346e-07 -2.717940584728552e-07 
-3.093955269102318e-07 -3.899972132453011e-07 -4.997295209654097e-07 9.358223846253459e-07 -2.717940584728552e-07 
-1.031318423034106e-07 -1.29999071081767e-07 -1.6657650698847e-07 3.119407948751151e-07 -9.059801949095174e-08 
0 0 -8.271806125530277e-25 0 0 
-4.447824448038631e-07 -5.504798441963103e-07 -7.213028189864904e-07 1.40670656685864e-06 -3.699581905459953e-07 
-3.080893628618439e-06 -3.926924719315669e-06 -5.070969595117351e-06 9.435730508383319e-06 -2.655795347367677e-06 
0 0 0 0 0 
-5.156592115170531e-07 -6.499953554088357e-07 -8.328825349423499e-07 1.559703974375576e-06 -4.529900974547587e-07 
-1.031318423034106e-07 -1.299990710817671e-07 -1.776534563460753e-07 3.119407948751148e-07 -9.059801949095175e-08 
-1.031318423034106e-07 -1.29999071081767e-07 -1.776534563460752e-07 3.762626895359542e-07 -9.059801949095176e-08 
-1.235601040001085e-23 -7.610061635487855e-23 -1.654361225106055e-24 -3.308722450212111e-24 -1.654361225106055e-24 
0 0 0 0 0 
-6.617444900424221e-24 -3.308722450212111e-24 0 -1.654361225106055e-24 0 
-3.093955269102317e-07 -3.899972132453012e-07 -5.111062905948285e-07 1.016154019486434e-06 -2.717940584728553e-07 
-3.365079521072493e-07 7.872269839957717e-07 -3.474966946590223e-07 -2.666042619988043e-07 -2.360597810155318e-07 
-2.997495173481911e-07 -2.792499278817586e-07 5.732383425169153e-07 -2.758744452663419e-07 -2.232163477210878e-07 
-1.031318423034106e-06 -1.299990710817671e-06 -1.6657650698847e-06 3.119407948751154e-06 -9.059801949095172e-07 
-8.805308626154584e-07 -4.056327202109408e-07 -2.778929821240812e-07 9.029084978955555e-07 -7.036383161926613e-07 
-2.365703410320502e-06 -2.577473053295713e-06 3.945380528042746e-07 2.551116244579919e-06 -1.897009717867009e-06 
-2.210986820427983e-06 -2.569453041728505e-06 -1.473241451216045e-06 4.509571701971239e-06 -1.82053521297083e-06 
-2.062636846068213e-07 -2.59998142163534e-07 -3.3315301397694e-07 6.238815897502301e-07 -1.811960389819035e-07 
3.308620562008766e-07 1.937183370347189e-06 -2.103232753680459e-06 -1.558918255875868e-06 -1.517008770646099e-06 
-4.489376273072526e-06 -4.217586940032359e-06 7.298325778433713e-06 -3.326807547045957e-06 -2.843620843737683e-06 
-2.541970024878371e-07 -2.305197036409044e-07 -2.305514664674117e-07 -2.098502411219832e-07 3.884088842136481e-07 
-2.997495173481911e-07 -2.792499278817586e-07 5.732383425169153e-07 -2.758744452663419e-07 -2.232163477210877e-07 
-4.680034934018159e-07 1.143635641161276e-07 3.994899951874039e-07 -4.091765762657442e-07 -3.412462382288536e-07 
5.028799628587501e-07 -2.727036912126702e-07 -2.956647741246277e-07 -2.086011129600174e-07 -2.302665123639131e-07 
-2.770338236367632e-06 -3.869496305268817e-06 -1.778288026667051e-07 -1.935110949958116e-06 -4.792922160976197e-07 
-2.88427732513722e-05 -2.510635456383213e-05 -2.623827274804462e-05 -2.391359529256762e-05 4.348195643495339e-05 
-5.608019926663787e-05 -8.017090409830188e-05 -0.0002125160390240936 -0.0001766230054488962 0.0001159809789551078 
-0.0001037365119082703 -0.0001080710699530101 8.644919055584164e-05 3.130287268626705e-05 -8.237223812135983e-05 
-8.281258623334406e-05 -6.439794420472055e-05 -7.440870213602074e-05 -6.96072992919094e-05 0.0001187273950448385 
-4.317319295633569e-05 -7.292898068219109e-06 -3.608320054821217e-05 -1.001880828497766e-05 1.975329405737308e-05 
-1.160745547563747e-05 -1.295486106439535e-05 -3.097297674042151e-06 1.479740682466737e-05 -7.28618926204635e-06 
-1.443845792247749e-06 -1.819986995144739e-06 -2.332071097838582e-06 4.367171128251618e-06 -1.268372272873325e-06 
7.503583184930824e-06 1.039342534676092e-06 -8.604512985081157e-06 -6.337009218708484e-06 -6.46905690297923e-06 
-2.097323385064913e-06 -2.349146454836458e-06 3.397771932229939e-08 6.170902091505561e-07 -3.498795399849799e-06 
-3.404186091386582e-06 -3.437656650924493e-06 5.746410931424683e-06 -2.595170864475595e-06 -3.224491454871788e-06 
-5.204623766062044e-06 -2.33610128957344e-06 -4.890330877054701e-06 -3.513857098466847e-06 4.641539257498588e-06 
-9.794057351427065e-06 -9.121539875009731e-06 -7.624666762488134e-06 -6.328502056313969e-06 1.252907639783576e-05 
-2.135771021226479e-05 -1.883698235867891e-05 -1.770194044615604e-05 -1.768292055241272e-05 3.089665703535556e-05 
-5.095741794919247e-06 -4.747248773989892e-06 9.842743580116727e-06 -4.800375411770427e-06 -3.794677911258497e-06 
1.295655583285258e-05 -9.596056066831969e-06 -7.442392600402907e-06 -8.124384024231254e-06 -6.753663999668562e-06 
-2.537257367893623e-06 1.987446618312173e-05 -1.487317455355987e-05 -1.11962729417284e-05 -1.050123150088808e-05 
-3.085155610592804e-05 -1.712799223647852e-05 1.223463650088184e-05 -2.502072244127659e-05 1.812285823769747e-06 
-2.909028298898913e-05 -2.495754661882861e-05 -7.429767607961341e-06 -1.835684925812507e-05 2.264135575211518e-05 
-1.086472707267878e-06 2.701700415334575e-06 -1.928003667018018e-06 -1.520694992967613e-06 -7.932330058090298e-07 
-8.515132355077087e-06 -1.436795745781308e-06 1.383465023106527e-06 -3.59547124345929e-06 -3.006369166300269e-06 
-9.183739084414655e-06 -8.806708183732653e-06 1.068941996834677e-05 -1.757132198865293e-06 -7.677499337243784e-06 
-4.219669828554125e-06 -2.194919673930874e-06 4.67665000139977e-07 -2.718706154655247e-07 -2.130820194815568e-06 
-2.000450714870217e-06 -1.49799224459005e-06 -1.391678818698578e-06 2.459851511233976e-07 7.712628040465949e-07 
-2.460590670626971e-06 -2.219083246371957e-06 2.743051162464712e-06 -2.298132037545614e-06 -2.483738652279031e-06 
5.997453269696354e-07 -1.76660814264683e-06 -2.40247158305462e-07 -2.417298447873902e-07 -1.40902629100677e-06 
-2.705874746735076e-06 -4.963396592938148e-06 2.348387071566616e-06 -1.331373223498254e-06 -2.176272262959434e-06 
-8.21211138958239e-06 -7.681662272618481e-06 1.52115798510336e-05 -7.492690116117116e-06 -5.669522160078816e-06 
-2.033576019902696e-06 -1.844157629127236e-06 -1.874910975391425e-06 -1.736586846078602e-06 3.113647017137518e-06 
1.046434422396506e-06 -6.041479626981705e-06 -6.214207929062935e-06 -5.083108217842007e-06 3.656881292486927e-06 
-7.035358267744353e-06 -1.25514271685549e-05 1.580837371700341e-05 -9.254093336697109e-06 -1.076595183888594e-05 
-3.141184003378266e-05 -3.525263533558879e-05 2.799132585634114e-05 7.530860089746288e-06 -2.720946497745532e-05 
-1.256575726326051e-05 -1.192814511535406e-05 1.4626091530512e-05 -8.419945269221979e-06 -3.856575176555139e-06 
-5.62541830743396e-06 -9.473892071066761e-06 -9.643237748291903e-06 -8.502084710113001e-06 1.183705487593721e-05 
-2.099271220829019e-05 -2.879118279405239e-05 -2.21899241517316e-05 4.226713803568871e-05 -1.507490359703535e-05 
-3.935327763774647e-06 -4.136579056334585e-06 3.352103348512172e-06 1.145842952887643e-06 -3.193842085747916e-06 
1.728225597892525e-06 -3.660968622663187e-06 -4.50423761479864e-06 -3.624315251229353e-06 1.508493338764407e-06 
-1.227685668062656e-05 -1.840435271494772e-05 7.473038023490793e-06 -2.866476161249212e-06 -6.925474374410098e-06 
-6.182011750707206e-06 -1.189537064552001e-05 1.029823370333461e-05 -3.455318260134009e-06 -9.801542558360366e-06 
-7.236820048835108e-06 -1.987653209503037e-05 1.890369413600238e-06 -1.74195669903538e-05 -1.21536196846689e-05 
-8.579464100208226e-07 -9.361933275006944e-06 -4.747907327957588e-06 -8.410616514396964e-06 3.634588683551313e-06 
-2.240875875103706e-05 -2.310755254326692e-05 1.121379949913341e-05 7.276721170797804e-06 -1.180669849219714e-05 
-1.512762098665041e-05 -1.895873383748469e-05 -1.927103173048845e-05 -1.582779534349124e-05 2.629888948638379e-05 
-1.887097615491051e-05 -1.856098932605686e-05 6.498923991146887e-07 -2.924399953155413e-06 4.208668754859644e-06 
-8.680492228543942e-08 5.194372645306503e-07 -1.159556649450223e-07 -1.384536285755423e-07 -6.925977696544277e-08 
-1.498939860964101e-05 -1.719053149923482e-05 1.382359084785135e-05 -1.072321061606228e-05 -4.637112716336577e-06 
-8.889050399113699e-06 -1.048345517503324e-05 1.049375461987135e-05 -6.058369775378023e-07 -8.183119315151244e-06 
-9.031709724322015e-06 -8.805356339868882e-06 1.070152277322503e-07 -2.761873065546099e-06 3.384888059075433e-06 
-3.355627589319162e-06 -3.779229470067091e-06 -2.950146962151476e-06 -3.422378933934125e-06 4.984241518906069e-06 
-1.419669369602951e-06 -1.331327813527144e-06 -5.155440303412021e-07 -8.033346148791595e-07 1.239821169642553e-06 
-3.567835495470768e-06 -3.631717748562177e-06 3.706407580518617e-06 2.073800801063365e-07 -2.747957676482442e-06 
-2.54197002487837e-07 -2.305197036409044e-07 -2.305514664674117e-07 -2.098502411219832e-07 3.884088842136481e-07 
-2.287773022390533e-06 -2.07467733276814e-06 -2.074963198206706e-06 -1.888652170097849e-06 3.495679957922832e-06 
-2.523809640804367e-06 5.960218254173347e-06 -2.618025857732558e-06 -2.035358555881432e-06 -1.777584611213126e-06 
-1.027468463922175e-05 -1.215385626276654e-05 -8.270285569098674e-06 2.219773715758439e-05 -8.617506972401691e-06 
0 1.654361225106055e-24 -2.481541837659083e-24 0 -4.549493369041652e-24 
5.103714570787864e-06 -3.570389913476873e-06 -4.413380036227271e-06 -3.266066209885561e-06 -1.716001386233775e-06 
-2.059206082435146e-05 -2.236024226146087e-05 3.188454816375624e-05 -1.012841405972623e-05 -1.766953220845906e-05 
-1.682930222754234e-05 -1.669990550783262e-05 1.252011752325724e-05 6.21058307029324e-06 -1.322390985180966e-05 
-8.088223860375088e-06 -1.090521310477834e-05 -7.913286728300666e-06 -9.268789760856588e-06 1.193696659857041e-05 
-1.773426104059246e-05 -2.906450476262267e-05 -1.290452358246118e-05 3.017947385901379e-05 -1.641719540857836e-05 
-1.609876122323224e-05 -1.675115947384247e-05 1.967559684640445e-05 -2.927004272413001e-06 -1.239644973777105e-05 
-1.014214697243261e-05 -1.040101161115663e-05 4.540631258723995e-06 -6.057254272553088e-06 1.557647631173903e-06 
2.683693571027163e-06 -7.208091090146095e-06 -5.095747728697408e-06 -4.39017703599863e-06 -1.414169397214588e-07 
-2.451246835880646e-05 -2.395135564571905e-05 3.14951012440648e-05 -8.939302026428085e-06 -1.588324794332453e-05 
-9.33390338532609e-08 -4.497395093522814e-07 -1.630480642310513e-06 -1.31335721128479e-06 4.686338468975857e-07 
-3.379072728969781e-05 -3.084834360663183e-05 -2.390300920700899e-05 -2.750281203997544e-05 4.564571607475535e-05 
6.617444900424221e-24 0 0 0 0 
-3.558758034829718e-06 -3.227275850972662e-06 -3.227720530543764e-06 -2.937903375707764e-06 5.437724378991072e-06 
1.663720107515005e-07 5.145232927831017e-07 -6.431614687836506e-07 -4.752053749588216e-07 -4.663262933794445e-07 
-2.99749517348191e-07 -2.792499278817584e-07 5.732383425169153e-07 -2.75874445266342e-07 -2.232163477210878e-07 
-4.3192137779957e-07 -3.76069959646824e-07 9.831701486750847e-07 -4.303455524781015e-07 -3.722375163163755e-07 
-2.54197002487837e-07 -2.305197036409046e-07 -2.305514664674117e-07 -2.098502411219832e-07 3.884088842136481e-07 
-5.083940049756739e-07 -4.610394072818089e-07 -4.611029329348235e-07 -4.197004822439664e-07 7.768177684272961e-07 
-4.028813596516017e-07 -4.092489989635257e-07 4.066618355284452e-07 3.606634960877355e-08 -3.138143672120397e-07 
0 0 0 0 0 
-2.541970024878369e-07 -2.305197036409044e-07 -2.305514664674117e-07 -2.098502411219832e-07 3.884088842136481e-07 
0 0 0 0 0 
6.617444900424221e-24 0 0 1.654361225106055e-24 -6.617444900424221e-24 
-5.539465198360286e-07 -5.097696315226634e-07 3.426868760495034e-07 -4.857246863883248e-07 1.651925364925601e-07 
0 0 -2.481541837659083e-24 0 0 
-5.083940049756739e-07 -4.610394072818089e-07 -4.611029329348234e-07 -4.197004822439664e-07 7.768177684272961e-07 
4.632211430296955e-23 -1.323488980084844e-23 3.722312756488625e-24 2.481541837659083e-24 -1.323488980084844e-23 
-2.997495173481911e-07 -2.792499278817585e-07 5.732383425169153e-07 -2.75874445266342e-07 -2.232163477210878e-07 
-2.997495173481911e-07 -2.792499278817585e-07 5.732383425169152e-07 -2.75874445266342e-07 -2.232163477210878e-07 
-7.625910074635114e-07 -6.915591109227141e-07 -6.916543994022349e-07 -6.295507233659495e-07 1.165226652640945e-06 
-5.047619281608742e-07 1.180840475993658e-06 -5.212450419885331e-07 -3.999063929982065e-07 -3.540896715232975e-07 
-3.093955269102317e-07 -3.899972132453011e-07 -4.997295209654098e-07 9.358223846253462e-07 -2.717940584728552e-07 
9.926167350636332e-24 1.654361225106055e-24 -6.617444900424221e-24 8.271806125530277e-25 -3.308722450212111e-24 
0 0 0 0 0 
-1.340713949944338e-06 -1.689987924062972e-06 -2.187948309837133e-06 4.135561968237589e-06 -1.177774253382373e-06 
-4.680034934018159e-07 1.143635641161276e-07 3.994899951874039e-07 -4.091765762657442e-07 -3.412462382288536e-07 
-3.74517660660446e-07 1.336153498343519e-07 -5.069013613064508e-07 4.905794587508283e-07 -2.992259294896693e-07 
-8.057627193032031e-07 -8.184979979270514e-07 8.133236710568904e-07 7.213269921754717e-08 -6.276287344240793e-07 
-1.006881047993429e-08 1.964046596537359e-07 -2.833076421531308e-08 -5.515166483903548e-08 -3.109276602816119e-08 
-8.449019570829236e-07 3.261875767139632e-07 -8.085996275938462e-07 -6.863047442427706e-07 5.407579874117647e-07 
-4.604606870946584e-07 -4.905178458044393e-07 -5.637044804443522e-07 4.140313486282474e-07 2.072128452317445e-07 
-1.006881047993429e-08 1.964046596537359e-07 -2.833076421531308e-08 -5.515166483903548e-08 -3.109276602816119e-08 
0 0 8.271806125530277e-25 0 0 
-1.682539760536246e-07 3.936134919978859e-07 -1.737483473295111e-07 -1.333021309994022e-07 -1.180298905077659e-07 
-1.067502528098198e-06 -4.441362916473892e-07 1.545966680221234e-06 -9.609254667984279e-07 -7.8767893367103e-07 
-1.682539760536246e-07 3.936134919978859e-07 -1.737483473295111e-07 -1.333021309994022e-07 -1.180298905077659e-07 
-4.028813596516017e-07 -4.092489989635257e-07 4.066618355284452e-07 3.606634960877355e-08 -3.138143672120397e-07 
-7.393893117588509e-07 3.779779850322466e-07 5.916514086942287e-08 -2.305379123900308e-07 -5.498741482275712e-07 
-4.604606870946584e-07 -4.905178458044393e-07 -5.637044804443522e-07 4.140313486282472e-07 2.072128452317445e-07 
-9.001004815053184e-07 1.667100671095662e-07 -1.111008530164659e-06 6.523335654870754e-07 -1.194449552747392e-07 
0 0 -8.271806125530277e-25 0 0 
-2.062636846068213e-07 -2.599981421635341e-07 -3.331530139769401e-07 6.238815897502301e-07 -1.811960389819035e-07 
-2.997495173481911e-07 -2.792499278817586e-07 5.732383425169153e-07 -2.758744452663419e-07 -2.232163477210879e-07 
-1.031318423034107e-07 -1.299990710817671e-07 -1.6657650698847e-07 3.119407948751152e-07 -9.059801949095174e-08 
-9.281865807306956e-07 -1.169991639735904e-06 -1.499188562896231e-06 2.807467153876036e-06 -8.153821754185659e-07 
-1.682539760536246e-07 3.936134919978859e-07 -1.737483473295111e-07 -1.333021309994022e-07 -1.180298905077659e-07 
-2.997495173481911e-07 -2.792499278817586e-07 5.732383425169153e-07 -2.75874445266342e-07 -2.232163477210879e-07 
-2.062636846068213e-07 -2.599981421635341e-07 -3.3315301397694e-07 6.238815897502301e-07 -1.811960389819035e-07 
-7.393893117588509e-07 3.779779850322466e-07 5.916514086942287e-08 -2.305379123900308e-07 -5.498741482275712e-07 
-2.062636846068213e-07 -2.59998142163534e-07 -3.331530139769399e-07 6.238815897502301e-07 -1.811960389819035e-07 
-8.729880563083009e-07 -1.010514130131507e-06 -1.230010508398231e-06 1.661794528128709e-06 -1.551792327320626e-07 
-4.632211430296955e-23 5.601587420506036e-08 -1.180064778989113e-08 -3.582659089039612e-08 -7.136253596637589e-09 
-8.250547384272852e-07 -1.039992568654136e-06 -1.33261205590776e-06 2.49552635900092e-06 -7.247841559276139e-07 
-4.125273692136426e-07 -5.199962843270681e-07 -6.663060279538799e-07 1.24776317950046e-06 -3.623920779638069e-07 
3.308722450212111e-24 0 -1.654361225106055e-24 -1.654361225106055e-24 -3.308722450212111e-24 
0 0 0 0 0 
-7.870450298740885e-07 -3.863809344927165e-07 -1.173207389260331e-06 1.73834263825129e-06 -6.616180074534766e-07 
0 3.308722450212111e-24 -4.963083675318166e-24 3.805030817743927e-23 -6.617444900424221e-24 
1.033975765691285e-24 3.308722450212111e-24 0 3.308722450212111e-24 0 
0 0 0 0 0 
0 0 0 0 0 
-6.091450442584233e-07 -6.692471411270599e-07 7.350882155150494e-08 6.599479393590045e-07 -4.950104061939427e-07 
0 0 0 0 0 
-1.850793736589872e-06 4.329748411976747e-06 -1.911231820624622e-06 -1.466323440993424e-06 -1.298328795585425e-06 
-2.997495173481911e-07 -2.792499278817584e-07 5.732383425169154e-07 -2.75874445266342e-07 -2.232163477210878e-07 
-1.682539760536247e-07 3.936134919978863e-07 -1.737483473295112e-07 -1.333021309994021e-07 -1.180298905077659e-07 
-4.680034934018159e-07 1.143635641161276e-07 3.994899951874039e-07 -4.091765762657442e-07 -3.412462382288537e-07 
6.617444900424221e-24 1.654361225106055e-24 2.481541837659083e-23 1.654361225106055e-24 -6.617444900424221e-24 
2.067951531382569e-25 6.617444900424221e-24 0 3.308722450212111e-24 -1.323488980084844e-23 
-8.057627193032033e-07 -8.184979979270514e-07 8.133236710568904e-07 7.213269921754709e-08 -6.276287344240793e-07 
-7.133040401796587e-06 1.533529068095189e-05 -6.543272057651999e-06 -5.296018890367314e-06 -5.035009987522671e-06 
-1.407642557020249e-06 -1.298789190927086e-06 1.258612094615921e-06 -1.24732381804299e-06 1.071687252640324e-07 
-2.541970024878369e-07 -2.305197036409044e-07 -2.305514664674117e-07 -2.098502411219832e-07 3.884088842136481e-07 
-4.680034934018159e-07 1.143635641161277e-07 3.99489995187404e-07 -4.091765762657442e-07 -3.412462382288537e-07 
-5.997059441009451e-24 -3.308722450212111e-24 0 -3.308722450212111e-24 -6.617444900424221e-24 
1.323488980084844e-23 -7.279189390466644e-23 -2.9778502051909e-23 -6.617444900424221e-24 -9.926167350636332e-24 
6.203854594147708e-25 3.308722450212111e-24 3.308722450212111e-24 4.963083675318166e-24 1.323488980084844e-23 
1.056047922003375e-05 -5.726777515466075e-06 -6.208960256617179e-06 -4.380623372160365e-06 -4.835596759642172e-06 
-1.177777832375374e-06 2.691953591567646e-06 -1.033239034370909e-06 -1.047691495212479e-06 -9.239279559210669e-07 
-1.031318423034107e-07 -1.299990710817671e-07 -1.665765069884701e-07 3.119407948751149e-07 -9.059801949095174e-08 
-4.028813596516017e-07 -4.092489989635257e-07 4.066618355284452e-07 3.606634960877355e-08 -3.138143672120397e-07 
-2.554016072244173e-06 6.493416358929496e-06 -2.691217502588607e-06 -2.164986959508141e-06 -1.863726655700971e-06 
-2.541970024878369e-07 -2.305197036409044e-07 -2.305514664674117e-07 -2.098502411219832e-07 3.884088842136481e-07 
-8.992485520445736e-07 -8.377497836452747e-07 1.719715027550745e-06 -8.276233357990253e-07 -6.696490431632638e-07 
5.0287996285875e-07 -2.727036912126702e-07 -2.956647741246276e-07 -2.086011129600174e-07 -2.30266512363913e-07 
6.617444900424221e-24 0 0 0 0 
-3.101201345480286e-06 -2.711875857192105e-06 1.442217083684717e-06 1.642799941028816e-06 -2.453906191234762e-06 
4.135903062765138e-25 0 8.271806125530277e-25 0 3.308722450212111e-24 
-4.680034934018158e-07 1.143635641161276e-07 3.994899951874039e-07 -4.091765762657441e-07 -3.412462382288536e-07 
0 0 0 0 0 
-2.997495173481911e-07 -2.792499278817585e-07 5.732383425169154e-07 -2.75874445266342e-07 -2.232163477210878e-07 
0 0 0 -3.722312756488625e-24 1.654361225106055e-24 
3.346259868051253e-07 1.209098007852158e-07 -4.694131214541388e-07 -3.419032439594194e-07 -3.482964028716786e-07 
-1.682539760536247e-07 3.936134919978859e-07 -1.737483473295112e-07 -1.333021309994021e-07 -1.180298905077659e-07 
0 0 0 0 0 
-1.031318423034106e-07 -1.29999071081767e-07 -1.6657650698847e-07 3.11940794875115e-07 -9.059801949095174e-08 
3.346259868051253e-07 1.209098007852157e-07 -4.694131214541388e-07 -3.419032439594195e-07 -3.482964028716786e-07 
3.515517603350368e-24 8.271806125530277e-24 9.926167350636332e-24 4.135903062765138e-24 -9.926167350636332e-24 
8.379549199725309e-06 -4.492609910856833e-06 -4.825589350924157e-06 -3.395562391732383e-06 -3.781117557265182e-06 
2.067951531382569e-25 0 0 1.654361225106055e-24 1.654361225106055e-24 
6.824240053562478e-24 0 0 3.308722450212111e-24 0 
-4.028813596516017e-07 -4.092489989635257e-07 4.066618355284452e-07 3.606634960877355e-08 -3.138143672120397e-07 
-1.541805436412516e-05 3.708157274092164e-05 -1.600731809594094e-05 -1.245090406098001e-05 -1.088643785242173e-05 
-2.541970024878368e-07 -2.305197036409044e-07 -2.305514664674119e-07 -2.098502411219832e-07 3.884088842136481e-07 
-1.682539760536246e-07 3.936134919978859e-07 -1.737483473295111e-07 -1.333021309994022e-07 -1.180298905077659e-07 
6.203854594147708e-25 8.271806125530277e-24 0 0 0 
-5.711353357052265e-07 -1.563550696563947e-08 2.329134881989338e-07 -9.723578139062851e-08 -4.318442577198054e-07 
-6.529552040812281e-05 -6.810526833589657e-05 6.588217784170411e-05 7.082960037595109e-06 -5.242997045576455e-05 
-5.994990346963821e-07 -5.584998557635169e-07 1.146476685033831e-06 -5.517488905326838e-07 -4.464326954421756e-07 
-2.175542956862995e-05 -1.97729041047995e-05 -1.899016059138627e-05 -1.764913882174053e-05 3.231890785016273e-05 
9.926167350636332e-24 1.654361225106055e-24 0 8.271806125530277e-25 -3.308722450212111e-24 
-2.541970024878371e-07 -2.305197036409044e-07 -2.305514664674118e-07 -2.098502411219832e-07 3.884088842136481e-07 
2.969386874439706e-07 -1.391606019650524e-06 -7.052519609516036e-07 -1.297210709726408e-06 -4.948471949795369e-07 
2.067951531382569e-25 0 0 0 0 
-5.539465198360288e-07 -5.097696315226633e-07 3.426868760495034e-07 -4.857246863883247e-07 1.651925364925601e-07 
2.067951531382569e-25 0 0 0 0 
0 0 8.271806125530277e-25 0 0 
-1.873895938909389e-06 1.365591041245497e-06 7.810501646364542e-07 -2.245213811021199e-06 -1.949341136802623e-06 
-1.682539760536247e-07 3.936134919978859e-07 -1.737483473295111e-07 -1.333021309994021e-07 -1.180298905077659e-07 
-2.997495173481911e-07 -2.792499278817586e-07 5.732383425169153e-07 -2.758744452663419e-07 -2.232163477210879e-07 
-8.057627193032033e-07 -8.18497997927051e-07 8.133236710568902e-07 7.21326992175472e-08 -6.276287344240794e-07 
-6.570783621394389e-07 -6.397687026044307e-07 1.761103690610332e-07 -1.737838915132096e-07 7.459451700160847e-08 
-5.083940049756739e-07 -4.610394072818089e-07 -4.611029329348234e-07 -4.197004822439664e-07 7.768177684272961e-07 
-7.149112220653051e-06 -6.077224656806763e-06 1.271456728506255e-05 -6.677371117435284e-06 -4.789401824753344e-06 
-5.53946519836029e-07 -5.097696315226635e-07 3.426868760495035e-07 -4.857246863883247e-07 1.651925364925601e-07 
-2.353037027547894e-07 -2.268191028468325e-07 2.433552991696985e-07 1.574696876633555e-07 -2.396191880862396e-07 
5.0287996285875e-07 -2.727036912126702e-07 -2.956647741246277e-07 -2.086011129600174e-07 -2.30266512363913e-07 
-2.54197002487837e-07 -2.305197036409045e-07 -2.305514664674118e-07 -2.098502411219832e-07 3.884088842136482e-07 
-2.997495173481911e-07 -2.792499278817584e-07 5.732383425169152e-07 -2.75874445266342e-07 -2.232163477210879e-07 
-2.99749517348191e-07 -2.792499278817586e-07 5.732383425169153e-07 -2.758744452663419e-07 -2.232163477210878e-07 
3.515517603350368e-24 1.654361225106055e-24 3.308722450212111e-24 4.963083675318166e-24 -9.926167350636332e-24 
0 0 8.271806125530277e-25 0 0 
0 0 0 0 0 
2.067951531382569e-25 0 0 0 0 
-2.541970024878369e-07 -2.305197036409044e-07 -2.305514664674117e-07 -2.098502411219832e-07 3.884088842136482e-07 
0 0 0 0 0 
0 0 0 0 0 
0 0 0 0 0 
0 0 6.617444900424221e-24 0 -3.308722450212111e-24 
6.617444900424221e-24 4.963083675318166e-24 2.481541837659083e-24 0 1.323488980084844e-23 
5.028799628587501e-07 -2.727036912126702e-07 -2.956647741246277e-07 -2.086011129600175e-07 -2.30266512363913e-07 
-2.541970024878369e-07 -2.305197036409044e-07 -2.305514664674117e-07 -2.098502411219832e-07 3.884088842136481e-07 
0 0 8.271806125530277e-25 0 0 
0 0 0 0 0 
-3.365079521072492e-07 7.87226983995772e-07 -3.474966946590223e-07 -2.666042619988042e-07 -2.360597810155318e-07 
0 0 0 0 0 
-2.997495173481911e-07 -2.792499278817584e-07 5.732383425169156e-07 -2.75874445266342e-07 -2.232163477210878e-07 
0 0 0 0 0 
-2.997495173481911e-07 -2.792499278817586e-07 5.732383425169153e-07 -2.758744452663419e-07 -2.232163477210879e-07 
-2.541970024878369e-07 -2.305197036409044e-07 -2.305514664674117e-07 -2.098502411219832e-07 3.884088842136481e-07 
-1.105512236651394e-06 -1.09774792580881e-06 1.386562013573806e-06 -2.037417460487947e-07 -8.508450821451675e-07 
-1.067502528098198e-06 -4.441362916473892e-07 1.545966680221234e-06 -9.609254667984279e-07 -7.876789336710301e-07 
-3.05263559465115e-07 -1.012993026376239e-06 -1.835293645425358e-07 -9.041760404703255e-07 3.23334908342295e-07 
0 0 0 0 0 
-2.648730478912568e-07 -4.375900549783014e-07 6.770635635796919e-07 -8.936521344921035e-07 -7.947290983138549e-07 
-5.539465198360287e-07 -5.097696315226635e-07 3.426868760495035e-07 -4.857246863883247e-07 1.6519253649256e-07 
2.51439981429375e-06 -1.363518456063351e-06 -1.478323870623137e-06 -1.043005564800087e-06 -1.151332561819564e-06 
1.041057326626152e-05 -6.989615625182245e-06 -4.809556116233174e-06 -5.416847820919412e-06 -5.834770461424499e-06 
-2.997495173481911e-07 -2.792499278817585e-07 5.732383425169152e-07 -2.75874445266342e-07 -2.232163477210877e-07 
2.646977960169689e-23 -2.316105715148477e-23 0 -2.895132143935597e-24 4.135903062765138e-25 
-4.680034934018159e-07 1.143635641161276e-07 3.994899951874039e-07 -4.091765762657442e-07 -3.412462382288536e-07 
0 0 0 0 0 
-4.272722808884967e-06 8.643861316987852e-06 -3.58955015305031e-06 -3.029882663377476e-06 -3.028501848890653e-06 
-6.871723393919484e-06 1.526808091968952e-05 -6.231277967549331e-06 -5.529809219082064e-06 -4.857474843552116e-06 
-6.938367968984971e-07 4.267082092731005e-07 -7.44624668114904e-07 -1.645137082456723e-07 6.175108370716456e-08 
-2.541970024878369e-07 -2.305197036409044e-07 -2.305514664674117e-07 -2.098502411219832e-07 3.884088842136481e-07 
-5.539465198360289e-07 -5.097696315226635e-07 3.426868760495035e-07 -4.857246863883247e-07 1.651925364925601e-07 
0 0 1.985233470127266e-23 0 -9.926167350636332e-24 
-1.682539760536246e-07 3.936134919978859e-07 -1.737483473295111e-07 -1.333021309994021e-07 -1.180298905077659e-07 
0 0 3.308722450212111e-24 0 0 
-1.243144609182741e-05 -1.202223525568803e-05 1.903324713291813e-05 -6.087802246817301e-06 -9.436779119062619e-06 
-8.392986485749351e-06 -7.825948728716597e-06 1.618222229808774e-05 -7.836228134938555e-06 -6.250057736190459e-06 
-5.063190729558016e-06 -6.077640064414126e-06 -5.075161510252577e-06 1.207394344956834e-05 -4.239896532121984e-06 
-8.573098140175056e-07 -1.070476128523378e-06 -1.420839695013185e-06 2.847435430341617e-06 -7.323502685098025e-07 
-3.271158127543624e-06 -3.404146482108441e-06 -3.854406764958543e-06 2.128809504186359e-06 2.020094839817761e-06 
-1.181409909190174e-06 1.113414560709733e-06 -1.156096322252868e-06 -9.529090062415749e-07 3.046982063962324e-07 
-2.54197002487837e-07 -2.305197036409044e-07 -2.305514664674117e-07 -2.098502411219833e-07 3.884088842136481e-07 
6.493367808541267e-23 -2.481541837659083e-24 -7.858215819253763e-24 9.098986738083304e-24 1.323488980084844e-23 
-1.067502528098199e-06 -4.44136291647389e-07 1.545966680221234e-06 -9.609254667984279e-07 -7.876789336710301e-07 
0 0 -1.654361225106055e-24 0 0 
6.093913365316763e-07 -1.655860857283286e-06 8.327207051768626e-07 -1.453426674679077e-06 -1.360448580255002e-06 
6.604880070437989e-06 -4.36234954443645e-06 -2.887071308446554e-06 -3.379452527757114e-06 -3.633604075058195e-06 
-9.001004815053189e-07 1.667100671095663e-07 -1.077777682091843e-06 4.593678815045584e-07 -1.19444955274739e-07 
-1.031318423034107e-07 -1.299990710817671e-07 -1.6657650698847e-07 3.11940794875115e-07 -9.059801949095176e-08 
-3.365079521072493e-07 7.872269839957719e-07 -3.474966946590223e-07 -2.666042619988043e-07 -2.360597810155318e-07 
-9.926167350636332e-24 1.323488980084844e-23 1.48892510259545e-23 -1.323488980084844e-23 -1.985233470127266e-23 
-2.997495173481912e-07 -2.792499278817585e-07 5.732383425169152e-07 -2.75874445266342e-07 -2.232163477210878e-07 
0 0 0 8.271806125530277e-25 0 
-1.255048523275905e-06 -2.720173703765892e-07 -7.737173940729272e-07 1.329166061985547e-06 -1.002864245682331e-06 
-2.541970024878369e-07 -2.305197036409044e-07 -2.305514664674117e-07 -2.098502411219832e-07 3.884088842136481e-07 
1.934844359485179e-07 -6.627009044579719e-07 -7.953942950900378e-07 7.272212716653288e-07 -5.020605708367683e-07 
-2.997495173481911e-07 -2.792499278817586e-07 5.732383425169153e-07 -2.758744452663419e-07 -2.232163477210879e-07 
-1.302129911696176e-06 -1.246998782608801e-06 2.126376863079192e-06 -7.915569861902511e-07 -9.83463410375304e-07 
5.0287996285875e-07 -2.727036912126702e-07 -2.956647741246276e-07 -2.086011129600174e-07 -2.30266512363913e-07 
-7.219228961238745e-07 -9.099934975723692e-07 -1.17741231854871e-06 2.263917198986894e-06 -6.341861364366625e-07 
-2.481541837659083e-24 8.271806125530277e-25 4.963083675318166e-24 -4.135903062765138e-25 0 
-2.997495173481911e-07 -2.792499278817586e-07 5.732383425169154e-07 -2.75874445266342e-07 -2.232163477210878e-07 
2.067951531382569e-25 0 0 0 0 
1.19941188820189e-23 -2.481541837659083e-24 5.37667398159468e-24 3.556876633978019e-23 1.323488980084844e-23 
0 0 -8.271806125530277e-25 0 0 
-5.445950256028501e-07 -5.637131696211299e-07 -5.332637590827923e-07 -5.680485678541638e-07 1.12418228211937e-06 
-8.536960371842199e-07 -7.890195594044218e-07 9.159252185664182e-07 -7.615991316546671e-07 -5.802381122852775e-08 
0 1.654361225106055e-24 -2.481541837659083e-24 0 -4.549493369041652e-24 
-7.67753010750007e-07 -1.648863637656305e-07 9.727283377043189e-07 -6.850510215320861e-07 -5.644625859499419e-07 
0 0 0 0 0 
-4.396397944106598e-07 6.572279129140043e-07 -5.140732016474921e-07 4.533653287631092e-08 -3.266578005064836e-07 
6.617444900424221e-24 -1.158052857574239e-23 5.293955920339377e-23 8.271806125530277e-25 0 
-1.682539760536246e-07 3.936134919978859e-07 -1.737483473295111e-07 -1.333021309994021e-07 -1.180298905077659e-07 
-2.812414082680294e-23 -1.323488980084844e-23 8.876952785906165e-09 1.654361225106055e-24 -2.067951531382569e-23 
1.323488980084844e-23 -3.308722450212111e-24 -3.308722450212111e-23 9.926167350636332e-24 -1.985233470127266e-23 
0 0 -4.963083675318166e-24 -1.654361225106055e-24 0 
-7.773990203120481e-07 -2.756336491291738e-07 -1.002395257780063e-07 5.266458083596019e-07 -6.130402967017093e-07 
5.028799628587501e-07 -2.727036912126701e-07 -2.956647741246277e-07 -2.086011129600175e-07 -2.30266512363913e-07 
-4.028813596516016e-07 -4.092489989635256e-07 4.066618355284452e-07 3.606634960877346e-08 -3.138143672120397e-07 
0 0 0 0 0 
-3.093955269102317e-07 -3.899972132453011e-07 -4.997295209654098e-07 9.358223846253463e-07 -2.717940584728552e-07 
1.05465528100511e-23 0 -6.617444900424221e-24 9.926167350636332e-24 3.308722450212111e-24 
0 0 -2.481541837659083e-24 0 0 
-3.745176606604458e-07 1.336153498343518e-07 -5.069013613064508e-07 4.905794587508284e-07 -2.992259294896693e-07 
-1.031318423034106e-07 -1.299990710817672e-07 -1.6657650698847e-07 3.11940794875115e-07 -9.059801949095176e-08 
0.0004472733242695932 -0.00024164679482344 -0.0002603633596388187 -0.000183360375245753 -0.0002035365203740557 
-4.224509785414621e-07 9.975293593942769e-08 -2.213004168612544e-07 -4.577289503380491e-07 1.726602713391771e-07 
-3.308722450212111e-24 -3.308722450212111e-24 1.819797347616661e-23 -2.460862322345257e-23 3.308722450212111e-24 
-8.536960371842195e-07 -7.89019559404422e-07 9.159252185664184e-07 -7.61599131654667e-07 -5.802381122852775e-08 
1.033975765691285e-23 0 0 -3.308722450212111e-24 -6.617444900424221e-24 
-2.062636846068213e-07 -2.59998142163534e-07 -3.3315301397694e-07 6.238815897502301e-07 -1.811960389819035e-07 
-2.192220147864637e-05 4.947914385220886e-05 -2.172335323479841e-05 -1.74150953233124e-05 -1.48246035579937e-05 
-2.812414082680294e-23 -1.323488980084844e-23 8.876952785906218e-09 4.963083675318166e-24 -2.067951531382569e-23 
-1.031318423034106e-07 -1.29999071081767e-07 -1.6657650698847e-07 3.11940794875115e-07 -9.059801949095174e-08 
1.0057599257175e-06 -5.454073824253403e-07 -5.913295482492553e-07 -4.172022259200348e-07 -4.605330247278259e-07 
-7.625910074635115e-07 -6.915591109227142e-07 -6.91654399402235e-07 -6.295507233659495e-07 1.165226652640945e-06 
-2.997495173481911e-07 -2.792499278817586e-07 5.732383425169153e-07 -2.758744452663419e-07 -2.232163477210879e-07 
-3.365079521072492e-07 7.872269839957717e-07 -3.474966946590223e-07 -2.666042619988043e-07 -2.360597810155318e-07 
6.034559554305001e-06 -3.272444294552042e-06 -3.547977289495531e-06 -2.503213355520208e-06 -2.763198148366956e-06 
-1.34887282806686e-05 -1.256624675467913e-05 2.579572541326119e-05 -1.241435003698538e-05 -1.004473564744896e-05 
-1.682539760536246e-07 3.936134919978859e-07 -1.737483473295111e-07 -1.333021309994021e-07 -1.180298905077659e-07 
1.50863988857625e-06 -8.181110736380109e-07 -8.869943223738823e-07 -6.258033388800519e-07 -6.907995370917389e-07 
4.555156391264851e-06 -2.470758621152583e-06 -2.670210899424857e-06 -1.877410016640157e-06 -2.075778408717822e-06 
-1.682539760536246e-07 3.936134919978859e-07 -1.73748347329511e-07 -1.333021309994021e-07 -1.180298905077659e-07 
-0.000187649147431038 -0.000175343185589084 -0.0001768870446665118 -0.0001627919968780452 0.000292887358026462 
1.442779917560951e-06 -4.950784687610962e-07 -9.746192231035912e-07 -7.091053026165593e-07 -7.289665480290205e-07 
3.308722450212111e-24 0 0 8.271806125530277e-25 -3.308722450212111e-24 
1.393147552063758e-05 -7.099434214723201e-06 -8.543836137910079e-06 -6.725213114105049e-06 -7.308043748368038e-06 
2.1778918621865e-06 -5.762914720675792e-07 -1.816943612496254e-06 -1.309609826798891e-06 -1.387392342835097e-06 
0 0 -6.617444900424221e-24 0 0 
-5.047619281608742e-07 1.180840475993659e-06 -5.212450419885332e-07 -3.999063929982065e-07 -3.540896715232974e-07 
-1.244798463255806e-08 5.198560056446599e-06 -4.526998740154935e-06 -3.367086376162029e-06 -3.254694059894159e-06 
1.016636066507707e-06 -5.454073824253405e-07 -5.913295482492553e-07 -4.172022259200347e-07 -4.605330247278256e-07 
1.076392593898963e-05 -4.57080349037985e-06 -7.303799317293173e-06 -5.1803775934901e-06 -5.638215990922326e-06 
-4.680034934018159e-07 1.143635641161277e-07 3.994899951874038e-07 -4.091765762657441e-07 -3.412462382288537e-07 
5.734810036956813e-06 -3.551694222433801e-06 -2.974738946978618e-06 -2.779087800786552e-06 -2.986414496088044e-06 
-1.682539760536247e-07 3.93613491997886e-07 -1.737483473295112e-07 -1.333021309994022e-07 -1.180298905077659e-07 
4.525919665728747e-06 -2.454333220914033e-06 -2.660982967121645e-06 -1.877410016640157e-06 -2.072398611275217e-06 
-5.04761928160874e-07 1.180840475993658e-06 -5.212450419885332e-07 -3.999063929982065e-07 -3.540896715232974e-07 
-2.378211535114939e-06 -6.726061701565231e-06 8.727300917492365e-06 -6.331923270770923e-06 -5.497212055529761e-06 
1.541986867974784e-05 -8.310461587834214e-06 -8.964896188668922e-06 -6.315977973172626e-06 -7.00484873035996e-06 
-2.791128874470885e-06 -3.911676052006015e-07 -2.972104275575577e-06 4.12899925259958e-06 -2.262934112115145e-06 
1.764091156638257e-05 -9.561054592682006e-06 -1.035749502666517e-05 -7.301038953600608e-06 -8.062707730179556e-06 
-1.453195071880602e-06 -1.347519415167938e-06 2.062401903600251e-06 -1.31334802218735e-06 -5.044565066707034e-07 
-7.16306858451979e-06 -6.503281926186175e-06 -5.651651252103204e-06 -5.941830955559884e-06 1.026382352604741e-05 
-1.159110909617139e-07 -1.052698117703274e-06 -1.295123816055447e-06 1.663043656290675e-06 -7.738546293096237e-07 
-8.27214303495188e-07 6.619815741744431e-07 -8.145477943816385e-07 -9.155935284708355e-07 -6.277915573933683e-07 
0 1.654361225106055e-24 2.150669592637872e-23 8.271806125530277e-25 0 
-9.272129067023362e-07 1.343934264350639e-06 -9.255448557854566e-07 -7.430587651195913e-07 -8.371067781741543e-08 
6.617444900424221e-24 1.654361225106055e-24 9.926167350636332e-24 1.654361225106055e-24 1.654361225106055e-23 
-5.047619281608743e-07 1.180840475993659e-06 -5.212450419885331e-07 -3.999063929982066e-07 -3.540896715232974e-07 
2.678459439405624e-06 -1.349516467758898e-06 -1.372565026358739e-06 -9.502936205842761e-07 -1.114772768340804e-06 
-2.997495173481911e-07 -2.792499278817585e-07 5.732383425169157e-07 -2.758744452663419e-07 -2.232163477210879e-07 
-2.997495173481911e-07 -2.792499278817586e-07 5.732383425169153e-07 -2.75874445266342e-07 -2.232163477210878e-07 
-1.682539760536246e-07 3.936134919978859e-07 -1.737483473295112e-07 -1.333021309994021e-07 -1.180298905077659e-07 
8.375059496638747e-07 -1.517938904274543e-07 -7.650778955787656e-07 -5.50504356919437e-07 -5.78562915235592e-07 
-2.997495173481911e-07 -2.792499278817586e-07 5.732383425169153e-07 -2.75874445266342e-07 -2.232163477210878e-07 
-6.730159042144982e-07 1.574453967991544e-06 -6.949933893180446e-07 -5.332085239976085e-07 -4.721195620310635e-07 
0 0 -8.271806125530277e-25 0 0 
-5.514042116924272e-09 -7.337430984944791e-07 -7.567677070594515e-07 -6.283015952039837e-07 5.46551256063383e-07 
0 0 8.271806125530277e-25 0 0 
-5.083940049756738e-07 -4.610394072818088e-07 -4.611029329348235e-07 -4.197004822439664e-07 7.768177684272961e-07 
-2.997495173481911e-07 -2.792499278817586e-07 5.732383425169153e-07 -2.758744452663419e-07 -2.232163477210879e-07 
-2.646977960169689e-23 3.308722450212111e-24 7.940933880509066e-23 1.654361225106055e-24 -6.617444900424221e-24 
9.026280834140896e-07 -6.754064535071081e-07 -7.579060552377246e-07 -1.052614310449196e-07 -5.511310442187778e-07 
-1.526434341632941e-06 -8.402949460470011e-09 -1.11404224839091e-06 1.507804725861259e-06 -1.211492155681048e-06 
-5.994990346963821e-07 -5.584998557635171e-07 1.146476685033831e-06 -5.517488905326839e-07 -4.464326954421756e-07 
-3.573288447912473e-07 -3.605187747226714e-07 -3.882510206699758e-07 1.020905537531321e-07 2.978108647226963e-07 
-8.154087288652442e-07 -9.292452832905939e-07 -2.596441924254348e-07 1.283829529109236e-06 -6.762064451758465e-07 
1.0057599257175e-06 -5.454073824253402e-07 -5.913295482492553e-07 -4.172022259200348e-07 -4.605330247278259e-07 
-2.541970024878369e-07 -2.305197036409046e-07 -2.305514664674117e-07 -2.098502411219832e-07 3.88408884213648e-07 
-6.617444900424221e-24 0 0 0 0 
-4.680034934018158e-07 1.143635641161277e-07 3.99489995187404e-07 -4.091765762657442e-07 -3.412462382288536e-07 
0 0 0 0 0 
-6.961181065340144e-07 -1.389703402739704e-06 1.997288595943036e-06 -1.312098894025384e-06 -1.123131903248265e-06 
5.0287996285875e-07 -2.727036912126702e-07 -2.956647741246277e-07 -2.086011129600174e-07 -2.30266512363913e-07 
-1.031318423034106e-07 -1.29999071081767e-07 -1.665765069884699e-07 3.119407948751151e-07 -9.059801949095174e-08 
0 0 0 0 0 
-1.031318423034107e-07 -1.299990710817671e-07 -1.6657650698847e-07 3.11940794875115e-07 -9.059801949095174e-08 
0 0 0 0 0 
-3.093955269102317e-07 -3.899972132453011e-07 -4.997295209654099e-07 9.358223846253462e-07 -2.717940584728552e-07 
-1.682539760536246e-07 3.936134919978859e-07 -1.737483473295111e-07 -1.333021309994021e-07 -1.180298905077659e-07 
-1.682539760536246e-07 3.936134919978859e-07 -1.737483473295111e-07 -1.333021309994022e-07 -1.180298905077659e-07 
-2.062636846068213e-07 -2.59998142163534e-07 -3.3315301397694e-07 6.238815897502301e-07 -1.811960389819035e-07 
-5.994990346963819e-07 -5.584998557635171e-07 1.146476685033831e-06 -5.517488905326839e-07 -4.464326954421756e-07 
-2.434754573544588e-06 -1.167522511176538e-06 3.665171702959386e-06 -2.197725378863199e-06 -1.798574215063147e-06 
0 0 0 -2.067951531382569e-24 1.654361225106055e-24 
-1.031318423034106e-07 -1.29999071081767e-07 -1.6657650698847e-07 3.11940794875115e-07 -9.059801949095176e-08 
0 0 0 0 0 
0.0001047563104738128 -5.67642503678122e-05 -6.134066318637651e-05 -4.32383749670957e-05 -4.786803915991291e-05 
-2.702663579919826e-05 -2.455919355022335e-05 -2.370367744559677e-05 -2.245391378798127e-05 4.077593767875227e-05 
3.220410222663056e-06 -2.188175766370452e-06 -1.496415076355477e-06 -1.736082235986463e-06 -1.835081934268477e-06 
-1.031318423034106e-07 -1.29999071081767e-07 -1.6657650698847e-07 3.119407948751151e-07 -9.059801949095174e-08 
-1.031318423034106e-07 -1.29999071081767e-07 -1.665765069884699e-07 3.11940794875115e-07 -9.059801949095174e-08 
-2.54197002487837e-07 -2.305197036409044e-07 -2.305514664674117e-07 -2.098502411219832e-07 3.884088842136481e-07 
-2.541970024878369e-07 -2.305197036409044e-07 -2.305514664674117e-07 -2.098502411219832e-07 3.884088842136481e-07 
-4.106853294023043e-05 9.606681266455754e-05 -4.245733989273908e-05 -3.277005100906312e-05 -2.82965859224492e-05 
-1.198998069392764e-06 -1.116999711527034e-06 2.292953370067662e-06 -1.103497781065368e-06 -8.928653908843512e-07 
3.308722450212111e-23 1.654361225106055e-24 -9.098986738083304e-24 0 -1.985233470127266e-23 
-9.761198986117128e-07 -1.140513201213273e-06 -1.396587015386702e-06 1.973735323003824e-06 -2.45777252223014e-07 
2.486829603709129e-07 -5.032233948535757e-07 -5.2621624059204e-07 -4.184513540820004e-07 1.58142371849735e-07 
5.0287996285875e-07 -2.727036912126702e-07 -2.956647741246277e-07 -2.086011129600175e-07 -2.30266512363913e-07 
-2.54197002487837e-07 -2.305197036409045e-07 -2.305514664674117e-07 -2.098502411219832e-07 3.884088842136481e-07 
-4.028813596516017e-07 -4.092489989635256e-07 4.066618355284452e-07 3.606634960877357e-08 -3.138143672120397e-07 
-8.271806125530277e-24 -3.288042934898285e-23 0 -6.617444900424221e-24 -3.308722450212111e-24 
-0.0001059405189451616 -9.965332458142242e-05 0.0002056485890430375 -9.968881747192041e-05 -8.010319484124683e-05 
-6.187910538204634e-07 -7.799944264906023e-07 -9.994590419308196e-07 1.871644769250693e-06 -5.435881169457103e-07 
-6.203854594147708e-24 0 0 0 0 
-1.940141502670336e-05 -2.403955667728491e-05 -2.802682271032986e-05 5.454991190735657e-05 -1.624918992710369e-05 
-2.997495173481911e-07 -2.792499278817584e-07 5.732383425169154e-07 -2.75874445266342e-07 -2.232163477210878e-07 
-1.031318423034106e-07 -1.29999071081767e-07 -1.6657650698847e-07 3.11940794875115e-07 -9.059801949095174e-08 
-0.0001090867081019625 -9.922792931005507e-05 -9.861722159530955e-05 -9.163724237318018e-05 0.0001670844719460317 
-8.643646497469859e-06 -1.090832616625705e-05 -1.415373007400857e-05 2.686337364720451e-05 -7.480188718134687e-06 
-2.541970024878369e-07 -2.305197036409044e-07 -2.305514664674117e-07 -2.098502411219832e-07 3.884088842136481e-07 
-5.083940049756739e-07 -4.610394072818091e-07 -4.611029329348232e-07 -4.197004822439664e-07 7.76817768427296e-07 
-2.997495173481911e-07 -2.792499278817586e-07 5.732383425169153e-07 -2.75874445266342e-07 -2.232163477210878e-07 
-1.387673593796994e-06 8.534164185462012e-07 -1.489249336229807e-06 -3.290274164913447e-07 1.235021674143292e-07 
0 0 0 0 0 
3.929107909626881e-24 0 6.617444900424221e-24 3.308722450212111e-24 3.308722450212111e-24 
0 1.654361225106055e-24 -2.481541837659083e-24 0 -1.985233470127266e-23 
-2.997495173481911e-07 -2.792499278817585e-07 5.732383425169154e-07 -2.75874445266342e-07 -2.232163477210878e-07 
-2.997495173481911e-07 -2.792499278817586e-07 5.732383425169153e-07 -2.75874445266342e-07 -2.232163477210878e-07 
0 0 0 0 0 
6.203854594147708e-25 -3.308722450212111e-24 -8.271806125530277e-25 0 3.308722450212111e-24 
-4.028813596516017e-07 -4.092489989635256e-07 4.06661835528445e-07 3.606634960877357e-08 -3.138143672120397e-07 
-2.713858183570352e-07 2.636144209161187e-07 -3.403248543179813e-07 1.786386638757131e-07 -2.086279099987176e-07 
8.271806125530277e-25 -2.646977960169689e-23 -3.308722450212111e-24 -3.308722450212111e-24 -6.617444900424221e-24 
2.378144261089955e-23 4.797647552807561e-23 3.308722450212111e-24 1.654361225106055e-24 -2.646977960169689e-23 
-2.541970024878369e-07 -2.305197036409044e-07 -2.305514664674117e-07 -2.098502411219832e-07 3.884088842136482e-07 
-1.031318423034107e-07 -1.299990710817671e-07 -1.6657650698847e-07 3.11940794875115e-07 -9.059801949095174e-08 
5.028799628587501e-07 -2.727036912126702e-07 -2.956647741246277e-07 -2.086011129600175e-07 -2.30266512363913e-07 
6.203854594147708e-25 0 0 0 0 
5.028799628587499e-07 -2.727036912126702e-07 -2.956647741246277e-07 -2.086011129600174e-07 -2.30266512363913e-07 
0 0 0 0 0 
-1.682539760536246e-07 3.936134919978859e-07 -1.737483473295111e-07 -1.333021309994022e-07 -1.180298905077659e-07 
-1.535506021500014e-06 -3.297727275312611e-07 1.945456675408638e-06 -1.370102043064172e-06 -1.128925171899884e-06 
-7.67753010750007e-07 -1.648863637656305e-07 9.727283377043187e-07 -6.850510215320861e-07 -5.644625859499419e-07 
-2.541970024878372e-07 -1.74503829435844e-07 -2.42352114257303e-07 -2.456768320123791e-07 3.812726306170105e-07 
-5.047619281608742e-07 1.180840475993658e-06 -5.212450419885333e-07 -3.999063929982065e-07 -3.540896715232975e-07 
-2.541970024878369e-07 -2.305197036409045e-07 -2.305514664674117e-07 -2.098502411219832e-07 3.884088842136481e-07 
-3.365079521072492e-07 7.872269839957716e-07 -3.474966946590222e-07 -2.666042619988043e-07 -2.360597810155317e-07 
0 0 0 0 0 
-6.617444900424221e-24 0 0 0 0 
4.135903062765138e-25 0 0 0 0 
0 0 0 0 0 
0 0 0 0 0 
-2.99749517348191e-07 -2.792499278817585e-07 5.732383425169154e-07 -2.758744452663419e-07 -2.232163477210878e-07 
0 0 0 0 0 
-5.994990346963821e-07 -5.584998557635168e-07 1.146476685033831e-06 -5.517488905326839e-07 -4.464326954421756e-07 
-5.53946519836029e-07 -5.097696315226635e-07 3.426868760495034e-07 -4.857246863883247e-07 1.651925364925601e-07 
-1.031318423034107e-07 -1.299990710817671e-07 -1.665765069884699e-07 3.119407948751151e-07 -9.059801949095174e-08 
1.087614079020714e-08 4.135903062765138e-23 1.116693826946587e-23 4.301339185275744e-23 1.571643163850753e-23 
-6.187910538204635e-07 -7.799944264906022e-07 -1.010835811560238e-06 1.951976404111783e-06 -5.435881169457105e-07 
-1.031318423034106e-07 -1.29999071081767e-07 -1.6657650698847e-07 3.119407948751151e-07 -9.059801949095174e-08 
-3.308722450212111e-24 3.308722450212111e-24 0 -6.617444900424221e-24 0 
-2.54197002487837e-07 -2.305197036409044e-07 -2.305514664674117e-07 -2.098502411219832e-07 3.884088842136481e-07 
3.308722450212111e-24 0 0 8.271806125530277e-25 -3.308722450212111e-24 
-4.067152039805389e-06 -3.728596896988199e-06 -3.724903876552572e-06 -3.422745140450233e-06 6.226405750293981e-06 
-5.255828208448723e-07 3.309471727521467e-08 -5.708763207853924e-07 -3.121157724627012e-08 1.797809742149304e-07 
-1.333775065966904e-07 2.352733649013435e-07 -6.992312626673457e-08 -7.510798202251635e-07 -6.895426411005327e-07 
2.316105715148477e-23 8.271806125530277e-25 3.308722450212111e-24 0 0 
-5.994990346963821e-07 -5.584998557635171e-07 1.146476685033831e-06 -5.517488905326838e-07 -4.464326954421756e-07 
-1.031318423034106e-07 -1.299990710817671e-07 -1.6657650698847e-07 3.119407948751151e-07 -9.059801949095176e-08 
0 0 -1.654361225106055e-24 -1.654361225106055e-24 6.617444900424221e-24 
0 0 0 -1.654361225106055e-24 1.654361225106055e-24 
-2.997495173481911e-07 -2.792499278817586e-07 5.732383425169153e-07 -2.758744452663419e-07 -2.232163477210878e-07 
3.515517603350368e-24 -2.646977960169689e-23 6.617444900424221e-24 3.308722450212111e-24 -3.308722450212111e-24 
-8.412698802681238e-07 1.968067459989429e-06 -8.687417366475552e-07 -6.665106549970108e-07 -5.901494525388293e-07 
4.135903062765138e-25 -2.646977960169689e-23 0 0 0 
-5.994990346963821e-07 -5.584998557635171e-07 1.146476685033831e-06 -5.517488905326836e-07 -4.464326954421756e-07 
7.031035206700735e-24 0 0 0 3.308722450212111e-24 
-1.031318423034107e-07 -1.29999071081767e-07 -1.6657650698847e-07 3.119407948751151e-07 -9.059801949095176e-08 
1.571643163850753e-23 1.654361225106055e-24 6.617444900424221e-24 -6.617444900424221e-24 -3.308722450212111e-24 
-4.680034934018159e-07 1.143635641161277e-07 3.99489995187404e-07 -4.091765762657442e-07 -3.412462382288536e-07 
1.087614079020709e-08 5.459392042849983e-23 -1.530284133223101e-23 1.654361225106055e-23 -6.369290716658313e-23 
3.308722450212111e-24 -4.963083675318166e-24 9.926167350636332e-24 4.963083675318166e-24 -6.617444900424221e-24 
-5.994990346963821e-07 -5.584998557635169e-07 1.146476685033831e-06 -5.517488905326839e-07 -4.464326954421757e-07 
-1.031318423034107e-07 -1.29999071081767e-07 -1.665765069884699e-07 3.119407948751151e-07 -9.059801949095174e-08 
-5.047619281608742e-07 1.180840475993659e-06 -5.21245041988533e-07 -3.999063929982066e-07 -3.540896715232974e-07 
-8.992485520445736e-07 -8.377497836452748e-07 1.719715027550745e-06 -8.276233357990253e-07 -6.696490431632639e-07 
-1.031318423034107e-07 -1.299990710817671e-07 -1.6657650698847e-07 3.119407948751151e-07 -9.059801949095171e-08 
-1.966751080142771e-06 -1.281886075292661e-06 3.265681707771979e-06 -1.788548802597453e-06 -1.457327976834293e-06 
-7.222004958896535e-07 -1.161561395247769e-07 1.689385287199921e-07 -6.190268173877271e-07 4.716264598479425e-08 
-4.156606083099049e-07 -1.331948045585031e-06 -7.218854735385327e-07 1.387169211024334e-06 -9.970709770307119e-07 
-7.393893117588508e-07 3.779779850322464e-07 5.916514086942287e-08 -2.30537912390031e-07 -5.498741482275713e-07 
-1.031318423034106e-07 -1.29999071081767e-07 -1.6657650698847e-07 3.11940794875115e-07 -9.059801949095174e-08 
-1.031318423034107e-07 -1.299990710817671e-07 -1.6657650698847e-07 3.11940794875115e-07 -9.059801949095176e-08 
3.308722450212111e-24 0 0 0 0 
-5.338137052244585e-06 -4.840913776458993e-06 -4.841580795815644e-06 -4.406855063561645e-06 8.156586568486606e-06 
-3.359759556764278e-06 -3.156233656936158e-06 -3.26634711857435e-06 -1.582380508838452e-06 4.389112552090923e-06 
-8.25054738427285e-07 -1.039992568654136e-06 -1.33261205590776e-06 2.49552635900092e-06 -7.247841559276139e-07 
-1.153445554532412e-06 -1.06826948728618e-06 1.489163561083334e-06 -1.037473576921007e-06 -2.812401589496156e-07 
-2.311398571924867e-06 2.577413347180857e-07 -2.273209459326295e-06 -1.535520840693428e-06 1.736642957731713e-06 
-7.62591007463511e-07 -7.318407496564408e-07 -7.277348124762194e-07 -6.946920058644518e-07 1.17709025551656e-06 
-2.997495173481911e-07 -2.792499278817586e-07 5.732383425169153e-07 -2.758744452663419e-07 -2.232163477210878e-07 
-9.08894561606614e-07 -9.484970690088181e-07 6.467471640684203e-07 3.840734940926623e-07 -7.182267539150309e-07 
3.997481205553394e-07 -4.027027622944375e-07 -4.622412811130977e-07 1.033396819150978e-07 -3.208645318548646e-07 
-3.597456759696129e-06 5.568641618597591e-07 3.260884484224763e-06 -2.833321181827573e-06 -2.653767921271692e-06 
-1.031318423034106e-07 -1.29999071081767e-07 -1.665765069884699e-07 3.11940794875115e-07 -9.059801949095174e-08 
-1.268604209418522e-06 -1.230807180968006e-06 -4.515690708622598e-07 -2.815435788820609e-07 7.608142659379526e-07 
-1.062340524811702e-06 -9.708090388044715e-07 -1.184160568853203e-07 -9.05425168632291e-07 9.420103049198563e-07 
-9.08894561606614e-07 -9.484970690088183e-07 6.353703944390012e-07 4.644051289537507e-07 -7.18226753915031e-07 
-3.74517660660446e-07 1.336153498343518e-07 -5.069013613064507e-07 4.905794587508284e-07 -2.992259294896693e-07 
-5.539465198360288e-07 -5.097696315226635e-07 3.426868760495034e-07 -4.857246863883247e-07 1.651925364925601e-07 
-4.604606870946584e-07 -4.905178458044393e-07 -5.637044804443523e-07 4.140313486282473e-07 2.072128452317444e-07 
-1.009523856321749e-06 2.361680951987316e-06 -1.042490083977066e-06 -7.998127859964131e-07 -7.081793430465949e-07 
-3.497095098356291e-06 -2.138331549981008e-06 3.546755646074064e-06 -3.103150547495491e-06 -8.565639101432897e-07 
6.617444900424221e-24 0 -3.308722450212111e-24 2.646977960169689e-23 -3.308722450212111e-24 
0 0 0 0 0 
0 -3.639594695233322e-23 6.617444900424221e-24 -3.308722450212111e-24 -3.308722450212111e-24 
-1.53608035119498e-06 -1.191502348240129e-07 -2.187010111873234e-06 2.719501555752945e-06 -1.260069866432815e-06 
-1.440768914964507e-06 1.409567604225913e-06 2.777349483862745e-07 -1.218259545529694e-06 -1.036582147981004e-06 
-3.416506025004525e-07 -4.204807731145427e-07 -5.547263119980202e-07 1.094765771983524e-06 -2.793601710550438e-07 
2.067951531382569e-25 0 -8.271806125530277e-25 0 0 
-1.682539760536246e-07 3.936134919978859e-07 -1.737483473295111e-07 -1.333021309994021e-07 -1.180298905077659e-07 
-5.307392550232763e-06 -4.376258090424601e-06 -5.053955731175741e-06 -3.184634327691735e-06 6.989944851078688e-06 
1.05465528100511e-23 -4.963083675318166e-24 3.308722450212111e-24 1.48892510259545e-23 -2.316105715148477e-23 
-4.451045595418524e-06 9.233879468639476e-06 -3.791629264595136e-06 -3.218336459215913e-06 -3.177624505426578e-06 
0 0 0 0 0 
-6.362574694554405e-07 5.079770561140135e-07 2.257416478578928e-07 -5.424787072651461e-07 -4.592761287366197e-07 
-2.062636846068213e-07 -2.599981421635343e-07 -3.331530139769399e-07 6.238815897502301e-07 -1.811960389819035e-07 
5.028799628587499e-07 -2.727036912126701e-07 -2.956647741246276e-07 -2.086011129600175e-07 -2.30266512363913e-07 
8.006051819672455e-06 -4.319176622075019e-06 -4.715190155804415e-06 -4.706475316811205e-06 -4.95207918440111e-06 
0 0 0 -1.654361225106055e-24 1.654361225106055e-24 
-9.568278794876304e-07 -9.190186304861895e-07 7.493487115779492e-07 -4.496583367795514e-07 -1.486218307194796e-07 
-1.932381436752646e-07 -1.662407093952374e-06 1.701623821818406e-06 -1.520700006985403e-06 -1.353398415612177e-06 
1.598992482221357e-06 -1.61081104917775e-06 -1.848965124452391e-06 4.133587276603912e-07 -1.283458127419459e-06 
-2.997495173481911e-07 -2.792499278817586e-07 5.732383425169153e-07 -2.758744452663419e-07 -2.232163477210879e-07 
-1.367252045446389e-06 -7.233862195291477e-07 2.107828253108732e-06 -1.156468277203681e-06 -1.010895281392118e-06 
5.995397832349995e-06 -2.858838096460249e-06 -4.606537955043911e-06 -3.105616960953964e-06 -4.149892194956416e-06 
-1.682539760536246e-07 3.936134919978859e-07 -1.737483473295111e-07 -1.333021309994021e-07 -1.180298905077659e-07 
-4.680034934018156e-07 1.143635641161276e-07 3.994899951874039e-07 -4.091765762657441e-07 -3.412462382288538e-07 
-1.126795518339957e-05 -8.24535179107963e-06 1.543530409837498e-05 -6.016422871060666e-06 -8.70187189102644e-06 
1.165850338188416e-05 -7.337041926566741e-06 -6.944490322972149e-06 -5.180210602553623e-06 -5.551059925987454e-06 
-5.083940049756742e-07 -4.610394072818089e-07 -4.611029329348234e-07 -4.197004822439665e-07 7.768177684272961e-07 
5.163674701251582e-06 -3.567329729399442e-06 -2.741825458779682e-06 -2.876323582177177e-06 -3.418258753807849e-06 
3.71915593236391e-06 -6.420763056529226e-06 -7.275411729167555e-06 4.05364723738168e-06 -5.418465347251611e-06 
2.011519851435e-06 -1.090814764850681e-06 -1.18265909649851e-06 -8.344044518400697e-07 -9.210660494556519e-07 
-4.604606870946584e-07 -4.905178458044394e-07 -5.637044804443521e-07 4.140313486282473e-07 2.072128452317445e-07 
-1.052989030578525e-06 -9.974535546102439e-07 -1.021716918557252e-06 -1.040949906497364e-06 1.776232664323253e-06 
4.243700337497329e-06 -4.082997377963527e-06 -1.458611924030277e-06 -3.799206980119045e-06 -3.25227139262409e-06 
2.693671208998372e-06 -2.405341701334564e-06 -1.692831240616845e-06 -1.483335153645417e-06 -1.403857916624444e-06 
9.926167350636332e-24 0 0 2.481541837659083e-24 -3.308722450212111e-24 
5.0287996285875e-07 -2.727036912126703e-07 -2.956647741246277e-07 -2.086011129600174e-07 -2.30266512363913e-07 
-1.703759997553638e-06 6.384076446662455e-08 1.771708328079126e-06 -1.503404174063574e-06 -1.24695506240765e-06 
-5.148307386408082e-07 1.377245135647393e-06 -5.495758062038463e-07 -4.550580578372422e-07 -3.851824375514587e-07 
-1.682539760536247e-07 3.936134919978859e-07 -1.737483473295111e-07 -1.333021309994021e-07 -1.180298905077658e-07 
-7.67753010750007e-07 -1.648863637656305e-07 9.727283377043191e-07 -6.850510215320861e-07 -5.644625859499419e-07 
2.338765452583702e-07 -1.004471069724406e-06 -2.762010344144446e-06 1.859907888158145e-06 -1.773334259553998e-06 
-1.123552981981337e-06 4.008460495030554e-07 -1.520704083919354e-06 1.471738376252486e-06 -8.976777884690079e-07 
-3.764856291536963e-07 4.378267699515646e-08 4.85613441787206e-07 -3.591764090028488e-07 -2.613833586583694e-07 
-3.365079521072493e-07 7.872269839957718e-07 -3.474966946590223e-07 -2.666042619988043e-07 -2.360597810155318e-07 
-6.938367968984973e-07 4.267082092731006e-07 -7.446246681149043e-07 -1.645137082456724e-07 6.175108370716464e-08 
-3.365079521072492e-07 7.872269839957717e-07 -3.474966946590223e-07 -2.666042619988043e-07 -2.360597810155318e-07 
-4.34314244731704e-06 -4.039879742105419e-06 -1.543541596201683e-06 -3.445284617519125e-06 4.511665559591872e-06 
0 0 0 0 0 
6.203854594147708e-25 0 0 0 0 
-3.365079521072492e-07 7.872269839957717e-07 -3.474966946590222e-07 -2.666042619988043e-07 -2.360597810155318e-07 
8.271806125530277e-25 -2.646977960169689e-23 0 -3.308722450212111e-24 0 
-5.04761928160874e-07 1.180840475993658e-06 -5.212450419885335e-07 -3.999063929982065e-07 -3.540896715232974e-07 
-2.541970024878369e-07 -2.305197036409044e-07 -2.305514664674117e-07 -2.098502411219832e-07 3.884088842136481e-07 
-2.997495173481911e-07 -2.792499278817586e-07 5.732383425169153e-07 -2.75874445266342e-07 -2.232163477210878e-07 
-5.994990346963819e-07 -5.584998557635171e-07 1.14647668503383e-06 -5.517488905326838e-07 -4.464326954421757e-07 
-6.894238899008398e-06 -6.422748341280442e-06 1.318448187788904e-05 -6.345112241125861e-06 -5.133975997585024e-06 
2.9778502051909e-23 0 -6.948317145445432e-23 2.316105715148477e-23 3.639594695233322e-23 
-6.410649747285964e-24 0 0 3.308722450212111e-24 0 
-3.308722450212111e-24 3.308722450212111e-24 -1.323488980084844e-23 4.963083675318166e-24 -9.926167350636332e-24 
-2.568650048023226e-06 -3.139229491680636e-06 -3.091444811229426e-06 6.586823041986197e-06 -2.216372776522024e-06 
-5.434075350515603e-06 -5.532828695743376e-06 6.209418108310839e-06 -2.335292734440657e-07 -4.30992382435336e-06 
3.34625986805125e-07 1.209098007852157e-07 -4.694131214541391e-07 -3.419032439594196e-07 -3.482964028716787e-07 
4.135903062765138e-25 0 0 -6.617444900424221e-24 0 
0 0 8.271806125530277e-25 0 0 
-1.724580890237639e-06 -1.083904994251818e-06 1.722077049282268e-06 -1.134709358311638e-06 -7.130844166694214e-07 
-2.796167027366207e-06 -2.535716740049947e-06 -2.536066131141531e-06 -2.308352652341814e-06 4.272497726350129e-06 
-2.652193141273365e-06 -2.464519126694972e-06 4.355355273667912e-06 -2.41684580325272e-06 -1.397321897555055e-06 
-1.682539760536247e-07 3.936134919978859e-07 -1.737483473295111e-07 -1.333021309994021e-07 -1.180298905077659e-07 
-2.997495173481911e-07 -2.792499278817585e-07 5.732383425169153e-07 -2.758744452663419e-07 -2.232163477210878e-07 
2.067951531382569e-25 0 -1.654361225106055e-24 6.617444900424221e-24 0 
-7.122768865618336e-07 -7.992462122088263e-07 -9.306768543696509e-08 9.718887342341201e-07 -5.856084256848952e-07 
-3.308722450212111e-24 -6.617444900424221e-24 1.654361225106055e-24 -3.308722450212111e-24 0 
0 1.654361225106055e-24 -2.481541837659083e-24 0 -4.549493369041652e-24 
-4.680034934018159e-07 1.143635641161276e-07 3.994899951874039e-07 -4.091765762657442e-07 -3.412462382288537e-07 
-8.358402436063315e-07 7.866679641993538e-07 -1.129758387557925e-06 8.42705288926114e-07 -6.677116359447812e-07 
6.617444900424221e-24 -4.963083675318166e-24 0 -3.722312756488625e-24 -6.617444900424221e-24 
-8.081435223238653e-07 -7.402893351635669e-07 1.121354095820915e-07 -6.955749275103079e-07 5.536014207062081e-07 
3.308722450212111e-23 1.654361225106055e-24 -5.790264287871194e-24 0 -1.985233470127266e-23 
0 0 0 0 0 
-4.680034934018159e-07 1.143635641161276e-07 3.994899951874039e-07 -4.091765762657441e-07 -3.412462382288537e-07 
-5.255828208448735e-07 3.309471727521446e-08 -5.708763207853924e-07 -3.121157724627011e-08 1.797809742149303e-07 
2.067951531382569e-25 0 0 0 0 
2.011519851435e-06 -1.090814764850681e-06 -1.182659096498511e-06 -8.344044518400698e-07 -9.210660494556519e-07 
-1.031318423034106e-07 -1.29999071081767e-07 -1.6657650698847e-07 3.11940794875115e-07 -9.059801949095174e-08 
0 0 0 0 0 
4.135903062765138e-25 0 0 0 0 
-7.222004958896538e-07 -1.161561395247769e-07 1.689385287199921e-07 -6.19026817387727e-07 4.716264598479425e-08 
-5.71135335705227e-07 -1.563550696563943e-08 2.329134881989339e-07 -9.723578139062856e-08 -4.318442577198053e-07 
3.515517603350368e-24 1.654361225106055e-24 4.135903062765138e-25 0 1.530284133223101e-23 
-2.541970024878369e-07 -2.305197036409044e-07 -2.305514664674117e-07 -2.098502411219832e-07 3.884088842136481e-07 
-2.541970024878371e-07 -2.305197036409044e-07 -2.305514664674117e-07 -2.098502411219833e-07 3.884088842136481e-07 
-1.031318423034106e-07 -1.29999071081767e-07 -1.6657650698847e-07 3.11940794875115e-07 -9.059801949095174e-08 
0 0 0 0 0 
-2.541970024878369e-07 -2.305197036409044e-07 -2.305514664674117e-07 -2.098502411219832e-07 3.884088842136482e-07 
-3.093955269102317e-07 -3.899972132453011e-07 -4.9972952096541e-07 9.358223846253464e-07 -2.717940584728552e-07 
2.150669592637872e-23 -6.334085241755388e-08 1.829993969356685e-07 -1.145765782166641e-07 -9.771872236670498e-08 
0 -4.963083675318166e-24 3.308722450212111e-24 -1.48892510259545e-23 0 
-1.059959721791041e-06 -1.049017701567955e-06 5.827722045894781e-07 -1.37717541904436e-07 -2.392198502104312e-07 
0 0 0 0 0 
-5.047619281608741e-07 1.180840475993659e-06 -5.212450419885332e-07 -3.999063929982065e-07 -3.540896715232975e-07 
-8.177895318859055e-07 -8.510366205271108e-07 -9.608324539002339e-07 5.161219023813798e-07 5.050237099544403e-07 
-3.093955269102317e-07 -3.899972132453011e-07 -4.997295209654098e-07 9.358223846253463e-07 -2.717940584728552e-07 
3.308722450212111e-24 -4.963083675318166e-24 3.308722450212111e-24 1.654361225106055e-24 -9.926167350636332e-24 
-3.093955269102317e-07 -3.899972132453011e-07 -4.997295209654098e-07 9.358223846253463e-07 -2.717940584728552e-07 
0 0 0 0 0 
-5.53946519836029e-07 -5.097696315226635e-07 3.426868760495034e-07 -4.857246863883247e-07 1.651925364925601e-07 
-6.287146631482839e-07 -9.690435380655281e-08 -7.374528277738632e-07 2.807292176288452e-07 8.91829547239787e-08 
-8.154087288652443e-07 -9.292452832905937e-07 -2.596441924254348e-07 1.283829529109235e-06 -6.762064451758466e-07 
-2.814546288369693e-07 4.600190805698542e-07 -3.686556185332943e-07 1.234869990366776e-07 -2.397206760268786e-07 
-1.302809464771019e-23 0 0 -1.323488980084844e-23 -3.308722450212111e-24 
-4.680034934018159e-07 1.143635641161276e-07 3.994899951874039e-07 -4.091765762657442e-07 -3.412462382288537e-07 
0 0 0 8.271806125530277e-25 -6.617444900424221e-24 
-6.617444900424221e-24 0 0 0 0 
-1.031318423034107e-07 -1.29999071081767e-07 -1.6657650698847e-07 3.119407948751151e-07 -9.059801949095174e-08 
-2.997495173481911e-07 -2.792499278817583e-07 5.732383425169153e-07 -2.758744452663419e-07 -2.232163477210879e-07 
-1.198998069392764e-06 -1.116999711527034e-06 2.292953370067662e-06 -1.103497781065368e-06 -8.928653908843516e-07 
-1.143886511195267e-05 -1.03733866638407e-05 -1.037481599103353e-05 -9.443260850489245e-06 1.747839978961415e-05 
-2.997495173481911e-07 -2.792499278817584e-07 5.732383425169153e-07 -2.75874445266342e-07 -2.232163477210879e-07 
-3.812955037317555e-06 -3.457795554613565e-06 -3.458271997011177e-06 -3.147753616829747e-06 5.82613326320472e-06 
6.617444900424221e-24 1.48892510259545e-23 3.308722450212111e-24 -8.271806125530277e-24 2.646977960169689e-23 
0 0 0 8.271806125530277e-25 -3.308722450212111e-24 
-8.992485520445735e-07 -8.377497836452748e-07 1.719715027550745e-06 -8.276233357990252e-07 -6.696490431632638e-07 
-5.37667398159468e-24 -2.481541837659083e-23 -9.926167350636332e-24 -1.323488980084844e-23 3.308722450212111e-24 
-3.288042934898285e-23 -6.948317145445432e-23 8.271806125530277e-24 -3.308722450212111e-24 2.646977960169689e-23 
1.0057599257175e-06 -5.454073824253403e-07 -5.913295482492551e-07 -4.172022259200349e-07 -4.605330247278259e-07 
-7.026308769997923e-07 -6.884989268452842e-07 9.799001780453598e-07 -2.398080956575682e-07 -5.370307149331275e-07 
-9.360069868036316e-07 2.287271282322551e-07 7.989799903748081e-07 -8.183531525314882e-07 -6.824924764577071e-07 
-2.997495173481911e-07 -2.792499278817586e-07 5.732383425169153e-07 -2.758744452663419e-07 -2.232163477210879e-07 
-1.682539760536247e-07 3.936134919978859e-07 -1.737483473295111e-07 -1.333021309994022e-07 -1.180298905077659e-07 
0 0 0 0 0 
-6.742671780086375e-07 -1.456345780474064e-07 6.633698121046388e-08 2.147050134844868e-07 -5.224422772107573e-07 
-1.031318423034107e-07 -1.299990710817671e-07 -1.6657650698847e-07 3.11940794875115e-07 -9.059801949095174e-08 
2.067951531382569e-25 0 -2.481541837659083e-24 0 3.308722450212111e-24 
3.308722450212111e-24 1.654361225106055e-24 0 8.271806125530277e-25 -3.308722450212111e-24 
-3.308722450212111e-24 0 4.963083675318166e-24 -1.799117832302835e-23 1.654361225106055e-24 
-3.401180104179515e-06 -3.827959694307944e-06 -2.146357153167149e-06 -3.488403138078482e-06 4.372616286971334e-06 
-2.669833489358139e-06 -1.336180573013222e-06 -1.618670083881401e-06 -2.221280636241011e-06 2.647994944972566e-06 
-5.53946519836029e-07 -5.097696315226635e-07 3.426868760495034e-07 -4.857246863883247e-07 1.651925364925601e-07 
6.203854594147708e-25 -2.646977960169689e-23 0 0 0 
-1.899699675587469e-06 -1.249502872011075e-06 -1.890210160110921e-06 -7.685219879810706e-07 2.031227375792221e-06 
-1.964821809337682e-06 -7.258903089314223e-07 -1.89738200045196e-06 -1.213764913855588e-06 2.003795504775406e-06 
-2.033576019902696e-06 -1.844157629127236e-06 -1.844411731739293e-06 -1.678801928975866e-06 3.107271073709185e-06 
-2.334001856407699e-06 -1.547364168894413e-06 -1.608228272910636e-06 -1.966575167187028e-06 2.840220014606132e-06 
-1.682539760536246e-07 3.936134919978859e-07 -1.737483473295111e-07 -1.333021309994021e-07 -1.180298905077659e-07 
0 0 0 0 0 
-1.031318423034107e-07 -1.299990710817671e-07 -1.6657650698847e-07 3.119407948751151e-07 -9.059801949095174e-08 
-5.083940049756739e-07 -4.610394072818089e-07 -4.611029329348234e-07 -4.197004822439664e-07 7.768177684272961e-07 
-5.53946519836029e-07 -5.097696315226635e-07 3.426868760495035e-07 -4.857246863883247e-07 1.651925364925601e-07 
-1.682539760536246e-07 3.936134919978859e-07 -1.737483473295111e-07 -1.333021309994021e-07 -1.180298905077659e-07 
2.966162782519282e-07 -5.327018333762045e-07 -6.288177881015679e-07 4.152804767902133e-07 -4.114625513458164e-07 
0 0 0 -1.654361225106055e-24 1.654361225106055e-24 
-1.031318423034105e-07 -7.398319687670663e-08 -1.783771547783612e-07 2.761142039847189e-07 -9.773427308758935e-08 
-8.412698802681238e-07 1.968067459989429e-06 -8.687417366475555e-07 -6.665106549970109e-07 -5.901494525388293e-07 
-7.625910074635115e-07 -6.915591109227142e-07 -6.91654399402235e-07 -6.295507233659494e-07 1.165226652640945e-06 
-2.997495173481911e-07 -2.792499278817586e-07 5.732383425169157e-07 -2.75874445266342e-07 -2.232163477210877e-07 
-9.512577044359818e-24 0 0 0 -3.308722450212111e-24 
6.617444900424221e-23 -2.9778502051909e-23 1.224227306578481e-22 -6.617444900424221e-24 -6.28657265540301e-23 
-1.985233470127266e-23 -2.9778502051909e-23 -3.308722450212111e-23 -6.617444900424221e-24 2.316105715148477e-23 
-7.222004958896535e-07 -1.161561395247769e-07 1.689385287199921e-07 -6.190268173877272e-07 4.716264598479425e-08 
-7.026308769997925e-07 -6.884989268452841e-07 9.799001780453598e-07 -2.398080956575683e-07 -5.37030714933128e-07 
0 0 0 0 0 
-2.997495173481911e-07 -2.792499278817585e-07 5.732383425169154e-07 -2.75874445266342e-07 -2.232163477210878e-07 
-1.031318423034107e-07 -1.29999071081767e-07 -1.6657650698847e-07 3.119407948751151e-07 -9.059801949095176e-08 
-2.062636846068213e-07 -2.599981421635342e-07 -3.331530139769399e-07 6.238815897502301e-07 -1.811960389819035e-07 
-3.745176606604459e-07 1.336153498343519e-07 -5.06901361306451e-07 4.905794587508284e-07 -2.992259294896693e-07 
-1.031318423034106e-07 -1.29999071081767e-07 -1.6657650698847e-07 3.11940794875115e-07 -9.059801949095174e-08 
-1.682539760536246e-07 3.936134919978859e-07 -1.73748347329511e-07 -1.333021309994021e-07 -1.180298905077659e-07 
0 0 4.135903062765138e-24 0 0 
2.067951531382569e-25 3.308722450212111e-24 0 -3.308722450212111e-24 3.308722450212111e-24 
-5.255828208448735e-07 3.309471727521446e-08 -5.708763207853924e-07 -3.121157724627011e-08 1.797809742149303e-07 
-6.766479810292992e-07 -6.742591528392303e-08 -6.348512802643343e-07 -5.530026132433683e-07 6.587878779195301e-07 
-5.994990346963821e-07 -5.584998557635171e-07 1.146476685033831e-06 -5.517488905326838e-07 -4.464326954421757e-07 
-3.863688629392159e-07 -3.273397354059699e-07 1.793803396907567e-07 -3.643213483337431e-07 2.393877156183603e-07 
-4.780723038817501e-07 3.50512663247489e-07 3.711592309720908e-07 -4.643282411047793e-07 -3.72339004257015e-07 
5.0287996285875e-07 -2.727036912126702e-07 -2.956647741246277e-07 -2.086011129600174e-07 -2.30266512363913e-07 
-1.323488980084844e-23 0 0 0 0 
-1.594910952432176e-06 -1.983848480121434e-06 -2.224423430011273e-06 3.811135148898938e-06 -8.8708409153543e-07 
0 0 2.481541837659083e-24 0 0 
-1.012026403910023e-06 -1.078496140090585e-06 4.801706570799498e-07 6.960142889677771e-07 -8.088247734059829e-07 
-1.290978485158718e-06 2.82170003255717e-06 -1.411145702510361e-06 -6.763257869597352e-07 -9.479000190734735e-07 
-7.67753010750007e-07 -1.648863637656305e-07 9.727283377043187e-07 -6.850510215320861e-07 -5.644625859499419e-07 
0 0 0 0 0 
0 0 0 -1.654361225106055e-24 1.654361225106055e-24 
-3.256627714460869e-06 -3.026234585854391e-06 -3.099770611585881e-06 -1.894321303713567e-06 4.479710571581874e-06 
-1.682539760536246e-07 3.936134919978859e-07 -1.737483473295111e-07 -1.333021309994021e-07 -1.180298905077659e-07 
-1.556326914184014e-06 -1.477518486249705e-06 1.895825396611779e-06 -1.001407227312235e-06 -5.950545261616554e-07 
-2.997495173481912e-07 -2.792499278817585e-07 5.732383425169151e-07 -2.758744452663419e-07 -2.232163477210878e-07 
5.0287996285875e-07 -2.727036912126702e-07 -2.956647741246276e-07 -2.086011129600175e-07 -2.30266512363913e-07 
0 0 0 0 0 
-2.997495173481911e-07 -2.792499278817586e-07 5.732383425169153e-07 -2.758744452663419e-07 -2.232163477210878e-07 
-1.220670891537509e-06 -1.260285619490638e-06 -5.541706183717882e-07 5.521882519901531e-07 1.912093427424013e-07 
0 0 0 0 0 
-3.103181751255779e-06 -3.003922616058735e-06 -2.334607390632142e-06 -6.048226409886134e-07 2.819473512746987e-06 
-1.177777832375373e-06 2.795038883462826e-06 -1.216238431306578e-06 -9.331149169958149e-07 -8.262092335543617e-07 
-1.689803914165848e-06 6.523751534279266e-07 -1.617199255187692e-06 -1.372609488485541e-06 1.081515974823529e-06 
-1.031318423034107e-07 -1.29999071081767e-07 -1.665765069884699e-07 3.119407948751151e-07 -9.059801949095174e-08 
-4.396397944106599e-07 6.572279129140045e-07 -5.140732016474921e-07 4.533653287631093e-08 -3.266578005064835e-07 
-9.740166953568277e-07 -4.248845059291652e-07 6.395753237273794e-07 -6.116943178185532e-08 -7.456586249318454e-07 
-2.997495173481911e-07 -2.792499278817586e-07 5.732383425169153e-07 -2.75874445266342e-07 -2.232163477210878e-07 
6.824240053562478e-24 1.654361225106055e-24 2.481541837659083e-24 0 2.067951531382569e-24 
0 0 0 0 0 
1.843265875381375e-06 -6.972012728527949e-07 -1.356407443828022e-06 -9.677065828394721e-07 -1.039095939963417e-06 
8.796827509397452e-06 -6.244726902319002e-06 -4.669774880820398e-06 -4.93814522802983e-06 -5.058638522747833e-06 
-5.53946519836029e-07 -5.097696315226635e-07 3.426868760495035e-07 -4.857246863883247e-07 1.651925364925601e-07 
-2.713858183570353e-07 2.636144209161187e-07 -3.403248543179814e-07 1.78638663875713e-07 -2.086279099987176e-07 
0 0 -2.481541837659083e-24 0 -6.617444900424221e-24 
-1.682539760536246e-07 3.936134919978859e-07 -1.737483473295111e-07 -1.333021309994022e-07 -1.180298905077659e-07 
1.571643163850753e-23 -3.308722450212111e-24 1.654361225106055e-24 0 0 
8.857614014345106e-06 -5.712514231823012e-06 -4.331259876863647e-06 -3.959860769094177e-06 -4.742121503447373e-06 
-3.133239096262374e-09 -8.119517612579631e-07 -5.557944558465233e-08 1.394060315238713e-07 -6.346788990669046e-07 
2.067951531382569e-25 0 0 3.308722450212111e-24 -1.323488980084844e-23 
2.486829603709127e-07 -5.032233948535755e-07 -5.262162405920399e-07 -4.184513540820004e-07 1.58142371849735e-07 
-2.997495173481912e-07 -2.792499278817587e-07 5.732383425169153e-07 -2.758744452663419e-07 -2.232163477210878e-07 
-3.896743725526484e-06 -3.63024906246286e-06 7.549790210049069e-06 -3.696877630705062e-06 -2.901812520374142e-06 
-7.877617245732003e-07 1.243874938707037e-06 -9.420229566951826e-07 1.406732330155172e-07 -5.734527214424823e-07 
-1.657284279974152e-05 -1.540683584102093e-05 3.113425083560416e-05 -1.526154139271621e-05 -1.181429506132038e-05 
-5.994990346963821e-07 -5.584998557635171e-07 1.146476685033831e-06 -5.517488905326837e-07 -4.464326954421756e-07 
0 0 0 0 0 
-5.994990346963821e-07 -6.218407081810702e-07 1.329476081969499e-06 -6.66325468749348e-07 -5.441514178088809e-07 
0 0 8.271806125530277e-25 0 0 
-1.682539760536246e-07 3.936134919978859e-07 -1.737483473295111e-07 -1.333021309994021e-07 -1.180298905077659e-07 
-2.187559562840116e-05 -2.92526416789422e-05 -3.75148820549851e-05 6.795231810674046e-05 -1.922010084521462e-05 
0 0 0 0 0 
0 0 0 0 -3.308722450212111e-24 
-5.060132019550116e-07 -5.392480700452927e-07 2.400853285399749e-07 3.480071444838886e-07 -4.044123867029915e-07 
3.350081480839762e-23 8.271806125530277e-25 -4.797647552807561e-23 -2.067951531382569e-24 -3.308722450212111e-23 
3.308722450212111e-24 6.617444900424221e-24 3.308722450212111e-24 0 -1.323488980084844e-23 
-7.571428922413108e-06 1.782463888831499e-05 -7.842276925407778e-06 -6.07024907675389e-06 -5.325617580042741e-06 
-3.62842886908172e-07 -1.094261873217151e-06 -1.153895680515332e-06 -5.262110414508514e-07 8.443621207860799e-07 
-4.581060086897991e-06 -4.883097764030766e-06 -4.906694103472863e-06 -4.405605935399685e-06 7.537911171909048e-06 
2.067951531382569e-25 0 -6.617444900424221e-24 6.617444900424221e-24 0 
-5.060132019550114e-07 -5.392480700452926e-07 2.400853285399749e-07 3.480071444838886e-07 -4.044123867029913e-07 
-2.062636846068213e-07 -2.59998142163534e-07 -3.331530139769401e-07 6.2388158975023e-07 -1.811960389819035e-07 
2.486829603709129e-07 -5.032233948535757e-07 -5.2621624059204e-07 -4.184513540820004e-07 1.58142371849735e-07 
-2.997495173481911e-07 -2.792499278817585e-07 5.732383425169158e-07 -2.75874445266342e-07 -2.232163477210878e-07 
-7.026308769997923e-07 -6.884989268452842e-07 9.799001780453602e-07 -2.398080956575681e-07 -5.370307149331277e-07 
-1.031318423034106e-07 -1.29999071081767e-07 -1.6657650698847e-07 3.11940794875115e-07 -9.059801949095174e-08 
-1.031318423034106e-07 -1.29999071081767e-07 -1.6657650698847e-07 3.11940794875115e-07 -9.059801949095166e-08 
3.308722450212111e-24 0 -1.654361225106055e-24 -1.654361225106055e-24 6.617444900424221e-24 
-3.725661108344921e-06 -7.101365154573454e-06 -7.277646625517093e-06 -5.969019498862e-06 8.302479767285691e-06 
-1.031318423034103e-07 -1.299990710817668e-07 -1.665765069884698e-07 3.119407948751151e-07 -9.059801949095134e-08 
-2.587522539738725e-06 -2.353927260649899e-06 -1.50172485568979e-06 -2.164526615364191e-06 3.272463610201745e-06 
3.308722450212111e-24 1.654361225106055e-24 -1.323488980084844e-23 8.271806125530277e-25 0 
5.0287996285875e-07 -2.727036912126702e-07 -2.956647741246276e-07 -2.086011129600174e-07 -2.30266512363913e-07 
-9.5682787948763e-07 -9.190186304861892e-07 7.493487115779492e-07 -4.496583367795515e-07 -1.486218307194793e-07 
3.308722450212111e-24 0 1.654361225106055e-24 -2.9778502051909e-23 1.654361225106055e-24 
-2.541970024878369e-07 -2.305197036409044e-07 -2.305514664674117e-07 -2.098502411219832e-07 3.884088842136481e-07 
-5.53946519836029e-07 -5.097696315226635e-07 3.426868760495034e-07 -4.857246863883247e-07 1.651925364925601e-07 
0 0 0 0 0 
-2.997495173481912e-07 -2.792499278817585e-07 5.732383425169154e-07 -2.75874445266342e-07 -2.232163477210878e-07 
-1.021672413472067e-06 -1.189243425454127e-06 -5.927972064023745e-07 1.907711118859465e-06 -8.574024841577502e-07 
-5.083940049756741e-06 -4.610394072818089e-06 -4.611029329348233e-06 -4.197004822439665e-06 7.768177684272958e-06 
-1.087778754682031e-05 -9.533560139212659e-06 2.052062466566391e-05 -1.006993365816385e-05 -8.105048294924603e-06 
-2.814546288369693e-07 4.600190805698542e-07 -3.686556185332946e-07 1.234869990366776e-07 -2.397206760268786e-07 
-5.083940049756741e-06 -4.610394072818089e-06 -4.611029329348235e-06 -4.197004822439664e-06 7.768177684272959e-06 
6.617444900424221e-24 0 -1.654361225106055e-23 0 -1.323488980084844e-23 
-2.062636846068213e-07 -2.599981421635341e-07 -3.331530139769401e-07 6.238815897502301e-07 -1.811960389819035e-07 
-1.016788009951348e-06 -9.220788145636185e-07 -9.527051095217784e-07 -8.97185881590669e-07 1.560011480282926e-06 
-2.169814475651573e-05 -1.985632608142058e-05 -1.993821353037597e-05 -1.683994595523143e-05 3.270191672916567e-05 
0 0 0 0 0 
-1.453195071880602e-06 -1.347519415167938e-06 2.06240190360025e-06 -1.31334802218735e-06 -5.044565066707035e-07 
-2.352443623925173e-06 -2.248610051230768e-06 3.96511632808667e-06 -2.255547936203042e-06 -1.271824272200671e-06 
-1.682539760536247e-07 3.936134919978859e-07 -1.737483473295111e-07 -1.333021309994021e-07 -1.180298905077659e-07 
-5.124053871093491e-06 -8.293828405221821e-06 -1.053946890679485e-05 1.818202840021426e-05 -5.820042565759017e-06 
0 1.654361225106055e-24 2.481541837659083e-24 0 -1.116693826946587e-23 
-1.195254002523976e-05 -1.094114224880142e-05 -8.696097272596076e-06 -1.01577040359239e-05 1.698490848758249e-05 
-7.625910074635114e-07 -6.915591109227142e-07 -6.91654399402235e-07 -6.295507233659494e-07 1.165226652640945e-06 
0 0 0 0 0 
2.031304455105587e-07 -5.519536190944288e-07 2.775735683922875e-07 -4.844755582263593e-07 -4.534828600850007e-07 
0 1.654361225106055e-24 3.639594695233322e-23 8.271806125530277e-25 -6.617444900424221e-24 
-2.99749517348191e-07 -2.792499278817586e-07 5.732383425169153e-07 -2.758744452663419e-07 -2.232163477210878e-07 
-1.134450265337517e-06 -1.429989781899438e-06 -1.832341576873171e-06 3.431348743626269e-06 -9.965782144004688e-07 
1.254442886088412e-06 -1.048630777278915e-06 -1.117545788841294e-06 -8.356535800020351e-07 -3.023906528780908e-07 
-2.997495173481911e-07 -2.792499278817584e-07 5.732383425169152e-07 -2.75874445266342e-07 -2.232163477210878e-07 
-1.031318423034107e-07 -1.299990710817671e-07 -1.6657650698847e-07 3.119407948751151e-07 -9.059801949095174e-08 
-8.536960371842193e-07 -7.890195594044219e-07 9.159252185664185e-07 -7.61599131654667e-07 -5.80238112285278e-08 
0 0 0 0 0 
4.062608910211174e-07 -1.103907238188857e-06 5.551471367845749e-07 -9.689511164527187e-07 -9.069657201700015e-07 
-7.544804490682067e-06 -7.763721519779287e-06 1.437798066484775e-05 -7.591186931006894e-06 -5.645482668898554e-06 
-8.536960371842193e-07 -7.890195594044218e-07 9.159252185664184e-07 -7.615991316546668e-07 -5.802381122852787e-08 
5.0287996285875e-07 -2.727036912126702e-07 -2.956647741246277e-07 -2.086011129600174e-07 -2.30266512363913e-07 
5.0287996285875e-07 -2.727036912126702e-07 -2.956647741246276e-07 -2.086011129600175e-07 -2.30266512363913e-07 
-1.053133610182998e-06 -2.364323828876651e-08 -1.492378384771289e-07 -9.121790222462167e-07 3.974045192611606e-07 
-2.997495173481911e-07 -2.792499278817585e-07 5.732383425169152e-07 -2.75874445266342e-07 -2.232163477210877e-07 
-4.44372176875032e-06 -4.534277611198838e-06 2.68804711649817e-06 8.407190488603414e-07 -2.319305594953914e-06 
0 0 0 -3.308722450212111e-24 0 
-2.541970024878371e-07 -2.305197036409044e-07 -2.305514664674117e-07 -2.098502411219832e-07 3.884088842136481e-07 
-5.53946519836029e-07 -5.097696315226635e-07 3.426868760495034e-07 -4.857246863883247e-07 1.651925364925601e-07 
-5.994990346963821e-07 -5.584998557635172e-07 1.146476685033831e-06 -5.517488905326837e-07 -4.464326954421757e-07 
-3.963685891858235e-07 -1.110453474857945e-06 1.424050253426118e-06 -1.036224448759041e-06 -8.999155555271765e-07 
-1.021672413472066e-06 -1.189243425454127e-06 -6.041739760317936e-07 1.988042753720552e-06 -8.5740248415775e-07 
0 1.654361225106055e-24 -2.481541837659083e-24 0 -4.549493369041652e-24 
-1.031318423034108e-07 -1.702807098154939e-07 -2.026569200624543e-07 2.422154516731112e-07 5.240891303641197e-08 
-2.71006919864561e-06 -3.129002838876229e-06 -2.082451907226043e-06 4.853335176097403e-06 -1.688788162065659e-06 
-2.062636846068213e-07 -2.59998142163534e-07 -3.3315301397694e-07 6.238815897502302e-07 -1.811960389819035e-07 
0 0 1.654361225106055e-24 0 0 
-2.541970024878369e-07 -2.305197036409044e-07 -2.305514664674117e-07 -2.098502411219832e-07 3.884088842136481e-07 
-1.682539760536248e-07 3.93613491997886e-07 -1.737483473295111e-07 -1.333021309994022e-07 -1.180298905077659e-07 
-1.071986534373743e-06 -1.081556324168015e-06 -1.191383920367645e-06 3.062716612593963e-07 8.934325941680887e-07 
-4.680034934018159e-07 1.143635641161277e-07 3.994899951874039e-07 -4.091765762657442e-07 -3.412462382288537e-07 
-9.112753646272757e-07 -8.702884062453343e-07 -5.444109740637851e-08 -3.836341326351932e-07 4.630034012152563e-07 
-2.697745656133719e-06 -2.52020009896319e-06 5.290693790266347e-06 -2.594613674878057e-06 -2.008947129489792e-06 
-8.081435223238652e-07 -7.402893351635668e-07 1.121354095820915e-07 -6.95574927510308e-07 5.536014207062083e-07 
-2.541970024878369e-07 -2.305197036409046e-07 -2.305514664674115e-07 -2.098502411219833e-07 3.884088842136482e-07 
0 0 0 0 0 
3.308722450212111e-23 0 -6.617444900424221e-24 6.617444900424221e-24 0 
-3.573288447912477e-07 -3.605187747226716e-07 -3.971279734558818e-07 1.020905537531321e-07 2.978108647226962e-07 
-8.688560888631842e-07 -1.633509943262443e-06 -9.24887301332963e-07 -1.13882002306124e-07 4.399497340830879e-07 
3.510090929531315e-06 -1.712521178834954e-06 -2.097984183087702e-06 -1.515359455559158e-06 -1.64295835257555e-06 
-1.198998069392764e-06 -1.116999711527034e-06 2.301830322853567e-06 -1.103497781065367e-06 -8.928653908843515e-07 
0 0 -6.617444900424221e-24 0 0 
-5.060132019550121e-07 -5.392480700452926e-07 2.290083791823697e-07 3.480071444838884e-07 -4.044123867029914e-07 
3.308722450212111e-24 6.617444900424221e-24 1.654361225106055e-24 -3.722312756488625e-24 0 
-2.541970024878369e-07 -2.305197036409044e-07 -2.305514664674117e-07 -2.098502411219832e-07 3.884088842136481e-07 
-2.54197002487837e-07 -2.305197036409045e-07 -2.305514664674117e-07 -2.098502411219832e-07 3.884088842136481e-07 
-4.498920293172721e-06 -4.693755120803226e-06 2.429946011357775e-06 1.986391674607668e-06 -2.979508537640418e-06 
5.0287996285875e-07 -2.727036912126702e-07 -2.956647741246277e-07 -2.086011129600174e-07 -2.30266512363913e-07 
-1.031318423034106e-07 -1.29999071081767e-07 -1.6657650698847e-07 3.11940794875115e-07 -9.059801949095174e-08 
0 3.308722450212111e-24 -4.963083675318166e-24 0 -9.098986738083304e-24 
-2.997495173481911e-07 -2.792499278817586e-07 5.732383425169153e-07 -2.758744452663419e-07 -2.232163477210879e-07 
-2.541970024878371e-07 -2.305197036409045e-07 -2.305514664674118e-07 -2.098502411219832e-07 3.884088842136481e-07 
-2.541970024878369e-07 -2.305197036409044e-07 -2.305514664674117e-07 -2.098502411219832e-07 3.884088842136481e-07 
-6.617444900424221e-24 -2.646977960169689e-23 6.617444900424221e-24 -3.308722450212111e-24 0 
-1.270985012439185e-06 -1.152598518204523e-06 -1.152757332337059e-06 -1.049251205609916e-06 1.94204442106824e-06 
0 0 0 0 0 
-1.043632801773071e-06 -3.995813659555377e-07 6.333930466329259e-07 -5.88111965355094e-07 -2.17881607684922e-07 
3.486815635780611e-07 -1.185176085029771e-06 -4.152191791882214e-07 -5.909861174332437e-07 -3.859385077262174e-07 
-1.302129911696176e-06 -1.246998782608801e-06 2.126376863079193e-06 -7.91556986190251e-07 -9.834634103753034e-07 
-2.997495173481911e-07 -2.792499278817586e-07 5.732383425169153e-07 -2.758744452663419e-07 -2.232163477210879e-07 
-7.625910074635115e-07 -6.915591109227142e-07 -6.916543994022351e-07 -6.295507233659494e-07 1.165226652640945e-06 
1.19941188820189e-23 -2.481541837659083e-23 -3.763671787116276e-23 -7.031035206700735e-24 2.646977960169689e-23 
1.786962876052949e-06 -3.007255052130198e-06 -3.401127126601877e-06 5.122784041217355e-07 -1.238967442192844e-06 
6.434307674860341e-06 -3.67514705684648e-06 -4.010218570608623e-06 -2.39987367360511e-06 -3.08406268022182e-06 
-3.573288447912477e-07 -3.605187747226716e-07 -3.971279734558819e-07 1.020905537531321e-07 2.978108647226963e-07 
1.321491611027807e-05 -8.45726153595925e-06 -9.136844581880277e-06 -6.158441091371322e-06 -5.372833713039565e-06 
-3.573288447912476e-07 -3.605187747226714e-07 -3.97127973455882e-07 1.020905537531321e-07 2.978108647226962e-07 
6.034559554305002e-06 -3.272444294552042e-06 -3.547977289495532e-06 -2.503213355520208e-06 -2.763198148366956e-06 
-1.021331139545566e-07 -1.564946645470668e-06 9.404420384975182e-08 -1.388651598696685e-06 -1.301479517427056e-07 
-8.992485520445736e-07 -8.377497836452747e-07 1.719715027550745e-06 -8.276233357990253e-07 -6.696490431632638e-07 
-1.779379017414859e-06 -1.613637925486331e-06 -1.613860265271882e-06 -1.526736604956618e-06 2.72523813292387e-06 
-5.539465198360288e-07 -5.097696315226636e-07 3.426868760495034e-07 -4.857246863883247e-07 1.651925364925601e-07 
0 0 0 0 0 
-2.541970024878369e-07 -2.305197036409045e-07 -2.305514664674117e-07 -2.098502411219832e-07 3.884088842136482e-07 
-5.994990346963821e-07 -5.584998557635169e-07 1.146476685033831e-06 -5.517488905326838e-07 -4.464326954421755e-07 
5.028799628587497e-07 -2.727036912126702e-07 -2.956647741246276e-07 -2.086011129600175e-07 -2.302665123639129e-07 
5.0287996285875e-07 -2.727036912126702e-07 -2.956647741246277e-07 -2.086011129600174e-07 -2.30266512363913e-07 
2.914147934849089e-06 -1.766221218357788e-06 -1.940565151736236e-06 -9.396658828849884e-07 -1.47219709367443e-06 
0 0 0 0 0 
1.711770334086808e-06 -1.37006469273244e-06 -6.094207539815936e-07 -1.11027889710641e-06 -1.14428239717674e-06 
-8.25054738427285e-07 -1.039992568654137e-06 -1.33261205590776e-06 2.495526359000921e-06 -7.247841559276139e-07 
5.931427712001592e-06 -3.40244336563381e-06 -3.714553796484001e-06 -2.191272560645093e-06 -2.853796167857908e-06 
-1.707392074368439e-06 -1.578039118808844e-06 1.831850437132836e-06 -1.523198263309334e-06 -1.160476224570555e-07 
2.417780742456117e-06 -2.194722003039538e-06 -6.275119597139338e-07 -1.803355568292788e-06 -1.828031769625654e-06 
0 0 0 0 0 
3.417027897707837e-06 -2.038924909570459e-06 -2.236229925860861e-06 -1.148266995845008e-06 -1.702463606038341e-06 
-4.496242760222872e-06 -4.188748918226376e-06 8.598575137753738e-06 -4.138116678995127e-06 -3.348245215816318e-06 
0 0 0 0 0 
-1.233806224854788e-05 -1.163756257456247e-05 2.194222158216139e-05 -9.353870498223517e-06 -9.307448827172476e-06 
-1.031318423034106e-07 -1.299990710817672e-07 -1.779532766178887e-07 3.922724297362037e-07 -9.059801949095178e-08 
-5.08394004975674e-07 -4.610394072818089e-07 -4.611029329348234e-07 -4.197004822439664e-07 7.768177684272961e-07 
3.308722450212111e-24 1.654361225106055e-24 0 8.271806125530277e-25 -3.308722450212111e-24 
1.308888974435205e-06 -1.779313691695965e-06 -2.027589184531494e-07 -1.074212547497638e-06 -1.458096764388779e-06 
-1.153445554532412e-06 -1.06826948728618e-06 1.489163561083334e-06 -1.037473576921007e-06 -2.812401589496156e-07 
-8.366581351899471e-06 -9.800898132659216e-06 -5.160282000016794e-06 1.602739909741664e-05 -6.978270674883029e-06 
4.860545652533874e-06 -2.333423420128819e-06 -3.130396088575784e-06 -2.219313260599576e-06 -2.420695014146896e-06 
5.231930074098064e-06 -3.278990531221131e-06 -2.679074172853987e-06 -2.570486687826536e-06 -2.756147983724129e-06 
2.026726240288328e-05 -1.224257459033657e-05 -1.150199529466794e-05 -9.522845875975395e-06 -9.729217330512866e-06 
-2.997495173481911e-07 -2.792499278817586e-07 5.732383425169153e-07 -2.758744452663419e-07 -2.232163477210879e-07 
-8.633420467462604e-07 -8.997668447679652e-07 -1.570426449159068e-07 4.500976982370207e-07 -1.066015219802951e-07 
-2.903980231150136e-07 -2.929118272464982e-07 -2.971311231935274e-07 -3.46257900632913e-07 5.991424088066927e-07 
-7.681050495804361e-07 -1.425302209417193e-06 -1.448422106461686e-06 -1.257852318569933e-06 1.711777908704328e-06 
-5.338137052244585e-06 -4.840913776458992e-06 -4.841580795815646e-06 -4.464639980664383e-06 8.162962511914947e-06 
-3.197087111405729e-06 -4.029971203534776e-06 -5.1863254356296e-06 9.75049627598966e-06 -2.808538604219504e-06 
-1.031318423034108e-07 -1.933399234993209e-07 1.642288994719846e-08 1.973642166584511e-07 -1.883167418576568e-07 
-8.271806125530277e-24 -3.474158572722716e-23 -2.192028623265523e-23 -2.067951531382569e-24 0 
0 0 0 0 0 
-2.541970024878369e-07 -2.305197036409044e-07 -2.305514664674117e-07 -2.098502411219832e-07 3.884088842136481e-07 
-2.261338594204467e-06 -2.087808750331506e-06 2.174537313182337e-06 -2.008922949697658e-06 4.914491403550468e-08 
6.617444900424221e-24 3.308722450212111e-24 -9.926167350636332e-24 0 1.737079286361358e-23 
-2.997495173481911e-07 -2.792499278817586e-07 5.732383425169153e-07 -2.758744452663419e-07 -2.232163477210878e-07 
-6.187910538204634e-07 -7.799944264906023e-07 -9.994590419308199e-07 1.871644769250692e-06 -5.435881169457103e-07 
5.028799628587501e-07 -2.727036912126702e-07 -2.956647741246278e-07 -2.086011129600175e-07 -2.302665123639129e-07 
-3.573288447912476e-07 -3.605187747226715e-07 -3.971279734558818e-07 1.020905537531321e-07 2.978108647226962e-07 
-1.031318423034106e-06 -1.299990710817671e-06 -1.6657650698847e-06 3.119407948751153e-06 -9.059801949095176e-07 
0 -6.617444900424221e-24 1.654361225106055e-24 -3.308722450212111e-24 -6.617444900424221e-24 
-7.625910074635114e-07 -6.915591109227141e-07 -6.91654399402235e-07 -6.295507233659494e-07 1.165226652640945e-06 
-1.016788009951349e-06 -9.220788145636178e-07 -9.22205865869647e-07 -8.394009644879329e-07 1.553635536854592e-06 
0 0 0 0 0 
0 0 0 0 0 
6.617444900424221e-24 0 6.617444900424221e-24 0 0 
0 0 0 0 0 
5.0287996285875e-07 -2.727036912126702e-07 -2.956647741246277e-07 -2.086011129600175e-07 -2.30266512363913e-07 
-5.083940049756737e-07 -4.610394072818089e-07 -4.611029329348233e-07 -4.197004822439664e-07 7.768177684272962e-07 
-2.997495173481911e-07 -2.792499278817586e-07 5.732383425169154e-07 -2.758744452663419e-07 -2.232163477210878e-07 
0 0 8.271806125530277e-25 0 0 
3.308722450212111e-24 1.654361225106055e-24 8.271806125530277e-24 -3.308722450212111e-24 0 
-2.997495173481911e-07 -2.792499278817586e-07 5.732383425169153e-07 -2.758744452663419e-07 -2.232163477210879e-07 
0 0 0 0 0 
-1.682539760536247e-07 3.936134919978859e-07 -1.73748347329511e-07 -1.333021309994021e-07 -1.180298905077659e-07 
-6.617444900424221e-24 0 0 0 0 
0 0 0 0 0 
0 1.654361225106055e-24 -2.481541837659083e-24 0 -4.549493369041652e-24 
9.026280834140896e-07 -6.75406453507108e-07 -7.579060552377248e-07 -1.052614310449196e-07 -5.511310442187778e-07 
0 0 0 0 0 
0 0 8.271806125530277e-25 0 0 
-6.617444900424221e-24 0 0 0 -3.308722450212111e-24 
0 0 0 0 0 
1.0057599257175e-06 -5.454073824253403e-07 -5.913295482492553e-07 -4.172022259200349e-07 -4.605330247278259e-07 
-2.033576019902696e-06 -1.844157629127236e-06 -1.844411731739293e-06 -1.678801928975866e-06 3.107271073709185e-06 
0 0 0 0 0 
7.060104083693086e-07 -8.246573103070987e-07 -1.809120573233968e-08 -6.930766711863764e-07 -6.837493724489139e-07 
-2.541970024878369e-07 -2.305197036409044e-07 -2.305514664674117e-07 -2.098502411219832e-07 3.884088842136481e-07 
0 0 0 0 0 
0 0 8.271806125530277e-25 0 0 
-2.997495173481911e-07 -2.792499278817585e-07 5.732383425169154e-07 -2.75874445266342e-07 -2.232163477210879e-07 
-2.541970024878369e-07 -2.305197036409044e-07 -2.305514664674117e-07 -2.098502411219832e-07 3.88408884213648e-07 
0 0 0 0 -3.308722450212111e-24 
0 0 0 0 0 
0 0 0 0 0 
-2.353037027547893e-07 -2.268191028468325e-07 2.433552991696986e-07 1.574696876633555e-07 -2.396191880862395e-07 
-1.601879429044368e-06 -1.526248710490558e-06 2.699615205596104e-06 -1.067431431456593e-06 -1.206679758096391e-06 
-6.617444900424221e-24 0 0 0 0 
0 0 0 0 0 
0 0 0 0 0 
5.0287996285875e-07 -2.727036912126702e-07 -2.956647741246277e-07 -2.086011129600174e-07 -2.30266512363913e-07 
0 0 8.271806125530277e-25 0 0 
5.028799628587499e-07 -2.727036912126702e-07 -2.956647741246277e-07 -2.086011129600175e-07 -2.30266512363913e-07 
-1.067502528098198e-06 -4.44136291647389e-07 1.545966680221234e-06 -9.609254667984277e-07 -7.876789336710298e-07 
1.50863988857625e-06 -8.181110736380105e-07 -8.86994322373883e-07 -6.258033388800521e-07 -6.907995370917392e-07 
-2.895132143935597e-23 1.985233470127266e-23 9.769175732917743e-08 -1.105098422426177e-07 -3.722312756488625e-24 
5.028799628587498e-07 -2.727036912126703e-07 -2.956647741246277e-07 -2.086011129600175e-07 -2.30266512363913e-07 
0 0 0 0 0 
0 0 0 0 0 
-1.270985012439185e-06 -1.152598518204523e-06 -1.152757332337059e-06 -1.049251205609916e-06 1.942044421068239e-06 
5.0287996285875e-07 -2.727036912126702e-07 -2.956647741246277e-07 -2.086011129600174e-07 -2.30266512363913e-07 
-1.856373161461392e-06 -2.339983279471808e-06 -2.998377125792461e-06 5.614934307752072e-06 -1.630764350837131e-06 
0 0 0 0 0 
0 0 8.271806125530277e-25 0 0 
-2.541970024878369e-07 -2.305197036409044e-07 -2.305514664674117e-07 -2.098502411219832e-07 3.884088842136481e-07 
-2.99749517348191e-07 -2.792499278817586e-07 5.732383425169153e-07 -2.758744452663419e-07 -2.232163477210878e-07 
-1.985233470127266e-23 1.571643163850753e-23 4.963083675318166e-24 -1.323488980084844e-23 -3.970466940254533e-23 
1.203376329111133e-06 -1.831104100014248e-06 -1.070523686916419e-06 -1.529979379350377e-06 -3.674646287494437e-07 
5.0287996285875e-07 -2.727036912126702e-07 -2.956647741246277e-07 -2.086011129600174e-07 -2.30266512363913e-07 
-1.276147015725682e-06 -6.259257710474395e-07 5.116254047694952e-07 -1.104751503776052e-06 2.123551824773544e-07 
-2.033576019902697e-06 -1.844157629127236e-06 -1.844411731739293e-06 -1.678801928975866e-06 3.107271073709185e-06 
2.031304455105588e-07 -5.519536190944288e-07 2.775735683922875e-07 -4.844755582263593e-07 -4.534828600850008e-07 
-3.573288447912476e-07 -3.605187747226714e-07 -3.97127973455882e-07 1.020905537531321e-07 2.978108647226963e-07 
-2.541970024878371e-07 -2.305197036409045e-07 -2.305514664674117e-07 -2.098502411219833e-07 3.884088842136481e-07 
6.617444900424221e-24 0 -1.654361225106055e-24 -1.654361225106055e-24 -6.617444900424221e-24 
-1.682539760536247e-07 3.936134919978859e-07 -1.737483473295111e-07 -1.333021309994022e-07 -1.180298905077659e-07 
5.0287996285875e-07 -2.727036912126702e-07 -2.956647741246276e-07 -2.086011129600175e-07 -2.30266512363913e-07 
-9.661907183763225e-08 -8.312035469761871e-07 8.508119109092028e-07 -7.603500034927014e-07 -6.766992078060889e-07 
-5.539465198360288e-07 -5.097696315226636e-07 3.426868760495034e-07 -4.857246863883247e-07 1.651925364925601e-07 
