solver_type L2R_L2LOSS_SVC_DUAL
nr_class 2
label 2 1
nr_feature 1182
bias -1
w
-2.180448094689781e-21 
-3.484084740073353e-21 
-4.168990287267259e-22 
-2.421323089065223e-20 
2.243313821243811e-20 
-2.848810029632627e-21 
6.617444900424221e-24 
-1.882663074170691e-21 
7.676236084492097e-22 
6.617444900424221e-24 
-7.689470974292945e-21 
5.227781471335135e-22 
-6.002022524684769e-21 
-5.624828165360588e-23 
-3.742165091189897e-21 
4.859686098749038e-24 
-4.137971014296521e-22 
-2.911675756186657e-22 
-7.715940753894642e-21 
-2.152323953862978e-20 
-4.380417651835813e-20 
4.859686098749038e-24 
2.349192939650599e-22 
0 
-4.996170899820287e-21 
-3.88774887899923e-20 
7.236506870858907e-20 
-4.137971014296521e-22 
-2.324480918850577e-21 
3.785385278195793e-22 
5.317116977490862e-21 
6.617444900424221e-24 
1.293710478032935e-21 
4.859686098749038e-24 
-6.511565782017434e-21 
-9.767348673026151e-21 
-0.01237155660801121 
-0.004824663051788111 
-2.776018135727961e-21 
-0.003342028461516865 
0.002102432547353117 
5.169547956211402e-20 
-0.01447398915536433 
0.01051216273676559 
0.003585067137624365 
1.48892510259545e-22 
-0.002722230504434992 
-2.06898550714826e-22 
3.308722450212111e-24 
-0.004824663051788108 
-0.009649326103576215 
-9.972489464939302e-21 
-0.002722230504434992 
-1.454150429643721e-19 
2.47120208000217e-23 
0.002102432547353118 
0.004204865094706238 
4.367513634279986e-21 
0.004204865094706236 
9.719372197498075e-24 
-5.24816113367691e-20 
-2.06898550714826e-22 
-0.003961826418598732 
1.146009107855467e-19 
0.007789932232330604 
-0.004824663051788108 
2.166179229123241e-22 
0.002102432547353119 
-1.555099551599692e-21 
8.212249121426459e-21 
-0.009649326103576215 
-3.899122612421834e-22 
1.202852959550111e-19 
1.323488980084844e-23 
7.265954500665795e-20 
7.669618639591673e-21 
3.255749803784215e-19 
0.009272566822601847 
-5.501412817967676e-20 
5.151019110490214e-20 
0.003585067137624366 
-4.542214179651186e-20 
-1.699028978183919e-20 
-8.696976960382533e-20 
0.002102432547353119 
-0.002722230504434991 
0.01051216273676559 
0.004204865094706236 
-8.275942028593042e-22 
0.002102432547353119 
-4.168990287267259e-22 
1.48892510259545e-22 
-5.722642272794984e-21 
-2.06898550714826e-22 
4.859686098749038e-24 
-3.143286327701505e-22 
0.01261459528411871 
-1.905617336169038e-22 
-2.06898550714826e-22 
2.214776090110732e-22 
8.585100782534736e-22 
-0.001239595914163743 
3.838118042246048e-22 
-3.844735487146473e-21 
1.290401755582723e-22 
-2.308144101752655e-21 
2.265482261660232e-20 
-3.609816193181413e-21 
-1.025703959565754e-22 
-8.355558162551271e-22 
-1.239633545487281e-21 
8.602678370551488e-23 
1.039931466101666e-20 
0.002102432547353119 
2.166179229123241e-22 
2.646977960169689e-22 
-1.757758801675184e-24 
4.623608751926403e-20 
-4.003554164756654e-22 
-0.004824663051788105 
-1.835017470887637e-20 
0.002102432547353118 
-2.597347123416507e-21 
4.164854384204494e-22 
-6.14429759004389e-21 
7.606752913037642e-21 
-4.761251605855227e-21 
1.48892510259545e-22 
2.166179229123241e-22 
2.9778502051909e-22 
-1.147134073488539e-20 
1.111730743271269e-21 
4.43461866147335e-21 
-0.005444461008869983 
4.632211430296955e-23 
-0.00816669151330497 
-2.332649327399538e-21 
2.188058156325269e-20 
-7.537269741583188e-21 
9.884808320008681e-23 
4.457366128318559e-20 
-1.04810401055369e-19 
-2.06898550714826e-22 
4.859686098749038e-24 
-1.029012682015966e-21 
-1.973652941551524e-20 
0.002102432547353119 
0.004204865094706235 
-3.632977250332898e-21 
0.002102432547353118 
-5.029258124322408e-22 
-3.37952911064665e-20 
7.927698990708217e-21 
-2.345884217200386e-21 
8.602678370551488e-23 
-2.242221942835241e-19 
-2.534481396862477e-21 
3.308722450212111e-24 
2.166179229123241e-22 
0.00420486509470624 
-3.732238923839261e-20 
4.301339185275744e-23 
-3.033250626716639e-20 
-3.298134538371432e-20 
-2.808112743495018e-20 
-1.177905192275511e-21 
-0.004824663051788109 
1.628884062239422e-20 
0.002102432547353119 
3.523458537230877e-20 
2.166179229123241e-22 
0.002102432547353119 
-4.188842621968532e-21 
-8.275942028593042e-22 
-6.22370692884898e-21 
-3.130051437900657e-21 
5.757177063369073e-22 
-1.373119816838026e-21 
-3.776244932427082e-20 
-8.332355746369158e-20 
-2.06898550714826e-22 
-7.496324301261813e-23 
-8.238718901028156e-22 
5.370056536694256e-21 
6.617444900424221e-24 
4.986906476959693e-20 
-6.28657265540301e-23 
-4.755254546414218e-22 
-6.414289341981198e-20 
-4.907828010399624e-20 
-0.004824663051788109 
-4.143513124400626e-20 
-1.117686443681651e-20 
0.002102432547353119 
4.301339185275744e-23 
-5.816734067472891e-21 
-0.00482466305178811 
-1.620612256113892e-20 
-3.383830449831926e-20 
-0.0006197979570818714 
-1.720535674110298e-22 
2.293540228038031e-19 
0.006307297642059357 
4.94240416000434e-23 
6.068196973689011e-21 
-2.912999245166742e-20 
-3.46423240537208e-20 
9.719372197498075e-24 
0.002102432547353119 
-0.004824663051788111 
5.37667398159468e-21 
0.002102432547353119 
0.004204865094706238 
-0.0006197979570818716 
0.006307297642059355 
0.008409730189412472 
-1.988211320332457e-20 
8.664716916492965e-22 
-2.536466630332604e-20 
-6.140782072440539e-22 
-0.009649326103576219 
5.955700410381799e-23 
0.01892189292617807 
2.214776090110732e-22 
-7.219632386362826e-21 
0.002102432547353119 
-3.69915169933714e-21 
0.002102432547353119 
-1.311908451509102e-20 
-8.106370003019671e-21 
4.214650657080187e-20 
3.341809674714232e-22 
0.002102432547353119 
-3.319269003022162e-21 
2.370037891086935e-20 
-2.581630691777999e-21 
3.606507470731201e-22 
-2.021530155406093e-19 
-0.002722230504434992 
-1.861673366127158e-21 
-8.355558162551271e-22 
-2.723078576524567e-21 
-4.235164736271502e-22 
-4.503171254738683e-21 
-3.540333021726958e-22 
-2.243313821243811e-21 
-2.06898550714826e-22 
-3.513863242125262e-21 
0.008409730189412472 
9.719372197498075e-24 
6.617444900424221e-23 
-2.518144579764554e-21 
-0.0006197979570818724 
2.316105715148477e-23 
-1.462124450748732e-20 
0.002102432547353119 
-7.146840492458159e-22 
-1.181255273756351e-20 
-2.729696021424991e-21 
7.345363839470886e-22 
0.002102432547353118 
6.187310981896647e-22 
2.47120208000217e-23 
6.552263068155043e-20 
0.002102432547353118 
-3.639594695233322e-23 
4.859686098749038e-24 
1.356576204586965e-22 
4.349936046263234e-21 
1.809705744143514e-19 
8.003799607063096e-21 
-0.004824663051788107 
9.854698945711751e-20 
1.584878053651601e-20 
-2.316105715148477e-22 
0.002102432547353118 
1.637817612854995e-21 
3.846389848371579e-20 
1.48892510259545e-22 
-1.836340959867721e-21 
-2.666830294870961e-21 
-1.461111154498354e-21 
6.154223757394526e-22 
6.617444900424221e-24 
4.859686098749038e-24 
4.859686098749038e-24 
-1.029343554260988e-20 
8.536503921547246e-22 
4.155755397466411e-21 
-4.137971014296521e-22 
-2.729696021424991e-21 
3.308722450212111e-24 
4.332358458246482e-22 
2.166179229123241e-22 
0 
6.617444900424221e-24 
6.617444900424221e-24 
4.859686098749038e-24 
9.719372197498075e-24 
-2.06898550714826e-22 
3.450377130111817e-22 
6.488404724865949e-21 
1.919059021123024e-22 
4.859686098749038e-24 
-8.533195199097033e-20 
1.124965633072118e-22 
4.859686098749038e-24 
2.559090020085929e-22 
-4.360896189379562e-21 
-3.836050090714666e-23 
-2.173830649789357e-21 
-0.001239595914163743 
-2.298801096733868e-19 
3.443139299751978e-23 
-1.257314531080602e-22 
-9.926167350636332e-22 
-6.764786447035229e-21 
-2.206256129801435e-20 
9.719372197498075e-24 
0.001482634590271246 
-9.496033432108758e-22 
-0.002722230504434991 
0.004204865094706236 
-1.216989476218642e-22 
-0.005444461008869983 
-3.788487205492867e-21 
4.859686098749038e-24 
-1.461111154498354e-21 
-1.261946742510899e-20 
1.717226951660085e-21 
-1.671111632510254e-21 
0.004204865094706238 
1.9670354966511e-20 
-3.845728103881536e-20 
4.332358458246482e-22 
-7.146840492458159e-21 
-1.461111154498354e-21 
0.002102432547353118 
3.35504456451508e-20 
8.664716916492965e-22 
9.719372197498075e-24 
-9.133728323810532e-21 
-2.150669592637872e-21 
-6.28657265540301e-23 
2.543084075233028e-20 
-0.009649326103576222 
-0.001239595914163743 
-9.658160832169151e-21 
2.734989977345331e-20 
2.065205291748893e-19 
-0.009649326103576222 
0.004204865094706238 
7.684507890617627e-20 
1.624251850809125e-20 
-1.885971796620903e-22 
-7.626605247738915e-21 
-6.454324883628764e-20 
8.184455852844677e-20 
0.004204865094706235 
4.859686098749038e-24 
1.402898318889935e-21 
-4.433688083284228e-22 
-3.143286327701505e-22 
-0.0006197979570818719 
1.385362089903811e-20 
-3.347434502879592e-20 
-1.297350072728169e-20 
-7.746050128191572e-20 
0.002102432547353119 
4.332358458246482e-22 
-1.369811094387814e-21 
5.09543257332665e-22 
-5.194694246833014e-22 
3.751429514050491e-20 
4.301339185275744e-23 
-4.137971014296521e-22 
0.002102432547353119 
-1.57362839732088e-20 
4.332358458246482e-22 
-0.002722230504434992 
4.859686098749038e-24 
1.48892510259545e-22 
-9.926167350636332e-24 
1.408192274810274e-20 
2.166179229123241e-22 
0 
2.590795852965087e-19 
1.817729396085278e-22 
0.004204865094706236 
-3.485739101298459e-20 
-6.617444900424221e-24 
0.002102432547353119 
2.480218348678998e-20 
2.166179229123241e-22 
0.002102432547353119 
1.809457589959748e-23 
-0.00482466305178811 
-4.632211430296955e-23 
-0.002722230504434991 
-0.00272223050443499 
0.002102432547353119 
0.004204865094706238 
-0.0006197979570818715 
-1.194779676771593e-20 
7.123679435306674e-21 
0.004204865094706238 
0.004204865094706237 
-7.133936474902332e-20 
0.001482634590271246 
-2.580803511165446e-21 
0.002102432547353119 
2.094421310984266e-21 
8.787966827763366e-21 
-1.687448449608176e-22 
-0.00272223050443499 
-1.710940379004682e-20 
-1.757758801675184e-24 
-1.36319364948739e-21 
0.002102432547353118 
2.166179229123241e-22 
-1.757758801675184e-24 
-2.933513324358057e-20 
-0.00482466305178811 
6.617444900424221e-24 
7.444625512977249e-22 
-1.240770918829542e-21 
0.002102432547353119 
-2.590729678516083e-21 
7.342055117020674e-21 
1.25400580863039e-21 
0 
-5.981549804524081e-22 
3.407984123718474e-22 
-0.004824663051788109 
1.290401755582723e-22 
-1.462455322993753e-21 
-2.180448094689781e-21 
-5.040507780653129e-20 
-0.002722230504434991 
-0.004824663051788112 
8.52128379827627e-20 
-4.137971014296521e-22 
4.632211430296955e-23 
2.166179229123241e-22 
1.928985188473661e-21 
3.308722450212111e-24 
2.514629062161204e-22 
7.520726129332128e-21 
0.002102432547353118 
2.52455522951184e-21 
0.004204865094706236 
0.002102432547353119 
-2.06898550714826e-22 
1.48892510259545e-22 
-8.635765595053609e-22 
-6.617444900424221e-24 
0.004204865094706238 
-1.236118027883931e-21 
2.295426199834652e-23 
-7.113753267956038e-21 
6.617444900424221e-24 
4.859686098749038e-24 
-0.0006197979570818714 
-6.603217393888309e-20 
2.415367388654841e-21 
3.904292491250291e-22 
4.859686098749038e-24 
0.001482634590271247 
7.133605602657311e-21 
-2.746239633676052e-22 
-2.316105715148477e-22 
-3.186630591799284e-19 
7.213014941462401e-22 
6.617444900424221e-24 
-5.446157153049134e-20 
-6.28657265540301e-23 
-6.28657265540301e-23 
-1.790846026177305e-22 
2.119650319667133e-23 
-8.377354371692043e-20 
4.859686098749038e-24 
-1.278225656965943e-19 
0 
-1.649398141430737e-20 
4.301339185275744e-23 
5.955700410381799e-22 
-6.454986628118807e-20 
-4.240458692191841e-20 
-2.483713186767035e-21 
-1.687448449608176e-22 
4.767869050755652e-20 
2.316105715148477e-23 
2.183756817139993e-22 
1.48892510259545e-22 
-1.522012327097571e-21 
1.985233470127266e-23 
4.859686098749038e-24 
0.002102432547353119 
-2.528525696452095e-20 
-1.757758801675184e-24 
2.166179229123241e-22 
0 
-0.00482466305178811 
2.166179229123241e-22 
1.489917719330513e-20 
-0.004824663051788109 
-8.271806125530277e-23 
-1.37709028377828e-20 
-1.131996668278818e-21 
-2.369045274351871e-21 
8.271806125530277e-22 
-7.416832244395467e-20 
-1.03500146965085e-19 
-0.002722230504434992 
-2.003431443603433e-19 
4.429552180221463e-22 
-2.06898550714826e-22 
1.291394372317787e-20 
6.617444900424221e-24 
2.166179229123241e-22 
-0.00816669151330497 
2.349192939650599e-22 
-3.788487205492867e-21 
-6.260102875801313e-20 
-4.137971014296521e-22 
-1.905617336169038e-22 
-3.146595050151717e-21 
-1.121656910621906e-21 
4.859686098749038e-24 
-3.805030817743927e-22 
8.07328277851755e-22 
-4.10910241091842e-20 
2.140743425287236e-21 
0.002102432547353119 
-2.664514189155813e-20 
6.617444900424221e-24 
-6.021874859386041e-22 
-1.790846026177305e-22 
4.859686098749038e-24 
8.664716916492965e-22 
2.166179229123241e-22 
2.119650319667133e-23 
-1.322558401895722e-21 
-3.143286327701505e-22 
4.859686098749038e-24 
-2.06898550714826e-22 
-2.481872709904104e-20 
-1.013296250377459e-23 
-2.06898550714826e-22 
2.416029133144883e-20 
-2.922222308996709e-21 
-6.764786447035229e-21 
9.719372197498075e-24 
-7.496324301261813e-23 
-1.323488980084844e-23 
-2.06898550714826e-22 
-0.004824663051788108 
-5.837909891154248e-20 
2.119650319667133e-23 
4.429552180221463e-22 
4.332358458246482e-22 
-1.608039110803086e-21 
-4.137971014296521e-22 
-1.236118027883931e-21 
-8.275942028593042e-22 
-6.683619349428464e-22 
-3.143286327701505e-22 
-2.06898550714826e-22 
4.859686098749038e-24 
-0.00482466305178811 
-4.433688083284228e-22 
-0.004824663051788108 
2.119650319667133e-23 
-2.514629062161204e-22 
-8.275942028593042e-22 
-6.28657265540301e-23 
-5.024812028529936e-21 
-3.110199103199384e-22 
-3.407984123718474e-22 
-2.051407919131509e-22 
-0.002722230504434991 
1.48892510259545e-22 
-8.867376166568457e-22 
4.859686098749038e-24 
4.268251960773623e-22 
-0.04342196746609297 
2.349192939650599e-22 
-0.009649326103576213 
2.166179229123241e-22 
-4.137971014296521e-22 
-1.885971796620903e-22 
-1.885971796620903e-22 
-0.0075468935562231 
-4.046567556609411e-20 
-3.639594695233322e-22 
-1.461111154498354e-21 
3.308722450212111e-24 
3.683600703821143e-20 
6.617444900424221e-24 
-2.860721430453391e-20 
0.002102432547353119 
-6.735897164141815e-20 
9.165161187087547e-21 
3.262400335909141e-20 
0.002102432547353119 
4.859686098749038e-24 
-8.612604537902124e-21 
1.084533044730526e-19 
2.295426199834652e-23 
-2.9232562847624e-20 
9.542355546411727e-21 
-0.009649326103576222 
6.128684555981951e-21 
-1.461111154498354e-21 
1.591495498552025e-21 
1.999229366091664e-19 
1.909132853772388e-20 
-2.551025009113537e-21 
1.79498192924007e-20 
4.859686098749038e-24 
-6.683619349428464e-22 
-4.473392752686774e-21 
2.295426199834652e-23 
5.101719145982053e-20 
4.466775307786349e-22 
4.859686098749038e-24 
-0.004824663051788108 
2.549701520133453e-20 
-8.031923747889899e-20 
2.214776090110732e-22 
-0.01237155660801121 
-2.941454258238566e-21 
1.943874439499615e-23 
3.865001412154022e-22 
-5.345902862807707e-20 
-3.374896899216353e-22 
-1.392972151539299e-20 
2.328513424336773e-21 
-1.773806105558713e-19 
0.002102432547353118 
6.090117259921666e-23 
-4.668607377249288e-21 
-2.746239633676052e-22 
2.514629062161204e-22 
4.332358458246482e-22 
-2.506667448765381e-21 
6.798432018450824e-20 
-1.024016511116146e-19 
-2.316105715148477e-22 
2.62811824220348e-20 
-2.06898550714826e-22 
2.119650319667133e-23 
-1.671111632510254e-21 
-1.078643518769148e-21 
0.006307297642059357 
-4.834870680372447e-22 
-8.943476782923335e-21 
2.428602278455689e-21 
-6.121136532892405e-22 
-5.396526316295953e-21 
-5.955700410381799e-23 
8.933550615572699e-22 
-5.928817040473826e-22 
-2.028246861980024e-21 
0.002102432547353119 
-0.004824663051788109 
-1.796967162710197e-20 
4.859686098749038e-24 
5.955700410381799e-23 
-1.399589596439723e-21 
0.002102432547353119 
1.61465655570351e-21 
-1.954462351340294e-20 
-1.885971796620903e-22 
-0.004824663051788108 
-4.979627287569227e-20 
-2.32487382964154e-19 
2.9778502051909e-22 
-0.004824663051788109 
2.576171299735149e-20 
-4.632211430296955e-22 
-5.053080925963935e-20 
0.002102432547353119 
4.859686098749038e-24 
1.240009912665993e-19 
1.48892510259545e-22 
2.166179229123241e-22 
-5.861401820550754e-20 
2.166179229123241e-22 
4.332358458246482e-22 
4.332358458246482e-22 
4.82742605485947e-21 
-2.031555584430236e-21 
-1.161361580024451e-21 
-9.410006648403243e-21 
2.782635580628385e-20 
5.742618684588139e-20 
0.006307297642059354 
-4.03796487823886e-19 
5.879599794026921e-21 
-0.004824663051788108 
-5.062345348824529e-22 
1.498851269946086e-21 
2.166179229123241e-22 
-2.959983103959754e-20 
-5.062345348824529e-22 
-3.450997515571231e-21 
0.002102432547353119 
-2.746239633676052e-22 
-1.941558333784467e-20 
2.295426199834652e-23 
-4.360896189379562e-21 
-1.328452063760162e-20 
-4.963083675318166e-23 
4.738710934163157e-22 
-1.565025718950328e-21 
-2.666830294870961e-21 
-0.00482466305178811 
-2.06898550714826e-22 
3.250158062843356e-20 
-0.0006197979570818718 
-2.815722805130506e-21 
-4.459496118395883e-20 
-1.354105002506963e-20 
5.724089838866952e-22 
-0.006064258965951852 
-1.687448449608176e-22 
3.838118042246048e-22 
1.48892510259545e-22 
0.00210243254735312 
9.439785150455152e-21 
6.617444900424221e-24 
-1.905617336169038e-22 
1.290401755582723e-22 
6.815968247436948e-22 
-2.521660097367905e-21 
1.48892510259545e-22 
-5.911239452457074e-22 
-1.461111154498354e-21 
2.119650319667133e-23 
-3.953923328003472e-21 
2.461896298110949e-22 
2.329547400102464e-22 
9.719372197498075e-24 
-6.419583297901537e-20 
1.186507870646063e-20 
-2.109620754739928e-21 
4.859686098749038e-24 
-3.143286327701505e-22 
-6.28657265540301e-23 
-0.002722230504434991 
1.051511994677409e-20 
-0.004824663051788108 
-3.342223265020508e-21 
-2.06898550714826e-22 
-1.098495853470421e-21 
1.919059021123024e-22 
-6.764786447035229e-21 
-3.196225886904899e-21 
-1.461111154498354e-21 
9.181704799338607e-23 
-2.06898550714826e-22 
-1.687448449608176e-22 
-2.928219368437718e-21 
4.859686098749038e-24 
1.48892510259545e-22 
-1.848914105178527e-20 
1.654361225106055e-23 
-2.514629062161204e-22 
2.329547400102464e-22 
-6.140782072440539e-22 
-2.06898550714826e-22 
1.48892510259545e-22 
-4.102815838263017e-21 
3.290855348980965e-20 
-1.757758801675184e-24 
-8.275942028593042e-22 
-1.819797347616661e-21 
-5.84889071378589e-21 
-1.251027958425199e-20 
-3.970466940254533e-23 
-9.548972991312151e-21 
1.323488980084844e-23 
0.002102432547353118 
-2.666830294870961e-21 
-0.002722230504434991 
-2.06898550714826e-22 
0.002102432547353119 
-2.06898550714826e-22 
-1.608039110803086e-21 
-1.65568471408614e-20 
2.605387318970522e-19 
-1.354105002506963e-20 
9.719372197498075e-24 
6.528771138758537e-20 
3.606507470731201e-22 
0.002102432547353119 
4.332358458246482e-22 
2.347124988119216e-22 
-4.137971014296521e-22 
-3.35504456451508e-21 
-0.004824663051788111 
-4.354278744479138e-21 
-3.805030817743927e-22 
2.9778502051909e-22 
-3.308722450212111e-24 
3.606507470731201e-22 
1.48892510259545e-22 
4.830838174886251e-21 
-3.805030817743927e-22 
-2.220152764092326e-21 
4.859686098749038e-24 
-1.782739656174285e-20 
-3.662755752384807e-21 
0.002965269180542495 
2.9778502051909e-22 
-6.28657265540301e-23 
2.9778502051909e-22 
0.002102432547353119 
6.617444900424221e-24 
0.008409730189412474 
-1.050757192368454e-20 
6.617444900424221e-24 
1.48892510259545e-22 
-6.964860757696493e-21 
-1.072026073868724e-21 
-7.223271981058059e-20 
-3.499635735589349e-20 
3.035091103579569e-20 
-4.137971014296521e-22 
-1.888039748152286e-22 
2.47120208000217e-23 
-2.06898550714826e-22 
9.32728858714794e-20 
-2.06898550714826e-22 
1.461561967932196e-19 
-2.06898550714826e-22 
1.48892510259545e-22 
4.301339185275744e-23 
4.301339185275744e-23 
-1.671111632510254e-21 
5.624828165360588e-23 
1.48892510259545e-22 
-1.663150019114431e-21 
-1.757758801675184e-24 
4.268251960773623e-22 
2.689991352022446e-21 
-1.676074716185572e-22 
-3.467334332669154e-21 
4.544323490213196e-22 
-4.137971014296521e-22 
4.301339185275744e-23 
-8.66885281955573e-22 
-2.324480918850577e-21 
2.150669592637872e-22 
-3.910909936150715e-21 
1.965381135425994e-21 
-3.047023183915647e-20 
-6.172835321176969e-23 
0.002102432547353119 
-2.06898550714826e-22 
2.166179229123241e-22 
-2.012695866464027e-20 
4.466775307786349e-22 
-2.708706313381458e-21 
4.859686098749038e-24 
1.919059021123024e-22 
4.859686098749038e-24 
-2.455072058057386e-21 
0.008409730189412476 
-2.746239633676052e-22 
1.555761296089734e-20 
-1.236118027883931e-21 
1.759247726777779e-20 
1.645758546735504e-20 
-5.853130014425224e-21 
-1.257314531080602e-22 
-4.8902917814135e-21 
-0.004824663051788108 
7.097209655704977e-21 
-3.805030817743927e-22 
3.209460776705747e-22 
-1.087510894935717e-19 
0.002102432547353119 
2.47120208000217e-23 
8.536503921547246e-22 
0.002102432547353118 
2.119650319667133e-23 
-1.757758801675184e-24 
2.834913395341736e-20 
-0.004824663051788109 
-2.568892110344683e-20 
4.859686098749038e-24 
-1.433007693186865e-20 
-3.006305218262724e-20 
9.519194489260242e-21 
-1.20205886616206e-20 
-0.00964932610357622 
-8.069974056067338e-21 
0.002102432547353119 
-1.757758801675184e-24 
-5.062345348824529e-21 
0.004204865094706239 
3.443139299751978e-23 
2.448454613156962e-21 
-2.894801271690576e-20 
-1.716896079415064e-20 
4.579478666246699e-22 
-1.106999270167466e-19 
0.002102432547353119 
-3.623712827472304e-20 
-4.003554164756654e-22 
-2.132471619161705e-20 
2.166179229123241e-22 
4.466775307786349e-22 
1.48892510259545e-22 
-1.861673366127158e-21 
-1.215624628207929e-20 
-6.121136532892405e-22 
4.429552180221463e-22 
-1.344333931521181e-20 
-8.355558162551271e-22 
6.617444900424221e-24 
9.595295105615121e-23 
-0.004824663051788108 
0.004204865094706237 
0.00210243254735312 
-9.26442286059391e-22 
4.859686098749038e-24 
5.284029752988741e-21 
-1.522363878857906e-20 
2.362758701696468e-20 
9.719372197498075e-24 
-4.137971014296521e-22 
-5.285684114213847e-20 
3.158837323217502e-20 
9.250195354057998e-20 
-1.601421665902662e-21 
-4.863822001811803e-22 
-4.863822001811803e-22 
-1.025703959565754e-22 
-0.005444461008869983 
-2.06898550714826e-22 
2.9778502051909e-23 
2.349192939650599e-22 
1.48892510259545e-22 
3.818927452034818e-20 
5.955700410381799e-23 
1.48892510259545e-22 
-1.915022379733765e-19 
-8.19901423162561e-20 
-2.746239633676052e-22 
2.166179229123241e-22 
-5.889525961377557e-22 
0.006307297642059355 
4.859686098749038e-24 
7.136914325107523e-21 
-1.687448449608176e-22 
-1.121656910621906e-21 
9.719372197498075e-24 
1.919059021123024e-22 
6.617444900424221e-24 
-0.0006197979570818711 
0.01051216273676559 
-3.110199103199384e-22 
3.521142431515728e-20 
8.585100782534736e-22 
1.330106424985269e-20 
-2.448454613156962e-22 
0.002102432547353119 
-6.744830714757388e-20 
4.859686098749038e-24 
4.66629127153414e-20 
3.935311764221029e-22 
7.716602498384685e-20 
2.166179229123241e-22 
-2.061036301461626e-19 
-1.170295130640024e-20 
-2.746239633676052e-22 
2.166179229123241e-22 
1.679507515727667e-20 
3.285561393060626e-20 
-5.047456097798575e-20 
1.48892510259545e-22 
-2.06898550714826e-22 
0.002102432547353119 
4.301339185275744e-23 
7.087283488354341e-21 
-1.9015227921369e-20 
0.006307297642059359 
0.002102432547353118 
-1.671111632510254e-21 
-2.375662719252295e-20 
-6.475790220524515e-22 
-2.431911000905901e-21 
1.919059021123024e-22 
0.002102432547353119 
-3.143286327701505e-22 
-2.06898550714826e-22 
0.006307297642059355 
1.385527526026321e-22 
1.06011467304796e-20 
-2.316105715148477e-22 
4.036641389258775e-22 
2.47120208000217e-23 
6.489066469355992e-20 
-3.164462151382863e-20 
-1.185118207216974e-19 
-7.610061635487855e-23 
-2.06898550714826e-22 
5.203627797448586e-20 
-1.189072130544977e-23 
1.396280873989511e-21 
4.332358458246482e-22 
5.019331956971772e-21 
0.002102432547353118 
-1.257314531080602e-22 
-2.895132143935597e-21 
0.002102432547353119 
-2.271437962070614e-20 
1.085260963669572e-20 
-2.06898550714826e-22 
4.332358458246482e-22 
0.002102432547353119 
4.859686098749038e-24 
1.323488980084844e-22 
-2.410487023040778e-20 
6.617444900424221e-24 
0.002102432547353119 
-3.410631101678644e-20 
9.719372197498075e-24 
7.924390268258005e-21 
3.249165446108293e-20 
-0.004824663051788108 
-3.811234672338075e-22 
0.002102432547353118 
-3.374896899216353e-22 
6.393444390544862e-20 
1.817729396085278e-22 
-0.01026912406065809 
-9.357067089199849e-21 
-6.187310981896647e-22 
-1.275512504556769e-20 
3.308722450212111e-24 
-1.447235199722777e-20 
-2.024938139529812e-21 
0.002102432547353119 
3.935311764221029e-22 
-2.074568976282993e-21 
-2.469961309083341e-20 
-3.548273955607468e-20 
-1.733770563911146e-21 
1.356576204586965e-22 
2.214776090110732e-22 
7.798658815149945e-21 
-6.28657265540301e-23 
-7.302019575373107e-20 
0.003585067137624365 
-3.567795418063719e-20 
-1.131996668278818e-21 
2.214776090110732e-22 
-2.06898550714826e-22 
1.419441931140995e-21 
-1.469072767894177e-20 
-1.354105002506963e-20 
1.48892510259545e-22 
-1.654361225106055e-23 
6.617444900424221e-24 
-1.320511129879653e-20 
8.500107974594912e-21 
9.719372197498075e-24 
-1.757758801675184e-24 
-6.690236794328888e-21 
0.001482634590271246 
2.166179229123241e-22 
1.809457589959748e-23 
6.617444900424221e-24 
-4.566036981292713e-22 
6.617444900424221e-24 
7.213014941462401e-22 
1.20768369432742e-21 
9.719372197498075e-24 
0.002102432547353119 
-6.764786447035229e-21 
4.106124560713229e-21 
0.01261459528411871 
0.002102432547353119 
-1.861673366127158e-21 
3.116816548099808e-21 
-4.137971014296521e-22 
-1.522363878857906e-20 
4.752318055239655e-20 
9.719372197498075e-24 
1.0435710607969e-20 
2.166179229123241e-22 
-4.137971014296521e-22 
2.703887986313337e-20 
-2.06898550714826e-22 
3.308722450212111e-24 
2.166179229123241e-22 
4.859686098749038e-24 
2.329547400102464e-22 
-2.267136622885338e-20 
-3.619742360532049e-21 
0.002102432547353119 
-1.452529155643117e-20 
1.369811094387814e-21 
3.308722450212111e-24 
-6.28657265540301e-23 
1.809457589959748e-23 
6.617444900424221e-24 
-1.011848684305491e-20 
1.48892510259545e-22 
-2.015663376911561e-20 
-6.140782072440539e-22 
3.814956985094564e-21 
-1.257314531080602e-22 
4.332358458246482e-22 
-2.06898550714826e-22 
4.859686098749038e-24 
-6.28657265540301e-23 
0 
4.859686098749038e-24 
2.47120208000217e-23 
1.48892510259545e-22 
-2.08449514363363e-22 
-1.637817612854995e-20 
4.859686098749038e-24 
-2.06898550714826e-22 
-2.06898550714826e-22 
-5.010067534111178e-20 
-1.459146600543541e-21 
1.48892510259545e-22 
1.48892510259545e-22 
-6.661120036767021e-20 
3.443139299751978e-23 
-2.316105715148477e-22 
-2.12115578838198e-19 
1.48892510259545e-22 
1.48892510259545e-22 
-1.985233470127266e-23 
3.838118042246048e-22 
-2.180448094689781e-21 
-2.06898550714826e-22 
-1.422750653591208e-22 
-6.764786447035229e-21 
-8.77804066041273e-21 
-4.450231695535289e-21 
-3.302105005311686e-21 
3.308722450212111e-24 
6.617444900424221e-24 
-1.985233470127266e-23 
3.308722450212111e-24 
-8.238718901028156e-22 
1.323488980084844e-23 
-8.355558162551271e-22 
2.166179229123241e-22 
-1.905617336169038e-22 
1.48892510259545e-22 
-2.06898550714826e-22 
-0.009649326103576225 
6.5843576759221e-22 
-2.06898550714826e-22 
-7.239484721064098e-21 
4.175607732167684e-21 
-2.262835283700063e-20 
-2.941454258238566e-21 
-1.030667043241072e-20 
-4.135903062765138e-25 
-1.237462196379329e-21 
1.417787569915889e-20 
0.004204865094706237 
-9.727644003623605e-21 
-1.257314531080602e-22 
-3.914218658600927e-21 
-0.00482466305178811 
-3.970466940254533e-23 
-1.257314531080602e-22 
-3.771943593241806e-22 
-4.824117332409257e-21 
1.303636645383572e-21 
-5.338954545662262e-20 
