solver_type L2R_L2LOSS_SVC_DUAL
nr_class 2
label 1 2
nr_feature 1182
bias -1
w
4.557765175167182e-21 
8.725101101209336e-21 
2.082840782408524e-21 
4.681511394805115e-20 
-4.060795063145323e-20 
2.056205566684316e-20 
1.108422020821057e-22 
-3.743819452415003e-21 
2.8140684439054e-21 
1.108422020821057e-22 
1.517380115667274e-20 
-3.514855858860325e-20 
6.992984898523296e-21 
4.301339185275744e-21 
-7.482675821154688e-21 
-7.940933880509066e-23 
1.058791184067875e-22 
-2.268129239620402e-21 
2.717288312236696e-20 
-4.172299009717472e-21 
-5.283533444621209e-20 
-2.646977960169689e-23 
4.913452838564984e-22 
0 
1.386354706638874e-21 
-2.333641944134602e-20 
-9.726320514643521e-20 
-1.058791184067875e-22 
-6.511565782017434e-21 
7.940933880509066e-23 
-1.229190390253799e-21 
1.108422020821057e-22 
2.053062280356615e-21 
-2.646977960169689e-23 
-6.098637220230962e-20 
-2.304690622695246e-20 
0.01234363473130671 
0.004814203315094997 
1.20768369432742e-22 
0.003331480988255133 
-0.002098975213978287 
1.296853764360637e-20 
0.014442609945285 
-0.01049487606989144 
-0.003581697540818155 
0.00271522810111671 
-1.009160347314694e-22 
0.004814203315095 
7.940933880509066e-23 
1.373119816838026e-22 
-1.484458327287663e-20 
0.00962840663019 
0.002715228101116711 
4.184342759436244e-19 
0 
3.321957340012959e-21 
-0.004197950427956574 
-0.002098975213978288 
-0.004197950427956577 
-5.293955920339377e-23 
-8.470329472543003e-22 
0.003947733875393558 
-5.293955920339377e-23 
-0.007779647968774731 
3.006966962752766e-19 
0.004814203315095 
7.940933880509066e-23 
-0.002098975213978288 
-8.222175288777095e-21 
-2.530180057677201e-20 
0.009628406630190002 
1.852884572118782e-22 
-7.244447804739416e-21 
0 
1.617832929255714e-19 
-1.368156733162708e-20 
-1.448426339804854e-19 
-4.007359195574398e-20 
-0.009262370295614598 
-0.003581697540818155 
-2.641022259759307e-20 
-2.836402320444332e-20 
-4.327345743734411e-19 
-0.002098975213978289 
-2.879912020664621e-20 
0.002715228101116713 
-0.01049487606989145 
-0.004197950427956577 
-0.002098975213978289 
-6.511565782017434e-21 
2.506357256035674e-21 
1.169633386149981e-21 
-2.159934015498466e-20 
7.940933880509066e-23 
-2.646977960169689e-23 
-6.274992126827268e-21 
7.940933880509066e-23 
-0.01259385128386973 
7.940933880509066e-23 
0 
2.646977960169689e-22 
0.001232505774276844 
-9.429858983104515e-22 
-2.795208725939191e-20 
-6.511565782017434e-21 
-3.556876633978019e-22 
5.929230630780102e-21 
-9.894734487359317e-21 
-1.058791184067875e-22 
-6.511565782017434e-21 
-9.980761271064832e-21 
1.028020065280903e-20 
-3.654980254626808e-20 
-0.002098975213978289 
7.940933880509066e-23 
-8.665544097105518e-21 
0 
-3.07472959853311e-19 
-1.837995321092827e-21 
0.004814203315094997 
-8.809142651444724e-20 
-0.002098975213978289 
5.293955920339377e-23 
-1.909132853772388e-21 
-1.730958149828466e-20 
2.541098841762901e-20 
-1.577764300383645e-20 
7.940933880509066e-23 
-1.009160347314694e-22 
1.502159992396298e-20 
2.339266772299962e-21 
-2.355810384551023e-21 
-5.505714157152952e-21 
0.005430456202233418 
0.008145684303350142 
-1.955454968075357e-21 
1.66097867000648e-21 
-1.239116557604435e-21 
6.776263578034403e-21 
1.058791184067875e-22 
3.896351557369782e-20 
1.058791184067875e-22 
-9.656175598699024e-20 
-2.646977960169689e-23 
-2.322723160048902e-21 
-2.803679055411734e-19 
-0.002098975213978289 
-0.004197950427956576 
-2.503048533585462e-21 
-0.002098975213978289 
-1.500505631171192e-21 
1.18584612615602e-20 
2.155301804068169e-20 
-1.142667298180752e-20 
3.27563522570999e-22 
3.896351557369782e-20 
-6.250176708450677e-21 
7.940933880509066e-23 
1.373119816838026e-22 
-0.004197950427956576 
-1.363441803671156e-19 
-1.355252715606881e-20 
1.007969207232617e-19 
1.108422020821057e-22 
5.409761206096801e-22 
-1.366171499692581e-20 
6.776263578034403e-21 
0.004814203315095 
-1.032155968343668e-20 
-0.002098975213978288 
7.940933880509066e-23 
-0.002098975213978288 
4.235164736271502e-22 
6.776263578034403e-21 
-3.472835083742631e-20 
5.059036626374317e-21 
-2.953034786814309e-20 
-8.577862952174897e-21 
7.369186641112413e-20 
-6.511565782017434e-21 
1.626303258728257e-19 
5.293955920339377e-23 
1.737079286361358e-22 
-2.083701050245579e-19 
1.108422020821057e-22 
-6.183340514956392e-20 
1.058791184067875e-22 
4.963083675318166e-24 
-3.331883507363595e-21 
-5.337465620559666e-20 
0.004814203315095 
-6.122790894117511e-21 
7.17992771696028e-22 
-3.126742715450445e-22 
-0.002098975213978288 
-4.891946142638606e-21 
0.004814203315095001 
3.388131789017201e-20 
5.841384049726971e-20 
0.0006162528871384235 
5.39321759384574e-22 
-2.88504054046245e-20 
-0.006296925641934865 
0 
-8.222175288777095e-21 
6.776263578034403e-21 
-9.571472303973594e-20 
-5.293955920339377e-23 
-0.002098975213978288 
0.004814203315095002 
-1.182537403705808e-20 
-0.002098975213978287 
-0.004197950427956576 
0.0006162528871384224 
-0.006296925641934864 
-0.008395900855913152 
-3.320468414910364e-20 
-1.058791184067875e-22 
6.776263578034403e-20 
-2.646977960169689e-23 
0.009628406630189996 
-9.26442286059391e-23 
-0.0188907769258046 
-5.293955920339377e-23 
-1.317202407429441e-20 
-0.002098975213978289 
-8.195705509175398e-21 
-0.002098975213978288 
4.814191165058621e-21 
6.652351922273959e-20 
-4.49142529004043e-20 
-2.332649327399538e-22 
-0.002098975213978287 
-3.407984123718474e-22 
-1.302313156403487e-20 
-1.009160347314694e-22 
-2.117582368135751e-21 
0.002715228101116711 
-4.009013556799504e-20 
-6.511565782017434e-21 
-2.117582368135751e-22 
1.083772038566977e-20 
-9.486769009248164e-20 
-9.691248056671272e-21 
6.892068863791827e-21 
-2.205263513066372e-21 
-5.293955920339377e-23 
-3.272326503259777e-21 
-0.008395900855913156 
-4.880365614062863e-22 
0 
-4.817499887508833e-21 
0.0006162528871384227 
1.422750653591208e-22 
-1.307110803956294e-20 
-0.002098975213978289 
-2.236696376343387e-21 
-7.623296525288703e-21 
-1.466425789934007e-20 
-2.117582368135751e-20 
-0.002098975213978289 
-1.229190390253799e-21 
0 
-1.372193374551967e-19 
-0.002098975213978289 
3.143286327701505e-23 
-2.646977960169689e-23 
-1.8032537353656e-22 
6.606856988583543e-20 
-4.817499887508833e-21 
1.158052857574239e-23 
0.004814203315094999 
4.065758146820642e-20 
1.348469834583946e-20 
-1.684139727157964e-21 
-0.002098975213978288 
-9.777274840376787e-22 
-5.844527336054672e-19 
-1.009160347314694e-22 
7.260991416990477e-21 
1.492233825045662e-21 
-1.058791184067875e-22 
8.569591146049367e-22 
1.687448449608176e-22 
-2.646977960169689e-23 
-7.940933880509066e-23 
8.867376166568457e-22 
3.844735487146473e-21 
-9.595295105615121e-23 
1.058791184067875e-22 
8.35452418678558e-22 
1.373119816838026e-22 
-5.293955920339377e-23 
7.940933880509066e-23 
0 
1.108422020821057e-22 
1.108422020821057e-22 
-2.646977960169689e-23 
-5.293955920339377e-23 
1.058791184067875e-22 
-3.441071348220595e-22 
1.158052857574239e-22 
6.776263578034403e-21 
-2.646977960169689e-23 
-7.679544806942309e-21 
5.39321759384574e-22 
-2.646977960169689e-23 
-2.911675756186657e-22 
-3.695842976886928e-21 
-2.646977960169689e-23 
-9.032812289079062e-22 
0.001232505774276842 
-1.048865016717239e-21 
-3.396602118489744e-19 
-1.439956010332311e-20 
-3.077111878697263e-22 
5.929230630780102e-21 
1.13919313960803e-20 
-6.633988512675282e-22 
-0.001482722326839865 
-4.817499887508833e-21 
0.002715228101116712 
-0.004197950427956577 
-7.940933880509066e-23 
0.005430456202233423 
-1.369645658265303e-20 
-2.646977960169689e-23 
-4.065758146820642e-20 
-1.058791184067875e-22 
-2.795208725939191e-20 
-0.004197950427956576 
-1.302313156403487e-20 
9.19328532791435e-21 
1.948175778684891e-20 
-5.293955920339377e-23 
3.621396721757155e-21 
-0.002098975213978288 
-4.235164736271502e-22 
-1.448426339804854e-19 
-1.058791184067875e-22 
-8.453785860291943e-21 
-2.159934015498466e-20 
0 
3.143286327701505e-23 
-3.903630746760248e-20 
0.009628406630189993 
0.001232505774276846 
6.776263578034403e-20 
-1.448426339804854e-19 
1.007969207232617e-19 
0.009628406630190002 
-0.004197950427956577 
5.251604272976662e-20 
-1.046052602634559e-20 
-2.498085449910144e-22 
-3.078766239922369e-21 
3.419564652294216e-21 
4.904320764602399e-19 
-0.004197950427956577 
0 
-1.155405879614069e-20 
2.216844041642114e-22 
4.630557069071849e-21 
0.0006162528871384228 
2.929542857417803e-20 
-1.439956010332311e-20 
2.542753202988007e-21 
3.303428494291771e-20 
-0.002098975213978289 
1.588186776101813e-22 
-4.627248346621637e-20 
1.0544898448826e-20 
-2.397169415178674e-21 
1.108422020821057e-22 
-1.865126845184567e-20 
-0.002098975213978288 
0 
-2.721920523666993e-20 
-5.293955920339377e-23 
-1.009160347314694e-22 
0.002715228101116711 
-2.646977960169689e-23 
-7.151803576133477e-21 
-1.252516883527795e-20 
7.940933880509066e-23 
3.308722450212111e-24 
-1.29596040929908e-19 
0 
-0.004197950427956577 
-4.235164736271502e-20 
1.158052857574239e-22 
-0.002098975213978288 
-3.937876024119944e-20 
7.940933880509066e-23 
-0.002098975213978288 
0 
0.004814203315095001 
4.284795573024683e-22 
0.002715228101116711 
0.00271522810111671 
-0.002098975213978289 
-0.004197950427956577 
0.0006162528871384217 
2.787598664303703e-21 
-1.524659305057741e-20 
-0.004197950427956579 
-0.004197950427956577 
-2.795208725939191e-20 
-0.001482722326839866 
4.360896189379562e-21 
-0.002098975213978289 
-1.526809974650378e-20 
-1.355252715606881e-20 
4.963083675318166e-24 
0.002715228101116712 
4.213658040345123e-21 
0 
-6.518183226917858e-22 
-0.002098975213978289 
7.940933880509066e-23 
0 
1.007969207232617e-19 
0.004814203315094998 
1.108422020821057e-22 
-2.251585627369341e-21 
-7.444625512977249e-23 
-0.002098975213978289 
-5.093778212101544e-21 
-4.982274265529396e-20 
-6.185656620671541e-21 
1.058791184067875e-22 
3.143286327701505e-23 
0.004814203315095001 
-8.850832554317396e-22 
1.373119816838026e-22 
3.540333021726958e-22 
-7.471095292578946e-21 
-3.126742715450445e-22 
0.004814203315094999 
0.002715228101116711 
4.235164736271502e-22 
-2.998496633280223e-19 
-2.878588531684536e-22 
7.940933880509066e-23 
-6.523146310593176e-21 
1.373119816838026e-22 
-9.266077221819016e-21 
1.158052857574239e-22 
-0.002098975213978288 
-2.537790119312689e-21 
-0.004197950427956577 
7.940933880509066e-23 
-0.002098975213978288 
-3.623051082982261e-21 
1.169633386149981e-21 
-2.150669592637872e-23 
-3.123433993000233e-21 
-0.004197950427956578 
0 
-6.289881377853222e-21 
-2.646977960169689e-23 
1.108422020821057e-22 
0.0006162528871384214 
7.467786570128734e-21 
4.963083675318166e-24 
-1.578260608751177e-21 
-7.940933880509066e-23 
-0.001482722326839865 
1.270549420881451e-20 
-2.067951531382569e-22 
8.569591146049367e-22 
2.961306592939839e-22 
-7.284483346386983e-20 
1.108422020821057e-22 
-3.421219013519322e-21 
-2.646977960169689e-23 
1.063754267743194e-21 
1.108422020821057e-22 
-2.646977960169689e-23 
0 
-2.646977960169689e-23 
-2.117582368135751e-20 
3.308722450212111e-24 
-3.733396976696835e-20 
9.57875149336406e-22 
-2.9778502051909e-22 
-1.694065894508601e-19 
-8.205631676526035e-21 
-5.113299674557796e-20 
-2.710505431213761e-20 
2.334303688624644e-21 
5.790264287871194e-23 
-1.096841492245315e-21 
1.169633386149981e-21 
-1.727153119010722e-21 
-2.646977960169689e-23 
1.108422020821057e-22 
-0.002098975213978288 
-1.499248316640112e-19 
0 
7.940933880509066e-23 
0 
0.004814203315095001 
7.940933880509066e-23 
-1.941889206029488e-20 
0.004814203315094997 
-1.837995321092827e-21 
-4.235164736271502e-22 
-1.694065894508601e-21 
4.372476717955304e-21 
-6.75641124333313e-21 
-8.470329472543003e-22 
2.541098841762901e-20 
0.002715228101116711 
7.940933880509066e-23 
-4.817499887508833e-21 
-9.063252535621014e-20 
-4.392329052656577e-21 
7.940933880509066e-23 
1.108422020821057e-22 
0.008145684303350133 
-1.017597589562735e-20 
-4.615667818045894e-22 
2.117582368135751e-22 
-2.380162581784584e-19 
-1.323488980084844e-22 
-2.799179192879446e-21 
4.963083675318166e-24 
-7.940933880509066e-23 
-3.472835083742631e-20 
-2.733004743875203e-21 
1.108422020821057e-22 
-1.108422020821057e-21 
-0.002098975213978289 
-1.160534399411898e-20 
1.108422020821057e-22 
-8.156000839772853e-22 
-2.646977960169689e-23 
-2.646977960169689e-23 
1.588186776101813e-22 
7.940933880509066e-23 
-2.646977960169689e-23 
-1.323488980084844e-22 
-2.646977960169689e-23 
-6.511565782017434e-21 
-5.639717416386543e-21 
-2.10368573384486e-20 
-2.646977960169689e-23 
7.940933880509066e-23 
-4.817499887508833e-21 
1.869924492737374e-20 
6.776263578034403e-21 
0 
-5.293955920339377e-23 
-5.293955920339377e-23 
-9.37361070145091e-21 
5.336307567702092e-20 
0.004814203315095001 
7.940933880509066e-23 
-2.117582368135751e-22 
0 
2.117582368135751e-22 
-3.748782536090321e-21 
-1.058791184067875e-22 
-8.205631676526035e-21 
7.940933880509066e-23 
1.98357910890216e-21 
-7.011182871999463e-21 
-2.646977960169689e-23 
0.004814203315095 
0.004814203315095003 
2.216844041642114e-22 
-2.646977960169689e-23 
-4.235164736271502e-22 
-2.261511794719978e-21 
-1.789357101074709e-20 
6.402377941160434e-22 
2.216844041642114e-22 
-4.615667818045894e-22 
0.002715228101116711 
-3.126742715450445e-22 
-2.646977960169689e-23 
-6.154223757394526e-22 
-1.009160347314694e-22 
-7.444625512977249e-23 
0.04332782983585499 
-3.805030817743927e-23 
0.009628406630189998 
7.940933880509066e-23 
-5.293955920339377e-23 
-3.29217883796105e-22 
0.00752943141621171 
1.874391268045161e-21 
-6.733250186181645e-22 
4.963083675318166e-24 
-2.646977960169689e-23 
3.143286327701505e-23 
5.744603918058267e-20 
-5.373365259144468e-20 
1.108422020821057e-22 
-6.660458292276979e-21 
-0.002098975213978289 
2.222634305929985e-20 
4.213327168100102e-20 
-0.002098975213978288 
-2.646977960169689e-23 
-8.558010617473624e-21 
8.608468634839359e-20 
-2.646977960169689e-23 
1.118513624294204e-20 
-3.189608442004475e-20 
-9.634999775017666e-21 
5.293955920339377e-22 
0.009628406630190002 
-1.238951121481925e-20 
-1.136298007464094e-19 
4.53791284046591e-21 
-3.656138307484382e-22 
-2.646977960169689e-23 
-2.362427829451447e-21 
3.87120526674817e-22 
-2.646977960169689e-23 
-2.63639004832901e-20 
-3.044024654195142e-22 
-1.705646423084343e-21 
-2.646977960169689e-23 
0.004814203315094998 
3.441071348220595e-20 
2.569057546467193e-19 
0 
0.01234363473130671 
-4.590852399669304e-21 
-1.058791184067875e-22 
1.058791184067875e-22 
1.202786785101106e-19 
5.823351512373315e-22 
2.216844041642114e-22 
-4.150461441546072e-20 
-0.002098975213978289 
1.948175778684891e-20 
-2.646977960169689e-23 
-1.160435137738391e-19 
-5.293955920339377e-23 
1.158052857574239e-22 
6.402377941160434e-22 
-6.511565782017434e-21 
-8.634111233828503e-21 
-4.489274620447792e-19 
1.174596469825299e-21 
2.625802136488331e-20 
-5.293955920339377e-23 
-2.646977960169689e-23 
-6.511565782017434e-21 
8.569591146049367e-22 
-8.205631676526035e-21 
-0.006296925641934866 
-3.421219013519322e-21 
3.429821691889874e-20 
-1.202720610652102e-21 
8.151037756097535e-21 
3.226004388956808e-22 
-8.758188325711457e-21 
-5.293955920339377e-23 
1.232333676581501e-20 
-0.002098975213978289 
0.004814203315095001 
-2.646977960169689e-23 
1.494053622393279e-20 
4.963083675318166e-24 
5.72905292254227e-21 
-0.002098975213978289 
-5.148372132530044e-21 
-9.317362419797304e-21 
0.004814203315095 
-3.805030817743927e-23 
-2.153978315088084e-21 
-1.219727444046192e-19 
0.004814203315095003 
-2.018320694629388e-22 
-1.160435137738391e-19 
7.165898733771381e-19 
-6.544653006519555e-21 
-0.002098975213978288 
-2.646977960169689e-23 
-1.694065894508601e-21 
7.940933880509066e-23 
-1.341686953561011e-21 
-1.009160347314694e-22 
7.940933880509066e-23 
1.588186776101813e-22 
1.588186776101813e-22 
-3.577556149291845e-20 
-3.606507470731201e-22 
1.778769189234031e-20 
7.130296880207099e-22 
1.492233825045662e-21 
-7.538593230563273e-20 
-0.006296925641934868 
4.811147140404426e-19 
8.225484011227307e-21 
0.004814203315095001 
3.159829939952566e-22 
-2.724732937749673e-21 
7.940933880509066e-23 
4.182225177068108e-20 
-5.67445900211377e-22 
-0.002098975213978289 
1.902515408871964e-22 
-2.333641944134602e-20 
-6.303116267654071e-22 
0 
-2.710505431213761e-20 
-1.154744135124027e-21 
0 
1.373119816838026e-22 
-1.440948627067374e-21 
-5.293955920339377e-23 
4.033332666808563e-21 
0.004814203315095002 
0.0006162528871384223 
0 
-8.280077931655807e-21 
1.270549420881451e-20 
-1.626303258728257e-19 
-2.067951531382569e-22 
0.006046709089371844 
-8.068319694842232e-21 
-0.002098975213978289 
1.169633386149981e-21 
3.302105005311686e-21 
-5.280721030538529e-21 
7.940933880509066e-23 
1.687448449608176e-22 
-4.341043854678289e-21 
7.940933880509066e-23 
-5.952391687931587e-21 
-9.634999775017666e-21 
2.016666333404281e-21 
5.293955920339377e-22 
1.852884572118782e-22 
-2.99439381744196e-22 
0 
-1.588186776101813e-22 
-5.293955920339377e-23 
2.102693117109796e-21 
1.588186776101813e-22 
-1.080297879994254e-20 
-7.940933880509066e-23 
-9.593640744390015e-21 
0.002715228101116712 
1.43433118216695e-21 
-6.303116267654071e-22 
0.004814203315095 
-3.123433993000233e-21 
-6.511565782017434e-21 
-6.776263578034403e-21 
6.776263578034403e-21 
-3.606507470731201e-22 
7.510799961981491e-22 
-3.494010907423989e-21 
1.058791184067875e-22 
7.411538288475128e-22 
4.18553389951832e-21 
1.108422020821057e-22 
-2.646977960169689e-23 
-8.839252025741654e-21 
-1.009160347314694e-22 
1.373119816838026e-22 
-1.115039465721481e-20 
-2.646977960169689e-22 
-2.646977960169689e-23 
-1.009160347314694e-22 
7.940933880509066e-23 
3.044024654195142e-22 
4.192151344418744e-21 
0 
-5.505714157152952e-21 
1.068717351418512e-21 
-9.634999775017666e-21 
-6.776263578034403e-21 
-4.036641389258775e-22 
1.353102046014243e-20 
2.216844041642114e-22 
3.186299719554263e-21 
-0.002098975213978288 
0.002715228101116711 
-0.002098975213978287 
-6.511565782017434e-21 
7.940933880509066e-23 
7.156766659808795e-21 
-4.157078886446496e-20 
-1.439956010332311e-20 
1.270549420881451e-20 
-1.588186776101813e-22 
-2.795208725939191e-20 
-9.974143826164408e-21 
-0.002098975213978288 
5.293955920339377e-23 
7.940933880509066e-23 
0.004814203315095002 
-1.166820972067301e-20 
0 
-7.361907451721946e-22 
-1.895897963971539e-21 
1.355252715606881e-20 
-1.224227306578481e-22 
-1.009160347314694e-22 
-1.009160347314694e-22 
-1.545835128739098e-20 
7.725866921245278e-22 
-2.191863187143013e-20 
-2.646977960169689e-23 
2.316105715148477e-22 
1.884317435395797e-21 
2.339266772299962e-21 
-0.002965444653679733 
-2.067951531382569e-22 
-1.538555939348631e-22 
-0.002098975213978289 
1.108422020821057e-22 
-0.008395900855913154 
1.108422020821057e-22 
1.95876369052557e-21 
-1.009160347314694e-22 
-2.15563267631319e-21 
6.431494698722301e-20 
-1.48892510259545e-22 
1.270549420881451e-20 
-2.036518668105554e-21 
-8.205631676526035e-21 
-6.511565782017434e-21 
0 
7.940933880509066e-23 
-7.453889935837843e-20 
-4.235164736271502e-20 
1.058791184067875e-22 
1.108422020821057e-22 
1.108422020821057e-22 
1.169633386149981e-21 
7.940933880509066e-23 
-1.009160347314694e-22 
-2.150669592637872e-23 
-1.302313156403487e-20 
-8.205631676526035e-21 
0 
-8.280077931655807e-21 
-2.150669592637872e-23 
-7.940933880509066e-23 
-2.774032902257834e-20 
-1.058791184067875e-22 
-7.361907451721946e-22 
1.588186776101813e-22 
-5.194694246833014e-22 
-6.511565782017434e-21 
-2.150669592637872e-23 
-1.451371102785542e-20 
-9.974143826164408e-21 
1.270549420881451e-20 
-1.058791184067875e-22 
-0.002098975213978287 
-5.293955920339377e-23 
7.940933880509066e-23 
-2.685028268347128e-21 
-6.992984898523296e-21 
1.158052857574239e-22 
-1.641126335305207e-20 
-2.646977960169689e-23 
-2.646977960169689e-23 
-1.578260608751177e-21 
-0.008395900855913152 
-1.053828100392557e-21 
1.270549420881451e-20 
-4.817499887508833e-21 
-8.170890090798807e-21 
2.067620659137548e-20 
2.216844041642114e-22 
-2.304525186572735e-20 
3.768634870791594e-21 
0.004814203315095001 
-7.361907451721946e-22 
-1.654361225106055e-24 
-8.419044274564716e-21 
-4.235164736271502e-20 
-0.002098975213978289 
0 
3.596581303380564e-21 
-0.002098975213978287 
7.940933880509066e-23 
0 
0.004814203315094999 
-3.692534254436716e-21 
5.623670112503014e-20 
-2.646977960169689e-23 
-5.985478912433708e-21 
-3.846389848371579e-21 
-7.883031237630354e-21 
0.00962840663019 
9.906976760425102e-20 
2.960644848449797e-20 
-0.002098975213978289 
0 
1.249539033322604e-20 
-0.004197950427956577 
-7.623296525288703e-21 
-5.505714157152952e-20 
-9.065899513581183e-22 
-8.470329472543003e-22 
-1.173438416967725e-20 
-0.002098975213978289 
-5.293955920339377e-23 
-2.261511794719978e-21 
1.654195788983545e-20 
2.016666333404281e-21 
-2.049753557906403e-21 
1.18584612615602e-20 
7.940933880509066e-23 
1.550136467924374e-21 
-1.62822231774938e-20 
-2.117582368135751e-22 
-4.817499887508833e-21 
1.535081780775909e-20 
1.108422020821057e-22 
-6.511565782017434e-21 
0.004814203315094999 
4.549493369041652e-22 
-0.004197950427956577 
-0.002098975213978288 
8.867376166568457e-22 
-2.646977960169689e-23 
-1.031825096098647e-20 
-6.183340514956392e-20 
-8.470329472543003e-22 
-5.293955920339377e-23 
-2.959155923347201e-20 
-8.205631676526035e-21 
-1.355252715606881e-19 
-2.693300074472658e-21 
-8.131516293641283e-20 
1.169633386149981e-21 
1.169633386149981e-21 
-1.801599374140494e-21 
0.005430456202233421 
-3.391440511467413e-22 
-6.511565782017434e-21 
2.016666333404281e-21 
-5.67445900211377e-22 
4.963083675318166e-24 
-1.009160347314694e-22 
4.929996450816045e-22 
1.533129634530284e-19 
-2.380162581784584e-19 
2.167213204888933e-22 
7.940933880509066e-23 
-1.176250831050405e-21 
-0.006296925641934867 
-2.646977960169689e-23 
-2.067951531382569e-22 
6.606856988583543e-20 
-8.280077931655807e-21 
0 
1.108422020821057e-22 
5.39321759384574e-22 
0.000616252887138422 
-0.01049487606989145 
-6.945670167485263e-20 
1.356576204586965e-22 
2.646977960169689e-22 
1.66097867000648e-21 
4.284795573024683e-22 
-0.002098975213978288 
3.455894424797545e-19 
-2.646977960169689e-23 
1.948175778684891e-20 
0 
1.18584612615602e-20 
7.940933880509066e-23 
-4.675621868843738e-19 
2.167213204888933e-22 
-1.145976020630965e-20 
7.940933880509066e-23 
2.677583642834151e-20 
-1.009160347314694e-22 
-2.538286427680221e-20 
3.414601568618898e-21 
5.790264287871194e-23 
-0.002098975213978289 
-5.293955920339377e-23 
-4.157409758691517e-21 
-2.144052147737448e-20 
-0.006296925641934866 
-0.002098975213978288 
-8.470329472543003e-22 
-1.130921333482499e-20 
2.911675756186657e-22 
5.39321759384574e-22 
-7.095555294479871e-21 
-0.002098975213978289 
-9.595295105615121e-23 
-0.006296925641934864 
-5.293955920339377e-23 
0 
-1.567010952420456e-19 
5.39321759384574e-22 
-3.606507470731201e-22 
0 
-5.031375706690544e-19 
-2.663521572420749e-21 
4.489274620447792e-20 
-1.009160347314694e-22 
1.669697153662788e-19 
1.058791184067875e-22 
0 
-3.472835083742631e-20 
1.588186776101813e-22 
-4.065758146820642e-20 
-7.312276614968765e-22 
-0.002098975213978289 
-1.236668102991278e-19 
-0.002098975213978288 
4.658681209898652e-20 
-1.408688583177806e-20 
7.940933880509066e-23 
-5.293955920339377e-23 
-0.002098975213978289 
-2.646977960169689e-23 
1.108422020821057e-22 
3.603860492771031e-20 
-1.334076891925523e-20 
-0.002098975213978289 
0 
-5.293955920339377e-23 
1.355252715606881e-20 
0.004814203315095 
-3.472835083742631e-20 
-0.002098975213978288 
0 
8.724439356719293e-20 
9.628382330117242e-22 
0 
0.01024465951732842 
-1.833032237417509e-21 
1.948175778684891e-20 
8.437242248040882e-23 
-1.159376346554324e-20 
1.963726774200888e-21 
1.922367743573236e-20 
-0.002098975213978289 
-1.166820972067301e-20 
5.336307567702092e-20 
0 
3.981054852095212e-20 
3.374896899216353e-22 
-1.273858143331663e-22 
0 
-2.067951531382569e-22 
-6.860966872759833e-20 
-7.906192294781839e-21 
-0.003581697540818153 
5.325554219738903e-20 
3.705769144237564e-22 
0 
-6.374253800333631e-21 
7.940933880509066e-23 
-1.32779031927012e-20 
1.270549420881451e-20 
-1.009160347314694e-22 
1.108422020821057e-22 
-3.399712317592944e-21 
-3.83315495857073e-21 
1.111267522128239e-19 
0 
-6.253485430900889e-22 
0 
-0.001482722326839866 
1.108422020821057e-22 
-7.940933880509066e-23 
0 
-7.444625512977249e-23 
1.108422020821057e-22 
-2.107656200785115e-21 
4.557765175167182e-21 
-5.293955920339377e-23 
-0.002098975213978289 
6.776263578034403e-21 
-9.413315370853455e-22 
-0.01259385128386973 
-0.002098975213978289 
-1.355252715606881e-20 
-6.511565782017434e-21 
1.95876369052557e-21 
1.588186776101813e-22 
-3.048491429502928e-20 
-5.293955920339377e-23 
-1.241763535564605e-20 
-7.940933880509066e-23 
0 
1.588186776101813e-22 
8.437242248040882e-23 
7.940933880509066e-23 
-7.940933880509066e-23 
-2.646977960169689e-23 
-2.002438826868369e-20 
-4.817499887508833e-21 
3.503937074774625e-21 
-0.002098975213978289 
-3.437762625770383e-21 
9.406697925953031e-21 
8.437242248040882e-23 
1.108422020821057e-22 
0 
1.108422020821057e-22 
-5.505714157152952e-20 
-1.009160347314694e-22 
5.929230630780102e-21 
-2.646977960169689e-23 
-8.132839782621368e-21 
-4.665298654799076e-22 
-5.293955920339377e-23 
-5.293955920339377e-23 
1.063754267743194e-21 
-2.646977960169689e-23 
0 
-2.646977960169689e-23 
0 
1.169633386149981e-21 
1.396280873989511e-21 
-1.484458327287663e-20 
-2.646977960169689e-23 
1.058791184067875e-22 
-8.216219588366713e-20 
7.940933880509066e-23 
4.913452838564984e-22 
2.016666333404281e-21 
1.169633386149981e-21 
-1.5271408468954e-20 
-5.293955920339377e-23 
-3.272326503259777e-21 
-2.710505431213761e-20 
1.169633386149981e-21 
-1.009160347314694e-22 
2.216844041642114e-22 
-2.415367388654841e-21 
1.169633386149981e-21 
7.940933880509066e-23 
-1.44260298829248e-21 
5.929230630780102e-21 
-6.759719965783342e-21 
-7.841672207002702e-22 
-6.253485430900889e-22 
1.373119816838026e-22 
1.108422020821057e-22 
2.216844041642114e-22 
-2.150669592637872e-23 
-6.468552390164676e-22 
2.216844041642114e-22 
-6.511565782017434e-21 
7.940933880509066e-23 
-1.323488980084844e-22 
1.169633386149981e-21 
-6.511565782017434e-21 
0.009628406630189998 
-1.837995321092827e-21 
2.183095072649951e-20 
-6.511565782017434e-21 
1.146472328998496e-20 
4.167005053797132e-20 
1.492233825045662e-21 
7.29738736394281e-21 
0 
-1.336227561518161e-20 
1.349958759686541e-21 
-0.004197950427956576 
-8.470329472543003e-22 
-1.048865016717239e-21 
-5.189731163157696e-21 
0.004814203315095 
-1.048865016717239e-21 
-5.274103585638104e-21 
-2.362427829451447e-21 
1.342348698051053e-20 
-1.265586337206132e-21 
6.776263578034403e-21 
