solver_type L2R_L2LOSS_SVC_DUAL
nr_class 2
label 1 2
nr_feature 1631
bias -1
w
3.860840292447566e-07 
0 
-5.564287023546529e-07 
1.870161201595101e-05 
2.386849756210088e-05 
-5.720908621123261e-07 
-2.575942072554151e-06 
1.391530733519278e-05 
-9.962959735387873e-06 
0 
1.641243166260854e-06 
7.196664372885271e-06 
1.393835979607746e-05 
-7.701868489060428e-06 
0 
1.19421900387219e-05 
-9.447611199507785e-06 
1.019426798213763e-05 
-2.432226489011661e-05 
-1.291382094696711e-05 
-2.782143511773265e-07 
1.439297876012343e-05 
-2.725198038463937e-05 
4.939537073121866e-07 
4.802545511724207e-05 
0.0001598184478060092 
-0.0001148541536838789 
-6.922313668002682e-05 
-5.800023801780348e-06 
1.774703474275547e-05 
5.401630908282791e-05 
-4.33706954930549e-05 
-2.787861273241817e-05 
-3.308722450212111e-24 
0 
0 
0 
0 
-9.926167350636332e-24 
0 
-1.77843831698901e-23 
0 
0 
-5.564287023546529e-07 
0 
-2.782143511773265e-07 
1.158252087734269e-06 
-1.947500458241284e-06 
1.078696780674305e-07 
1.15825208773427e-06 
-5.564287023546525e-07 
7.957831839355023e-05 
-6.198058599068767e-05 
0 
-5.619661758329034e-06 
-1.742882620045245e-05 
0 
7.721680584895138e-06 
-3.32627769544323e-06 
-7.267733754645483e-07 
1.078696780674306e-07 
-1.649837557635606e-06 
1.130430652616538e-05 
5.513046087494027e-06 
-1.573008749893739e-05 
-6.689514074986562e-06 
-7.267733754645479e-07 
-1.895005514956363e-06 
-3.460090808836874e-06 
-5.564287023546529e-07 
-6.742784321796254e-07 
8.800377365569438e-07 
3.236090342022914e-07 
3.648119855829205e-06 
0 
3.474756263202812e-06 
1.544336116979027e-06 
1.869292236271355e-06 
-8.97682137291158e-08 
2.316504175468539e-06 
3.088672233958054e-06 
-2.782143511773265e-07 
2.829906432209081e-06 
3.088672233958054e-06 
1.196860490658746e-05 
4.453471923478843e-06 
-2.598720023190427e-06 
-8.976821372911583e-08 
1.930420146223785e-06 
5.134022567405391e-07 
-6.112790995242849e-08 
2.9778502051909e-23 
0 
0 
2.646977960169689e-23 
4.633008350937078e-06 
-3.070337914708128e-06 
-2.782143511773265e-07 
1.930420146223785e-06 
3.908929145652611e-06 
2.963158155156411e-07 
3.860840292447567e-07 
5.019092380181839e-06 
7.721680584895134e-07 
-3.308722450212111e-24 
-1.703446731098957e-07 
0 
-5.564287023546529e-07 
0 
0 
0 
0 
0 
-8.346430535319789e-07 
0 
0 
-2.782143511773265e-07 
-2.782143511773264e-07 
-4.135903062765138e-25 
-8.97682137291158e-08 
-5.564287023546529e-07 
0 
-8.97682137291158e-08 
-2.782143511773265e-07 
-2.782143511773265e-07 
-2.782143511773265e-07 
-5.564287023546529e-07 
-5.564287023546529e-07 
0 
-2.782143511773265e-07 
0 
-5.564287023546529e-07 
-5.537473478250711e-08 
-2.782143511773265e-07 
0 
0 
-3.060357862950589e-06 
-2.782143511773263e-07 
-2.782143511773265e-07 
8.107764614139892e-06 
-1.112857404709305e-05 
-2.782143511773265e-07 
3.860840292447567e-07 
1.240770918829542e-23 
6.617444900424221e-24 
0 
-1.947500458241284e-06 
-4.098445753932742e-06 
-2.782143511773265e-07 
3.308722450212111e-24 
1.078696780674305e-07 
6.350708060542503e-06 
0 
0 
-2.782143511773265e-07 
-2.782143511773265e-07 
4.939537073121868e-07 
0 
0 
1.15825208773427e-06 
-2.596950975237726e-05 
-2.782143511773265e-07 
0 
1.078696780674305e-07 
1.323488980084844e-23 
0 
-2.782143511773263e-07 
3.860840292447567e-07 
0 
-1.947500458241284e-06 
0 
-2.782143511773265e-07 
0 
0 
-2.782143511773265e-07 
-2.782143511773265e-07 
0 
3.860840292447567e-07 
0 
-2.782143511773265e-07 
0 
3.860840292447567e-07 
3.860840292447567e-07 
1.930420146223785e-06 
8.68787386427061e-06 
0 
0 
0 
-5.56428702354653e-07 
0 
0 
-3.308722450212111e-24 
-2.782143511773265e-07 
-2.782143511773265e-07 
-6.617444900424221e-24 
-2.782143511773265e-07 
-2.782143511773265e-07 
-6.398930077078505e-06 
-1.094012790964484e-05 
-5.564287023546529e-07 
0 
-2.782143511773265e-07 
1.15825208773427e-06 
5.365819565434625e-06 
0 
0 
-1.128092960243829e-06 
-2.782143511773265e-07 
6.617444900424221e-24 
1.323488980084844e-23 
3.860840292447567e-07 
0 
-1.703446731098957e-07 
5.293955920339377e-23 
-5.564287023546529e-07 
0 
0 
-1.323488980084844e-23 
-5.564287023546528e-07 
-1.323488980084844e-23 
0 
0 
0 
-6.617444900424221e-24 
0 
3.860840292447567e-07 
0 
6.617444900424221e-24 
0 
0.0003419225626563728 
-2.782143511773265e-07 
0 
-5.564287023546529e-07 
4.939537073121866e-07 
0 
4.354793999759752e-06 
0 
1.158252087734269e-06 
3.505098595875936e-06 
2.42437385353597e-06 
1.15825208773427e-06 
1.104557744003674e-05 
1.930420146223785e-06 
-3.539416482165851e-05 
2.103783738850174e-06 
0 
8.141125866329514e-06 
4.939537073121871e-07 
4.354793999759751e-06 
3.196541912025488e-06 
2.147506587448681e-06 
-8.346430535319787e-07 
1.119945576761445e-05 
1.270864030270764e-05 
-4.358795496304316e-06 
-1.112857404709306e-06 
1.078696780674305e-07 
0 
0 
1.612848951054486e-06 
6.203854594147708e-24 
-8.461818167931887e-07 
-6.189036973971187e-07 
0 
-3.308722450212111e-24 
0 
-7.267733754645481e-07 
-1.128092960243828e-06 
0 
-6.247499504246534e-08 
0 
-2.782143511773265e-07 
0 
-2.782143511773265e-07 
0 
-3.406893462197913e-07 
0 
0 
3.860840292447567e-07 
3.860840292447567e-07 
0 
0 
-8.34643053531979e-07 
0 
0 
0 
0 
8.006925318134584e-05 
2.702588204713296e-06 
1.240770918829542e-23 
6.617444900424221e-24 
0 
0 
-2.782143511773265e-07 
1.078696780674306e-07 
3.860840292447567e-07 
-5.564287023546529e-07 
3.860840292447567e-07 
0 
0 
0 
0 
-6.798379638326385e-05 
0 
-6.617444900424221e-24 
-6.617444900424221e-24 
0 
-1.523555553452312e-08 
0 
0 
0 
0 
0 
6.203854594147708e-24 
-1.112857404709306e-06 
3.860840292447567e-07 
0 
3.860840292447567e-07 
0 
-1.902515408871964e-23 
-2.782143511773264e-07 
-7.031035206700735e-24 
0 
0 
0 
0 
0 
0 
-2.782143511773262e-07 
-5.564287023546529e-07 
-2.782143511773265e-07 
-8.346430535319787e-07 
3.307092944622496e-07 
-5.564287023546529e-07 
0 
0 
0 
0 
0 
-3.308722450212111e-24 
0 
-6.617444900424221e-24 
0 
-1.075334796318936e-23 
-5.56428702354653e-07 
-3.049886699730595e-07 
0 
3.860840292447568e-07 
-1.391071755886631e-06 
3.308722450212111e-24 
6.617444900424221e-24 
-2.782143511773264e-07 
3.308722450212111e-24 
0 
0 
-8.346430535319787e-07 
3.860840292447567e-07 
0 
-2.782143511773263e-07 
-2.782143511773265e-07 
0 
0 
-5.564287023546527e-07 
0 
-1.225703144960841e-06 
0 
0 
-1.958523019881978e-06 
0 
6.617444900424221e-24 
0 
1.240770918829542e-23 
-2.782143511773265e-07 
-1.669286107063958e-06 
3.860840292447569e-07 
0 
6.453768489397224e-06 
7.721680584895134e-07 
7.096930634470486e-07 
5.502189019869577e-06 
8.068970166873505e-06 
-2.782143511773264e-07 
4.633008350937079e-06 
-2.782143511773265e-07 
1.544336116979027e-06 
-1.759359025064319e-06 
4.420287914318713e-06 
-5.564287023546529e-07 
-4.135903062765138e-25 
1.655224714562956e-06 
-7.267733754645481e-07 
-2.782143511773265e-07 
-2.782143511773264e-07 
-2.782143511773265e-07 
-1.391071755886631e-06 
8.800377365569439e-07 
-2.782143511773262e-07 
-4.135903062765138e-25 
-2.782143511773263e-07 
-8.346430535319789e-07 
0 
-2.782143511773263e-07 
-9.244112672610945e-07 
-6.614324716182917e-07 
-2.782143511773265e-07 
-5.564287023546529e-07 
-1.689975880198588e-07 
-4.485590242872222e-07 
-5.564287023546529e-07 
-5.564287023546529e-07 
0 
0 
6.617444900424221e-24 
-5.564287023546529e-07 
3.308722450212111e-24 
-8.498786090665018e-07 
1.544336116979027e-06 
0 
0 
0 
0 
-2.782143511773265e-07 
-1.075334796318936e-23 
-2.782143511773265e-07 
0 
-2.782143511773265e-07 
2.481541837659083e-24 
0 
-6.617444900424221e-24 
-2.782143511773265e-07 
-8.151945041036272e-07 
0 
-2.782143511773265e-07 
-2.782143511773265e-07 
0 
-3.308722450212111e-24 
4.939537073121866e-07 
-2.782143511773265e-07 
0 
0 
0 
-1.112857404709306e-06 
3.860840292447569e-07 
-8.346430535319787e-07 
3.308722450212111e-24 
-2.782143511773265e-07 
0 
-3.679825649064422e-07 
0 
-2.782143511773265e-07 
0 
3.860840292447567e-07 
0 
0 
0 
0 
-5.564287023546529e-07 
-2.782143511773265e-07 
-2.782143511773265e-07 
0 
3.860840292447567e-07 
-5.564287023546529e-07 
0 
3.308722450212111e-24 
-2.782143511773265e-07 
-5.564287023546529e-07 
-2.782143511773265e-07 
-2.782143511773265e-07 
0 
-3.308722450212111e-24 
1.078696780674305e-07 
0 
-5.537473478250714e-08 
-1.391071755886631e-06 
1.985233470127266e-23 
0 
-2.782143511773265e-07 
0 
1.544336116979026e-06 
7.68232374090316e-06 
2.481541837659083e-24 
-2.782143511773264e-07 
-2.782143511773265e-07 
7.083519275040042e-06 
1.078696780674305e-07 
-2.782143511773265e-07 
3.860840292447567e-07 
-3.832181204409653e-07 
0 
0 
0 
-2.0372686719704e-06 
-2.782143511773265e-07 
4.939537073121866e-07 
-1.97797156931033e-06 
-1.112857404709306e-06 
-5.564287023546529e-07 
1.078696780674305e-07 
3.860840292447567e-07 
0 
0 
1.078696780674305e-07 
-2.782143511773265e-07 
-2.782143511773265e-07 
1.930420146223785e-06 
1.078696780674305e-07 
-1.523555553452312e-08 
0 
2.646977960169689e-23 
6.617444900424221e-24 
-1.003640641551838e-06 
-6.617444900424221e-24 
0 
-2.782143511773265e-07 
7.721680584895133e-07 
0 
3.860840292447566e-07 
1.15825208773427e-06 
-1.263039527254469e-05 
-6.617444900424221e-24 
7.721680584895133e-07 
3.860840292447567e-07 
-9.926167350636332e-24 
3.860840292447567e-07 
3.860840292447566e-07 
0 
3.860840292447567e-07 
0 
-3.308722450212111e-24 
0 
0 
6.617444900424221e-24 
-2.782143511773265e-07 
-1.323488980084844e-23 
0 
3.860840292447567e-07 
-2.587658017489747e-07 
2.334605639806858e-06 
6.617444900424221e-24 
6.617444900424221e-24 
-2.782143511773265e-07 
3.860840292447567e-07 
-2.646977960169689e-23 
7.721680584895135e-07 
-3.970466940254533e-23 
2.316504175468539e-06 
0 
5.019092380181837e-06 
1.081035281885319e-05 
4.18579641173989e-06 
7.721680584895134e-07 
0 
-1.323488980084844e-23 
-3.308722450212111e-24 
0 
3.860840292447568e-07 
1.078696780674305e-07 
2.316504175468539e-06 
1.266121765801702e-06 
4.633008350937077e-06 
2.316504175468539e-06 
2.612819990984181e-06 
0 
0 
1.544336116979027e-06 
3.860840292447568e-06 
4.246924321692324e-06 
1.621552922827978e-05 
-3.308722450212111e-24 
1.27318227495782e-07 
-3.308722450212111e-24 
-3.308722450212111e-24 
-6.617444900424221e-24 
0 
-3.308722450212111e-24 
0 
-1.323488980084844e-23 
3.860840292447567e-07 
-3.308722450212111e-24 
-3.308722450212111e-24 
3.860840292447567e-07 
-3.308722450212111e-24 
-6.617444900424221e-24 
0 
0 
7.721680584895133e-07 
0 
1.323488980084844e-23 
7.721680584895135e-07 
0 
7.721680584895134e-07 
-2.782143511773265e-07 
0 
0 
3.860840292447567e-07 
0 
3.860840292447567e-07 
1.15825208773427e-06 
3.860840292447566e-07 
0 
3.860840292447567e-07 
1.544336116979026e-06 
0 
3.860840292447567e-07 
3.860840292447567e-07 
-3.308722450212111e-24 
3.860840292447567e-07 
3.860840292447567e-07 
0 
-9.926167350636332e-24 
3.860840292447567e-07 
1.078696780674305e-07 
1.15825208773427e-06 
0 
3.860840292447568e-07 
0 
7.721680584895134e-07 
0 
-1.654361225106055e-23 
0 
3.860840292447567e-07 
3.860840292447567e-07 
0 
0 
-1.985233470127266e-23 
-2.782143511773265e-07 
3.860840292447567e-07 
0 
-6.617444900424221e-24 
3.860840292447567e-07 
-2.782143511773265e-07 
0 
-2.782143511773265e-07 
1.544336116979027e-06 
-2.782143511773265e-07 
0 
1.078696780674305e-07 
2.96315815515641e-07 
3.860840292447567e-07 
7.721680584895134e-07 
0 
0 
2.963158155156413e-07 
0 
0 
3.860840292447569e-07 
0 
3.860840292447567e-07 
0 
0 
1.15825208773427e-06 
0 
0 
0 
1.15825208773427e-06 
0 
0 
6.617444900424221e-24 
-3.308722450212111e-24 
1.15825208773427e-06 
-2.782143511773265e-07 
0 
-1.323488980084844e-23 
0 
0 
0 
7.721680584895138e-07 
3.860840292447567e-07 
3.860840292447567e-07 
0 
3.860840292447567e-07 
3.860840292447567e-07 
3.860840292447567e-07 
1.078696780674305e-07 
2.646977960169689e-23 
0 
6.617444900424221e-24 
6.617444900424221e-24 
2.400099554365817e-06 
-3.308722450212111e-24 
3.860840292447568e-07 
-1.703446731098957e-07 
-1.689975880198588e-07 
0 
0 
3.860840292447567e-07 
3.860840292447567e-07 
0 
3.860840292447567e-07 
7.721680584895132e-07 
3.860840292447567e-07 
1.985233470127266e-23 
-1.689975880198588e-07 
3.860840292447567e-07 
-3.308722450212111e-24 
-8.97682137291158e-08 
0 
3.860840292447567e-07 
5.293955920339377e-23 
0 
3.860840292447567e-07 
-3.308722450212111e-24 
3.860840292447568e-07 
1.266121765801701e-06 
0 
-3.308722450212111e-24 
-2.782143511773265e-07 
0 
1.985233470127266e-23 
-2.782143511773264e-07 
7.721680584895133e-07 
3.860840292447566e-07 
3.860840292447567e-07 
7.721680584895133e-07 
0 
0 
0 
0 
0 
0 
0 
0 
-2.782143511773265e-07 
0 
7.721680584895133e-07 
-3.308722450212111e-24 
-2.782143511773265e-07 
3.308722450212111e-23 
1.15825208773427e-06 
3.929353126523024e-06 
0 
7.721680584895134e-07 
7.721680584895134e-07 
-1.689975880198589e-07 
-3.679825649064422e-07 
3.860840292447567e-07 
7.721680584895133e-07 
-3.308722450212111e-24 
7.721680584895133e-07 
2.963158155156411e-07 
3.860840292447567e-07 
-3.308722450212111e-24 
1.15825208773427e-06 
6.617444900424221e-24 
7.721680584895133e-07 
-3.308722450212111e-24 
6.018233853796176e-07 
0 
-2.782143511773265e-07 
-1.703446731098957e-07 
7.721680584895134e-07 
0 
3.860840292447567e-07 
0 
3.308722450212111e-24 
3.860840292447567e-07 
0 
3.860840292447567e-07 
3.860840292447567e-07 
-3.308722450212111e-24 
6.617444900424221e-24 
6.617444900424221e-24 
0 
0 
-4.135903062765138e-25 
0 
7.721680584895133e-07 
1.15825208773427e-06 
0 
0 
3.860840292447567e-07 
3.860840292447567e-07 
6.617444900424221e-24 
3.860840292447567e-07 
-5.564287023546529e-07 
6.617444900424221e-24 
0 
1.323488980084844e-23 
-6.617444900424221e-24 
7.721680584895134e-07 
0 
-6.617444900424221e-24 
1.078696780674305e-07 
7.721680584895133e-07 
-2.782143511773265e-07 
-3.308722450212111e-24 
0 
0 
1.15825208773427e-06 
-2.782143511773265e-07 
3.860840292447567e-07 
0 
1.078696780674305e-07 
1.544336116979027e-06 
-3.308722450212111e-24 
1.078696780674305e-07 
-1.654361225106055e-23 
0 
-2.587658017489748e-07 
0 
-6.617444900424221e-24 
0 
-3.308722450212111e-24 
0 
0 
-3.308722450212111e-24 
-6.617444900424221e-24 
-6.617444900424221e-24 
-2.782143511773264e-07 
3.860840292447568e-07 
-2.782143511773265e-07 
3.860840292447567e-07 
5.821602771344477e-06 
0 
-1.689975880198588e-07 
0 
0 
0 
3.860840292447567e-07 
0 
1.373991443869131e-06 
2.702588204713296e-06 
5.828967390463939e-05 
-4.135903062765138e-25 
-1.323488980084844e-23 
-8.976821372911578e-08 
0 
-3.308722450212111e-24 
-3.308722450212111e-24 
3.860840292447567e-07 
0 
5.082868881840009e-05 
1.544336116979027e-06 
0 
0 
0 
3.860840292447568e-07 
1.209595984970357e-05 
0 
3.860840292447567e-07 
0 
4.077926733672463e-06 
0 
0 
1.930420146223785e-06 
5.610058697937008e-06 
0 
7.721680584895137e-06 
1.413406646881211e-05 
9.422299982483057e-06 
4.740878029004516e-06 
2.31650417546854e-06 
2.077402915333906e-05 
-1.703446731098957e-07 
1.158252087734269e-06 
-1.283202077819201e-06 
4.939537073121868e-07 
-8.346430535319789e-07 
-8.90017788314485e-07 
-4.120915000485696e-05 
9.377504306258749e-05 
0 
0 
0 
9.508599711468853e-05 
7.721680584895135e-07 
6.617444900424221e-24 
0 
-2.065896994883212e-05 
2.157393561348609e-07 
3.86084029244757e-07 
-2.782143511773265e-07 
-1.523555553452312e-08 
-1.406307311421155e-06 
-9.451471231719563e-06 
1.238503126850534e-05 
2.14750658744868e-06 
3.308722450212111e-24 
-1.420679651884939e-05 
4.740878029004513e-06 
-1.283202077819201e-06 
6.441497426592432e-06 
2.577638214628371e-06 
1.399603766325423e-05 
-4.173215267659898e-06 
-9.018017150427783e-06 
-1.058738090027292e-05 
-2.396059482528505e-06 
-3.895000916482568e-06 
-2.033548969302576e-05 
1.544336116979027e-06 
4.412748685100275e-05 
-2.782143511773264e-07 
-5.564287023546529e-07 
3.455975133300613e-05 
1.544336116979027e-06 
8.879932672629409e-06 
-6.626255735568997e-05 
1.982429224011701e-05 
1.15825208773427e-06 
1.544336116979027e-06 
-6.532998767027021e-05 
1.063017223043966e-05 
3.236090342022914e-07 
-8.271806125530277e-25 
-1.112857404709304e-06 
-4.819412183743666e-06 
3.860840292447567e-07 
1.930420146223784e-06 
1.095777092691806e-06 
2.480039489030506e-05 
5.130703618181223e-07 
-1.280939891741822e-05 
-1.004987726641875e-06 
8.879932672629406e-06 
2.702588204713297e-06 
8.834271262886087e-07 
7.829550262962568e-06 
-1.406307311421154e-06 
-6.454304811861013e-06 
-3.035667997122167e-06 
9.373886379941594e-06 
-3.071896626211799e-06 
8.858093520960409e-06 
1.930420146223785e-06 
4.105226204306032e-05 
-4.031643412622573e-07 
1.772050850126686e-05 
-4.488856194626603e-05 
-1.112857404709306e-06 
3.860840292447566e-07 
-3.42361382430317e-05 
3.236090342022914e-07 
-8.843038654086503e-06 
-5.015159481006374e-06 
-2.349024482369356e-05 
3.654157694862195e-06 
2.685855629353956e-05 
1.078696780674305e-07 
-1.951754723932781e-05 
-8.346430535319787e-07 
4.246924321692323e-06 
1.206561751703045e-05 
3.582625941270242e-06 
4.322455861598596e-05 
1.291413655770337e-05 
2.419341068175938e-05 
5.812956235328992e-05 
6.681621760711902e-05 
-1.254642012177542e-05 
-2.225714809418611e-06 
7.721680584895133e-07 
-1.985233470127266e-23 
7.075548676598277e-06 
-3.401047209170382e-06 
0.0002018087175204139 
-8.138826474459487e-06 
-8.271806125530277e-25 
2.42437385353597e-06 
-1.011874942196768e-05 
1.078696780674305e-07 
-1.168472367960947e-07 
-2.782143511773264e-07 
1.960956265079744e-06 
-5.564287023546529e-07 
-2.488102318879671e-05 
7.150016327005965e-06 
-4.977699193701429e-06 
0 
-1.153876326121002e-08 
-5.564287023546529e-07 
7.230745797099446e-06 
1.257555501734816e-05 
-3.338572214127915e-06 
-2.604163893290487e-05 
3.860840292447568e-07 
3.213999215408502e-06 
-2.698306279250914e-05 
-1.669286107063957e-06 
-1.094755940370991e-06 
4.939537073121868e-07 
1.672244025197634e-05 
-5.680829556071372e-06 
-3.338572214127915e-06 
-3.58679874489152e-05 
-1.692298656861187e-05 
-4.116583043263957e-05 
-2.242067655202342e-05 
-7.94377990584201e-05 
-5.83203021150386e-07 
-8.346430535319787e-07 
1.672384870779356e-06 
7.721680584895135e-06 
-1.815369370314613e-05 
3.970466940254533e-23 
-0.0001891758584210407 
1.909148102561947e-05 
-2.782143511773263e-07 
-5.564287023546529e-07 
-4.262983481389011e-06 
8.972566795162308e-06 
-1.947500458241284e-06 
3.735890302362638e-06 
4.298268218928411e-05 
-1.006141602967996e-05 
1.331615680360662e-06 
0 
8.262245021390638e-06 
-1.004987726641875e-06 
1.663195559019766e-05 
1.15825208773427e-06 
1.544336116979026e-06 
-2.357778942457295e-06 
-4.729643970014548e-06 
-2.782143511773264e-07 
1.323488980084844e-23 
-8.461818167931888e-07 
-3.838937959320252e-06 
-2.782143511773265e-07 
7.721680584895133e-07 
-2.782143511773265e-07 
1.15825208773427e-06 
1.685248910103064e-07 
0 
8.739930332192625e-06 
-1.263379867403451e-05 
3.860840292447567e-07 
8.259488715466165e-05 
-3.720826807352924e-05 
4.158320988856396e-05 
2.63579709958003e-05 
3.490223100892209e-05 
-2.0372686719704e-06 
-8.015721240857548e-06 
5.620915765561454e-06 
2.568525185545347e-05 
-1.996639708519249e-05 
-1.24518015947699e-05 
0 
1.255264698177253e-06 
4.513746988906699e-05 
-1.796458542419235e-05 
1.481861121936563e-06 
-3.060357862950588e-06 
-1.490204232417112e-05 
3.980083157523873e-06 
1.920225032429224e-05 
9.205147161740125e-05 
-1.321645998871257e-05 
1.747565540227914e-05 
-2.869079023717626e-05 
6.197820690815631e-06 
2.316504175468539e-06 
1.358634389246047e-06 
6.617444900424221e-24 
2.702588204713296e-06 
2.316504175468539e-06 
2.852722843411821e-05 
1.021154835299007e-05 
0 
-6.617444900424221e-24 
0 
-7.267733754645482e-07 
-1.945713412984436e-06 
3.891182625120695e-06 
-1.743352291654862e-05 
3.088672233958053e-06 
-2.117845131351179e-06 
-9.231474213993063e-05 
0 
-5.415034661978736e-05 
-3.445973621761548e-05 
-4.240462159255168e-05 
3.088672233958054e-06 
2.650207670911994e-05 
-4.806333368270723e-06 
-7.62613749809603e-07 
-7.790001832965137e-06 
-1.268189500210809e-05 
1.15825208773427e-06 
2.723260689194899e-05 
2.821508233180069e-05 
-6.212095970266023e-06 
4.816431839519913e-06 
-5.564287023546529e-07 
3.582625941270242e-06 
-1.004249096117948e-05 
-1.75624490449948e-05 
-8.4858177963547e-05 
7.939231423446092e-06 
-3.843197275174358e-06 
1.925035466461961e-05 
2.806400478477591e-05 
2.914907148089195e-07 
2.257445242829577e-05 
5.09450628376702e-05 
-2.225714809418611e-06 
6.254263606536474e-05 
-3.040062005052669e-05 
6.698325264936446e-06 
0 
1.930420146223784e-06 
0 
1.78568779557018e-05 
-2.796628467546075e-05 
-7.248808686145004e-06 
-5.564287023546529e-07 
1.006068894492885e-05 
-3.679825649064426e-07 
-8.346430535319795e-06 
1.274077296507698e-05 
1.013519737080666e-05 
-2.782143511773265e-07 
-1.669286107063957e-06 
-3.060357862950589e-06 
-2.973302340237791e-05 
-9.238923673701763e-07 
-6.289155838737368e-06 
7.721680584895134e-07 
-1.561416428996528e-06 
-1.39107175588663e-06 
8.612870991239281e-06 
-5.757412857802537e-05 
-5.823052825295499e-06 
-8.826284274838209e-06 
4.819579979035194e-05 
4.175775740111279e-06 
4.462663677827186e-06 
-2.021514216544961e-06 
-3.060357862950589e-06 
-2.070388831802647e-05 
-9.68628931610269e-06 
-5.375463894732796e-06 
-5.883203721830676e-05 
-1.149788246859156e-05 
-1.716426746480799e-05 
-4.797305372831599e-05 
1.989169563649159e-05 
-6.143697801977542e-05 
-2.782143511773265e-07 
-2.579960150530805e-05 
2.367128423671191e-06 
7.737777511425993e-05 
-2.782143511773265e-07 
1.184951863556967e-06 
1.652205795046458e-06 
0 
5.744299742027209e-05 
-1.24742909412478e-05 
1.733635926263926e-07 
3.860840292447567e-07 
-3.616786565305241e-06 
-7.926067462548377e-06 
-2.782143511773265e-07 
1.059763238223482e-05 
1.078696780674305e-07 
-1.050154893711515e-05 
-6.359840094146181e-07 
5.505824493271179e-07 
1.429053295460369e-05 
0 
-8.346430535319786e-07 
-1.325407088058084e-05 
0 
1.042426878960843e-05 
-8.346430535319786e-07 
-4.00024989631056e-05 
-5.286072672369198e-06 
1.864161467496778e-05 
8.368898653299719e-06 
1.158252087734269e-06 
-5.56428702354653e-07 
6.94951252640562e-06 
-3.230702536060483e-06 
6.488920071283055e-06 
4.585844145891202e-05 
3.576221013847311e-05 
0 
-2.289705440498144e-05 
5.915766823098228e-05 
-2.782143511773265e-07 
-1.391071755886631e-06 
-2.782143511773264e-07 
-5.284867180810899e-05 
9.879074146243737e-07 
-2.826764436833975e-05 
6.39480790050652e-06 
-2.782143511773265e-07 
5.192455972808231e-06 
-4.082509635341266e-05 
3.860840292447567e-07 
-5.564287023546529e-07 
0 
1.985233470127266e-23 
-1.168232139491812e-06 
6.736792089787257e-06 
-1.166163183214179e-05 
-1.39107175588663e-06 
-2.782143511773265e-07 
-1.633871475796535e-06 
-4.899988643124438e-06 
-7.031127100397911e-06 
-5.564287023546529e-07 
1.078696780674305e-07 
-4.729643970014548e-06 
0 
1.078696780674305e-07 
7.002981390952016e-06 
1.930420146223785e-06 
3.860840292447567e-07 
0 
-2.604427933260124e-05 
2.3578888713061e-05 
3.308722450212111e-24 
-2.782143511773265e-07 
-2.782143511773265e-07 
-1.17447835743101e-05 
2.702588204713296e-06 
-1.077845609099235e-05 
-5.307994454286588e-05 
-2.328615866623986e-05 
2.442030645286266e-05 
-2.133080686885702e-06 
-6.484282493790983e-05 
3.860840292447568e-07 
2.424373853535971e-06 
3.722312756488625e-24 
-1.609630707173074e-05 
-3.787131238415139e-06 
9.455316511159057e-07 
-1.484666758938862e-05 
3.860840292447568e-07 
-3.756972110924697e-06 
-5.564287023546527e-07 
-1.112857404709306e-06 
6.177344467916108e-06 
0 
3.196541912025484e-06 
2.856120365279316e-05 
-4.451429618837222e-06 
3.474756263202812e-06 
-2.782143511773265e-07 
3.307092944622496e-07 
-2.96772374041768e-06 
8.68787386427061e-06 
3.281467127953251e-05 
1.267829797003451e-05 
-8.346430535319787e-07 
0 
2.42437385353597e-06 
1.130732544568188e-05 
-1.225245401344305e-05 
-2.782143511773265e-07 
-2.782143511773265e-07 
6.617444900424221e-24 
1.930420146223785e-06 
3.224992322970921e-05 
1.930420146223785e-06 
-6.617444900424221e-24 
0 
6.617444900424221e-24 
-7.511787481787813e-06 
3.860840292447566e-07 
7.443466233717812e-06 
6.006999794806211e-06 
-2.154087838047134e-05 
0 
7.721680584895133e-07 
5.865878298450946e-07 
1.990812509637737e-05 
7.721680584895134e-07 
2.812165913982477e-05 
3.860840292447566e-07 
-1.866405098969586e-06 
-2.478720185042007e-07 
1.623803341284497e-05 
1.702223490216985e-05 
-1.400023404367704e-07 
5.996142727181768e-06 
8.368898653299724e-06 
8.604737240968578e-06 
1.073738444518712e-05 
-2.83930993756218e-05 
2.489867768094932e-06 
-3.59733801587689e-06 
-8.346430535319789e-07 
2.301418234662419e-05 
-1.807941362410692e-06 
-1.844455880880575e-06 
-3.647173735900409e-06 
3.025243309055129e-05 
0 
5.502189019869579e-06 
-1.004987726641875e-06 
-2.695872443079857e-05 
-1.391071755886631e-06 
-2.286842719371038e-06 
3.308722450212111e-24 
1.169039055541014e-05 
-6.617444900424221e-24 
-7.000918862792387e-05 
2.40359456810123e-05 
1.506029606006201e-05 
0 
8.661643300618654e-05 
1.119643684809795e-05 
1.311516448826666e-06 
-9.351418261961672e-06 
-1.947500458241284e-06 
-2.782143511773265e-07 
1.15825208773427e-06 
0 
1.991104811570036e-06 
-3.235368058775184e-05 
-1.112857404709306e-06 
-2.717863702210172e-05 
4.241539641930499e-05 
1.913339834206284e-06 
-5.564287023546528e-07 
-1.024143605027614e-05 
-5.140638432954949e-05 
-1.269539116482139e-06 
-1.453276644465835e-05 
-8.059575871670767e-06 
-6.986639545473746e-06 
-1.697107542181689e-05 
1.266121765801701e-06 
-5.007858321191875e-06 
1.078696780674305e-07 
4.467686945910078e-07 
-1.257352307161077e-05 
-5.564287023546529e-07 
-9.719400826868105e-06 
-4.732148242106268e-05 
-3.176280697882564e-05 
2.445064878553579e-05 
-4.792118965057011e-06 
1.078696780674305e-07 
-2.782143511773266e-07 
2.03701269242288e-05 
-5.56428702354653e-07 
-6.617444900424221e-24 
-4.451429618837222e-06 
1.71769970960542e-06 
1.545520360696114e-05 
-1.782850261108783e-05 
-1.419534394792379e-05 
1.375338528959169e-06 
-0.0001266846987638324 
-1.341120377257026e-05 
-1.947500458241284e-06 
-4.48559024287222e-07 
1.078696780674305e-07 
7.877944088838941e-05 
-1.68452166259848e-06 
-2.782143511773265e-07 
-5.564287023546529e-07 
2.377549333748926e-05 
-8.346430535319787e-07 
-5.564287023546528e-07 
-3.2596424548388e-05 
-3.616786565305239e-06 
1.828416138524412e-05 
1.078696780674305e-07 
2.048822885104141e-07 
-5.537473478250714e-08 
0 
2.659598474719512e-06 
-2.225714809418611e-06 
-2.240950364953134e-06 
-2.782143511773265e-07 
0 
-1.112857404709306e-06 
0 
-1.112857404709306e-06 
-6.136741322194322e-07 
-1.571396480754071e-06 
1.078696780674305e-07 
9.879074146243731e-07 
4.632211430296955e-23 
0 
-1.325370506002169e-05 
3.365761431408959e-05 
-3.598685100966929e-06 
1.760075473113888e-06 
0 
-3.759128850986275e-06 
4.098992323147234e-07 
2.533590616693438e-06 
3.860840292447567e-07 
4.674176811500192e-08 
-1.345272992469819e-05 
0 
9.958629453303713e-06 
2.908347509090617e-06 
7.443466233717812e-06 
-2.782143511773265e-07 
2.918327560848159e-06 
7.721680584895137e-06 
-2.782143511773265e-07 
-6.959877809731289e-05 
1.494458823388663e-05 
1.871865901703036e-05 
2.210380227739411e-05 
-2.824665853146691e-05 
1.294447889037649e-05 
-2.782143511773264e-07 
5.944524799763744e-06 
0 
-1.700037236985244e-05 
-8.346430535319787e-07 
4.246924321692323e-06 
5.405176409426594e-06 
4.63300835093708e-06 
-1.034930572834357e-05 
7.721680584895134e-07 
2.027432756666767e-06 
2.316504175468539e-06 
-5.564287023546529e-07 
1.042426878960843e-05 
1.681735261365941e-05 
1.852709595646795e-06 
0 
-1.213356177373492e-05 
5.803995932982958e-05 
-8.34643053531979e-07 
3.860840292447567e-07 
2.702588204713297e-06 
-1.703446731098957e-07 
-1.983364737462386e-05 
8.879932672629411e-06 
-7.369650536357215e-07 
-2.782143511773263e-07 
1.078696780674305e-07 
3.488577464276865e-05 
-2.225714809418612e-06 
-2.782143511773264e-07 
-5.564287023546527e-07 
-8.346430535319786e-07 
3.414875816616498e-05 
0.0001241687733520562 
-3.767620211363039e-07 
-3.921775235278303e-06 
0 
-4.485590242872221e-07 
-3.785407981020727e-06 
1.986364908410898e-05 
5.405176409426591e-06 
5.326163313740269e-06 
2.552574427826581e-05 
-2.786499635776235e-05 
2.966145609750164e-08 
-8.420898185727461e-06 
5.405176409426592e-06 
-3.226815474935882e-06 
0 
3.690037172272565e-07 
3.860840292447568e-06 
3.266494158693427e-06 
2.875824192108035e-05 
-6.398930077078503e-06 
1.078696780674305e-07 
-2.782143511773267e-07 
-3.458811538926076e-06 
-2.240950364953133e-06 
2.226735961739422e-06 
-6.759293481834068e-06 
1.900621859355088e-05 
3.860840292447567e-07 
2.13316342189046e-05 
-2.782143511773264e-07 
-5.787773668294369e-05 
-6.617444900424221e-24 
2.697118943051282e-06 
2.730902575720762e-06 
3.532767188215884e-05 
-1.26348950208982e-05 
-2.325191644700908e-06 
-2.782143511773265e-07 
5.192455972808228e-06 
1.304266786403038e-05 
-3.220747139047629e-05 
5.405176409426592e-06 
1.930420146223784e-06 
1.544336116979027e-06 
0 
-2.691953932077333e-05 
-0.0001308872396398105 
-1.330706914224481e-06 
1.593731487710246e-05 
1.918881382962575e-06 
4.740878029004513e-06 
1.570776234143621e-05 
-1.755480677357941e-05 
1.389284587901253e-07 
-1.304800687193227e-05 
-5.771296232845348e-05 
-1.669286107063957e-06 
1.811683563165072e-05 
1.078696780674305e-07 
6.944575079125256e-07 
-2.782143511773261e-06 
1.380288055578727e-07 
3.860840292447566e-07 
4.786578210639654e-05 
7.540478844160791e-06 
-2.240950364953135e-06 
-7.528867793805312e-06 
-1.91180445791471e-05 
-4.624474947317086e-07 
8.233091595590346e-06 
9.455316511159059e-07 
0.0001198385407991778 
1.15825208773427e-06 
-5.286072672369196e-06 
-2.782143511773265e-07 
-2.181963689421795e-05 
-2.782143511773265e-07 
-1.40576913146703e-05 
-2.646977960169689e-23 
3.339791792902973e-05 
0 
-1.219812826286576e-05 
-1.283202077819201e-06 
-1.384247805115932e-05 
-5.564287023546529e-07 
-1.203569808602433e-05 
-2.782143511773265e-07 
1.662404819021815e-06 
0.0001040642304424201 
-1.025772806488444e-05 
-4.228590002442404e-06 
-6.461969160837687e-07 
2.191554185383612e-06 
0 
-1.112991378637891e-05 
4.539468302496496e-08 
-4.184754030921105e-06 
-2.532013224564069e-05 
5.365899409633528e-06 
-8.921745283760669e-07 
-7.220494315137542e-06 
-4.723081268937439e-06 
-2.797379067307785e-06 
-5.564287023546529e-07 
-1.498955316647854e-06 
-5.564287023546529e-07 
-4.402452290003073e-05 
7.721680584895132e-07 
-1.480839969615747e-06 
-1.703446731098957e-07 
-1.391071755886631e-06 
-2.288189804461078e-06 
-6.066068061452851e-05 
-1.012072041164738e-05 
0 
-1.112857404709305e-06 
-2.782143511773264e-07 
-8.346430535319787e-07 
-2.487761978730688e-05 
9.238079322232216e-06 
-0.0001550407020632689 
-1.572955192257738e-06 
2.038289824291212e-06 
4.31478712269722e-07 
-2.545939034926193e-06 
3.86084029244757e-07 
-3.41474999180053e-06 
1.078696780674305e-07 
2.31650417546854e-06 
-2.199180187107209e-06 
7.721680584895135e-07 
3.860840292447567e-07 
-1.004987726641876e-06 
9.65210073111892e-06 
-8.976821372911583e-08 
-6.617444900424221e-24 
7.721680584895134e-07 
-1.112857404709306e-06 
-0.0001260886737679835 
-3.535691206033545e-06 
-6.118034371371599e-07 
-1.523555553452311e-08 
-1.947500458241284e-06 
0 
-4.173215267659898e-06 
-3.687396855622271e-06 
0 
0 
-8.636183649758321e-06 
-1.015533670143102e-05 
-1.391071755886631e-06 
-2.782143511773265e-07 
0 
0 
-5.564287023546528e-07 
-8.97682137291158e-08 
-8.395883217413231e-23 
-2.782143511773264e-07 
0 
-2.782143511773265e-07 
0 
0 
0 
-8.346430535319789e-07 
0 
-2.646977960169689e-23 
-2.782143511773265e-07 
0 
3.308722450212111e-24 
-1.620775195640853e-05 
-1.140678839827038e-05 
-8.346430535319787e-07 
-2.240950364953133e-06 
-8.46181816793189e-07 
0 
-2.782143511773265e-07 
-1.085035969591572e-05 
-5.564287023546529e-07 
-8.346430535319787e-07 
-8.138826474459497e-06 
-1.003640641551838e-06 
0 
1.985233470127266e-23 
-2.117700380475996e-05 
0 
-2.782143511773264e-07 
-1.364848010712496e-23 
-8.346430535319785e-07 
-1.323488980084844e-23 
-1.446446490669139e-06 
